digraph Tree {
node [shape=box, style="filled", color="black", fontname="helvetica"] ;
edge [fontname="helvetica"] ;
0 [label="HMLD <= 18.695\ngini = 0.692\nsamples = 1535\nvalue = [588, 59, 55, 303, 530]\nclass = 30-40", fillcolor="#fdf8f4"] ;
1 [label="HHD <= 35.115\ngini = 0.726\nsamples = 504\nvalue = [173, 37, 19, 131, 144]\nclass = 30-40", fillcolor="#fdf5ef"] ;
0 -> 1 [labeldistance=2.5, labelangle=45, headlabel="True"] ;
2 [label="HMLD <= 16.14\ngini = 0.657\nsamples = 45\nvalue = [6, 3, 0, 19, 17]\nclass = 20-30", fillcolor="#f1f1fd"] ;
1 -> 2 ;
3 [label="HMLD <= 15.265\ngini = 0.604\nsamples = 34\nvalue = [3, 2, 0, 18, 11]\nclass = 20-30", fillcolor="#c4c3f7"] ;
2 -> 3 ;
4 [label="HMLD <= 14.93\ngini = 0.575\nsamples = 23\nvalue = [0, 2, 0, 10, 11]\nclass = 40-50", fillcolor="#fdf0fa"] ;
3 -> 4 ;
5 [label="HML <= 268.25\ngini = 0.537\nsamples = 18\nvalue = [0, 1, 0, 10, 7]\nclass = 20-30", fillcolor="#cac9f8"] ;
4 -> 5 ;
6 [label="HML <= 251.75\ngini = 0.48\nsamples = 10\nvalue = [0, 0, 0, 4, 6]\nclass = 40-50", fillcolor="#f6bdea"] ;
5 -> 6 ;
7 [label="gini = 0.0\nsamples = 3\nvalue = [0, 0, 0, 3, 0]\nclass = 20-30", fillcolor="#3c39e5"] ;
6 -> 7 ;
8 [label="HMLD <= 14.285\ngini = 0.245\nsamples = 7\nvalue = [0, 0, 0, 1, 6]\nclass = 40-50", fillcolor="#e95acb"] ;
6 -> 8 ;
9 [label="gini = 0.0\nsamples = 6\nvalue = [0, 0, 0, 0, 6]\nclass = 40-50", fillcolor="#e539c0"] ;
8 -> 9 ;
10 [label="gini = 0.0\nsamples = 1\nvalue = [0, 0, 0, 1, 0]\nclass = 20-30", fillcolor="#3c39e5"] ;
8 -> 10 ;
11 [label="HMLD <= 14.71\ngini = 0.406\nsamples = 8\nvalue = [0, 1, 0, 6, 1]\nclass = 20-30", fillcolor="#7472ec"] ;
5 -> 11 ;
12 [label="HML <= 281.25\ngini = 0.278\nsamples = 6\nvalue = [0, 1, 0, 5, 0]\nclass = 20-30", fillcolor="#6361ea"] ;
11 -> 12 ;
13 [label="HMLD <= 14.38\ngini = 0.444\nsamples = 3\nvalue = [0, 1, 0, 2, 0]\nclass = 20-30", fillcolor="#9e9cf2"] ;
12 -> 13 ;
14 [label="gini = 0.0\nsamples = 1\nvalue = [0, 0, 0, 1, 0]\nclass = 20-30", fillcolor="#3c39e5"] ;
13 -> 14 ;
15 [label="HHD <= 34.1\ngini = 0.5\nsamples = 2\nvalue = [0, 1, 0, 1, 0]\nclass = <20", fillcolor="#ffffff"] ;
13 -> 15 ;
16 [label="gini = 0.0\nsamples = 1\nvalue = [0, 1, 0, 0, 0]\nclass = <20", fillcolor="#7be539"] ;
15 -> 16 ;
17 [label="gini = 0.0\nsamples = 1\nvalue = [0, 0, 0, 1, 0]\nclass = 20-30", fillcolor="#3c39e5"] ;
15 -> 17 ;
18 [label="gini = 0.0\nsamples = 3\nvalue = [0, 0, 0, 3, 0]\nclass = 20-30", fillcolor="#3c39e5"] ;
12 -> 18 ;
19 [label="HHD <= 32.98\ngini = 0.5\nsamples = 2\nvalue = [0, 0, 0, 1, 1]\nclass = 20-30", fillcolor="#ffffff"] ;
11 -> 19 ;
20 [label="gini = 0.0\nsamples = 1\nvalue = [0, 0, 0, 1, 0]\nclass = 20-30", fillcolor="#3c39e5"] ;
19 -> 20 ;
21 [label="gini = 0.0\nsamples = 1\nvalue = [0, 0, 0, 0, 1]\nclass = 40-50", fillcolor="#e539c0"] ;
19 -> 21 ;
22 [label="HEB <= 47.75\ngini = 0.32\nsamples = 5\nvalue = [0, 1, 0, 0, 4]\nclass = 40-50", fillcolor="#ec6ad0"] ;
4 -> 22 ;
23 [label="gini = 0.0\nsamples = 4\nvalue = [0, 0, 0, 0, 4]\nclass = 40-50", fillcolor="#e539c0"] ;
22 -> 23 ;
24 [label="gini = 0.0\nsamples = 1\nvalue = [0, 1, 0, 0, 0]\nclass = <20", fillcolor="#7be539"] ;
22 -> 24 ;
25 [label="HML <= 268.0\ngini = 0.397\nsamples = 11\nvalue = [3, 0, 0, 8, 0]\nclass = 20-30", fillcolor="#8583ef"] ;
3 -> 25 ;
26 [label="gini = 0.0\nsamples = 6\nvalue = [0, 0, 0, 6, 0]\nclass = 20-30", fillcolor="#3c39e5"] ;
25 -> 26 ;
27 [label="HMLD <= 16.045\ngini = 0.48\nsamples = 5\nvalue = [3, 0, 0, 2, 0]\nclass = 30-40", fillcolor="#f6d5bd"] ;
25 -> 27 ;
28 [label="HMLD <= 15.575\ngini = 0.375\nsamples = 4\nvalue = [3, 0, 0, 1, 0]\nclass = 30-40", fillcolor="#eeab7b"] ;
27 -> 28 ;
29 [label="HMLD <= 15.47\ngini = 0.5\nsamples = 2\nvalue = [1, 0, 0, 1, 0]\nclass = 30-40", fillcolor="#ffffff"] ;
28 -> 29 ;
30 [label="gini = 0.0\nsamples = 1\nvalue = [1, 0, 0, 0, 0]\nclass = 30-40", fillcolor="#e58139"] ;
29 -> 30 ;
31 [label="gini = 0.0\nsamples = 1\nvalue = [0, 0, 0, 1, 0]\nclass = 20-30", fillcolor="#3c39e5"] ;
29 -> 31 ;
32 [label="gini = 0.0\nsamples = 2\nvalue = [2, 0, 0, 0, 0]\nclass = 30-40", fillcolor="#e58139"] ;
28 -> 32 ;
33 [label="gini = 0.0\nsamples = 1\nvalue = [0, 0, 0, 1, 0]\nclass = 20-30", fillcolor="#3c39e5"] ;
27 -> 33 ;
34 [label="HML <= 257.75\ngini = 0.612\nsamples = 11\nvalue = [3, 1, 0, 1, 6]\nclass = 40-50", fillcolor="#f5b5e7"] ;
2 -> 34 ;
35 [label="gini = 0.0\nsamples = 3\nvalue = [3, 0, 0, 0, 0]\nclass = 30-40", fillcolor="#e58139"] ;
34 -> 35 ;
36 [label="HMLD <= 18.525\ngini = 0.406\nsamples = 8\nvalue = [0, 1, 0, 1, 6]\nclass = 40-50", fillcolor="#ec72d2"] ;
34 -> 36 ;
37 [label="HMLD <= 17.055\ngini = 0.245\nsamples = 7\nvalue = [0, 1, 0, 0, 6]\nclass = 40-50", fillcolor="#e95acb"] ;
36 -> 37 ;
38 [label="HHD <= 33.96\ngini = 0.5\nsamples = 2\nvalue = [0, 1, 0, 0, 1]\nclass = <20", fillcolor="#ffffff"] ;
37 -> 38 ;
39 [label="gini = 0.0\nsamples = 1\nvalue = [0, 0, 0, 0, 1]\nclass = 40-50", fillcolor="#e539c0"] ;
38 -> 39 ;
40 [label="gini = 0.0\nsamples = 1\nvalue = [0, 1, 0, 0, 0]\nclass = <20", fillcolor="#7be539"] ;
38 -> 40 ;
41 [label="gini = 0.0\nsamples = 5\nvalue = [0, 0, 0, 0, 5]\nclass = 40-50", fillcolor="#e539c0"] ;
37 -> 41 ;
42 [label="gini = 0.0\nsamples = 1\nvalue = [0, 0, 0, 1, 0]\nclass = 20-30", fillcolor="#3c39e5"] ;
36 -> 42 ;
43 [label="HML <= 277.5\ngini = 0.724\nsamples = 459\nvalue = [167, 34, 19, 112, 127]\nclass = 30-40", fillcolor="#fcf0e7"] ;
1 -> 43 ;
44 [label="HEB <= 52.75\ngini = 0.705\nsamples = 105\nvalue = [45, 18, 2, 27, 13]\nclass = 30-40", fillcolor="#f9e2d1"] ;
43 -> 44 ;
45 [label="HHD <= 37.255\ngini = 0.644\nsamples = 75\nvalue = [39, 11, 1, 18, 6]\nclass = 30-40", fillcolor="#f5d1b6"] ;
44 -> 45 ;
46 [label="HEB <= 51.75\ngini = 0.665\nsamples = 38\nvalue = [15, 5, 0, 15, 3]\nclass = 30-40", fillcolor="#ffffff"] ;
45 -> 46 ;
47 [label="HML <= 263.75\ngini = 0.671\nsamples = 35\nvalue = [15, 5, 0, 12, 3]\nclass = 30-40", fillcolor="#fcefe5"] ;
46 -> 47 ;
48 [label="HHD <= 35.655\ngini = 0.58\nsamples = 10\nvalue = [2, 1, 0, 6, 1]\nclass = 20-30", fillcolor="#9e9cf2"] ;
47 -> 48 ;
49 [label="gini = 0.0\nsamples = 2\nvalue = [2, 0, 0, 0, 0]\nclass = 30-40", fillcolor="#e58139"] ;
48 -> 49 ;
50 [label="HEB <= 46.5\ngini = 0.406\nsamples = 8\nvalue = [0, 1, 0, 6, 1]\nclass = 20-30", fillcolor="#7472ec"] ;
48 -> 50 ;
51 [label="gini = 0.0\nsamples = 1\nvalue = [0, 1, 0, 0, 0]\nclass = <20", fillcolor="#7be539"] ;
50 -> 51 ;
52 [label="HML <= 262.5\ngini = 0.245\nsamples = 7\nvalue = [0, 0, 0, 6, 1]\nclass = 20-30", fillcolor="#5d5ae9"] ;
50 -> 52 ;
53 [label="gini = 0.0\nsamples = 5\nvalue = [0, 0, 0, 5, 0]\nclass = 20-30", fillcolor="#3c39e5"] ;
52 -> 53 ;
54 [label="HHD <= 36.035\ngini = 0.5\nsamples = 2\nvalue = [0, 0, 0, 1, 1]\nclass = 20-30", fillcolor="#ffffff"] ;
52 -> 54 ;
55 [label="gini = 0.0\nsamples = 1\nvalue = [0, 0, 0, 1, 0]\nclass = 20-30", fillcolor="#3c39e5"] ;
54 -> 55 ;
56 [label="gini = 0.0\nsamples = 1\nvalue = [0, 0, 0, 0, 1]\nclass = 40-50", fillcolor="#e539c0"] ;
54 -> 56 ;
57 [label="HMLD <= 17.11\ngini = 0.64\nsamples = 25\nvalue = [13, 4, 0, 6, 2]\nclass = 30-40", fillcolor="#f5d1b6"] ;
47 -> 57 ;
58 [label="HHD <= 37.16\ngini = 0.459\nsamples = 14\nvalue = [10, 2, 0, 1, 1]\nclass = 30-40", fillcolor="#eeab7b"] ;
57 -> 58 ;
59 [label="HMLD <= 16.27\ngini = 0.379\nsamples = 13\nvalue = [10, 2, 0, 1, 0]\nclass = 30-40", fillcolor="#eca36f"] ;
58 -> 59 ;
60 [label="HMLD <= 15.87\ngini = 0.531\nsamples = 8\nvalue = [5, 2, 0, 1, 0]\nclass = 30-40", fillcolor="#f2c09c"] ;
59 -> 60 ;
61 [label="HHD <= 37.115\ngini = 0.278\nsamples = 6\nvalue = [5, 0, 0, 1, 0]\nclass = 30-40", fillcolor="#ea9a61"] ;
60 -> 61 ;
62 [label="gini = 0.0\nsamples = 5\nvalue = [5, 0, 0, 0, 0]\nclass = 30-40", fillcolor="#e58139"] ;
61 -> 62 ;
63 [label="gini = 0.0\nsamples = 1\nvalue = [0, 0, 0, 1, 0]\nclass = 20-30", fillcolor="#3c39e5"] ;
61 -> 63 ;
64 [label="gini = 0.0\nsamples = 2\nvalue = [0, 2, 0, 0, 0]\nclass = <20", fillcolor="#7be539"] ;
60 -> 64 ;
65 [label="gini = 0.0\nsamples = 5\nvalue = [5, 0, 0, 0, 0]\nclass = 30-40", fillcolor="#e58139"] ;
59 -> 65 ;
66 [label="gini = 0.0\nsamples = 1\nvalue = [0, 0, 0, 0, 1]\nclass = 40-50", fillcolor="#e539c0"] ;
58 -> 66 ;
67 [label="HML <= 270.5\ngini = 0.678\nsamples = 11\nvalue = [3, 2, 0, 5, 1]\nclass = 20-30", fillcolor="#cecef8"] ;
57 -> 67 ;
68 [label="gini = 0.0\nsamples = 1\nvalue = [0, 0, 0, 0, 1]\nclass = 40-50", fillcolor="#e539c0"] ;
67 -> 68 ;
69 [label="HHD <= 35.95\ngini = 0.62\nsamples = 10\nvalue = [3, 2, 0, 5, 0]\nclass = 20-30", fillcolor="#c7c6f8"] ;
67 -> 69 ;
70 [label="gini = 0.0\nsamples = 2\nvalue = [0, 0, 0, 2, 0]\nclass = 20-30", fillcolor="#3c39e5"] ;
69 -> 70 ;
71 [label="HMLD <= 17.63\ngini = 0.656\nsamples = 8\nvalue = [3, 2, 0, 3, 0]\nclass = 30-40", fillcolor="#ffffff"] ;
69 -> 71 ;
72 [label="HMLD <= 17.245\ngini = 0.444\nsamples = 3\nvalue = [2, 0, 0, 1, 0]\nclass = 30-40", fillcolor="#f2c09c"] ;
71 -> 72 ;
73 [label="gini = 0.0\nsamples = 1\nvalue = [1, 0, 0, 0, 0]\nclass = 30-40", fillcolor="#e58139"] ;
72 -> 73 ;
74 [label="HEB <= 50.25\ngini = 0.5\nsamples = 2\nvalue = [1, 0, 0, 1, 0]\nclass = 30-40", fillcolor="#ffffff"] ;
72 -> 74 ;
75 [label="gini = 0.0\nsamples = 1\nvalue = [0, 0, 0, 1, 0]\nclass = 20-30", fillcolor="#3c39e5"] ;
74 -> 75 ;
76 [label="gini = 0.0\nsamples = 1\nvalue = [1, 0, 0, 0, 0]\nclass = 30-40", fillcolor="#e58139"] ;
74 -> 76 ;
77 [label="HML <= 273.5\ngini = 0.64\nsamples = 5\nvalue = [1, 2, 0, 2, 0]\nclass = <20", fillcolor="#ffffff"] ;
71 -> 77 ;
78 [label="gini = 0.0\nsamples = 1\nvalue = [1, 0, 0, 0, 0]\nclass = 30-40", fillcolor="#e58139"] ;
77 -> 78 ;
79 [label="HMLD <= 17.87\ngini = 0.5\nsamples = 4\nvalue = [0, 2, 0, 2, 0]\nclass = <20", fillcolor="#ffffff"] ;
77 -> 79 ;
80 [label="gini = 0.0\nsamples = 1\nvalue = [0, 1, 0, 0, 0]\nclass = <20", fillcolor="#7be539"] ;
79 -> 80 ;
81 [label="HEB <= 49.25\ngini = 0.444\nsamples = 3\nvalue = [0, 1, 0, 2, 0]\nclass = 20-30", fillcolor="#9e9cf2"] ;
79 -> 81 ;
82 [label="gini = 0.0\nsamples = 1\nvalue = [0, 1, 0, 0, 0]\nclass = <20", fillcolor="#7be539"] ;
81 -> 82 ;
83 [label="gini = 0.0\nsamples = 2\nvalue = [0, 0, 0, 2, 0]\nclass = 20-30", fillcolor="#3c39e5"] ;
81 -> 83 ;
84 [label="gini = 0.0\nsamples = 3\nvalue = [0, 0, 0, 3, 0]\nclass = 20-30", fillcolor="#3c39e5"] ;
46 -> 84 ;
85 [label="HMLD <= 18.165\ngini = 0.539\nsamples = 37\nvalue = [24, 6, 1, 3, 3]\nclass = 30-40", fillcolor="#f0b68c"] ;
45 -> 85 ;
86 [label="HHD <= 40.515\ngini = 0.438\nsamples = 30\nvalue = [22, 4, 1, 1, 2]\nclass = 30-40", fillcolor="#eda876"] ;
85 -> 86 ;
87 [label="HML <= 276.5\ngini = 0.337\nsamples = 26\nvalue = [21, 2, 1, 1, 1]\nclass = 30-40", fillcolor="#ea9b62"] ;
86 -> 87 ;
88 [label="HML <= 251.75\ngini = 0.285\nsamples = 25\nvalue = [21, 2, 1, 0, 1]\nclass = 30-40", fillcolor="#ea975b"] ;
87 -> 88 ;
89 [label="HML <= 250.25\ngini = 0.5\nsamples = 2\nvalue = [1, 0, 0, 0, 1]\nclass = 30-40", fillcolor="#ffffff"] ;
88 -> 89 ;
90 [label="gini = 0.0\nsamples = 1\nvalue = [1, 0, 0, 0, 0]\nclass = 30-40", fillcolor="#e58139"] ;
89 -> 90 ;
91 [label="gini = 0.0\nsamples = 1\nvalue = [0, 0, 0, 0, 1]\nclass = 40-50", fillcolor="#e539c0"] ;
89 -> 91 ;
92 [label="HHD <= 39.34\ngini = 0.234\nsamples = 23\nvalue = [20, 2, 1, 0, 0]\nclass = 30-40", fillcolor="#e99355"] ;
88 -> 92 ;
93 [label="HMLD <= 17.03\ngini = 0.124\nsamples = 15\nvalue = [14, 0, 1, 0, 0]\nclass = 30-40", fillcolor="#e78a47"] ;
92 -> 93 ;
94 [label="gini = 0.0\nsamples = 8\nvalue = [8, 0, 0, 0, 0]\nclass = 30-40", fillcolor="#e58139"] ;
93 -> 94 ;
95 [label="HMLD <= 17.145\ngini = 0.245\nsamples = 7\nvalue = [6, 0, 1, 0, 0]\nclass = 30-40", fillcolor="#e9965a"] ;
93 -> 95 ;
96 [label="gini = 0.0\nsamples = 1\nvalue = [0, 0, 1, 0, 0]\nclass = 50+", fillcolor="#39e5c5"] ;
95 -> 96 ;
97 [label="gini = 0.0\nsamples = 6\nvalue = [6, 0, 0, 0, 0]\nclass = 30-40", fillcolor="#e58139"] ;
95 -> 97 ;
98 [label="HHD <= 39.385\ngini = 0.375\nsamples = 8\nvalue = [6, 2, 0, 0, 0]\nclass = 30-40", fillcolor="#eeab7b"] ;
92 -> 98 ;
99 [label="gini = 0.0\nsamples = 1\nvalue = [0, 1, 0, 0, 0]\nclass = <20", fillcolor="#7be539"] ;
98 -> 99 ;
100 [label="HMLD <= 17.99\ngini = 0.245\nsamples = 7\nvalue = [6, 1, 0, 0, 0]\nclass = 30-40", fillcolor="#e9965a"] ;
98 -> 100 ;
101 [label="gini = 0.0\nsamples = 5\nvalue = [5, 0, 0, 0, 0]\nclass = 30-40", fillcolor="#e58139"] ;
100 -> 101 ;
102 [label="HML <= 274.75\ngini = 0.5\nsamples = 2\nvalue = [1, 1, 0, 0, 0]\nclass = 30-40", fillcolor="#ffffff"] ;
100 -> 102 ;
103 [label="gini = 0.0\nsamples = 1\nvalue = [1, 0, 0, 0, 0]\nclass = 30-40", fillcolor="#e58139"] ;
102 -> 103 ;
104 [label="gini = 0.0\nsamples = 1\nvalue = [0, 1, 0, 0, 0]\nclass = <20", fillcolor="#7be539"] ;
102 -> 104 ;
105 [label="gini = 0.0\nsamples = 1\nvalue = [0, 0, 0, 1, 0]\nclass = 20-30", fillcolor="#3c39e5"] ;
87 -> 105 ;
106 [label="HEB <= 51.5\ngini = 0.625\nsamples = 4\nvalue = [1, 2, 0, 0, 1]\nclass = <20", fillcolor="#d3f6bd"] ;
86 -> 106 ;
107 [label="HHD <= 40.825\ngini = 0.5\nsamples = 2\nvalue = [1, 0, 0, 0, 1]\nclass = 30-40", fillcolor="#ffffff"] ;
106 -> 107 ;
108 [label="gini = 0.0\nsamples = 1\nvalue = [1, 0, 0, 0, 0]\nclass = 30-40", fillcolor="#e58139"] ;
107 -> 108 ;
109 [label="gini = 0.0\nsamples = 1\nvalue = [0, 0, 0, 0, 1]\nclass = 40-50", fillcolor="#e539c0"] ;
107 -> 109 ;
110 [label="gini = 0.0\nsamples = 2\nvalue = [0, 2, 0, 0, 0]\nclass = <20", fillcolor="#7be539"] ;
106 -> 110 ;
111 [label="HML <= 266.5\ngini = 0.735\nsamples = 7\nvalue = [2, 2, 0, 2, 1]\nclass = 30-40", fillcolor="#ffffff"] ;
85 -> 111 ;
112 [label="gini = 0.0\nsamples = 2\nvalue = [0, 2, 0, 0, 0]\nclass = <20", fillcolor="#7be539"] ;
111 -> 112 ;
113 [label="HEB <= 50.5\ngini = 0.64\nsamples = 5\nvalue = [2, 0, 0, 2, 1]\nclass = 30-40", fillcolor="#ffffff"] ;
111 -> 113 ;
114 [label="gini = 0.0\nsamples = 2\nvalue = [0, 0, 0, 2, 0]\nclass = 20-30", fillcolor="#3c39e5"] ;
113 -> 114 ;
115 [label="HML <= 274.25\ngini = 0.444\nsamples = 3\nvalue = [2, 0, 0, 0, 1]\nclass = 30-40", fillcolor="#f2c09c"] ;
113 -> 115 ;
116 [label="gini = 0.0\nsamples = 1\nvalue = [0, 0, 0, 0, 1]\nclass = 40-50", fillcolor="#e539c0"] ;
115 -> 116 ;
117 [label="gini = 0.0\nsamples = 2\nvalue = [2, 0, 0, 0, 0]\nclass = 30-40", fillcolor="#e58139"] ;
115 -> 117 ;
118 [label="HML <= 272.5\ngini = 0.76\nsamples = 30\nvalue = [6, 7, 1, 9, 7]\nclass = 20-30", fillcolor="#eeeefd"] ;
44 -> 118 ;
119 [label="HML <= 263.5\ngini = 0.699\nsamples = 17\nvalue = [3, 7, 0, 5, 2]\nclass = <20", fillcolor="#e9fbde"] ;
118 -> 119 ;
120 [label="HML <= 251.25\ngini = 0.375\nsamples = 4\nvalue = [0, 0, 0, 3, 1]\nclass = 20-30", fillcolor="#7d7bee"] ;
119 -> 120 ;
121 [label="gini = 0.0\nsamples = 1\nvalue = [0, 0, 0, 0, 1]\nclass = 40-50", fillcolor="#e539c0"] ;
120 -> 121 ;
122 [label="gini = 0.0\nsamples = 3\nvalue = [0, 0, 0, 3, 0]\nclass = 20-30", fillcolor="#3c39e5"] ;
120 -> 122 ;
123 [label="HMLD <= 16.145\ngini = 0.627\nsamples = 13\nvalue = [3, 7, 0, 2, 1]\nclass = <20", fillcolor="#caf5b0"] ;
119 -> 123 ;
124 [label="HEB <= 54.5\ngini = 0.444\nsamples = 3\nvalue = [0, 1, 0, 2, 0]\nclass = 20-30", fillcolor="#9e9cf2"] ;
123 -> 124 ;
125 [label="gini = 0.0\nsamples = 2\nvalue = [0, 0, 0, 2, 0]\nclass = 20-30", fillcolor="#3c39e5"] ;
124 -> 125 ;
126 [label="gini = 0.0\nsamples = 1\nvalue = [0, 1, 0, 0, 0]\nclass = <20", fillcolor="#7be539"] ;
124 -> 126 ;
127 [label="HHD <= 37.765\ngini = 0.54\nsamples = 10\nvalue = [3, 6, 0, 0, 1]\nclass = <20", fillcolor="#c6f4aa"] ;
123 -> 127 ;
128 [label="gini = 0.0\nsamples = 2\nvalue = [2, 0, 0, 0, 0]\nclass = 30-40", fillcolor="#e58139"] ;
127 -> 128 ;
129 [label="HMLD <= 18.235\ngini = 0.406\nsamples = 8\nvalue = [1, 6, 0, 0, 1]\nclass = <20", fillcolor="#a1ec72"] ;
127 -> 129 ;
130 [label="gini = 0.0\nsamples = 5\nvalue = [0, 5, 0, 0, 0]\nclass = <20", fillcolor="#7be539"] ;
129 -> 130 ;
131 [label="HMLD <= 18.41\ngini = 0.667\nsamples = 3\nvalue = [1, 1, 0, 0, 1]\nclass = 30-40", fillcolor="#ffffff"] ;
129 -> 131 ;
132 [label="gini = 0.0\nsamples = 1\nvalue = [0, 0, 0, 0, 1]\nclass = 40-50", fillcolor="#e539c0"] ;
131 -> 132 ;
133 [label="HHD <= 40.27\ngini = 0.5\nsamples = 2\nvalue = [1, 1, 0, 0, 0]\nclass = 30-40", fillcolor="#ffffff"] ;
131 -> 133 ;
134 [label="gini = 0.0\nsamples = 1\nvalue = [1, 0, 0, 0, 0]\nclass = 30-40", fillcolor="#e58139"] ;
133 -> 134 ;
135 [label="gini = 0.0\nsamples = 1\nvalue = [0, 1, 0, 0, 0]\nclass = <20", fillcolor="#7be539"] ;
133 -> 135 ;
136 [label="HHD <= 39.05\ngini = 0.698\nsamples = 13\nvalue = [3, 0, 1, 4, 5]\nclass = 40-50", fillcolor="#fce9f8"] ;
118 -> 136 ;
137 [label="HMLD <= 16.575\ngini = 0.444\nsamples = 6\nvalue = [2, 0, 0, 4, 0]\nclass = 20-30", fillcolor="#9e9cf2"] ;
136 -> 137 ;
138 [label="gini = 0.0\nsamples = 2\nvalue = [2, 0, 0, 0, 0]\nclass = 30-40", fillcolor="#e58139"] ;
137 -> 138 ;
139 [label="gini = 0.0\nsamples = 4\nvalue = [0, 0, 0, 4, 0]\nclass = 20-30", fillcolor="#3c39e5"] ;
137 -> 139 ;
140 [label="HEB <= 58.5\ngini = 0.449\nsamples = 7\nvalue = [1, 0, 1, 0, 5]\nclass = 40-50", fillcolor="#ee7bd5"] ;
136 -> 140 ;
141 [label="HML <= 275.5\ngini = 0.278\nsamples = 6\nvalue = [0, 0, 1, 0, 5]\nclass = 40-50", fillcolor="#ea61cd"] ;
140 -> 141 ;
142 [label="gini = 0.0\nsamples = 4\nvalue = [0, 0, 0, 0, 4]\nclass = 40-50", fillcolor="#e539c0"] ;
141 -> 142 ;
143 [label="HMLD <= 15.7\ngini = 0.5\nsamples = 2\nvalue = [0, 0, 1, 0, 1]\nclass = 50+", fillcolor="#ffffff"] ;
141 -> 143 ;
144 [label="gini = 0.0\nsamples = 1\nvalue = [0, 0, 0, 0, 1]\nclass = 40-50", fillcolor="#e539c0"] ;
143 -> 144 ;
145 [label="gini = 0.0\nsamples = 1\nvalue = [0, 0, 1, 0, 0]\nclass = 50+", fillcolor="#39e5c5"] ;
143 -> 145 ;
146 [label="gini = 0.0\nsamples = 1\nvalue = [1, 0, 0, 0, 0]\nclass = 30-40", fillcolor="#e58139"] ;
140 -> 146 ;
147 [label="HEB <= 63.25\ngini = 0.716\nsamples = 354\nvalue = [122, 16, 17, 85, 114]\nclass = 30-40", fillcolor="#fefbf8"] ;
43 -> 147 ;
148 [label="HML <= 292.75\ngini = 0.713\nsamples = 349\nvalue = [122, 15, 17, 81, 114]\nclass = 30-40", fillcolor="#fefbf8"] ;
147 -> 148 ;
149 [label="HML <= 290.75\ngini = 0.719\nsamples = 145\nvalue = [40, 9, 7, 34, 55]\nclass = 40-50", fillcolor="#fbe3f6"] ;
148 -> 149 ;
150 [label="HMLD <= 18.395\ngini = 0.731\nsamples = 128\nvalue = [38, 8, 7, 33, 42]\nclass = 40-50", fillcolor="#fef6fc"] ;
149 -> 150 ;
151 [label="HHD <= 37.115\ngini = 0.712\nsamples = 113\nvalue = [36, 3, 7, 27, 40]\nclass = 40-50", fillcolor="#fef5fc"] ;
150 -> 151 ;
152 [label="HEB <= 45.75\ngini = 0.632\nsamples = 24\nvalue = [13, 1, 1, 5, 4]\nclass = 30-40", fillcolor="#f4caac"] ;
151 -> 152 ;
153 [label="HHD <= 36.48\ngini = 0.444\nsamples = 3\nvalue = [0, 0, 1, 2, 0]\nclass = 20-30", fillcolor="#9e9cf2"] ;
152 -> 153 ;
154 [label="gini = 0.0\nsamples = 2\nvalue = [0, 0, 0, 2, 0]\nclass = 20-30", fillcolor="#3c39e5"] ;
153 -> 154 ;
155 [label="gini = 0.0\nsamples = 1\nvalue = [0, 0, 1, 0, 0]\nclass = 50+", fillcolor="#39e5c5"] ;
153 -> 155 ;
156 [label="HMLD <= 17.98\ngini = 0.558\nsamples = 21\nvalue = [13, 1, 0, 3, 4]\nclass = 30-40", fillcolor="#f1bc96"] ;
152 -> 156 ;
157 [label="HMLD <= 13.99\ngini = 0.482\nsamples = 19\nvalue = [13, 0, 0, 3, 3]\nclass = 30-40", fillcolor="#efb083"] ;
156 -> 157 ;
158 [label="gini = 0.0\nsamples = 1\nvalue = [0, 0, 0, 0, 1]\nclass = 40-50", fillcolor="#e539c0"] ;
157 -> 158 ;
159 [label="HMLD <= 16.715\ngini = 0.438\nsamples = 18\nvalue = [13, 0, 0, 3, 2]\nclass = 30-40", fillcolor="#eeab7b"] ;
157 -> 159 ;
160 [label="HHD <= 36.465\ngini = 0.469\nsamples = 8\nvalue = [5, 0, 0, 3, 0]\nclass = 30-40", fillcolor="#f5cdb0"] ;
159 -> 160 ;
161 [label="HMLD <= 15.59\ngini = 0.278\nsamples = 6\nvalue = [5, 0, 0, 1, 0]\nclass = 30-40", fillcolor="#ea9a61"] ;
160 -> 161 ;
162 [label="gini = 0.0\nsamples = 4\nvalue = [4, 0, 0, 0, 0]\nclass = 30-40", fillcolor="#e58139"] ;
161 -> 162 ;
163 [label="HMLD <= 16.085\ngini = 0.5\nsamples = 2\nvalue = [1, 0, 0, 1, 0]\nclass = 30-40", fillcolor="#ffffff"] ;
161 -> 163 ;
164 [label="gini = 0.0\nsamples = 1\nvalue = [0, 0, 0, 1, 0]\nclass = 20-30", fillcolor="#3c39e5"] ;
163 -> 164 ;
165 [label="gini = 0.0\nsamples = 1\nvalue = [1, 0, 0, 0, 0]\nclass = 30-40", fillcolor="#e58139"] ;
163 -> 165 ;
166 [label="gini = 0.0\nsamples = 2\nvalue = [0, 0, 0, 2, 0]\nclass = 20-30", fillcolor="#3c39e5"] ;
160 -> 166 ;
167 [label="HML <= 278.5\ngini = 0.32\nsamples = 10\nvalue = [8, 0, 0, 0, 2]\nclass = 30-40", fillcolor="#eca06a"] ;
159 -> 167 ;
168 [label="gini = 0.0\nsamples = 1\nvalue = [0, 0, 0, 0, 1]\nclass = 40-50", fillcolor="#e539c0"] ;
167 -> 168 ;
169 [label="HHD <= 35.45\ngini = 0.198\nsamples = 9\nvalue = [8, 0, 0, 0, 1]\nclass = 30-40", fillcolor="#e89152"] ;
167 -> 169 ;
170 [label="HMLD <= 17.255\ngini = 0.5\nsamples = 2\nvalue = [1, 0, 0, 0, 1]\nclass = 30-40", fillcolor="#ffffff"] ;
169 -> 170 ;
171 [label="gini = 0.0\nsamples = 1\nvalue = [0, 0, 0, 0, 1]\nclass = 40-50", fillcolor="#e539c0"] ;
170 -> 171 ;
172 [label="gini = 0.0\nsamples = 1\nvalue = [1, 0, 0, 0, 0]\nclass = 30-40", fillcolor="#e58139"] ;
170 -> 172 ;
173 [label="gini = 0.0\nsamples = 7\nvalue = [7, 0, 0, 0, 0]\nclass = 30-40", fillcolor="#e58139"] ;
169 -> 173 ;
174 [label="HMLD <= 18.115\ngini = 0.5\nsamples = 2\nvalue = [0, 1, 0, 0, 1]\nclass = <20", fillcolor="#ffffff"] ;
156 -> 174 ;
175 [label="gini = 0.0\nsamples = 1\nvalue = [0, 0, 0, 0, 1]\nclass = 40-50", fillcolor="#e539c0"] ;
174 -> 175 ;
176 [label="gini = 0.0\nsamples = 1\nvalue = [0, 1, 0, 0, 0]\nclass = <20", fillcolor="#7be539"] ;
174 -> 176 ;
177 [label="HEB <= 50.75\ngini = 0.703\nsamples = 89\nvalue = [23, 2, 6, 22, 36]\nclass = 40-50", fillcolor="#fad8f3"] ;
151 -> 177 ;
178 [label="HMLD <= 15.675\ngini = 0.56\nsamples = 15\nvalue = [0, 1, 1, 4, 9]\nclass = 40-50", fillcolor="#f3a5e2"] ;
177 -> 178 ;
179 [label="gini = 0.0\nsamples = 3\nvalue = [0, 0, 0, 3, 0]\nclass = 20-30", fillcolor="#3c39e5"] ;
178 -> 179 ;
180 [label="HHD <= 40.16\ngini = 0.417\nsamples = 12\nvalue = [0, 1, 1, 1, 9]\nclass = 40-50", fillcolor="#ec6fd1"] ;
178 -> 180 ;
181 [label="HMLD <= 16.445\ngini = 0.198\nsamples = 9\nvalue = [0, 0, 0, 1, 8]\nclass = 40-50", fillcolor="#e852c8"] ;
180 -> 181 ;
182 [label="HEB <= 49.25\ngini = 0.5\nsamples = 2\nvalue = [0, 0, 0, 1, 1]\nclass = 20-30", fillcolor="#ffffff"] ;
181 -> 182 ;
183 [label="gini = 0.0\nsamples = 1\nvalue = [0, 0, 0, 0, 1]\nclass = 40-50", fillcolor="#e539c0"] ;
182 -> 183 ;
184 [label="gini = 0.0\nsamples = 1\nvalue = [0, 0, 0, 1, 0]\nclass = 20-30", fillcolor="#3c39e5"] ;
182 -> 184 ;
185 [label="gini = 0.0\nsamples = 7\nvalue = [0, 0, 0, 0, 7]\nclass = 40-50", fillcolor="#e539c0"] ;
181 -> 185 ;
186 [label="HMLD <= 16.205\ngini = 0.667\nsamples = 3\nvalue = [0, 1, 1, 0, 1]\nclass = <20", fillcolor="#ffffff"] ;
180 -> 186 ;
187 [label="gini = 0.0\nsamples = 1\nvalue = [0, 0, 0, 0, 1]\nclass = 40-50", fillcolor="#e539c0"] ;
186 -> 187 ;
188 [label="HML <= 286.25\ngini = 0.5\nsamples = 2\nvalue = [0, 1, 1, 0, 0]\nclass = <20", fillcolor="#ffffff"] ;
186 -> 188 ;
189 [label="gini = 0.0\nsamples = 1\nvalue = [0, 1, 0, 0, 0]\nclass = <20", fillcolor="#7be539"] ;
188 -> 189 ;
190 [label="gini = 0.0\nsamples = 1\nvalue = [0, 0, 1, 0, 0]\nclass = 50+", fillcolor="#39e5c5"] ;
188 -> 190 ;
191 [label="HEB <= 54.25\ngini = 0.706\nsamples = 74\nvalue = [23, 1, 5, 18, 27]\nclass = 40-50", fillcolor="#fdeffa"] ;
177 -> 191 ;
192 [label="HHD <= 37.64\ngini = 0.691\nsamples = 51\nvalue = [21, 0, 4, 11, 15]\nclass = 30-40", fillcolor="#fbeade"] ;
191 -> 192 ;
193 [label="HML <= 282.0\ngini = 0.48\nsamples = 5\nvalue = [0, 0, 0, 2, 3]\nclass = 40-50", fillcolor="#f6bdea"] ;
192 -> 193 ;
194 [label="gini = 0.0\nsamples = 2\nvalue = [0, 0, 0, 0, 2]\nclass = 40-50", fillcolor="#e539c0"] ;
193 -> 194 ;
195 [label="HEB <= 52.5\ngini = 0.444\nsamples = 3\nvalue = [0, 0, 0, 2, 1]\nclass = 20-30", fillcolor="#9e9cf2"] ;
193 -> 195 ;
196 [label="gini = 0.0\nsamples = 2\nvalue = [0, 0, 0, 2, 0]\nclass = 20-30", fillcolor="#3c39e5"] ;
195 -> 196 ;
197 [label="gini = 0.0\nsamples = 1\nvalue = [0, 0, 0, 0, 1]\nclass = 40-50", fillcolor="#e539c0"] ;
195 -> 197 ;
198 [label="HML <= 278.5\ngini = 0.678\nsamples = 46\nvalue = [21, 0, 4, 9, 12]\nclass = 30-40", fillcolor="#f8decb"] ;
192 -> 198 ;
199 [label="gini = 0.0\nsamples = 4\nvalue = [4, 0, 0, 0, 0]\nclass = 30-40", fillcolor="#e58139"] ;
198 -> 199 ;
200 [label="HHD <= 38.435\ngini = 0.7\nsamples = 42\nvalue = [17, 0, 4, 9, 12]\nclass = 30-40", fillcolor="#fbeade"] ;
198 -> 200 ;
201 [label="HHD <= 37.7\ngini = 0.5\nsamples = 10\nvalue = [5, 0, 0, 0, 5]\nclass = 30-40", fillcolor="#ffffff"] ;
200 -> 201 ;
202 [label="gini = 0.0\nsamples = 2\nvalue = [2, 0, 0, 0, 0]\nclass = 30-40", fillcolor="#e58139"] ;
201 -> 202 ;
203 [label="HML <= 280.75\ngini = 0.469\nsamples = 8\nvalue = [3, 0, 0, 0, 5]\nclass = 40-50", fillcolor="#f5b0e6"] ;
201 -> 203 ;
204 [label="gini = 0.0\nsamples = 3\nvalue = [0, 0, 0, 0, 3]\nclass = 40-50", fillcolor="#e539c0"] ;
203 -> 204 ;
205 [label="HMLD <= 17.16\ngini = 0.48\nsamples = 5\nvalue = [3, 0, 0, 0, 2]\nclass = 30-40", fillcolor="#f6d5bd"] ;
203 -> 205 ;
206 [label="HHD <= 38.19\ngini = 0.444\nsamples = 3\nvalue = [1, 0, 0, 0, 2]\nclass = 40-50", fillcolor="#f29ce0"] ;
205 -> 206 ;
207 [label="gini = 0.0\nsamples = 2\nvalue = [0, 0, 0, 0, 2]\nclass = 40-50", fillcolor="#e539c0"] ;
206 -> 207 ;
208 [label="gini = 0.0\nsamples = 1\nvalue = [1, 0, 0, 0, 0]\nclass = 30-40", fillcolor="#e58139"] ;
206 -> 208 ;
209 [label="gini = 0.0\nsamples = 2\nvalue = [2, 0, 0, 0, 0]\nclass = 30-40", fillcolor="#e58139"] ;
205 -> 209 ;
210 [label="HML <= 282.5\ngini = 0.717\nsamples = 32\nvalue = [12, 0, 4, 9, 7]\nclass = 30-40", fillcolor="#fcefe5"] ;
200 -> 210 ;
211 [label="HMLD <= 17.355\ngini = 0.595\nsamples = 11\nvalue = [3, 0, 2, 6, 0]\nclass = 20-30", fillcolor="#b6b5f5"] ;
210 -> 211 ;
212 [label="HMLD <= 16.035\ngini = 0.656\nsamples = 8\nvalue = [3, 0, 2, 3, 0]\nclass = 30-40", fillcolor="#ffffff"] ;
211 -> 212 ;
213 [label="HML <= 279.5\ngini = 0.444\nsamples = 3\nvalue = [0, 0, 1, 2, 0]\nclass = 20-30", fillcolor="#9e9cf2"] ;
212 -> 213 ;
214 [label="gini = 0.0\nsamples = 1\nvalue = [0, 0, 1, 0, 0]\nclass = 50+", fillcolor="#39e5c5"] ;
213 -> 214 ;
215 [label="gini = 0.0\nsamples = 2\nvalue = [0, 0, 0, 2, 0]\nclass = 20-30", fillcolor="#3c39e5"] ;
213 -> 215 ;
216 [label="HHD <= 38.975\ngini = 0.56\nsamples = 5\nvalue = [3, 0, 1, 1, 0]\nclass = 30-40", fillcolor="#f2c09c"] ;
212 -> 216 ;
217 [label="gini = 0.0\nsamples = 1\nvalue = [0, 0, 0, 1, 0]\nclass = 20-30", fillcolor="#3c39e5"] ;
216 -> 217 ;
218 [label="HMLD <= 17.025\ngini = 0.375\nsamples = 4\nvalue = [3, 0, 1, 0, 0]\nclass = 30-40", fillcolor="#eeab7b"] ;
216 -> 218 ;
219 [label="gini = 0.0\nsamples = 3\nvalue = [3, 0, 0, 0, 0]\nclass = 30-40", fillcolor="#e58139"] ;
218 -> 219 ;
220 [label="gini = 0.0\nsamples = 1\nvalue = [0, 0, 1, 0, 0]\nclass = 50+", fillcolor="#39e5c5"] ;
218 -> 220 ;
221 [label="gini = 0.0\nsamples = 3\nvalue = [0, 0, 0, 3, 0]\nclass = 20-30", fillcolor="#3c39e5"] ;
211 -> 221 ;
222 [label="HML <= 286.5\ngini = 0.676\nsamples = 21\nvalue = [9, 0, 2, 3, 7]\nclass = 30-40", fillcolor="#fbede3"] ;
210 -> 222 ;
223 [label="HMLD <= 15.58\ngini = 0.62\nsamples = 10\nvalue = [3, 0, 2, 0, 5]\nclass = 40-50", fillcolor="#f8c6ed"] ;
222 -> 223 ;
224 [label="gini = 0.0\nsamples = 1\nvalue = [0, 0, 1, 0, 0]\nclass = 50+", fillcolor="#39e5c5"] ;
223 -> 224 ;
225 [label="HEB <= 52.5\ngini = 0.568\nsamples = 9\nvalue = [3, 0, 1, 0, 5]\nclass = 40-50", fillcolor="#f6bdea"] ;
223 -> 225 ;
226 [label="HHD <= 40.93\ngini = 0.625\nsamples = 4\nvalue = [2, 0, 1, 0, 1]\nclass = 30-40", fillcolor="#f6d5bd"] ;
225 -> 226 ;
227 [label="HMLD <= 16.73\ngini = 0.444\nsamples = 3\nvalue = [2, 0, 0, 0, 1]\nclass = 30-40", fillcolor="#f2c09c"] ;
226 -> 227 ;
228 [label="gini = 0.0\nsamples = 1\nvalue = [1, 0, 0, 0, 0]\nclass = 30-40", fillcolor="#e58139"] ;
227 -> 228 ;
229 [label="HML <= 283.5\ngini = 0.5\nsamples = 2\nvalue = [1, 0, 0, 0, 1]\nclass = 30-40", fillcolor="#ffffff"] ;
227 -> 229 ;
230 [label="gini = 0.0\nsamples = 1\nvalue = [1, 0, 0, 0, 0]\nclass = 30-40", fillcolor="#e58139"] ;
229 -> 230 ;
231 [label="gini = 0.0\nsamples = 1\nvalue = [0, 0, 0, 0, 1]\nclass = 40-50", fillcolor="#e539c0"] ;
229 -> 231 ;
232 [label="gini = 0.0\nsamples = 1\nvalue = [0, 0, 1, 0, 0]\nclass = 50+", fillcolor="#39e5c5"] ;
226 -> 232 ;
233 [label="HML <= 284.25\ngini = 0.32\nsamples = 5\nvalue = [1, 0, 0, 0, 4]\nclass = 40-50", fillcolor="#ec6ad0"] ;
225 -> 233 ;
234 [label="HEB <= 53.5\ngini = 0.5\nsamples = 2\nvalue = [1, 0, 0, 0, 1]\nclass = 30-40", fillcolor="#ffffff"] ;
233 -> 234 ;
235 [label="gini = 0.0\nsamples = 1\nvalue = [0, 0, 0, 0, 1]\nclass = 40-50", fillcolor="#e539c0"] ;
234 -> 235 ;
236 [label="gini = 0.0\nsamples = 1\nvalue = [1, 0, 0, 0, 0]\nclass = 30-40", fillcolor="#e58139"] ;
234 -> 236 ;
237 [label="gini = 0.0\nsamples = 3\nvalue = [0, 0, 0, 0, 3]\nclass = 40-50", fillcolor="#e539c0"] ;
233 -> 237 ;
238 [label="HEB <= 52.5\ngini = 0.595\nsamples = 11\nvalue = [6, 0, 0, 3, 2]\nclass = 30-40", fillcolor="#f5d0b5"] ;
222 -> 238 ;
239 [label="HMLD <= 17.865\ngini = 0.667\nsamples = 6\nvalue = [2, 0, 0, 2, 2]\nclass = 30-40", fillcolor="#ffffff"] ;
238 -> 239 ;
240 [label="HMLD <= 16.785\ngini = 0.5\nsamples = 4\nvalue = [0, 0, 0, 2, 2]\nclass = 20-30", fillcolor="#ffffff"] ;
239 -> 240 ;
241 [label="gini = 0.0\nsamples = 1\nvalue = [0, 0, 0, 0, 1]\nclass = 40-50", fillcolor="#e539c0"] ;
240 -> 241 ;
242 [label="HEB <= 51.75\ngini = 0.444\nsamples = 3\nvalue = [0, 0, 0, 2, 1]\nclass = 20-30", fillcolor="#9e9cf2"] ;
240 -> 242 ;
243 [label="gini = 0.0\nsamples = 1\nvalue = [0, 0, 0, 0, 1]\nclass = 40-50", fillcolor="#e539c0"] ;
242 -> 243 ;
244 [label="gini = 0.0\nsamples = 2\nvalue = [0, 0, 0, 2, 0]\nclass = 20-30", fillcolor="#3c39e5"] ;
242 -> 244 ;
245 [label="gini = 0.0\nsamples = 2\nvalue = [2, 0, 0, 0, 0]\nclass = 30-40", fillcolor="#e58139"] ;
239 -> 245 ;
246 [label="HMLD <= 17.695\ngini = 0.32\nsamples = 5\nvalue = [4, 0, 0, 1, 0]\nclass = 30-40", fillcolor="#eca06a"] ;
238 -> 246 ;
247 [label="gini = 0.0\nsamples = 4\nvalue = [4, 0, 0, 0, 0]\nclass = 30-40", fillcolor="#e58139"] ;
246 -> 247 ;
248 [label="gini = 0.0\nsamples = 1\nvalue = [0, 0, 0, 1, 0]\nclass = 20-30", fillcolor="#3c39e5"] ;
246 -> 248 ;
249 [label="HMLD <= 16.915\ngini = 0.624\nsamples = 23\nvalue = [2, 1, 1, 7, 12]\nclass = 40-50", fillcolor="#f7c1eb"] ;
191 -> 249 ;
250 [label="gini = 0.0\nsamples = 5\nvalue = [0, 0, 0, 0, 5]\nclass = 40-50", fillcolor="#e539c0"] ;
249 -> 250 ;
251 [label="HHD <= 41.555\ngini = 0.679\nsamples = 18\nvalue = [2, 1, 1, 7, 7]\nclass = 20-30", fillcolor="#ffffff"] ;
249 -> 251 ;
252 [label="HEB <= 58.5\ngini = 0.643\nsamples = 14\nvalue = [2, 0, 1, 7, 4]\nclass = 20-30", fillcolor="#c4c4f7"] ;
251 -> 252 ;
253 [label="HML <= 279.5\ngini = 0.542\nsamples = 12\nvalue = [1, 0, 0, 7, 4]\nclass = 20-30", fillcolor="#b6b5f5"] ;
252 -> 253 ;
254 [label="gini = 0.0\nsamples = 1\nvalue = [1, 0, 0, 0, 0]\nclass = 30-40", fillcolor="#e58139"] ;
253 -> 254 ;
255 [label="HEB <= 57.5\ngini = 0.463\nsamples = 11\nvalue = [0, 0, 0, 7, 4]\nclass = 20-30", fillcolor="#abaaf4"] ;
253 -> 255 ;
256 [label="HHD <= 40.16\ngini = 0.42\nsamples = 10\nvalue = [0, 0, 0, 7, 3]\nclass = 20-30", fillcolor="#908ef0"] ;
255 -> 256 ;
257 [label="HHD <= 39.96\ngini = 0.5\nsamples = 6\nvalue = [0, 0, 0, 3, 3]\nclass = 20-30", fillcolor="#ffffff"] ;
256 -> 257 ;
258 [label="HEB <= 55.75\ngini = 0.375\nsamples = 4\nvalue = [0, 0, 0, 3, 1]\nclass = 20-30", fillcolor="#7d7bee"] ;
257 -> 258 ;
259 [label="gini = 0.0\nsamples = 1\nvalue = [0, 0, 0, 0, 1]\nclass = 40-50", fillcolor="#e539c0"] ;
258 -> 259 ;
260 [label="gini = 0.0\nsamples = 3\nvalue = [0, 0, 0, 3, 0]\nclass = 20-30", fillcolor="#3c39e5"] ;
258 -> 260 ;
261 [label="gini = 0.0\nsamples = 2\nvalue = [0, 0, 0, 0, 2]\nclass = 40-50", fillcolor="#e539c0"] ;
257 -> 261 ;
262 [label="gini = 0.0\nsamples = 4\nvalue = [0, 0, 0, 4, 0]\nclass = 20-30", fillcolor="#3c39e5"] ;
256 -> 262 ;
263 [label="gini = 0.0\nsamples = 1\nvalue = [0, 0, 0, 0, 1]\nclass = 40-50", fillcolor="#e539c0"] ;
255 -> 263 ;
264 [label="HML <= 284.0\ngini = 0.5\nsamples = 2\nvalue = [1, 0, 1, 0, 0]\nclass = 30-40", fillcolor="#ffffff"] ;
252 -> 264 ;
265 [label="gini = 0.0\nsamples = 1\nvalue = [0, 0, 1, 0, 0]\nclass = 50+", fillcolor="#39e5c5"] ;
264 -> 265 ;
266 [label="gini = 0.0\nsamples = 1\nvalue = [1, 0, 0, 0, 0]\nclass = 30-40", fillcolor="#e58139"] ;
264 -> 266 ;
267 [label="HML <= 283.0\ngini = 0.375\nsamples = 4\nvalue = [0, 1, 0, 0, 3]\nclass = 40-50", fillcolor="#ee7bd5"] ;
251 -> 267 ;
268 [label="gini = 0.0\nsamples = 1\nvalue = [0, 1, 0, 0, 0]\nclass = <20", fillcolor="#7be539"] ;
267 -> 268 ;
269 [label="gini = 0.0\nsamples = 3\nvalue = [0, 0, 0, 0, 3]\nclass = 40-50", fillcolor="#e539c0"] ;
267 -> 269 ;
270 [label="HML <= 285.75\ngini = 0.693\nsamples = 15\nvalue = [2, 5, 0, 6, 2]\nclass = 20-30", fillcolor="#ebebfc"] ;
150 -> 270 ;
271 [label="HML <= 283.75\ngini = 0.531\nsamples = 8\nvalue = [2, 1, 0, 5, 0]\nclass = 20-30", fillcolor="#9e9cf2"] ;
270 -> 271 ;
272 [label="HMLD <= 18.605\ngini = 0.449\nsamples = 7\nvalue = [1, 1, 0, 5, 0]\nclass = 20-30", fillcolor="#7d7bee"] ;
271 -> 272 ;
273 [label="HHD <= 39.49\ngini = 0.5\nsamples = 2\nvalue = [0, 1, 0, 1, 0]\nclass = <20", fillcolor="#ffffff"] ;
272 -> 273 ;
274 [label="gini = 0.0\nsamples = 1\nvalue = [0, 0, 0, 1, 0]\nclass = 20-30", fillcolor="#3c39e5"] ;
273 -> 274 ;
275 [label="gini = 0.0\nsamples = 1\nvalue = [0, 1, 0, 0, 0]\nclass = <20", fillcolor="#7be539"] ;
273 -> 275 ;
276 [label="HEB <= 57.0\ngini = 0.32\nsamples = 5\nvalue = [1, 0, 0, 4, 0]\nclass = 20-30", fillcolor="#6d6aec"] ;
272 -> 276 ;
277 [label="gini = 0.0\nsamples = 3\nvalue = [0, 0, 0, 3, 0]\nclass = 20-30", fillcolor="#3c39e5"] ;
276 -> 277 ;
278 [label="HMLD <= 18.67\ngini = 0.5\nsamples = 2\nvalue = [1, 0, 0, 1, 0]\nclass = 30-40", fillcolor="#ffffff"] ;
276 -> 278 ;
279 [label="gini = 0.0\nsamples = 1\nvalue = [1, 0, 0, 0, 0]\nclass = 30-40", fillcolor="#e58139"] ;
278 -> 279 ;
280 [label="gini = 0.0\nsamples = 1\nvalue = [0, 0, 0, 1, 0]\nclass = 20-30", fillcolor="#3c39e5"] ;
278 -> 280 ;
281 [label="gini = 0.0\nsamples = 1\nvalue = [1, 0, 0, 0, 0]\nclass = 30-40", fillcolor="#e58139"] ;
271 -> 281 ;
282 [label="HHD <= 38.91\ngini = 0.571\nsamples = 7\nvalue = [0, 4, 0, 1, 2]\nclass = <20", fillcolor="#caf5b0"] ;
270 -> 282 ;
283 [label="gini = 0.0\nsamples = 2\nvalue = [0, 0, 0, 0, 2]\nclass = 40-50", fillcolor="#e539c0"] ;
282 -> 283 ;
284 [label="HHD <= 41.64\ngini = 0.32\nsamples = 5\nvalue = [0, 4, 0, 1, 0]\nclass = <20", fillcolor="#9cec6a"] ;
282 -> 284 ;
285 [label="gini = 0.0\nsamples = 4\nvalue = [0, 4, 0, 0, 0]\nclass = <20", fillcolor="#7be539"] ;
284 -> 285 ;
286 [label="gini = 0.0\nsamples = 1\nvalue = [0, 0, 0, 1, 0]\nclass = 20-30", fillcolor="#3c39e5"] ;
284 -> 286 ;
287 [label="HMLD <= 17.06\ngini = 0.394\nsamples = 17\nvalue = [2, 1, 0, 1, 13]\nclass = 40-50", fillcolor="#ec6ed1"] ;
149 -> 287 ;
288 [label="HHD <= 38.37\ngini = 0.722\nsamples = 6\nvalue = [2, 1, 0, 1, 2]\nclass = 30-40", fillcolor="#ffffff"] ;
287 -> 288 ;
289 [label="HMLD <= 15.285\ngini = 0.5\nsamples = 2\nvalue = [0, 1, 0, 1, 0]\nclass = <20", fillcolor="#ffffff"] ;
288 -> 289 ;
290 [label="gini = 0.0\nsamples = 1\nvalue = [0, 1, 0, 0, 0]\nclass = <20", fillcolor="#7be539"] ;
289 -> 290 ;
291 [label="gini = 0.0\nsamples = 1\nvalue = [0, 0, 0, 1, 0]\nclass = 20-30", fillcolor="#3c39e5"] ;
289 -> 291 ;
292 [label="HMLD <= 15.255\ngini = 0.5\nsamples = 4\nvalue = [2, 0, 0, 0, 2]\nclass = 30-40", fillcolor="#ffffff"] ;
288 -> 292 ;
293 [label="gini = 0.0\nsamples = 1\nvalue = [0, 0, 0, 0, 1]\nclass = 40-50", fillcolor="#e539c0"] ;
292 -> 293 ;
294 [label="HHD <= 39.22\ngini = 0.444\nsamples = 3\nvalue = [2, 0, 0, 0, 1]\nclass = 30-40", fillcolor="#f2c09c"] ;
292 -> 294 ;
295 [label="gini = 0.0\nsamples = 1\nvalue = [0, 0, 0, 0, 1]\nclass = 40-50", fillcolor="#e539c0"] ;
294 -> 295 ;
296 [label="gini = 0.0\nsamples = 2\nvalue = [2, 0, 0, 0, 0]\nclass = 30-40", fillcolor="#e58139"] ;
294 -> 296 ;
297 [label="gini = 0.0\nsamples = 11\nvalue = [0, 0, 0, 0, 11]\nclass = 40-50", fillcolor="#e539c0"] ;
287 -> 297 ;
298 [label="HEB <= 48.5\ngini = 0.698\nsamples = 204\nvalue = [82, 6, 10, 47, 59]\nclass = 30-40", fillcolor="#fbebe0"] ;
148 -> 298 ;
299 [label="HMLD <= 15.12\ngini = 0.245\nsamples = 7\nvalue = [6, 0, 1, 0, 0]\nclass = 30-40", fillcolor="#e9965a"] ;
298 -> 299 ;
300 [label="gini = 0.0\nsamples = 1\nvalue = [0, 0, 1, 0, 0]\nclass = 50+", fillcolor="#39e5c5"] ;
299 -> 300 ;
301 [label="gini = 0.0\nsamples = 6\nvalue = [6, 0, 0, 0, 0]\nclass = 30-40", fillcolor="#e58139"] ;
299 -> 301 ;
302 [label="HML <= 334.5\ngini = 0.702\nsamples = 197\nvalue = [76, 6, 9, 47, 59]\nclass = 30-40", fillcolor="#fcefe7"] ;
298 -> 302 ;
303 [label="HHD <= 42.29\ngini = 0.706\nsamples = 191\nvalue = [71, 6, 9, 47, 58]\nclass = 30-40", fillcolor="#fcf3ec"] ;
302 -> 303 ;
304 [label="HHD <= 40.32\ngini = 0.693\nsamples = 127\nvalue = [52, 4, 7, 24, 40]\nclass = 30-40", fillcolor="#fbeee4"] ;
303 -> 304 ;
305 [label="HEB <= 53.25\ngini = 0.691\nsamples = 79\nvalue = [27, 2, 3, 17, 30]\nclass = 40-50", fillcolor="#fef4fb"] ;
304 -> 305 ;
306 [label="HHD <= 36.78\ngini = 0.701\nsamples = 40\nvalue = [14, 2, 1, 14, 9]\nclass = 30-40", fillcolor="#ffffff"] ;
305 -> 306 ;
307 [label="HMLD <= 17.82\ngini = 0.545\nsamples = 11\nvalue = [1, 1, 0, 7, 2]\nclass = 20-30", fillcolor="#9391f1"] ;
306 -> 307 ;
308 [label="HMLD <= 15.865\ngini = 0.46\nsamples = 10\nvalue = [0, 1, 0, 7, 2]\nclass = 20-30", fillcolor="#8583ef"] ;
307 -> 308 ;
309 [label="HHD <= 35.865\ngini = 0.64\nsamples = 5\nvalue = [0, 1, 0, 2, 2]\nclass = 20-30", fillcolor="#ffffff"] ;
308 -> 309 ;
310 [label="HMLD <= 14.74\ngini = 0.444\nsamples = 3\nvalue = [0, 1, 0, 2, 0]\nclass = 20-30", fillcolor="#9e9cf2"] ;
309 -> 310 ;
311 [label="gini = 0.0\nsamples = 2\nvalue = [0, 0, 0, 2, 0]\nclass = 20-30", fillcolor="#3c39e5"] ;
310 -> 311 ;
312 [label="gini = 0.0\nsamples = 1\nvalue = [0, 1, 0, 0, 0]\nclass = <20", fillcolor="#7be539"] ;
310 -> 312 ;
313 [label="gini = 0.0\nsamples = 2\nvalue = [0, 0, 0, 0, 2]\nclass = 40-50", fillcolor="#e539c0"] ;
309 -> 313 ;
314 [label="gini = 0.0\nsamples = 5\nvalue = [0, 0, 0, 5, 0]\nclass = 20-30", fillcolor="#3c39e5"] ;
308 -> 314 ;
315 [label="gini = 0.0\nsamples = 1\nvalue = [1, 0, 0, 0, 0]\nclass = 30-40", fillcolor="#e58139"] ;
307 -> 315 ;
316 [label="HHD <= 39.51\ngini = 0.68\nsamples = 29\nvalue = [13, 1, 1, 7, 7]\nclass = 30-40", fillcolor="#f8ddc9"] ;
306 -> 316 ;
317 [label="HHD <= 38.465\ngini = 0.651\nsamples = 26\nvalue = [13, 1, 1, 4, 7]\nclass = 30-40", fillcolor="#f7d7c0"] ;
316 -> 317 ;
318 [label="HML <= 294.75\ngini = 0.48\nsamples = 10\nvalue = [7, 0, 1, 1, 1]\nclass = 30-40", fillcolor="#eeab7b"] ;
317 -> 318 ;
319 [label="gini = 0.0\nsamples = 1\nvalue = [0, 0, 0, 0, 1]\nclass = 40-50", fillcolor="#e539c0"] ;
318 -> 319 ;
320 [label="HHD <= 37.94\ngini = 0.37\nsamples = 9\nvalue = [7, 0, 1, 1, 0]\nclass = 30-40", fillcolor="#eca06a"] ;
318 -> 320 ;
321 [label="HHD <= 37.77\ngini = 0.625\nsamples = 4\nvalue = [2, 0, 1, 1, 0]\nclass = 30-40", fillcolor="#f6d5bd"] ;
320 -> 321 ;
322 [label="gini = 0.0\nsamples = 2\nvalue = [2, 0, 0, 0, 0]\nclass = 30-40", fillcolor="#e58139"] ;
321 -> 322 ;
323 [label="HML <= 302.5\ngini = 0.5\nsamples = 2\nvalue = [0, 0, 1, 1, 0]\nclass = 50+", fillcolor="#ffffff"] ;
321 -> 323 ;
324 [label="gini = 0.0\nsamples = 1\nvalue = [0, 0, 0, 1, 0]\nclass = 20-30", fillcolor="#3c39e5"] ;
323 -> 324 ;
325 [label="gini = 0.0\nsamples = 1\nvalue = [0, 0, 1, 0, 0]\nclass = 50+", fillcolor="#39e5c5"] ;
323 -> 325 ;
326 [label="gini = 0.0\nsamples = 5\nvalue = [5, 0, 0, 0, 0]\nclass = 30-40", fillcolor="#e58139"] ;
320 -> 326 ;
327 [label="HHD <= 38.575\ngini = 0.68\nsamples = 16\nvalue = [6, 1, 0, 3, 6]\nclass = 30-40", fillcolor="#ffffff"] ;
317 -> 327 ;
328 [label="gini = 0.0\nsamples = 2\nvalue = [0, 0, 0, 2, 0]\nclass = 20-30", fillcolor="#3c39e5"] ;
327 -> 328 ;
329 [label="HMLD <= 17.51\ngini = 0.622\nsamples = 14\nvalue = [6, 1, 0, 1, 6]\nclass = 30-40", fillcolor="#ffffff"] ;
327 -> 329 ;
330 [label="HMLD <= 16.53\ngini = 0.54\nsamples = 10\nvalue = [3, 1, 0, 0, 6]\nclass = 40-50", fillcolor="#f4aae4"] ;
329 -> 330 ;
331 [label="HML <= 304.25\ngini = 0.56\nsamples = 5\nvalue = [3, 1, 0, 0, 1]\nclass = 30-40", fillcolor="#f2c09c"] ;
330 -> 331 ;
332 [label="HML <= 295.75\ngini = 0.375\nsamples = 4\nvalue = [3, 0, 0, 0, 1]\nclass = 30-40", fillcolor="#eeab7b"] ;
331 -> 332 ;
333 [label="gini = 0.0\nsamples = 2\nvalue = [2, 0, 0, 0, 0]\nclass = 30-40", fillcolor="#e58139"] ;
332 -> 333 ;
334 [label="HML <= 299.25\ngini = 0.5\nsamples = 2\nvalue = [1, 0, 0, 0, 1]\nclass = 30-40", fillcolor="#ffffff"] ;
332 -> 334 ;
335 [label="gini = 0.0\nsamples = 1\nvalue = [0, 0, 0, 0, 1]\nclass = 40-50", fillcolor="#e539c0"] ;
334 -> 335 ;
336 [label="gini = 0.0\nsamples = 1\nvalue = [1, 0, 0, 0, 0]\nclass = 30-40", fillcolor="#e58139"] ;
334 -> 336 ;
337 [label="gini = 0.0\nsamples = 1\nvalue = [0, 1, 0, 0, 0]\nclass = <20", fillcolor="#7be539"] ;
331 -> 337 ;
338 [label="gini = 0.0\nsamples = 5\nvalue = [0, 0, 0, 0, 5]\nclass = 40-50", fillcolor="#e539c0"] ;
330 -> 338 ;
339 [label="HEB <= 49.5\ngini = 0.375\nsamples = 4\nvalue = [3, 0, 0, 1, 0]\nclass = 30-40", fillcolor="#eeab7b"] ;
329 -> 339 ;
340 [label="gini = 0.0\nsamples = 1\nvalue = [0, 0, 0, 1, 0]\nclass = 20-30", fillcolor="#3c39e5"] ;
339 -> 340 ;
341 [label="gini = 0.0\nsamples = 3\nvalue = [3, 0, 0, 0, 0]\nclass = 30-40", fillcolor="#e58139"] ;
339 -> 341 ;
342 [label="gini = 0.0\nsamples = 3\nvalue = [0, 0, 0, 3, 0]\nclass = 20-30", fillcolor="#3c39e5"] ;
316 -> 342 ;
343 [label="HHD <= 39.195\ngini = 0.59\nsamples = 39\nvalue = [13, 0, 2, 3, 21]\nclass = 40-50", fillcolor="#f7c2ec"] ;
305 -> 343 ;
344 [label="HMLD <= 18.09\ngini = 0.609\nsamples = 23\nvalue = [11, 0, 2, 1, 9]\nclass = 30-40", fillcolor="#fbede3"] ;
343 -> 344 ;
345 [label="HHD <= 38.545\ngini = 0.52\nsamples = 14\nvalue = [9, 0, 2, 0, 3]\nclass = 30-40", fillcolor="#f1ba93"] ;
344 -> 345 ;
346 [label="HHD <= 37.73\ngini = 0.397\nsamples = 11\nvalue = [8, 0, 0, 0, 3]\nclass = 30-40", fillcolor="#efb083"] ;
345 -> 346 ;
347 [label="HHD <= 36.31\ngini = 0.5\nsamples = 6\nvalue = [3, 0, 0, 0, 3]\nclass = 30-40", fillcolor="#ffffff"] ;
346 -> 347 ;
348 [label="gini = 0.0\nsamples = 3\nvalue = [3, 0, 0, 0, 0]\nclass = 30-40", fillcolor="#e58139"] ;
347 -> 348 ;
349 [label="gini = 0.0\nsamples = 3\nvalue = [0, 0, 0, 0, 3]\nclass = 40-50", fillcolor="#e539c0"] ;
347 -> 349 ;
350 [label="gini = 0.0\nsamples = 5\nvalue = [5, 0, 0, 0, 0]\nclass = 30-40", fillcolor="#e58139"] ;
346 -> 350 ;
351 [label="HMLD <= 16.825\ngini = 0.444\nsamples = 3\nvalue = [1, 0, 2, 0, 0]\nclass = 50+", fillcolor="#9cf2e2"] ;
345 -> 351 ;
352 [label="gini = 0.0\nsamples = 1\nvalue = [1, 0, 0, 0, 0]\nclass = 30-40", fillcolor="#e58139"] ;
351 -> 352 ;
353 [label="gini = 0.0\nsamples = 2\nvalue = [0, 0, 2, 0, 0]\nclass = 50+", fillcolor="#39e5c5"] ;
351 -> 353 ;
354 [label="HHD <= 38.53\ngini = 0.494\nsamples = 9\nvalue = [2, 0, 0, 1, 6]\nclass = 40-50", fillcolor="#f08edb"] ;
344 -> 354 ;
355 [label="HMLD <= 18.27\ngini = 0.278\nsamples = 6\nvalue = [0, 0, 0, 1, 5]\nclass = 40-50", fillcolor="#ea61cd"] ;
354 -> 355 ;
356 [label="HMLD <= 18.215\ngini = 0.5\nsamples = 2\nvalue = [0, 0, 0, 1, 1]\nclass = 20-30", fillcolor="#ffffff"] ;
355 -> 356 ;
357 [label="gini = 0.0\nsamples = 1\nvalue = [0, 0, 0, 0, 1]\nclass = 40-50", fillcolor="#e539c0"] ;
356 -> 357 ;
358 [label="gini = 0.0\nsamples = 1\nvalue = [0, 0, 0, 1, 0]\nclass = 20-30", fillcolor="#3c39e5"] ;
356 -> 358 ;
359 [label="gini = 0.0\nsamples = 4\nvalue = [0, 0, 0, 0, 4]\nclass = 40-50", fillcolor="#e539c0"] ;
355 -> 359 ;
360 [label="HMLD <= 18.23\ngini = 0.444\nsamples = 3\nvalue = [2, 0, 0, 0, 1]\nclass = 30-40", fillcolor="#f2c09c"] ;
354 -> 360 ;
361 [label="gini = 0.0\nsamples = 1\nvalue = [0, 0, 0, 0, 1]\nclass = 40-50", fillcolor="#e539c0"] ;
360 -> 361 ;
362 [label="gini = 0.0\nsamples = 2\nvalue = [2, 0, 0, 0, 0]\nclass = 30-40", fillcolor="#e58139"] ;
360 -> 362 ;
363 [label="HEB <= 55.5\ngini = 0.406\nsamples = 16\nvalue = [2, 0, 0, 2, 12]\nclass = 40-50", fillcolor="#ec72d2"] ;
343 -> 363 ;
364 [label="gini = 0.0\nsamples = 10\nvalue = [0, 0, 0, 0, 10]\nclass = 40-50", fillcolor="#e539c0"] ;
363 -> 364 ;
365 [label="HML <= 298.5\ngini = 0.667\nsamples = 6\nvalue = [2, 0, 0, 2, 2]\nclass = 30-40", fillcolor="#ffffff"] ;
363 -> 365 ;
366 [label="HMLD <= 18.295\ngini = 0.444\nsamples = 3\nvalue = [1, 0, 0, 0, 2]\nclass = 40-50", fillcolor="#f29ce0"] ;
365 -> 366 ;
367 [label="gini = 0.0\nsamples = 2\nvalue = [0, 0, 0, 0, 2]\nclass = 40-50", fillcolor="#e539c0"] ;
366 -> 367 ;
368 [label="gini = 0.0\nsamples = 1\nvalue = [1, 0, 0, 0, 0]\nclass = 30-40", fillcolor="#e58139"] ;
366 -> 368 ;
369 [label="HEB <= 56.5\ngini = 0.444\nsamples = 3\nvalue = [1, 0, 0, 2, 0]\nclass = 20-30", fillcolor="#9e9cf2"] ;
365 -> 369 ;
370 [label="gini = 0.0\nsamples = 1\nvalue = [1, 0, 0, 0, 0]\nclass = 30-40", fillcolor="#e58139"] ;
369 -> 370 ;
371 [label="gini = 0.0\nsamples = 2\nvalue = [0, 0, 0, 2, 0]\nclass = 20-30", fillcolor="#3c39e5"] ;
369 -> 371 ;
372 [label="HHD <= 41.975\ngini = 0.655\nsamples = 48\nvalue = [25, 2, 4, 7, 10]\nclass = 30-40", fillcolor="#f5cdb1"] ;
304 -> 372 ;
373 [label="HMLD <= 18.635\ngini = 0.628\nsamples = 43\nvalue = [24, 2, 3, 7, 7]\nclass = 30-40", fillcolor="#f3c4a2"] ;
372 -> 373 ;
374 [label="HMLD <= 14.91\ngini = 0.59\nsamples = 40\nvalue = [24, 2, 2, 6, 6]\nclass = 30-40", fillcolor="#f1bc96"] ;
373 -> 374 ;
375 [label="gini = 0.0\nsamples = 1\nvalue = [0, 0, 0, 0, 1]\nclass = 40-50", fillcolor="#e539c0"] ;
374 -> 375 ;
376 [label="HML <= 297.75\ngini = 0.576\nsamples = 39\nvalue = [24, 2, 2, 6, 5]\nclass = 30-40", fillcolor="#f1ba93"] ;
374 -> 376 ;
377 [label="HEB <= 54.5\ngini = 0.198\nsamples = 9\nvalue = [8, 0, 0, 1, 0]\nclass = 30-40", fillcolor="#e89152"] ;
376 -> 377 ;
378 [label="gini = 0.0\nsamples = 8\nvalue = [8, 0, 0, 0, 0]\nclass = 30-40", fillcolor="#e58139"] ;
377 -> 378 ;
379 [label="gini = 0.0\nsamples = 1\nvalue = [0, 0, 0, 1, 0]\nclass = 20-30", fillcolor="#3c39e5"] ;
377 -> 379 ;
380 [label="HML <= 303.5\ngini = 0.651\nsamples = 30\nvalue = [16, 2, 2, 5, 5]\nclass = 30-40", fillcolor="#f4c8a8"] ;
376 -> 380 ;
381 [label="HEB <= 52.25\ngini = 0.691\nsamples = 9\nvalue = [2, 1, 0, 2, 4]\nclass = 40-50", fillcolor="#f8c6ed"] ;
380 -> 381 ;
382 [label="gini = 0.0\nsamples = 2\nvalue = [0, 0, 0, 0, 2]\nclass = 40-50", fillcolor="#e539c0"] ;
381 -> 382 ;
383 [label="HML <= 301.0\ngini = 0.735\nsamples = 7\nvalue = [2, 1, 0, 2, 2]\nclass = 30-40", fillcolor="#ffffff"] ;
381 -> 383 ;
384 [label="HEB <= 53.5\ngini = 0.444\nsamples = 3\nvalue = [2, 0, 0, 1, 0]\nclass = 30-40", fillcolor="#f2c09c"] ;
383 -> 384 ;
385 [label="gini = 0.0\nsamples = 1\nvalue = [0, 0, 0, 1, 0]\nclass = 20-30", fillcolor="#3c39e5"] ;
384 -> 385 ;
386 [label="gini = 0.0\nsamples = 2\nvalue = [2, 0, 0, 0, 0]\nclass = 30-40", fillcolor="#e58139"] ;
384 -> 386 ;
387 [label="HHD <= 41.26\ngini = 0.625\nsamples = 4\nvalue = [0, 1, 0, 1, 2]\nclass = 40-50", fillcolor="#f6bdea"] ;
383 -> 387 ;
388 [label="HEB <= 57.75\ngini = 0.5\nsamples = 2\nvalue = [0, 1, 0, 1, 0]\nclass = <20", fillcolor="#ffffff"] ;
387 -> 388 ;
389 [label="gini = 0.0\nsamples = 1\nvalue = [0, 1, 0, 0, 0]\nclass = <20", fillcolor="#7be539"] ;
388 -> 389 ;
390 [label="gini = 0.0\nsamples = 1\nvalue = [0, 0, 0, 1, 0]\nclass = 20-30", fillcolor="#3c39e5"] ;
388 -> 390 ;
391 [label="gini = 0.0\nsamples = 2\nvalue = [0, 0, 0, 0, 2]\nclass = 40-50", fillcolor="#e539c0"] ;
387 -> 391 ;
392 [label="HHD <= 41.715\ngini = 0.522\nsamples = 21\nvalue = [14, 1, 2, 3, 1]\nclass = 30-40", fillcolor="#efb286"] ;
380 -> 392 ;
393 [label="HML <= 309.75\ngini = 0.625\nsamples = 16\nvalue = [9, 1, 2, 3, 1]\nclass = 30-40", fillcolor="#f3c5a4"] ;
392 -> 393 ;
394 [label="HML <= 307.5\ngini = 0.625\nsamples = 4\nvalue = [1, 1, 0, 2, 0]\nclass = 20-30", fillcolor="#bebdf6"] ;
393 -> 394 ;
395 [label="HMLD <= 17.84\ngini = 0.5\nsamples = 2\nvalue = [1, 1, 0, 0, 0]\nclass = 30-40", fillcolor="#ffffff"] ;
394 -> 395 ;
396 [label="gini = 0.0\nsamples = 1\nvalue = [0, 1, 0, 0, 0]\nclass = <20", fillcolor="#7be539"] ;
395 -> 396 ;
397 [label="gini = 0.0\nsamples = 1\nvalue = [1, 0, 0, 0, 0]\nclass = 30-40", fillcolor="#e58139"] ;
395 -> 397 ;
398 [label="gini = 0.0\nsamples = 2\nvalue = [0, 0, 0, 2, 0]\nclass = 20-30", fillcolor="#3c39e5"] ;
394 -> 398 ;
399 [label="HHD <= 41.45\ngini = 0.514\nsamples = 12\nvalue = [8, 0, 2, 1, 1]\nclass = 30-40", fillcolor="#efb388"] ;
393 -> 399 ;
400 [label="HEB <= 57.0\ngini = 0.34\nsamples = 10\nvalue = [8, 0, 1, 0, 1]\nclass = 30-40", fillcolor="#eb9d65"] ;
399 -> 400 ;
401 [label="HMLD <= 17.885\ngini = 0.5\nsamples = 6\nvalue = [4, 0, 1, 0, 1]\nclass = 30-40", fillcolor="#efb388"] ;
400 -> 401 ;
402 [label="HML <= 314.5\ngini = 0.32\nsamples = 5\nvalue = [4, 0, 1, 0, 0]\nclass = 30-40", fillcolor="#eca06a"] ;
401 -> 402 ;
403 [label="gini = 0.0\nsamples = 3\nvalue = [3, 0, 0, 0, 0]\nclass = 30-40", fillcolor="#e58139"] ;
402 -> 403 ;
404 [label="HMLD <= 17.49\ngini = 0.5\nsamples = 2\nvalue = [1, 0, 1, 0, 0]\nclass = 30-40", fillcolor="#ffffff"] ;
402 -> 404 ;
405 [label="gini = 0.0\nsamples = 1\nvalue = [0, 0, 1, 0, 0]\nclass = 50+", fillcolor="#39e5c5"] ;
404 -> 405 ;
406 [label="gini = 0.0\nsamples = 1\nvalue = [1, 0, 0, 0, 0]\nclass = 30-40", fillcolor="#e58139"] ;
404 -> 406 ;
407 [label="gini = 0.0\nsamples = 1\nvalue = [0, 0, 0, 0, 1]\nclass = 40-50", fillcolor="#e539c0"] ;
401 -> 407 ;
408 [label="gini = 0.0\nsamples = 4\nvalue = [4, 0, 0, 0, 0]\nclass = 30-40", fillcolor="#e58139"] ;
400 -> 408 ;
409 [label="HHD <= 41.535\ngini = 0.5\nsamples = 2\nvalue = [0, 0, 1, 1, 0]\nclass = 50+", fillcolor="#ffffff"] ;
399 -> 409 ;
410 [label="gini = 0.0\nsamples = 1\nvalue = [0, 0, 0, 1, 0]\nclass = 20-30", fillcolor="#3c39e5"] ;
409 -> 410 ;
411 [label="gini = 0.0\nsamples = 1\nvalue = [0, 0, 1, 0, 0]\nclass = 50+", fillcolor="#39e5c5"] ;
409 -> 411 ;
412 [label="gini = 0.0\nsamples = 5\nvalue = [5, 0, 0, 0, 0]\nclass = 30-40", fillcolor="#e58139"] ;
392 -> 412 ;
413 [label="HEB <= 55.25\ngini = 0.667\nsamples = 3\nvalue = [0, 0, 1, 1, 1]\nclass = 50+", fillcolor="#ffffff"] ;
373 -> 413 ;
414 [label="gini = 0.0\nsamples = 1\nvalue = [0, 0, 1, 0, 0]\nclass = 50+", fillcolor="#39e5c5"] ;
413 -> 414 ;
415 [label="HEB <= 59.5\ngini = 0.5\nsamples = 2\nvalue = [0, 0, 0, 1, 1]\nclass = 20-30", fillcolor="#ffffff"] ;
413 -> 415 ;
416 [label="gini = 0.0\nsamples = 1\nvalue = [0, 0, 0, 0, 1]\nclass = 40-50", fillcolor="#e539c0"] ;
415 -> 416 ;
417 [label="gini = 0.0\nsamples = 1\nvalue = [0, 0, 0, 1, 0]\nclass = 20-30", fillcolor="#3c39e5"] ;
415 -> 417 ;
418 [label="HML <= 304.0\ngini = 0.56\nsamples = 5\nvalue = [1, 0, 1, 0, 3]\nclass = 40-50", fillcolor="#f29ce0"] ;
372 -> 418 ;
419 [label="HMLD <= 17.875\ngini = 0.5\nsamples = 2\nvalue = [1, 0, 1, 0, 0]\nclass = 30-40", fillcolor="#ffffff"] ;
418 -> 419 ;
420 [label="gini = 0.0\nsamples = 1\nvalue = [1, 0, 0, 0, 0]\nclass = 30-40", fillcolor="#e58139"] ;
419 -> 420 ;
421 [label="gini = 0.0\nsamples = 1\nvalue = [0, 0, 1, 0, 0]\nclass = 50+", fillcolor="#39e5c5"] ;
419 -> 421 ;
422 [label="gini = 0.0\nsamples = 3\nvalue = [0, 0, 0, 0, 3]\nclass = 40-50", fillcolor="#e539c0"] ;
418 -> 422 ;
423 [label="HML <= 329.5\ngini = 0.702\nsamples = 64\nvalue = [19, 2, 2, 23, 18]\nclass = 20-30", fillcolor="#eeedfd"] ;
303 -> 423 ;
424 [label="HEB <= 58.75\ngini = 0.7\nsamples = 62\nvalue = [19, 2, 2, 23, 16]\nclass = 20-30", fillcolor="#ededfd"] ;
423 -> 424 ;
425 [label="HML <= 313.5\ngini = 0.72\nsamples = 43\nvalue = [14, 2, 2, 12, 13]\nclass = 30-40", fillcolor="#fefbf8"] ;
424 -> 425 ;
426 [label="HEB <= 55.25\ngini = 0.721\nsamples = 36\nvalue = [13, 2, 2, 11, 8]\nclass = 30-40", fillcolor="#fdf5ef"] ;
425 -> 426 ;
427 [label="HML <= 304.75\ngini = 0.684\nsamples = 15\nvalue = [3, 0, 1, 6, 5]\nclass = 20-30", fillcolor="#ebebfc"] ;
426 -> 427 ;
428 [label="HEB <= 54.5\ngini = 0.642\nsamples = 9\nvalue = [3, 0, 0, 2, 4]\nclass = 40-50", fillcolor="#fbdef4"] ;
427 -> 428 ;
429 [label="HMLD <= 18.03\ngini = 0.611\nsamples = 6\nvalue = [3, 0, 0, 2, 1]\nclass = 30-40", fillcolor="#f8e0ce"] ;
428 -> 429 ;
430 [label="HHD <= 43.185\ngini = 0.625\nsamples = 4\nvalue = [1, 0, 0, 2, 1]\nclass = 20-30", fillcolor="#bebdf6"] ;
429 -> 430 ;
431 [label="gini = 0.0\nsamples = 2\nvalue = [0, 0, 0, 2, 0]\nclass = 20-30", fillcolor="#3c39e5"] ;
430 -> 431 ;
432 [label="HMLD <= 16.87\ngini = 0.5\nsamples = 2\nvalue = [1, 0, 0, 0, 1]\nclass = 30-40", fillcolor="#ffffff"] ;
430 -> 432 ;
433 [label="gini = 0.0\nsamples = 1\nvalue = [1, 0, 0, 0, 0]\nclass = 30-40", fillcolor="#e58139"] ;
432 -> 433 ;
434 [label="gini = 0.0\nsamples = 1\nvalue = [0, 0, 0, 0, 1]\nclass = 40-50", fillcolor="#e539c0"] ;
432 -> 434 ;
435 [label="gini = 0.0\nsamples = 2\nvalue = [2, 0, 0, 0, 0]\nclass = 30-40", fillcolor="#e58139"] ;
429 -> 435 ;
436 [label="gini = 0.0\nsamples = 3\nvalue = [0, 0, 0, 0, 3]\nclass = 40-50", fillcolor="#e539c0"] ;
428 -> 436 ;
437 [label="HEB <= 52.25\ngini = 0.5\nsamples = 6\nvalue = [0, 0, 1, 4, 1]\nclass = 20-30", fillcolor="#8a88ef"] ;
427 -> 437 ;
438 [label="gini = 0.0\nsamples = 1\nvalue = [0, 0, 0, 0, 1]\nclass = 40-50", fillcolor="#e539c0"] ;
437 -> 438 ;
439 [label="HHD <= 42.535\ngini = 0.32\nsamples = 5\nvalue = [0, 0, 1, 4, 0]\nclass = 20-30", fillcolor="#6d6aec"] ;
437 -> 439 ;
440 [label="gini = 0.0\nsamples = 1\nvalue = [0, 0, 1, 0, 0]\nclass = 50+", fillcolor="#39e5c5"] ;
439 -> 440 ;
441 [label="gini = 0.0\nsamples = 4\nvalue = [0, 0, 0, 4, 0]\nclass = 20-30", fillcolor="#3c39e5"] ;
439 -> 441 ;
442 [label="HML <= 305.0\ngini = 0.685\nsamples = 21\nvalue = [10, 2, 1, 5, 3]\nclass = 30-40", fillcolor="#f7d8c1"] ;
426 -> 442 ;
443 [label="HHD <= 42.735\ngini = 0.727\nsamples = 11\nvalue = [3, 2, 0, 4, 2]\nclass = 20-30", fillcolor="#e7e6fc"] ;
442 -> 443 ;
444 [label="gini = 0.0\nsamples = 2\nvalue = [0, 0, 0, 0, 2]\nclass = 40-50", fillcolor="#e539c0"] ;
443 -> 444 ;
445 [label="HHD <= 43.64\ngini = 0.642\nsamples = 9\nvalue = [3, 2, 0, 4, 0]\nclass = 20-30", fillcolor="#dedefb"] ;
443 -> 445 ;
446 [label="HEB <= 57.75\ngini = 0.48\nsamples = 5\nvalue = [0, 2, 0, 3, 0]\nclass = 20-30", fillcolor="#bebdf6"] ;
445 -> 446 ;
447 [label="gini = 0.0\nsamples = 2\nvalue = [0, 0, 0, 2, 0]\nclass = 20-30", fillcolor="#3c39e5"] ;
446 -> 447 ;
448 [label="HMLD <= 18.355\ngini = 0.444\nsamples = 3\nvalue = [0, 2, 0, 1, 0]\nclass = <20", fillcolor="#bdf29c"] ;
446 -> 448 ;
449 [label="gini = 0.0\nsamples = 2\nvalue = [0, 2, 0, 0, 0]\nclass = <20", fillcolor="#7be539"] ;
448 -> 449 ;
450 [label="gini = 0.0\nsamples = 1\nvalue = [0, 0, 0, 1, 0]\nclass = 20-30", fillcolor="#3c39e5"] ;
448 -> 450 ;
451 [label="HMLD <= 18.225\ngini = 0.375\nsamples = 4\nvalue = [3, 0, 0, 1, 0]\nclass = 30-40", fillcolor="#eeab7b"] ;
445 -> 451 ;
452 [label="gini = 0.0\nsamples = 3\nvalue = [3, 0, 0, 0, 0]\nclass = 30-40", fillcolor="#e58139"] ;
451 -> 452 ;
453 [label="gini = 0.0\nsamples = 1\nvalue = [0, 0, 0, 1, 0]\nclass = 20-30", fillcolor="#3c39e5"] ;
451 -> 453 ;
454 [label="HHD <= 43.105\ngini = 0.48\nsamples = 10\nvalue = [7, 0, 1, 1, 1]\nclass = 30-40", fillcolor="#eeab7b"] ;
442 -> 454 ;
455 [label="gini = 0.0\nsamples = 6\nvalue = [6, 0, 0, 0, 0]\nclass = 30-40", fillcolor="#e58139"] ;
454 -> 455 ;
456 [label="HMLD <= 16.86\ngini = 0.75\nsamples = 4\nvalue = [1, 0, 1, 1, 1]\nclass = 30-40", fillcolor="#ffffff"] ;
454 -> 456 ;
457 [label="gini = 0.0\nsamples = 1\nvalue = [0, 0, 0, 1, 0]\nclass = 20-30", fillcolor="#3c39e5"] ;
456 -> 457 ;
458 [label="HML <= 309.0\ngini = 0.667\nsamples = 3\nvalue = [1, 0, 1, 0, 1]\nclass = 30-40", fillcolor="#ffffff"] ;
456 -> 458 ;
459 [label="gini = 0.0\nsamples = 1\nvalue = [1, 0, 0, 0, 0]\nclass = 30-40", fillcolor="#e58139"] ;
458 -> 459 ;
460 [label="HEB <= 56.5\ngini = 0.5\nsamples = 2\nvalue = [0, 0, 1, 0, 1]\nclass = 50+", fillcolor="#ffffff"] ;
458 -> 460 ;
461 [label="gini = 0.0\nsamples = 1\nvalue = [0, 0, 0, 0, 1]\nclass = 40-50", fillcolor="#e539c0"] ;
460 -> 461 ;
462 [label="gini = 0.0\nsamples = 1\nvalue = [0, 0, 1, 0, 0]\nclass = 50+", fillcolor="#39e5c5"] ;
460 -> 462 ;
463 [label="HMLD <= 18.58\ngini = 0.449\nsamples = 7\nvalue = [1, 0, 0, 1, 5]\nclass = 40-50", fillcolor="#ee7bd5"] ;
425 -> 463 ;
464 [label="HMLD <= 17.81\ngini = 0.278\nsamples = 6\nvalue = [0, 0, 0, 1, 5]\nclass = 40-50", fillcolor="#ea61cd"] ;
463 -> 464 ;
465 [label="HMLD <= 17.485\ngini = 0.5\nsamples = 2\nvalue = [0, 0, 0, 1, 1]\nclass = 20-30", fillcolor="#ffffff"] ;
464 -> 465 ;
466 [label="gini = 0.0\nsamples = 1\nvalue = [0, 0, 0, 0, 1]\nclass = 40-50", fillcolor="#e539c0"] ;
465 -> 466 ;
467 [label="gini = 0.0\nsamples = 1\nvalue = [0, 0, 0, 1, 0]\nclass = 20-30", fillcolor="#3c39e5"] ;
465 -> 467 ;
468 [label="gini = 0.0\nsamples = 4\nvalue = [0, 0, 0, 0, 4]\nclass = 40-50", fillcolor="#e539c0"] ;
464 -> 468 ;
469 [label="gini = 0.0\nsamples = 1\nvalue = [1, 0, 0, 0, 0]\nclass = 30-40", fillcolor="#e58139"] ;
463 -> 469 ;
470 [label="HML <= 326.5\ngini = 0.571\nsamples = 19\nvalue = [5, 0, 0, 11, 3]\nclass = 20-30", fillcolor="#abaaf4"] ;
424 -> 470 ;
471 [label="HMLD <= 17.035\ngini = 0.519\nsamples = 17\nvalue = [3, 0, 0, 11, 3]\nclass = 20-30", fillcolor="#908ef0"] ;
470 -> 471 ;
472 [label="HEB <= 59.25\ngini = 0.444\nsamples = 3\nvalue = [0, 0, 0, 1, 2]\nclass = 40-50", fillcolor="#f29ce0"] ;
471 -> 472 ;
473 [label="gini = 0.0\nsamples = 1\nvalue = [0, 0, 0, 1, 0]\nclass = 20-30", fillcolor="#3c39e5"] ;
472 -> 473 ;
474 [label="gini = 0.0\nsamples = 2\nvalue = [0, 0, 0, 0, 2]\nclass = 40-50", fillcolor="#e539c0"] ;
472 -> 474 ;
475 [label="HHD <= 46.105\ngini = 0.439\nsamples = 14\nvalue = [3, 0, 0, 10, 1]\nclass = 20-30", fillcolor="#8381ee"] ;
471 -> 475 ;
476 [label="HMLD <= 17.825\ngini = 0.355\nsamples = 13\nvalue = [3, 0, 0, 10, 0]\nclass = 20-30", fillcolor="#7674ed"] ;
475 -> 476 ;
477 [label="gini = 0.0\nsamples = 5\nvalue = [0, 0, 0, 5, 0]\nclass = 20-30", fillcolor="#3c39e5"] ;
476 -> 477 ;
478 [label="HMLD <= 18.23\ngini = 0.469\nsamples = 8\nvalue = [3, 0, 0, 5, 0]\nclass = 20-30", fillcolor="#b1b0f5"] ;
476 -> 478 ;
479 [label="gini = 0.0\nsamples = 2\nvalue = [2, 0, 0, 0, 0]\nclass = 30-40", fillcolor="#e58139"] ;
478 -> 479 ;
480 [label="HMLD <= 18.58\ngini = 0.278\nsamples = 6\nvalue = [1, 0, 0, 5, 0]\nclass = 20-30", fillcolor="#6361ea"] ;
478 -> 480 ;
481 [label="gini = 0.0\nsamples = 4\nvalue = [0, 0, 0, 4, 0]\nclass = 20-30", fillcolor="#3c39e5"] ;
480 -> 481 ;
482 [label="HHD <= 42.61\ngini = 0.5\nsamples = 2\nvalue = [1, 0, 0, 1, 0]\nclass = 30-40", fillcolor="#ffffff"] ;
480 -> 482 ;
483 [label="gini = 0.0\nsamples = 1\nvalue = [0, 0, 0, 1, 0]\nclass = 20-30", fillcolor="#3c39e5"] ;
482 -> 483 ;
484 [label="gini = 0.0\nsamples = 1\nvalue = [1, 0, 0, 0, 0]\nclass = 30-40", fillcolor="#e58139"] ;
482 -> 484 ;
485 [label="gini = 0.0\nsamples = 1\nvalue = [0, 0, 0, 0, 1]\nclass = 40-50", fillcolor="#e539c0"] ;
475 -> 485 ;
486 [label="gini = 0.0\nsamples = 2\nvalue = [2, 0, 0, 0, 0]\nclass = 30-40", fillcolor="#e58139"] ;
470 -> 486 ;
487 [label="gini = 0.0\nsamples = 2\nvalue = [0, 0, 0, 0, 2]\nclass = 40-50", fillcolor="#e539c0"] ;
423 -> 487 ;
488 [label="HEB <= 58.0\ngini = 0.278\nsamples = 6\nvalue = [5, 0, 0, 0, 1]\nclass = 30-40", fillcolor="#ea9a61"] ;
302 -> 488 ;
489 [label="HEB <= 55.5\ngini = 0.5\nsamples = 2\nvalue = [1, 0, 0, 0, 1]\nclass = 30-40", fillcolor="#ffffff"] ;
488 -> 489 ;
490 [label="gini = 0.0\nsamples = 1\nvalue = [1, 0, 0, 0, 0]\nclass = 30-40", fillcolor="#e58139"] ;
489 -> 490 ;
491 [label="gini = 0.0\nsamples = 1\nvalue = [0, 0, 0, 0, 1]\nclass = 40-50", fillcolor="#e539c0"] ;
489 -> 491 ;
492 [label="gini = 0.0\nsamples = 4\nvalue = [4, 0, 0, 0, 0]\nclass = 30-40", fillcolor="#e58139"] ;
488 -> 492 ;
493 [label="HMLD <= 18.315\ngini = 0.32\nsamples = 5\nvalue = [0, 1, 0, 4, 0]\nclass = 20-30", fillcolor="#6d6aec"] ;
147 -> 493 ;
494 [label="gini = 0.0\nsamples = 4\nvalue = [0, 0, 0, 4, 0]\nclass = 20-30", fillcolor="#3c39e5"] ;
493 -> 494 ;
495 [label="gini = 0.0\nsamples = 1\nvalue = [0, 1, 0, 0, 0]\nclass = <20", fillcolor="#7be539"] ;
493 -> 495 ;
496 [label="HHD <= 42.555\ngini = 0.668\nsamples = 1031\nvalue = [415, 22, 36, 172, 386]\nclass = 30-40", fillcolor="#fef9f6"] ;
0 -> 496 [labeldistance=2.5, labelangle=-45, headlabel="False"] ;
497 [label="HHD <= 37.18\ngini = 0.633\nsamples = 405\nvalue = [141, 10, 2, 61, 191]\nclass = 40-50", fillcolor="#fadaf3"] ;
496 -> 497 ;
498 [label="HEB <= 47.5\ngini = 0.525\nsamples = 49\nvalue = [31, 0, 0, 6, 12]\nclass = 30-40", fillcolor="#f2be99"] ;
497 -> 498 ;
499 [label="HMLD <= 20.055\ngini = 0.531\nsamples = 8\nvalue = [1, 0, 0, 2, 5]\nclass = 40-50", fillcolor="#f29ce0"] ;
498 -> 499 ;
500 [label="HHD <= 33.54\ngini = 0.408\nsamples = 7\nvalue = [0, 0, 0, 2, 5]\nclass = 40-50", fillcolor="#ef88d9"] ;
499 -> 500 ;
501 [label="gini = 0.0\nsamples = 1\nvalue = [0, 0, 0, 1, 0]\nclass = 20-30", fillcolor="#3c39e5"] ;
500 -> 501 ;
502 [label="HML <= 279.75\ngini = 0.278\nsamples = 6\nvalue = [0, 0, 0, 1, 5]\nclass = 40-50", fillcolor="#ea61cd"] ;
500 -> 502 ;
503 [label="gini = 0.0\nsamples = 4\nvalue = [0, 0, 0, 0, 4]\nclass = 40-50", fillcolor="#e539c0"] ;
502 -> 503 ;
504 [label="HHD <= 36.165\ngini = 0.5\nsamples = 2\nvalue = [0, 0, 0, 1, 1]\nclass = 20-30", fillcolor="#ffffff"] ;
502 -> 504 ;
505 [label="gini = 0.0\nsamples = 1\nvalue = [0, 0, 0, 1, 0]\nclass = 20-30", fillcolor="#3c39e5"] ;
504 -> 505 ;
506 [label="gini = 0.0\nsamples = 1\nvalue = [0, 0, 0, 0, 1]\nclass = 40-50", fillcolor="#e539c0"] ;
504 -> 506 ;
507 [label="gini = 0.0\nsamples = 1\nvalue = [1, 0, 0, 0, 0]\nclass = 30-40", fillcolor="#e58139"] ;
499 -> 507 ;
508 [label="HMLD <= 18.81\ngini = 0.426\nsamples = 41\nvalue = [30, 0, 0, 4, 7]\nclass = 30-40", fillcolor="#edaa79"] ;
498 -> 508 ;
509 [label="HHD <= 32.925\ngini = 0.5\nsamples = 2\nvalue = [0, 0, 0, 1, 1]\nclass = 20-30", fillcolor="#ffffff"] ;
508 -> 509 ;
510 [label="gini = 0.0\nsamples = 1\nvalue = [0, 0, 0, 0, 1]\nclass = 40-50", fillcolor="#e539c0"] ;
509 -> 510 ;
511 [label="gini = 0.0\nsamples = 1\nvalue = [0, 0, 0, 1, 0]\nclass = 20-30", fillcolor="#3c39e5"] ;
509 -> 511 ;
512 [label="HMLD <= 20.17\ngini = 0.379\nsamples = 39\nvalue = [30, 0, 0, 3, 6]\nclass = 30-40", fillcolor="#eca36f"] ;
508 -> 512 ;
513 [label="HMLD <= 19.195\ngini = 0.497\nsamples = 24\nvalue = [16, 0, 0, 3, 5]\nclass = 30-40", fillcolor="#f0b68c"] ;
512 -> 513 ;
514 [label="gini = 0.0\nsamples = 9\nvalue = [9, 0, 0, 0, 0]\nclass = 30-40", fillcolor="#e58139"] ;
513 -> 514 ;
515 [label="HML <= 287.5\ngini = 0.631\nsamples = 15\nvalue = [7, 0, 0, 3, 5]\nclass = 30-40", fillcolor="#fae6d7"] ;
513 -> 515 ;
516 [label="HMLD <= 19.38\ngini = 0.569\nsamples = 12\nvalue = [7, 0, 0, 3, 2]\nclass = 30-40", fillcolor="#f3c7a7"] ;
515 -> 516 ;
517 [label="HML <= 261.0\ngini = 0.5\nsamples = 2\nvalue = [0, 0, 0, 1, 1]\nclass = 20-30", fillcolor="#ffffff"] ;
516 -> 517 ;
518 [label="gini = 0.0\nsamples = 1\nvalue = [0, 0, 0, 1, 0]\nclass = 20-30", fillcolor="#3c39e5"] ;
517 -> 518 ;
519 [label="gini = 0.0\nsamples = 1\nvalue = [0, 0, 0, 0, 1]\nclass = 40-50", fillcolor="#e539c0"] ;
517 -> 519 ;
520 [label="HMLD <= 20.08\ngini = 0.46\nsamples = 10\nvalue = [7, 0, 0, 2, 1]\nclass = 30-40", fillcolor="#efb083"] ;
516 -> 520 ;
521 [label="HML <= 260.5\ngini = 0.37\nsamples = 9\nvalue = [7, 0, 0, 1, 1]\nclass = 30-40", fillcolor="#eca06a"] ;
520 -> 521 ;
522 [label="HML <= 251.5\ngini = 0.5\nsamples = 2\nvalue = [1, 0, 0, 0, 1]\nclass = 30-40", fillcolor="#ffffff"] ;
521 -> 522 ;
523 [label="gini = 0.0\nsamples = 1\nvalue = [1, 0, 0, 0, 0]\nclass = 30-40", fillcolor="#e58139"] ;
522 -> 523 ;
524 [label="gini = 0.0\nsamples = 1\nvalue = [0, 0, 0, 0, 1]\nclass = 40-50", fillcolor="#e539c0"] ;
522 -> 524 ;
525 [label="HMLD <= 19.495\ngini = 0.245\nsamples = 7\nvalue = [6, 0, 0, 1, 0]\nclass = 30-40", fillcolor="#e9965a"] ;
521 -> 525 ;
526 [label="HEB <= 51.0\ngini = 0.5\nsamples = 2\nvalue = [1, 0, 0, 1, 0]\nclass = 30-40", fillcolor="#ffffff"] ;
525 -> 526 ;
527 [label="gini = 0.0\nsamples = 1\nvalue = [1, 0, 0, 0, 0]\nclass = 30-40", fillcolor="#e58139"] ;
526 -> 527 ;
528 [label="gini = 0.0\nsamples = 1\nvalue = [0, 0, 0, 1, 0]\nclass = 20-30", fillcolor="#3c39e5"] ;
526 -> 528 ;
529 [label="gini = 0.0\nsamples = 5\nvalue = [5, 0, 0, 0, 0]\nclass = 30-40", fillcolor="#e58139"] ;
525 -> 529 ;
530 [label="gini = 0.0\nsamples = 1\nvalue = [0, 0, 0, 1, 0]\nclass = 20-30", fillcolor="#3c39e5"] ;
520 -> 530 ;
531 [label="gini = 0.0\nsamples = 3\nvalue = [0, 0, 0, 0, 3]\nclass = 40-50", fillcolor="#e539c0"] ;
515 -> 531 ;
532 [label="HML <= 276.5\ngini = 0.124\nsamples = 15\nvalue = [14, 0, 0, 0, 1]\nclass = 30-40", fillcolor="#e78a47"] ;
512 -> 532 ;
533 [label="HML <= 274.25\ngini = 0.444\nsamples = 3\nvalue = [2, 0, 0, 0, 1]\nclass = 30-40", fillcolor="#f2c09c"] ;
532 -> 533 ;
534 [label="gini = 0.0\nsamples = 2\nvalue = [2, 0, 0, 0, 0]\nclass = 30-40", fillcolor="#e58139"] ;
533 -> 534 ;
535 [label="gini = 0.0\nsamples = 1\nvalue = [0, 0, 0, 0, 1]\nclass = 40-50", fillcolor="#e539c0"] ;
533 -> 535 ;
536 [label="gini = 0.0\nsamples = 12\nvalue = [12, 0, 0, 0, 0]\nclass = 30-40", fillcolor="#e58139"] ;
532 -> 536 ;
537 [label="HMLD <= 20.185\ngini = 0.627\nsamples = 356\nvalue = [110, 10, 2, 55, 179]\nclass = 40-50", fillcolor="#f8c7ed"] ;
497 -> 537 ;
538 [label="HHD <= 37.99\ngini = 0.642\nsamples = 182\nvalue = [69, 5, 0, 29, 79]\nclass = 40-50", fillcolor="#fdedf9"] ;
537 -> 538 ;
539 [label="HHD <= 37.485\ngini = 0.165\nsamples = 11\nvalue = [1, 0, 0, 0, 10]\nclass = 40-50", fillcolor="#e84dc6"] ;
538 -> 539 ;
540 [label="HEB <= 51.5\ngini = 0.5\nsamples = 2\nvalue = [1, 0, 0, 0, 1]\nclass = 30-40", fillcolor="#ffffff"] ;
539 -> 540 ;
541 [label="gini = 0.0\nsamples = 1\nvalue = [0, 0, 0, 0, 1]\nclass = 40-50", fillcolor="#e539c0"] ;
540 -> 541 ;
542 [label="gini = 0.0\nsamples = 1\nvalue = [1, 0, 0, 0, 0]\nclass = 30-40", fillcolor="#e58139"] ;
540 -> 542 ;
543 [label="gini = 0.0\nsamples = 9\nvalue = [0, 0, 0, 0, 9]\nclass = 40-50", fillcolor="#e539c0"] ;
539 -> 543 ;
544 [label="HML <= 281.5\ngini = 0.649\nsamples = 171\nvalue = [68, 5, 0, 29, 69]\nclass = 40-50", fillcolor="#fffdfe"] ;
538 -> 544 ;
545 [label="HEB <= 51.5\ngini = 0.518\nsamples = 32\nvalue = [18, 0, 0, 1, 13]\nclass = 30-40", fillcolor="#f8decb"] ;
544 -> 545 ;
546 [label="HHD <= 38.015\ngini = 0.32\nsamples = 5\nvalue = [1, 0, 0, 0, 4]\nclass = 40-50", fillcolor="#ec6ad0"] ;
545 -> 546 ;
547 [label="gini = 0.0\nsamples = 1\nvalue = [1, 0, 0, 0, 0]\nclass = 30-40", fillcolor="#e58139"] ;
546 -> 547 ;
548 [label="gini = 0.0\nsamples = 4\nvalue = [0, 0, 0, 0, 4]\nclass = 40-50", fillcolor="#e539c0"] ;
546 -> 548 ;
549 [label="HHD <= 39.235\ngini = 0.491\nsamples = 27\nvalue = [17, 0, 0, 1, 9]\nclass = 30-40", fillcolor="#f3c7a7"] ;
545 -> 549 ;
550 [label="gini = 0.0\nsamples = 7\nvalue = [7, 0, 0, 0, 0]\nclass = 30-40", fillcolor="#e58139"] ;
549 -> 550 ;
551 [label="HMLD <= 20.02\ngini = 0.545\nsamples = 20\nvalue = [10, 0, 0, 1, 9]\nclass = 30-40", fillcolor="#fdf4ed"] ;
549 -> 551 ;
552 [label="HMLD <= 19.705\ngini = 0.547\nsamples = 17\nvalue = [7, 0, 0, 1, 9]\nclass = 40-50", fillcolor="#fad7f2"] ;
551 -> 552 ;
553 [label="HMLD <= 19.195\ngini = 0.561\nsamples = 14\nvalue = [7, 0, 0, 1, 6]\nclass = 30-40", fillcolor="#fcefe6"] ;
552 -> 553 ;
554 [label="HEB <= 56.0\ngini = 0.408\nsamples = 7\nvalue = [2, 0, 0, 0, 5]\nclass = 40-50", fillcolor="#ef88d9"] ;
553 -> 554 ;
555 [label="gini = 0.0\nsamples = 4\nvalue = [0, 0, 0, 0, 4]\nclass = 40-50", fillcolor="#e539c0"] ;
554 -> 555 ;
556 [label="HMLD <= 18.765\ngini = 0.444\nsamples = 3\nvalue = [2, 0, 0, 0, 1]\nclass = 30-40", fillcolor="#f2c09c"] ;
554 -> 556 ;
557 [label="gini = 0.0\nsamples = 1\nvalue = [0, 0, 0, 0, 1]\nclass = 40-50", fillcolor="#e539c0"] ;
556 -> 557 ;
558 [label="gini = 0.0\nsamples = 2\nvalue = [2, 0, 0, 0, 0]\nclass = 30-40", fillcolor="#e58139"] ;
556 -> 558 ;
559 [label="HEB <= 56.5\ngini = 0.449\nsamples = 7\nvalue = [5, 0, 0, 1, 1]\nclass = 30-40", fillcolor="#eeab7b"] ;
553 -> 559 ;
560 [label="HMLD <= 19.35\ngini = 0.278\nsamples = 6\nvalue = [5, 0, 0, 1, 0]\nclass = 30-40", fillcolor="#ea9a61"] ;
559 -> 560 ;
561 [label="HHD <= 40.245\ngini = 0.5\nsamples = 2\nvalue = [1, 0, 0, 1, 0]\nclass = 30-40", fillcolor="#ffffff"] ;
560 -> 561 ;
562 [label="gini = 0.0\nsamples = 1\nvalue = [1, 0, 0, 0, 0]\nclass = 30-40", fillcolor="#e58139"] ;
561 -> 562 ;
563 [label="gini = 0.0\nsamples = 1\nvalue = [0, 0, 0, 1, 0]\nclass = 20-30", fillcolor="#3c39e5"] ;
561 -> 563 ;
564 [label="gini = 0.0\nsamples = 4\nvalue = [4, 0, 0, 0, 0]\nclass = 30-40", fillcolor="#e58139"] ;
560 -> 564 ;
565 [label="gini = 0.0\nsamples = 1\nvalue = [0, 0, 0, 0, 1]\nclass = 40-50", fillcolor="#e539c0"] ;
559 -> 565 ;
566 [label="gini = 0.0\nsamples = 3\nvalue = [0, 0, 0, 0, 3]\nclass = 40-50", fillcolor="#e539c0"] ;
552 -> 566 ;
567 [label="gini = 0.0\nsamples = 3\nvalue = [3, 0, 0, 0, 0]\nclass = 30-40", fillcolor="#e58139"] ;
551 -> 567 ;
568 [label="HMLD <= 19.385\ngini = 0.666\nsamples = 139\nvalue = [50, 5, 0, 28, 56]\nclass = 40-50", fillcolor="#fdf2fb"] ;
544 -> 568 ;
569 [label="HHD <= 38.815\ngini = 0.622\nsamples = 74\nvalue = [32, 2, 0, 9, 31]\nclass = 30-40", fillcolor="#fefcfa"] ;
568 -> 569 ;
570 [label="HML <= 285.5\ngini = 0.656\nsamples = 8\nvalue = [1, 1, 0, 4, 2]\nclass = 20-30", fillcolor="#bebdf6"] ;
569 -> 570 ;
571 [label="HML <= 283.0\ngini = 0.625\nsamples = 4\nvalue = [1, 1, 0, 0, 2]\nclass = 40-50", fillcolor="#f6bdea"] ;
570 -> 571 ;
572 [label="HHD <= 38.125\ngini = 0.5\nsamples = 2\nvalue = [1, 1, 0, 0, 0]\nclass = 30-40", fillcolor="#ffffff"] ;
571 -> 572 ;
573 [label="gini = 0.0\nsamples = 1\nvalue = [1, 0, 0, 0, 0]\nclass = 30-40", fillcolor="#e58139"] ;
572 -> 573 ;
574 [label="gini = 0.0\nsamples = 1\nvalue = [0, 1, 0, 0, 0]\nclass = <20", fillcolor="#7be539"] ;
572 -> 574 ;
575 [label="gini = 0.0\nsamples = 2\nvalue = [0, 0, 0, 0, 2]\nclass = 40-50", fillcolor="#e539c0"] ;
571 -> 575 ;
576 [label="gini = 0.0\nsamples = 4\nvalue = [0, 0, 0, 4, 0]\nclass = 20-30", fillcolor="#3c39e5"] ;
570 -> 576 ;
577 [label="HEB <= 57.25\ngini = 0.58\nsamples = 66\nvalue = [31, 1, 0, 5, 29]\nclass = 30-40", fillcolor="#fef8f4"] ;
569 -> 577 ;
578 [label="HHD <= 39.085\ngini = 0.583\nsamples = 56\nvalue = [29, 1, 0, 5, 21]\nclass = 30-40", fillcolor="#f9e2d2"] ;
577 -> 578 ;
579 [label="HEB <= 53.5\ngini = 0.32\nsamples = 5\nvalue = [1, 0, 0, 0, 4]\nclass = 40-50", fillcolor="#ec6ad0"] ;
578 -> 579 ;
580 [label="gini = 0.0\nsamples = 1\nvalue = [1, 0, 0, 0, 0]\nclass = 30-40", fillcolor="#e58139"] ;
579 -> 580 ;
581 [label="gini = 0.0\nsamples = 4\nvalue = [0, 0, 0, 0, 4]\nclass = 40-50", fillcolor="#e539c0"] ;
579 -> 581 ;
582 [label="HML <= 283.25\ngini = 0.577\nsamples = 51\nvalue = [28, 1, 0, 5, 17]\nclass = 30-40", fillcolor="#f7d6bf"] ;
578 -> 582 ;
583 [label="gini = 0.0\nsamples = 2\nvalue = [0, 0, 0, 0, 2]\nclass = 40-50", fillcolor="#e539c0"] ;
582 -> 583 ;
584 [label="HEB <= 50.25\ngini = 0.569\nsamples = 49\nvalue = [28, 1, 0, 5, 15]\nclass = 30-40", fillcolor="#f5cfb3"] ;
582 -> 584 ;
585 [label="gini = 0.0\nsamples = 1\nvalue = [0, 0, 0, 1, 0]\nclass = 20-30", fillcolor="#3c39e5"] ;
584 -> 585 ;
586 [label="HMLD <= 18.955\ngini = 0.555\nsamples = 48\nvalue = [28, 1, 0, 4, 15]\nclass = 30-40", fillcolor="#f5cdb1"] ;
584 -> 586 ;
587 [label="HMLD <= 18.935\ngini = 0.648\nsamples = 18\nvalue = [9, 1, 0, 4, 4]\nclass = 30-40", fillcolor="#f6d2b8"] ;
586 -> 587 ;
588 [label="HHD <= 40.605\ngini = 0.609\nsamples = 17\nvalue = [9, 0, 0, 4, 4]\nclass = 30-40", fillcolor="#f5cfb3"] ;
587 -> 588 ;
589 [label="HEB <= 53.25\ngini = 0.278\nsamples = 6\nvalue = [5, 0, 0, 1, 0]\nclass = 30-40", fillcolor="#ea9a61"] ;
588 -> 589 ;
590 [label="gini = 0.0\nsamples = 1\nvalue = [0, 0, 0, 1, 0]\nclass = 20-30", fillcolor="#3c39e5"] ;
589 -> 590 ;
591 [label="gini = 0.0\nsamples = 5\nvalue = [5, 0, 0, 0, 0]\nclass = 30-40", fillcolor="#e58139"] ;
589 -> 591 ;
592 [label="HML <= 291.5\ngini = 0.661\nsamples = 11\nvalue = [4, 0, 0, 3, 4]\nclass = 30-40", fillcolor="#ffffff"] ;
588 -> 592 ;
593 [label="gini = 0.0\nsamples = 2\nvalue = [0, 0, 0, 0, 2]\nclass = 40-50", fillcolor="#e539c0"] ;
592 -> 593 ;
594 [label="HML <= 315.75\ngini = 0.642\nsamples = 9\nvalue = [4, 0, 0, 3, 2]\nclass = 30-40", fillcolor="#fbeade"] ;
592 -> 594 ;
595 [label="HHD <= 41.51\ngini = 0.653\nsamples = 7\nvalue = [2, 0, 0, 3, 2]\nclass = 20-30", fillcolor="#d8d7fa"] ;
594 -> 595 ;
596 [label="HML <= 306.5\ngini = 0.64\nsamples = 5\nvalue = [2, 0, 0, 1, 2]\nclass = 30-40", fillcolor="#ffffff"] ;
595 -> 596 ;
597 [label="HML <= 296.5\ngini = 0.444\nsamples = 3\nvalue = [2, 0, 0, 1, 0]\nclass = 30-40", fillcolor="#f2c09c"] ;
596 -> 597 ;
598 [label="gini = 0.0\nsamples = 1\nvalue = [1, 0, 0, 0, 0]\nclass = 30-40", fillcolor="#e58139"] ;
597 -> 598 ;
599 [label="HHD <= 40.93\ngini = 0.5\nsamples = 2\nvalue = [1, 0, 0, 1, 0]\nclass = 30-40", fillcolor="#ffffff"] ;
597 -> 599 ;
600 [label="gini = 0.0\nsamples = 1\nvalue = [1, 0, 0, 0, 0]\nclass = 30-40", fillcolor="#e58139"] ;
599 -> 600 ;
601 [label="gini = 0.0\nsamples = 1\nvalue = [0, 0, 0, 1, 0]\nclass = 20-30", fillcolor="#3c39e5"] ;
599 -> 601 ;
602 [label="gini = 0.0\nsamples = 2\nvalue = [0, 0, 0, 0, 2]\nclass = 40-50", fillcolor="#e539c0"] ;
596 -> 602 ;
603 [label="gini = 0.0\nsamples = 2\nvalue = [0, 0, 0, 2, 0]\nclass = 20-30", fillcolor="#3c39e5"] ;
595 -> 603 ;
604 [label="gini = 0.0\nsamples = 2\nvalue = [2, 0, 0, 0, 0]\nclass = 30-40", fillcolor="#e58139"] ;
594 -> 604 ;
605 [label="gini = 0.0\nsamples = 1\nvalue = [0, 1, 0, 0, 0]\nclass = <20", fillcolor="#7be539"] ;
587 -> 605 ;
606 [label="HML <= 311.75\ngini = 0.464\nsamples = 30\nvalue = [19, 0, 0, 0, 11]\nclass = 30-40", fillcolor="#f4caac"] ;
586 -> 606 ;
607 [label="HML <= 295.5\ngini = 0.417\nsamples = 27\nvalue = [19, 0, 0, 0, 8]\nclass = 30-40", fillcolor="#f0b68c"] ;
606 -> 607 ;
608 [label="HMLD <= 19.06\ngini = 0.165\nsamples = 11\nvalue = [10, 0, 0, 0, 1]\nclass = 30-40", fillcolor="#e88e4d"] ;
607 -> 608 ;
609 [label="HEB <= 54.5\ngini = 0.444\nsamples = 3\nvalue = [2, 0, 0, 0, 1]\nclass = 30-40", fillcolor="#f2c09c"] ;
608 -> 609 ;
610 [label="gini = 0.0\nsamples = 1\nvalue = [0, 0, 0, 0, 1]\nclass = 40-50", fillcolor="#e539c0"] ;
609 -> 610 ;
611 [label="gini = 0.0\nsamples = 2\nvalue = [2, 0, 0, 0, 0]\nclass = 30-40", fillcolor="#e58139"] ;
609 -> 611 ;
612 [label="gini = 0.0\nsamples = 8\nvalue = [8, 0, 0, 0, 0]\nclass = 30-40", fillcolor="#e58139"] ;
608 -> 612 ;
613 [label="HEB <= 56.25\ngini = 0.492\nsamples = 16\nvalue = [9, 0, 0, 0, 7]\nclass = 30-40", fillcolor="#f9e3d3"] ;
607 -> 613 ;
614 [label="HEB <= 54.25\ngini = 0.497\nsamples = 13\nvalue = [6, 0, 0, 0, 7]\nclass = 40-50", fillcolor="#fbe3f6"] ;
613 -> 614 ;
615 [label="HMLD <= 19.245\ngini = 0.32\nsamples = 5\nvalue = [4, 0, 0, 0, 1]\nclass = 30-40", fillcolor="#eca06a"] ;
614 -> 615 ;
616 [label="gini = 0.0\nsamples = 4\nvalue = [4, 0, 0, 0, 0]\nclass = 30-40", fillcolor="#e58139"] ;
615 -> 616 ;
617 [label="gini = 0.0\nsamples = 1\nvalue = [0, 0, 0, 0, 1]\nclass = 40-50", fillcolor="#e539c0"] ;
615 -> 617 ;
618 [label="HMLD <= 18.975\ngini = 0.375\nsamples = 8\nvalue = [2, 0, 0, 0, 6]\nclass = 40-50", fillcolor="#ee7bd5"] ;
614 -> 618 ;
619 [label="gini = 0.0\nsamples = 1\nvalue = [1, 0, 0, 0, 0]\nclass = 30-40", fillcolor="#e58139"] ;
618 -> 619 ;
620 [label="HMLD <= 19.255\ngini = 0.245\nsamples = 7\nvalue = [1, 0, 0, 0, 6]\nclass = 40-50", fillcolor="#e95acb"] ;
618 -> 620 ;
621 [label="gini = 0.0\nsamples = 5\nvalue = [0, 0, 0, 0, 5]\nclass = 40-50", fillcolor="#e539c0"] ;
620 -> 621 ;
622 [label="HEB <= 55.5\ngini = 0.5\nsamples = 2\nvalue = [1, 0, 0, 0, 1]\nclass = 30-40", fillcolor="#ffffff"] ;
620 -> 622 ;
623 [label="gini = 0.0\nsamples = 1\nvalue = [0, 0, 0, 0, 1]\nclass = 40-50", fillcolor="#e539c0"] ;
622 -> 623 ;
624 [label="gini = 0.0\nsamples = 1\nvalue = [1, 0, 0, 0, 0]\nclass = 30-40", fillcolor="#e58139"] ;
622 -> 624 ;
625 [label="gini = 0.0\nsamples = 3\nvalue = [3, 0, 0, 0, 0]\nclass = 30-40", fillcolor="#e58139"] ;
613 -> 625 ;
626 [label="gini = 0.0\nsamples = 3\nvalue = [0, 0, 0, 0, 3]\nclass = 40-50", fillcolor="#e539c0"] ;
606 -> 626 ;
627 [label="HHD <= 39.555\ngini = 0.32\nsamples = 10\nvalue = [2, 0, 0, 0, 8]\nclass = 40-50", fillcolor="#ec6ad0"] ;
577 -> 627 ;
628 [label="gini = 0.0\nsamples = 1\nvalue = [1, 0, 0, 0, 0]\nclass = 30-40", fillcolor="#e58139"] ;
627 -> 628 ;
629 [label="HMLD <= 19.175\ngini = 0.198\nsamples = 9\nvalue = [1, 0, 0, 0, 8]\nclass = 40-50", fillcolor="#e852c8"] ;
627 -> 629 ;
630 [label="gini = 0.0\nsamples = 7\nvalue = [0, 0, 0, 0, 7]\nclass = 40-50", fillcolor="#e539c0"] ;
629 -> 630 ;
631 [label="HMLD <= 19.235\ngini = 0.5\nsamples = 2\nvalue = [1, 0, 0, 0, 1]\nclass = 30-40", fillcolor="#ffffff"] ;
629 -> 631 ;
632 [label="gini = 0.0\nsamples = 1\nvalue = [1, 0, 0, 0, 0]\nclass = 30-40", fillcolor="#e58139"] ;
631 -> 632 ;
633 [label="gini = 0.0\nsamples = 1\nvalue = [0, 0, 0, 0, 1]\nclass = 40-50", fillcolor="#e539c0"] ;
631 -> 633 ;
634 [label="HEB <= 61.75\ngini = 0.688\nsamples = 65\nvalue = [18, 3, 0, 19, 25]\nclass = 40-50", fillcolor="#fce5f7"] ;
568 -> 634 ;
635 [label="HEB <= 55.25\ngini = 0.683\nsamples = 62\nvalue = [15, 3, 0, 19, 25]\nclass = 40-50", fillcolor="#fbe3f6"] ;
634 -> 635 ;
636 [label="HHD <= 41.045\ngini = 0.664\nsamples = 30\nvalue = [9, 3, 0, 4, 14]\nclass = 40-50", fillcolor="#f9d0f0"] ;
635 -> 636 ;
637 [label="HHD <= 39.1\ngini = 0.575\nsamples = 20\nvalue = [4, 3, 0, 1, 12]\nclass = 40-50", fillcolor="#f29ce0"] ;
636 -> 637 ;
638 [label="HEB <= 51.75\ngini = 0.5\nsamples = 2\nvalue = [1, 1, 0, 0, 0]\nclass = 30-40", fillcolor="#ffffff"] ;
637 -> 638 ;
639 [label="gini = 0.0\nsamples = 1\nvalue = [1, 0, 0, 0, 0]\nclass = 30-40", fillcolor="#e58139"] ;
638 -> 639 ;
640 [label="gini = 0.0\nsamples = 1\nvalue = [0, 1, 0, 0, 0]\nclass = <20", fillcolor="#7be539"] ;
638 -> 640 ;
641 [label="HMLD <= 20.12\ngini = 0.512\nsamples = 18\nvalue = [3, 2, 0, 1, 12]\nclass = 40-50", fillcolor="#ef88d9"] ;
637 -> 641 ;
642 [label="HHD <= 39.815\ngini = 0.464\nsamples = 17\nvalue = [3, 1, 0, 1, 12]\nclass = 40-50", fillcolor="#ee80d6"] ;
641 -> 642 ;
643 [label="HEB <= 52.25\ngini = 0.245\nsamples = 7\nvalue = [0, 0, 0, 1, 6]\nclass = 40-50", fillcolor="#e95acb"] ;
642 -> 643 ;
644 [label="HMLD <= 19.965\ngini = 0.5\nsamples = 2\nvalue = [0, 0, 0, 1, 1]\nclass = 20-30", fillcolor="#ffffff"] ;
643 -> 644 ;
645 [label="gini = 0.0\nsamples = 1\nvalue = [0, 0, 0, 1, 0]\nclass = 20-30", fillcolor="#3c39e5"] ;
644 -> 645 ;
646 [label="gini = 0.0\nsamples = 1\nvalue = [0, 0, 0, 0, 1]\nclass = 40-50", fillcolor="#e539c0"] ;
644 -> 646 ;
647 [label="gini = 0.0\nsamples = 5\nvalue = [0, 0, 0, 0, 5]\nclass = 40-50", fillcolor="#e539c0"] ;
643 -> 647 ;
648 [label="HMLD <= 19.445\ngini = 0.54\nsamples = 10\nvalue = [3, 1, 0, 0, 6]\nclass = 40-50", fillcolor="#f4aae4"] ;
642 -> 648 ;
649 [label="gini = 0.0\nsamples = 3\nvalue = [0, 0, 0, 0, 3]\nclass = 40-50", fillcolor="#e539c0"] ;
648 -> 649 ;
650 [label="HMLD <= 19.615\ngini = 0.612\nsamples = 7\nvalue = [3, 1, 0, 0, 3]\nclass = 30-40", fillcolor="#ffffff"] ;
648 -> 650 ;
651 [label="HMLD <= 19.47\ngini = 0.444\nsamples = 3\nvalue = [2, 1, 0, 0, 0]\nclass = 30-40", fillcolor="#f2c09c"] ;
650 -> 651 ;
652 [label="gini = 0.0\nsamples = 1\nvalue = [0, 1, 0, 0, 0]\nclass = <20", fillcolor="#7be539"] ;
651 -> 652 ;
653 [label="gini = 0.0\nsamples = 2\nvalue = [2, 0, 0, 0, 0]\nclass = 30-40", fillcolor="#e58139"] ;
651 -> 653 ;
654 [label="HML <= 307.25\ngini = 0.375\nsamples = 4\nvalue = [1, 0, 0, 0, 3]\nclass = 40-50", fillcolor="#ee7bd5"] ;
650 -> 654 ;
655 [label="gini = 0.0\nsamples = 3\nvalue = [0, 0, 0, 0, 3]\nclass = 40-50", fillcolor="#e539c0"] ;
654 -> 655 ;
656 [label="gini = 0.0\nsamples = 1\nvalue = [1, 0, 0, 0, 0]\nclass = 30-40", fillcolor="#e58139"] ;
654 -> 656 ;
657 [label="gini = 0.0\nsamples = 1\nvalue = [0, 1, 0, 0, 0]\nclass = <20", fillcolor="#7be539"] ;
641 -> 657 ;
658 [label="HEB <= 52.5\ngini = 0.62\nsamples = 10\nvalue = [5, 0, 0, 3, 2]\nclass = 30-40", fillcolor="#f8dbc6"] ;
636 -> 658 ;
659 [label="gini = 0.0\nsamples = 1\nvalue = [0, 0, 0, 0, 1]\nclass = 40-50", fillcolor="#e539c0"] ;
658 -> 659 ;
660 [label="HML <= 285.5\ngini = 0.568\nsamples = 9\nvalue = [5, 0, 0, 3, 1]\nclass = 30-40", fillcolor="#f6d5bd"] ;
658 -> 660 ;
661 [label="gini = 0.0\nsamples = 1\nvalue = [0, 0, 0, 0, 1]\nclass = 40-50", fillcolor="#e539c0"] ;
660 -> 661 ;
662 [label="HEB <= 54.75\ngini = 0.469\nsamples = 8\nvalue = [5, 0, 0, 3, 0]\nclass = 30-40", fillcolor="#f5cdb0"] ;
660 -> 662 ;
663 [label="HHD <= 41.43\ngini = 0.408\nsamples = 7\nvalue = [5, 0, 0, 2, 0]\nclass = 30-40", fillcolor="#efb388"] ;
662 -> 663 ;
664 [label="gini = 0.0\nsamples = 3\nvalue = [3, 0, 0, 0, 0]\nclass = 30-40", fillcolor="#e58139"] ;
663 -> 664 ;
665 [label="HHD <= 41.62\ngini = 0.5\nsamples = 4\nvalue = [2, 0, 0, 2, 0]\nclass = 30-40", fillcolor="#ffffff"] ;
663 -> 665 ;
666 [label="gini = 0.0\nsamples = 1\nvalue = [0, 0, 0, 1, 0]\nclass = 20-30", fillcolor="#3c39e5"] ;
665 -> 666 ;
667 [label="HEB <= 54.25\ngini = 0.444\nsamples = 3\nvalue = [2, 0, 0, 1, 0]\nclass = 30-40", fillcolor="#f2c09c"] ;
665 -> 667 ;
668 [label="gini = 0.0\nsamples = 2\nvalue = [2, 0, 0, 0, 0]\nclass = 30-40", fillcolor="#e58139"] ;
667 -> 668 ;
669 [label="gini = 0.0\nsamples = 1\nvalue = [0, 0, 0, 1, 0]\nclass = 20-30", fillcolor="#3c39e5"] ;
667 -> 669 ;
670 [label="gini = 0.0\nsamples = 1\nvalue = [0, 0, 0, 1, 0]\nclass = 20-30", fillcolor="#3c39e5"] ;
662 -> 670 ;
671 [label="HML <= 320.5\ngini = 0.627\nsamples = 32\nvalue = [6, 0, 0, 15, 11]\nclass = 20-30", fillcolor="#dad9fa"] ;
635 -> 671 ;
672 [label="HMLD <= 19.98\ngini = 0.589\nsamples = 28\nvalue = [4, 0, 0, 15, 9]\nclass = 20-30", fillcolor="#c1c0f7"] ;
671 -> 672 ;
673 [label="HMLD <= 19.5\ngini = 0.533\nsamples = 22\nvalue = [1, 0, 0, 12, 9]\nclass = 20-30", fillcolor="#d2d1f9"] ;
672 -> 673 ;
674 [label="HHD <= 42.5\ngini = 0.406\nsamples = 8\nvalue = [1, 0, 0, 6, 1]\nclass = 20-30", fillcolor="#7472ec"] ;
673 -> 674 ;
675 [label="HHD <= 39.52\ngini = 0.245\nsamples = 7\nvalue = [1, 0, 0, 6, 0]\nclass = 20-30", fillcolor="#5d5ae9"] ;
674 -> 675 ;
676 [label="HHD <= 39.085\ngini = 0.5\nsamples = 2\nvalue = [1, 0, 0, 1, 0]\nclass = 30-40", fillcolor="#ffffff"] ;
675 -> 676 ;
677 [label="gini = 0.0\nsamples = 1\nvalue = [0, 0, 0, 1, 0]\nclass = 20-30", fillcolor="#3c39e5"] ;
676 -> 677 ;
678 [label="gini = 0.0\nsamples = 1\nvalue = [1, 0, 0, 0, 0]\nclass = 30-40", fillcolor="#e58139"] ;
676 -> 678 ;
679 [label="gini = 0.0\nsamples = 5\nvalue = [0, 0, 0, 5, 0]\nclass = 20-30", fillcolor="#3c39e5"] ;
675 -> 679 ;
680 [label="gini = 0.0\nsamples = 1\nvalue = [0, 0, 0, 0, 1]\nclass = 40-50", fillcolor="#e539c0"] ;
674 -> 680 ;
681 [label="HHD <= 41.845\ngini = 0.49\nsamples = 14\nvalue = [0, 0, 0, 6, 8]\nclass = 40-50", fillcolor="#f8ceef"] ;
673 -> 681 ;
682 [label="HHD <= 41.445\ngini = 0.444\nsamples = 12\nvalue = [0, 0, 0, 4, 8]\nclass = 40-50", fillcolor="#f29ce0"] ;
681 -> 682 ;
683 [label="HML <= 299.25\ngini = 0.5\nsamples = 8\nvalue = [0, 0, 0, 4, 4]\nclass = 20-30", fillcolor="#ffffff"] ;
682 -> 683 ;
684 [label="HMLD <= 19.695\ngini = 0.375\nsamples = 4\nvalue = [0, 0, 0, 1, 3]\nclass = 40-50", fillcolor="#ee7bd5"] ;
683 -> 684 ;
685 [label="gini = 0.0\nsamples = 1\nvalue = [0, 0, 0, 1, 0]\nclass = 20-30", fillcolor="#3c39e5"] ;
684 -> 685 ;
686 [label="gini = 0.0\nsamples = 3\nvalue = [0, 0, 0, 0, 3]\nclass = 40-50", fillcolor="#e539c0"] ;
684 -> 686 ;
687 [label="HMLD <= 19.58\ngini = 0.375\nsamples = 4\nvalue = [0, 0, 0, 3, 1]\nclass = 20-30", fillcolor="#7d7bee"] ;
683 -> 687 ;
688 [label="gini = 0.0\nsamples = 1\nvalue = [0, 0, 0, 0, 1]\nclass = 40-50", fillcolor="#e539c0"] ;
687 -> 688 ;
689 [label="gini = 0.0\nsamples = 3\nvalue = [0, 0, 0, 3, 0]\nclass = 20-30", fillcolor="#3c39e5"] ;
687 -> 689 ;
690 [label="gini = 0.0\nsamples = 4\nvalue = [0, 0, 0, 0, 4]\nclass = 40-50", fillcolor="#e539c0"] ;
682 -> 690 ;
691 [label="gini = 0.0\nsamples = 2\nvalue = [0, 0, 0, 2, 0]\nclass = 20-30", fillcolor="#3c39e5"] ;
681 -> 691 ;
692 [label="HHD <= 41.885\ngini = 0.5\nsamples = 6\nvalue = [3, 0, 0, 3, 0]\nclass = 30-40", fillcolor="#ffffff"] ;
672 -> 692 ;
693 [label="gini = 0.0\nsamples = 2\nvalue = [2, 0, 0, 0, 0]\nclass = 30-40", fillcolor="#e58139"] ;
692 -> 693 ;
694 [label="HEB <= 57.75\ngini = 0.375\nsamples = 4\nvalue = [1, 0, 0, 3, 0]\nclass = 20-30", fillcolor="#7d7bee"] ;
692 -> 694 ;
695 [label="gini = 0.0\nsamples = 3\nvalue = [0, 0, 0, 3, 0]\nclass = 20-30", fillcolor="#3c39e5"] ;
694 -> 695 ;
696 [label="gini = 0.0\nsamples = 1\nvalue = [1, 0, 0, 0, 0]\nclass = 30-40", fillcolor="#e58139"] ;
694 -> 696 ;
697 [label="HEB <= 60.25\ngini = 0.5\nsamples = 4\nvalue = [2, 0, 0, 0, 2]\nclass = 30-40", fillcolor="#ffffff"] ;
671 -> 697 ;
698 [label="gini = 0.0\nsamples = 2\nvalue = [2, 0, 0, 0, 0]\nclass = 30-40", fillcolor="#e58139"] ;
697 -> 698 ;
699 [label="gini = 0.0\nsamples = 2\nvalue = [0, 0, 0, 0, 2]\nclass = 40-50", fillcolor="#e539c0"] ;
697 -> 699 ;
700 [label="gini = 0.0\nsamples = 3\nvalue = [3, 0, 0, 0, 0]\nclass = 30-40", fillcolor="#e58139"] ;
634 -> 700 ;
701 [label="HMLD <= 24.3\ngini = 0.591\nsamples = 174\nvalue = [41, 5, 2, 26, 100]\nclass = 40-50", fillcolor="#f3a7e3"] ;
537 -> 701 ;
702 [label="HEB <= 61.75\ngini = 0.582\nsamples = 172\nvalue = [41, 3, 2, 26, 100]\nclass = 40-50", fillcolor="#f3a6e3"] ;
701 -> 702 ;
703 [label="HHD <= 37.79\ngini = 0.57\nsamples = 162\nvalue = [35, 3, 2, 25, 97]\nclass = 40-50", fillcolor="#f29ee0"] ;
702 -> 703 ;
704 [label="HMLD <= 21.55\ngini = 0.612\nsamples = 7\nvalue = [3, 0, 0, 3, 1]\nclass = 30-40", fillcolor="#ffffff"] ;
703 -> 704 ;
705 [label="HEB <= 51.5\ngini = 0.56\nsamples = 5\nvalue = [3, 0, 0, 1, 1]\nclass = 30-40", fillcolor="#f2c09c"] ;
704 -> 705 ;
706 [label="HHD <= 37.515\ngini = 0.5\nsamples = 2\nvalue = [0, 0, 0, 1, 1]\nclass = 20-30", fillcolor="#ffffff"] ;
705 -> 706 ;
707 [label="gini = 0.0\nsamples = 1\nvalue = [0, 0, 0, 0, 1]\nclass = 40-50", fillcolor="#e539c0"] ;
706 -> 707 ;
708 [label="gini = 0.0\nsamples = 1\nvalue = [0, 0, 0, 1, 0]\nclass = 20-30", fillcolor="#3c39e5"] ;
706 -> 708 ;
709 [label="gini = 0.0\nsamples = 3\nvalue = [3, 0, 0, 0, 0]\nclass = 30-40", fillcolor="#e58139"] ;
705 -> 709 ;
710 [label="gini = 0.0\nsamples = 2\nvalue = [0, 0, 0, 2, 0]\nclass = 20-30", fillcolor="#3c39e5"] ;
704 -> 710 ;
711 [label="HMLD <= 21.695\ngini = 0.553\nsamples = 155\nvalue = [32, 3, 2, 22, 96]\nclass = 40-50", fillcolor="#f198de"] ;
703 -> 711 ;
712 [label="HEB <= 54.25\ngini = 0.527\nsamples = 117\nvalue = [19, 3, 1, 18, 76]\nclass = 40-50", fillcolor="#f08cda"] ;
711 -> 712 ;
713 [label="HMLD <= 21.01\ngini = 0.638\nsamples = 41\nvalue = [8, 2, 0, 10, 21]\nclass = 40-50", fillcolor="#f6b9e9"] ;
712 -> 713 ;
714 [label="HMLD <= 20.74\ngini = 0.697\nsamples = 29\nvalue = [7, 2, 0, 9, 11]\nclass = 40-50", fillcolor="#fcebf9"] ;
713 -> 714 ;
715 [label="HEB <= 51.75\ngini = 0.665\nsamples = 23\nvalue = [3, 2, 0, 8, 10]\nclass = 40-50", fillcolor="#fce5f7"] ;
714 -> 715 ;
716 [label="HHD <= 40.625\ngini = 0.278\nsamples = 6\nvalue = [0, 0, 0, 1, 5]\nclass = 40-50", fillcolor="#ea61cd"] ;
715 -> 716 ;
717 [label="gini = 0.0\nsamples = 5\nvalue = [0, 0, 0, 0, 5]\nclass = 40-50", fillcolor="#e539c0"] ;
716 -> 717 ;
718 [label="gini = 0.0\nsamples = 1\nvalue = [0, 0, 0, 1, 0]\nclass = 20-30", fillcolor="#3c39e5"] ;
716 -> 718 ;
719 [label="HHD <= 39.315\ngini = 0.699\nsamples = 17\nvalue = [3, 2, 0, 7, 5]\nclass = 20-30", fillcolor="#dedefb"] ;
715 -> 719 ;
720 [label="HMLD <= 20.25\ngini = 0.494\nsamples = 9\nvalue = [0, 1, 0, 6, 2]\nclass = 20-30", fillcolor="#908ef0"] ;
719 -> 720 ;
721 [label="HMLD <= 20.215\ngini = 0.5\nsamples = 2\nvalue = [0, 1, 0, 0, 1]\nclass = <20", fillcolor="#ffffff"] ;
720 -> 721 ;
722 [label="gini = 0.0\nsamples = 1\nvalue = [0, 0, 0, 0, 1]\nclass = 40-50", fillcolor="#e539c0"] ;
721 -> 722 ;
723 [label="gini = 0.0\nsamples = 1\nvalue = [0, 1, 0, 0, 0]\nclass = <20", fillcolor="#7be539"] ;
721 -> 723 ;
724 [label="HMLD <= 20.66\ngini = 0.245\nsamples = 7\nvalue = [0, 0, 0, 6, 1]\nclass = 20-30", fillcolor="#5d5ae9"] ;
720 -> 724 ;
725 [label="gini = 0.0\nsamples = 6\nvalue = [0, 0, 0, 6, 0]\nclass = 20-30", fillcolor="#3c39e5"] ;
724 -> 725 ;
726 [label="gini = 0.0\nsamples = 1\nvalue = [0, 0, 0, 0, 1]\nclass = 40-50", fillcolor="#e539c0"] ;
724 -> 726 ;
727 [label="HMLD <= 20.355\ngini = 0.688\nsamples = 8\nvalue = [3, 1, 0, 1, 3]\nclass = 30-40", fillcolor="#ffffff"] ;
719 -> 727 ;
728 [label="gini = 0.0\nsamples = 2\nvalue = [2, 0, 0, 0, 0]\nclass = 30-40", fillcolor="#e58139"] ;
727 -> 728 ;
729 [label="HHD <= 41.315\ngini = 0.667\nsamples = 6\nvalue = [1, 1, 0, 1, 3]\nclass = 40-50", fillcolor="#f5b0e6"] ;
727 -> 729 ;
730 [label="HMLD <= 20.645\ngini = 0.56\nsamples = 5\nvalue = [1, 1, 0, 0, 3]\nclass = 40-50", fillcolor="#f29ce0"] ;
729 -> 730 ;
731 [label="HML <= 292.5\ngini = 0.667\nsamples = 3\nvalue = [1, 1, 0, 0, 1]\nclass = 30-40", fillcolor="#ffffff"] ;
730 -> 731 ;
732 [label="gini = 0.0\nsamples = 1\nvalue = [0, 1, 0, 0, 0]\nclass = <20", fillcolor="#7be539"] ;
731 -> 732 ;
733 [label="HHD <= 39.525\ngini = 0.5\nsamples = 2\nvalue = [1, 0, 0, 0, 1]\nclass = 30-40", fillcolor="#ffffff"] ;
731 -> 733 ;
734 [label="gini = 0.0\nsamples = 1\nvalue = [0, 0, 0, 0, 1]\nclass = 40-50", fillcolor="#e539c0"] ;
733 -> 734 ;
735 [label="gini = 0.0\nsamples = 1\nvalue = [1, 0, 0, 0, 0]\nclass = 30-40", fillcolor="#e58139"] ;
733 -> 735 ;
736 [label="gini = 0.0\nsamples = 2\nvalue = [0, 0, 0, 0, 2]\nclass = 40-50", fillcolor="#e539c0"] ;
730 -> 736 ;
737 [label="gini = 0.0\nsamples = 1\nvalue = [0, 0, 0, 1, 0]\nclass = 20-30", fillcolor="#3c39e5"] ;
729 -> 737 ;
738 [label="HHD <= 40.54\ngini = 0.5\nsamples = 6\nvalue = [4, 0, 0, 1, 1]\nclass = 30-40", fillcolor="#efb388"] ;
714 -> 738 ;
739 [label="gini = 0.0\nsamples = 4\nvalue = [4, 0, 0, 0, 0]\nclass = 30-40", fillcolor="#e58139"] ;
738 -> 739 ;
740 [label="HMLD <= 20.905\ngini = 0.5\nsamples = 2\nvalue = [0, 0, 0, 1, 1]\nclass = 20-30", fillcolor="#ffffff"] ;
738 -> 740 ;
741 [label="gini = 0.0\nsamples = 1\nvalue = [0, 0, 0, 0, 1]\nclass = 40-50", fillcolor="#e539c0"] ;
740 -> 741 ;
742 [label="gini = 0.0\nsamples = 1\nvalue = [0, 0, 0, 1, 0]\nclass = 20-30", fillcolor="#3c39e5"] ;
740 -> 742 ;
743 [label="HHD <= 41.605\ngini = 0.292\nsamples = 12\nvalue = [1, 0, 0, 1, 10]\nclass = 40-50", fillcolor="#ea5dcb"] ;
713 -> 743 ;
744 [label="HMLD <= 21.535\ngini = 0.165\nsamples = 11\nvalue = [0, 0, 0, 1, 10]\nclass = 40-50", fillcolor="#e84dc6"] ;
743 -> 744 ;
745 [label="gini = 0.0\nsamples = 7\nvalue = [0, 0, 0, 0, 7]\nclass = 40-50", fillcolor="#e539c0"] ;
744 -> 745 ;
746 [label="HEB <= 53.25\ngini = 0.375\nsamples = 4\nvalue = [0, 0, 0, 1, 3]\nclass = 40-50", fillcolor="#ee7bd5"] ;
744 -> 746 ;
747 [label="gini = 0.0\nsamples = 3\nvalue = [0, 0, 0, 0, 3]\nclass = 40-50", fillcolor="#e539c0"] ;
746 -> 747 ;
748 [label="gini = 0.0\nsamples = 1\nvalue = [0, 0, 0, 1, 0]\nclass = 20-30", fillcolor="#3c39e5"] ;
746 -> 748 ;
749 [label="gini = 0.0\nsamples = 1\nvalue = [1, 0, 0, 0, 0]\nclass = 30-40", fillcolor="#e58139"] ;
743 -> 749 ;
750 [label="HMLD <= 21.385\ngini = 0.444\nsamples = 76\nvalue = [11, 1, 1, 8, 55]\nclass = 40-50", fillcolor="#ed79d4"] ;
712 -> 750 ;
751 [label="HMLD <= 21.305\ngini = 0.405\nsamples = 64\nvalue = [11, 1, 1, 3, 48]\nclass = 40-50", fillcolor="#ed75d3"] ;
750 -> 751 ;
752 [label="HML <= 261.0\ngini = 0.366\nsamples = 60\nvalue = [8, 1, 1, 3, 47]\nclass = 40-50", fillcolor="#ec6ad0"] ;
751 -> 752 ;
753 [label="gini = 0.0\nsamples = 1\nvalue = [0, 1, 0, 0, 0]\nclass = <20", fillcolor="#7be539"] ;
752 -> 753 ;
754 [label="HMLD <= 20.205\ngini = 0.344\nsamples = 59\nvalue = [8, 0, 1, 3, 47]\nclass = 40-50", fillcolor="#eb68cf"] ;
752 -> 754 ;
755 [label="HEB <= 59.25\ngini = 0.5\nsamples = 4\nvalue = [0, 0, 0, 2, 2]\nclass = 20-30", fillcolor="#ffffff"] ;
754 -> 755 ;
756 [label="HML <= 287.75\ngini = 0.444\nsamples = 3\nvalue = [0, 0, 0, 1, 2]\nclass = 40-50", fillcolor="#f29ce0"] ;
755 -> 756 ;
757 [label="gini = 0.0\nsamples = 1\nvalue = [0, 0, 0, 1, 0]\nclass = 20-30", fillcolor="#3c39e5"] ;
756 -> 757 ;
758 [label="gini = 0.0\nsamples = 2\nvalue = [0, 0, 0, 0, 2]\nclass = 40-50", fillcolor="#e539c0"] ;
756 -> 758 ;
759 [label="gini = 0.0\nsamples = 1\nvalue = [0, 0, 0, 1, 0]\nclass = 20-30", fillcolor="#3c39e5"] ;
755 -> 759 ;
760 [label="HHD <= 39.335\ngini = 0.309\nsamples = 55\nvalue = [8, 0, 1, 1, 45]\nclass = 40-50", fillcolor="#eb63cd"] ;
754 -> 760 ;
761 [label="gini = 0.0\nsamples = 10\nvalue = [0, 0, 0, 0, 10]\nclass = 40-50", fillcolor="#e539c0"] ;
760 -> 761 ;
762 [label="HHD <= 39.72\ngini = 0.362\nsamples = 45\nvalue = [8, 0, 1, 1, 35]\nclass = 40-50", fillcolor="#ec6fd1"] ;
760 -> 762 ;
763 [label="HMLD <= 20.995\ngini = 0.444\nsamples = 3\nvalue = [2, 0, 0, 0, 1]\nclass = 30-40", fillcolor="#f2c09c"] ;
762 -> 763 ;
764 [label="gini = 0.0\nsamples = 2\nvalue = [2, 0, 0, 0, 0]\nclass = 30-40", fillcolor="#e58139"] ;
763 -> 764 ;
765 [label="gini = 0.0\nsamples = 1\nvalue = [0, 0, 0, 0, 1]\nclass = 40-50", fillcolor="#e539c0"] ;
763 -> 765 ;
766 [label="HEB <= 55.75\ngini = 0.323\nsamples = 42\nvalue = [6, 0, 1, 1, 34]\nclass = 40-50", fillcolor="#eb65ce"] ;
762 -> 766 ;
767 [label="gini = 0.0\nsamples = 12\nvalue = [0, 0, 0, 0, 12]\nclass = 40-50", fillcolor="#e539c0"] ;
766 -> 767 ;
768 [label="HMLD <= 20.825\ngini = 0.42\nsamples = 30\nvalue = [6, 0, 1, 1, 22]\nclass = 40-50", fillcolor="#ee7bd5"] ;
766 -> 768 ;
769 [label="HHD <= 40.625\ngini = 0.29\nsamples = 18\nvalue = [2, 0, 1, 0, 15]\nclass = 40-50", fillcolor="#ea5ecc"] ;
768 -> 769 ;
770 [label="gini = 0.0\nsamples = 1\nvalue = [0, 0, 1, 0, 0]\nclass = 50+", fillcolor="#39e5c5"] ;
769 -> 770 ;
771 [label="HHD <= 42.38\ngini = 0.208\nsamples = 17\nvalue = [2, 0, 0, 0, 15]\nclass = 40-50", fillcolor="#e853c8"] ;
769 -> 771 ;
772 [label="HHD <= 40.985\ngini = 0.133\nsamples = 14\nvalue = [1, 0, 0, 0, 13]\nclass = 40-50", fillcolor="#e748c5"] ;
771 -> 772 ;
773 [label="HHD <= 40.905\ngini = 0.375\nsamples = 4\nvalue = [1, 0, 0, 0, 3]\nclass = 40-50", fillcolor="#ee7bd5"] ;
772 -> 773 ;
774 [label="gini = 0.0\nsamples = 3\nvalue = [0, 0, 0, 0, 3]\nclass = 40-50", fillcolor="#e539c0"] ;
773 -> 774 ;
775 [label="gini = 0.0\nsamples = 1\nvalue = [1, 0, 0, 0, 0]\nclass = 30-40", fillcolor="#e58139"] ;
773 -> 775 ;
776 [label="gini = 0.0\nsamples = 10\nvalue = [0, 0, 0, 0, 10]\nclass = 40-50", fillcolor="#e539c0"] ;
772 -> 776 ;
777 [label="HMLD <= 20.45\ngini = 0.444\nsamples = 3\nvalue = [1, 0, 0, 0, 2]\nclass = 40-50", fillcolor="#f29ce0"] ;
771 -> 777 ;
778 [label="gini = 0.0\nsamples = 1\nvalue = [1, 0, 0, 0, 0]\nclass = 30-40", fillcolor="#e58139"] ;
777 -> 778 ;
779 [label="gini = 0.0\nsamples = 2\nvalue = [0, 0, 0, 0, 2]\nclass = 40-50", fillcolor="#e539c0"] ;
777 -> 779 ;
780 [label="HMLD <= 20.895\ngini = 0.542\nsamples = 12\nvalue = [4, 0, 0, 1, 7]\nclass = 40-50", fillcolor="#f5b5e7"] ;
768 -> 780 ;
781 [label="gini = 0.0\nsamples = 2\nvalue = [2, 0, 0, 0, 0]\nclass = 30-40", fillcolor="#e58139"] ;
780 -> 781 ;
782 [label="HEB <= 56.25\ngini = 0.46\nsamples = 10\nvalue = [2, 0, 0, 1, 7]\nclass = 40-50", fillcolor="#ef83d8"] ;
780 -> 782 ;
783 [label="HMLD <= 21.2\ngini = 0.625\nsamples = 4\nvalue = [2, 0, 0, 1, 1]\nclass = 30-40", fillcolor="#f6d5bd"] ;
782 -> 783 ;
784 [label="HML <= 297.25\ngini = 0.444\nsamples = 3\nvalue = [2, 0, 0, 0, 1]\nclass = 30-40", fillcolor="#f2c09c"] ;
783 -> 784 ;
785 [label="gini = 0.0\nsamples = 1\nvalue = [0, 0, 0, 0, 1]\nclass = 40-50", fillcolor="#e539c0"] ;
784 -> 785 ;
786 [label="gini = 0.0\nsamples = 2\nvalue = [2, 0, 0, 0, 0]\nclass = 30-40", fillcolor="#e58139"] ;
784 -> 786 ;
787 [label="gini = 0.0\nsamples = 1\nvalue = [0, 0, 0, 1, 0]\nclass = 20-30", fillcolor="#3c39e5"] ;
783 -> 787 ;
788 [label="gini = 0.0\nsamples = 6\nvalue = [0, 0, 0, 0, 6]\nclass = 40-50", fillcolor="#e539c0"] ;
782 -> 788 ;
789 [label="HML <= 305.0\ngini = 0.375\nsamples = 4\nvalue = [3, 0, 0, 0, 1]\nclass = 30-40", fillcolor="#eeab7b"] ;
751 -> 789 ;
790 [label="HML <= 290.5\ngini = 0.5\nsamples = 2\nvalue = [1, 0, 0, 0, 1]\nclass = 30-40", fillcolor="#ffffff"] ;
789 -> 790 ;
791 [label="gini = 0.0\nsamples = 1\nvalue = [1, 0, 0, 0, 0]\nclass = 30-40", fillcolor="#e58139"] ;
790 -> 791 ;
792 [label="gini = 0.0\nsamples = 1\nvalue = [0, 0, 0, 0, 1]\nclass = 40-50", fillcolor="#e539c0"] ;
790 -> 792 ;
793 [label="gini = 0.0\nsamples = 2\nvalue = [2, 0, 0, 0, 0]\nclass = 30-40", fillcolor="#e58139"] ;
789 -> 793 ;
794 [label="HML <= 307.0\ngini = 0.486\nsamples = 12\nvalue = [0, 0, 0, 5, 7]\nclass = 40-50", fillcolor="#f8c6ed"] ;
750 -> 794 ;
795 [label="HHD <= 40.69\ngini = 0.219\nsamples = 8\nvalue = [0, 0, 0, 1, 7]\nclass = 40-50", fillcolor="#e955c9"] ;
794 -> 795 ;
796 [label="HHD <= 40.505\ngini = 0.444\nsamples = 3\nvalue = [0, 0, 0, 1, 2]\nclass = 40-50", fillcolor="#f29ce0"] ;
795 -> 796 ;
797 [label="gini = 0.0\nsamples = 2\nvalue = [0, 0, 0, 0, 2]\nclass = 40-50", fillcolor="#e539c0"] ;
796 -> 797 ;
798 [label="gini = 0.0\nsamples = 1\nvalue = [0, 0, 0, 1, 0]\nclass = 20-30", fillcolor="#3c39e5"] ;
796 -> 798 ;
799 [label="gini = 0.0\nsamples = 5\nvalue = [0, 0, 0, 0, 5]\nclass = 40-50", fillcolor="#e539c0"] ;
795 -> 799 ;
800 [label="gini = 0.0\nsamples = 4\nvalue = [0, 0, 0, 4, 0]\nclass = 20-30", fillcolor="#3c39e5"] ;
794 -> 800 ;
801 [label="HMLD <= 21.855\ngini = 0.594\nsamples = 38\nvalue = [13, 0, 1, 4, 20]\nclass = 40-50", fillcolor="#f8c8ed"] ;
711 -> 801 ;
802 [label="gini = 0.0\nsamples = 3\nvalue = [3, 0, 0, 0, 0]\nclass = 30-40", fillcolor="#e58139"] ;
801 -> 802 ;
803 [label="HHD <= 39.71\ngini = 0.578\nsamples = 35\nvalue = [10, 0, 1, 4, 20]\nclass = 40-50", fillcolor="#f5b0e6"] ;
801 -> 803 ;
804 [label="HHD <= 38.77\ngini = 0.612\nsamples = 7\nvalue = [1, 0, 0, 3, 3]\nclass = 20-30", fillcolor="#ffffff"] ;
803 -> 804 ;
805 [label="HMLD <= 22.265\ngini = 0.375\nsamples = 4\nvalue = [1, 0, 0, 0, 3]\nclass = 40-50", fillcolor="#ee7bd5"] ;
804 -> 805 ;
806 [label="gini = 0.0\nsamples = 3\nvalue = [0, 0, 0, 0, 3]\nclass = 40-50", fillcolor="#e539c0"] ;
805 -> 806 ;
807 [label="gini = 0.0\nsamples = 1\nvalue = [1, 0, 0, 0, 0]\nclass = 30-40", fillcolor="#e58139"] ;
805 -> 807 ;
808 [label="gini = 0.0\nsamples = 3\nvalue = [0, 0, 0, 3, 0]\nclass = 20-30", fillcolor="#3c39e5"] ;
804 -> 808 ;
809 [label="HMLD <= 21.925\ngini = 0.526\nsamples = 28\nvalue = [9, 0, 1, 1, 17]\nclass = 40-50", fillcolor="#f4ace4"] ;
803 -> 809 ;
810 [label="gini = 0.0\nsamples = 3\nvalue = [0, 0, 0, 0, 3]\nclass = 40-50", fillcolor="#e539c0"] ;
809 -> 810 ;
811 [label="HEB <= 56.5\ngini = 0.554\nsamples = 25\nvalue = [9, 0, 1, 1, 14]\nclass = 40-50", fillcolor="#f7c1eb"] ;
809 -> 811 ;
812 [label="HMLD <= 23.125\ngini = 0.496\nsamples = 11\nvalue = [6, 0, 0, 0, 5]\nclass = 30-40", fillcolor="#fbeade"] ;
811 -> 812 ;
813 [label="HHD <= 41.815\ngini = 0.469\nsamples = 8\nvalue = [3, 0, 0, 0, 5]\nclass = 40-50", fillcolor="#f5b0e6"] ;
812 -> 813 ;
814 [label="HML <= 277.75\ngini = 0.408\nsamples = 7\nvalue = [2, 0, 0, 0, 5]\nclass = 40-50", fillcolor="#ef88d9"] ;
813 -> 814 ;
815 [label="HEB <= 53.5\ngini = 0.444\nsamples = 3\nvalue = [2, 0, 0, 0, 1]\nclass = 30-40", fillcolor="#f2c09c"] ;
814 -> 815 ;
816 [label="gini = 0.0\nsamples = 1\nvalue = [0, 0, 0, 0, 1]\nclass = 40-50", fillcolor="#e539c0"] ;
815 -> 816 ;
