digraph Tree {
node [shape=box, style="filled", color="black", fontname="helvetica"] ;
edge [fontname="helvetica"] ;
0 [label="HHD <= 41.895\ngini = 0.499\nsamples = 1535\nvalue = [793, 742]\nclass = male", fillcolor="#fdf7f2"] ;
1 [label="HEB <= 60.25\ngini = 0.259\nsamples = 758\nvalue = [116, 642]\nclass = female", fillcolor="#5dafea"] ;
0 -> 1 [labeldistance=2.5, labelangle=45, headlabel="True"] ;
2 [label="HHD <= 40.105\ngini = 0.239\nsamples = 741\nvalue = [103, 638]\nclass = female", fillcolor="#59ade9"] ;
1 -> 2 ;
3 [label="HEB <= 59.25\ngini = 0.168\nsamples = 509\nvalue = [47, 462]\nclass = female", fillcolor="#4da7e8"] ;
2 -> 3 ;
4 [label="HEB <= 51.75\ngini = 0.16\nsamples = 503\nvalue = [44, 459]\nclass = female", fillcolor="#4ca6e7"] ;
3 -> 4 ;
5 [label="HML <= 316.5\ngini = 0.094\nsamples = 223\nvalue = [11, 212]\nclass = female", fillcolor="#43a2e6"] ;
4 -> 5 ;
6 [label="HHD <= 32.565\ngini = 0.086\nsamples = 221\nvalue = [10, 211]\nclass = female", fillcolor="#42a2e6"] ;
5 -> 6 ;
7 [label="HMLD <= 14.545\ngini = 0.5\nsamples = 2\nvalue = [1, 1]\nclass = male", fillcolor="#ffffff"] ;
6 -> 7 ;
8 [label="gini = 0.0\nsamples = 1\nvalue = [0, 1]\nclass = female", fillcolor="#399de5"] ;
7 -> 8 ;
9 [label="gini = 0.0\nsamples = 1\nvalue = [1, 0]\nclass = male", fillcolor="#e58139"] ;
7 -> 9 ;
10 [label="HEB <= 48.4\ngini = 0.079\nsamples = 219\nvalue = [9, 210]\nclass = female", fillcolor="#41a1e6"] ;
6 -> 10 ;
11 [label="gini = 0.0\nsamples = 80\nvalue = [0, 80]\nclass = female", fillcolor="#399de5"] ;
10 -> 11 ;
12 [label="HHD <= 35.065\ngini = 0.121\nsamples = 139\nvalue = [9, 130]\nclass = female", fillcolor="#47a4e7"] ;
10 -> 12 ;
13 [label="HHD <= 34.94\ngini = 0.346\nsamples = 18\nvalue = [4, 14]\nclass = female", fillcolor="#72b9ec"] ;
12 -> 13 ;
14 [label="HEB <= 50.25\ngini = 0.291\nsamples = 17\nvalue = [3, 14]\nclass = female", fillcolor="#63b2eb"] ;
13 -> 14 ;
15 [label="HHD <= 34.575\ngini = 0.397\nsamples = 11\nvalue = [3, 8]\nclass = female", fillcolor="#83c2ef"] ;
14 -> 15 ;
16 [label="HMLD <= 14.645\ngini = 0.245\nsamples = 7\nvalue = [1, 6]\nclass = female", fillcolor="#5aade9"] ;
15 -> 16 ;
17 [label="HMLD <= 13.905\ngini = 0.5\nsamples = 2\nvalue = [1, 1]\nclass = male", fillcolor="#ffffff"] ;
16 -> 17 ;
18 [label="gini = 0.0\nsamples = 1\nvalue = [0, 1]\nclass = female", fillcolor="#399de5"] ;
17 -> 18 ;
19 [label="gini = 0.0\nsamples = 1\nvalue = [1, 0]\nclass = male", fillcolor="#e58139"] ;
17 -> 19 ;
20 [label="gini = 0.0\nsamples = 5\nvalue = [0, 5]\nclass = female", fillcolor="#399de5"] ;
16 -> 20 ;
21 [label="HMLD <= 14.455\ngini = 0.5\nsamples = 4\nvalue = [2, 2]\nclass = male", fillcolor="#ffffff"] ;
15 -> 21 ;
22 [label="gini = 0.0\nsamples = 1\nvalue = [0, 1]\nclass = female", fillcolor="#399de5"] ;
21 -> 22 ;
23 [label="HML <= 279.75\ngini = 0.444\nsamples = 3\nvalue = [2, 1]\nclass = male", fillcolor="#f2c09c"] ;
21 -> 23 ;
24 [label="gini = 0.0\nsamples = 2\nvalue = [2, 0]\nclass = male", fillcolor="#e58139"] ;
23 -> 24 ;
25 [label="gini = 0.0\nsamples = 1\nvalue = [0, 1]\nclass = female", fillcolor="#399de5"] ;
23 -> 25 ;
26 [label="gini = 0.0\nsamples = 6\nvalue = [0, 6]\nclass = female", fillcolor="#399de5"] ;
14 -> 26 ;
27 [label="gini = 0.0\nsamples = 1\nvalue = [1, 0]\nclass = male", fillcolor="#e58139"] ;
13 -> 27 ;
28 [label="HHD <= 39.8\ngini = 0.079\nsamples = 121\nvalue = [5, 116]\nclass = female", fillcolor="#42a1e6"] ;
12 -> 28 ;
29 [label="HMLD <= 20.74\ngini = 0.065\nsamples = 118\nvalue = [4, 114]\nclass = female", fillcolor="#40a0e6"] ;
28 -> 29 ;
30 [label="HHD <= 36.405\ngini = 0.054\nsamples = 109\nvalue = [3, 106]\nclass = female", fillcolor="#3fa0e6"] ;
29 -> 30 ;
31 [label="HHD <= 36.32\ngini = 0.121\nsamples = 31\nvalue = [2, 29]\nclass = female", fillcolor="#47a4e7"] ;
30 -> 31 ;
32 [label="HEB <= 50.75\ngini = 0.064\nsamples = 30\nvalue = [1, 29]\nclass = female", fillcolor="#40a0e6"] ;
31 -> 32 ;
33 [label="gini = 0.0\nsamples = 24\nvalue = [0, 24]\nclass = female", fillcolor="#399de5"] ;
32 -> 33 ;
34 [label="HML <= 284.25\ngini = 0.278\nsamples = 6\nvalue = [1, 5]\nclass = female", fillcolor="#61b1ea"] ;
32 -> 34 ;
35 [label="gini = 0.0\nsamples = 4\nvalue = [0, 4]\nclass = female", fillcolor="#399de5"] ;
34 -> 35 ;
36 [label="HHD <= 35.835\ngini = 0.5\nsamples = 2\nvalue = [1, 1]\nclass = male", fillcolor="#ffffff"] ;
34 -> 36 ;
37 [label="gini = 0.0\nsamples = 1\nvalue = [0, 1]\nclass = female", fillcolor="#399de5"] ;
36 -> 37 ;
38 [label="gini = 0.0\nsamples = 1\nvalue = [1, 0]\nclass = male", fillcolor="#e58139"] ;
36 -> 38 ;
39 [label="gini = 0.0\nsamples = 1\nvalue = [1, 0]\nclass = male", fillcolor="#e58139"] ;
31 -> 39 ;
40 [label="HML <= 262.5\ngini = 0.025\nsamples = 78\nvalue = [1, 77]\nclass = female", fillcolor="#3c9ee5"] ;
30 -> 40 ;
41 [label="HML <= 261.25\ngini = 0.219\nsamples = 8\nvalue = [1, 7]\nclass = female", fillcolor="#55abe9"] ;
40 -> 41 ;
42 [label="gini = 0.0\nsamples = 7\nvalue = [0, 7]\nclass = female", fillcolor="#399de5"] ;
41 -> 42 ;
43 [label="gini = 0.0\nsamples = 1\nvalue = [1, 0]\nclass = male", fillcolor="#e58139"] ;
41 -> 43 ;
44 [label="gini = 0.0\nsamples = 70\nvalue = [0, 70]\nclass = female", fillcolor="#399de5"] ;
40 -> 44 ;
45 [label="HMLD <= 20.755\ngini = 0.198\nsamples = 9\nvalue = [1, 8]\nclass = female", fillcolor="#52a9e8"] ;
29 -> 45 ;
46 [label="gini = 0.0\nsamples = 1\nvalue = [1, 0]\nclass = male", fillcolor="#e58139"] ;
45 -> 46 ;
47 [label="gini = 0.0\nsamples = 8\nvalue = [0, 8]\nclass = female", fillcolor="#399de5"] ;
45 -> 47 ;
48 [label="HEB <= 50.5\ngini = 0.444\nsamples = 3\nvalue = [1, 2]\nclass = female", fillcolor="#9ccef2"] ;
28 -> 48 ;
49 [label="gini = 0.0\nsamples = 2\nvalue = [0, 2]\nclass = female", fillcolor="#399de5"] ;
48 -> 49 ;
50 [label="gini = 0.0\nsamples = 1\nvalue = [1, 0]\nclass = male", fillcolor="#e58139"] ;
48 -> 50 ;
51 [label="HEB <= 50.5\ngini = 0.5\nsamples = 2\nvalue = [1, 1]\nclass = male", fillcolor="#ffffff"] ;
5 -> 51 ;
52 [label="gini = 0.0\nsamples = 1\nvalue = [0, 1]\nclass = female", fillcolor="#399de5"] ;
51 -> 52 ;
53 [label="gini = 0.0\nsamples = 1\nvalue = [1, 0]\nclass = male", fillcolor="#e58139"] ;
51 -> 53 ;
54 [label="HML <= 260.0\ngini = 0.208\nsamples = 280\nvalue = [33, 247]\nclass = female", fillcolor="#53aae8"] ;
4 -> 54 ;
55 [label="HML <= 251.25\ngini = 0.444\nsamples = 3\nvalue = [2, 1]\nclass = male", fillcolor="#f2c09c"] ;
54 -> 55 ;
56 [label="gini = 0.0\nsamples = 1\nvalue = [0, 1]\nclass = female", fillcolor="#399de5"] ;
55 -> 56 ;
57 [label="gini = 0.0\nsamples = 2\nvalue = [2, 0]\nclass = male", fillcolor="#e58139"] ;
55 -> 57 ;
58 [label="HMLD <= 21.51\ngini = 0.199\nsamples = 277\nvalue = [31, 246]\nclass = female", fillcolor="#52a9e8"] ;
54 -> 58 ;
59 [label="HHD <= 39.905\ngini = 0.181\nsamples = 259\nvalue = [26, 233]\nclass = female", fillcolor="#4fa8e8"] ;
58 -> 59 ;
60 [label="HHD <= 39.545\ngini = 0.198\nsamples = 234\nvalue = [26, 208]\nclass = female", fillcolor="#52a9e8"] ;
59 -> 60 ;
61 [label="HMLD <= 16.615\ngini = 0.166\nsamples = 197\nvalue = [18, 179]\nclass = female", fillcolor="#4da7e8"] ;
60 -> 61 ;
62 [label="gini = 0.0\nsamples = 33\nvalue = [0, 33]\nclass = female", fillcolor="#399de5"] ;
61 -> 62 ;
63 [label="HMLD <= 16.625\ngini = 0.195\nsamples = 164\nvalue = [18, 146]\nclass = female", fillcolor="#51a9e8"] ;
61 -> 63 ;
64 [label="gini = 0.0\nsamples = 1\nvalue = [1, 0]\nclass = male", fillcolor="#e58139"] ;
63 -> 64 ;
65 [label="HMLD <= 20.24\ngini = 0.187\nsamples = 163\nvalue = [17, 146]\nclass = female", fillcolor="#50a8e8"] ;
63 -> 65 ;
66 [label="HMLD <= 19.0\ngini = 0.216\nsamples = 130\nvalue = [16, 114]\nclass = female", fillcolor="#55abe9"] ;
65 -> 66 ;
67 [label="HML <= 263.5\ngini = 0.16\nsamples = 91\nvalue = [8, 83]\nclass = female", fillcolor="#4ca6e8"] ;
66 -> 67 ;
68 [label="gini = 0.0\nsamples = 1\nvalue = [1, 0]\nclass = male", fillcolor="#e58139"] ;
67 -> 68 ;
69 [label="HEB <= 54.25\ngini = 0.143\nsamples = 90\nvalue = [7, 83]\nclass = female", fillcolor="#4aa5e7"] ;
67 -> 69 ;
70 [label="HMLD <= 17.705\ngini = 0.203\nsamples = 61\nvalue = [7, 54]\nclass = female", fillcolor="#53aae8"] ;
69 -> 70 ;
71 [label="HHD <= 37.48\ngini = 0.074\nsamples = 26\nvalue = [1, 25]\nclass = female", fillcolor="#41a1e6"] ;
70 -> 71 ;
72 [label="HHD <= 37.165\ngini = 0.278\nsamples = 6\nvalue = [1, 5]\nclass = female", fillcolor="#61b1ea"] ;
71 -> 72 ;
73 [label="gini = 0.0\nsamples = 5\nvalue = [0, 5]\nclass = female", fillcolor="#399de5"] ;
72 -> 73 ;
74 [label="gini = 0.0\nsamples = 1\nvalue = [1, 0]\nclass = male", fillcolor="#e58139"] ;
72 -> 74 ;
75 [label="gini = 0.0\nsamples = 20\nvalue = [0, 20]\nclass = female", fillcolor="#399de5"] ;
71 -> 75 ;
76 [label="HMLD <= 17.79\ngini = 0.284\nsamples = 35\nvalue = [6, 29]\nclass = female", fillcolor="#62b1ea"] ;
70 -> 76 ;
77 [label="gini = 0.0\nsamples = 2\nvalue = [2, 0]\nclass = male", fillcolor="#e58139"] ;
76 -> 77 ;
78 [label="HEB <= 52.25\ngini = 0.213\nsamples = 33\nvalue = [4, 29]\nclass = female", fillcolor="#54abe9"] ;
76 -> 78 ;
79 [label="gini = 0.0\nsamples = 13\nvalue = [0, 13]\nclass = female", fillcolor="#399de5"] ;
78 -> 79 ;
80 [label="HMLD <= 18.185\ngini = 0.32\nsamples = 20\nvalue = [4, 16]\nclass = female", fillcolor="#6ab6ec"] ;
78 -> 80 ;
81 [label="HMLD <= 17.915\ngini = 0.49\nsamples = 7\nvalue = [3, 4]\nclass = female", fillcolor="#cee6f8"] ;
80 -> 81 ;
82 [label="gini = 0.0\nsamples = 2\nvalue = [0, 2]\nclass = female", fillcolor="#399de5"] ;
81 -> 82 ;
83 [label="HHD <= 38.285\ngini = 0.48\nsamples = 5\nvalue = [3, 2]\nclass = male", fillcolor="#f6d5bd"] ;
81 -> 83 ;
84 [label="gini = 0.0\nsamples = 2\nvalue = [2, 0]\nclass = male", fillcolor="#e58139"] ;
83 -> 84 ;
85 [label="HML <= 292.0\ngini = 0.444\nsamples = 3\nvalue = [1, 2]\nclass = female", fillcolor="#9ccef2"] ;
83 -> 85 ;
86 [label="gini = 0.0\nsamples = 2\nvalue = [0, 2]\nclass = female", fillcolor="#399de5"] ;
85 -> 86 ;
87 [label="gini = 0.0\nsamples = 1\nvalue = [1, 0]\nclass = male", fillcolor="#e58139"] ;
85 -> 87 ;
88 [label="HHD <= 36.395\ngini = 0.142\nsamples = 13\nvalue = [1, 12]\nclass = female", fillcolor="#49a5e7"] ;
80 -> 88 ;
89 [label="HHD <= 36.265\ngini = 0.444\nsamples = 3\nvalue = [1, 2]\nclass = female", fillcolor="#9ccef2"] ;
88 -> 89 ;
90 [label="gini = 0.0\nsamples = 2\nvalue = [0, 2]\nclass = female", fillcolor="#399de5"] ;
89 -> 90 ;
91 [label="gini = 0.0\nsamples = 1\nvalue = [1, 0]\nclass = male", fillcolor="#e58139"] ;
89 -> 91 ;
92 [label="gini = 0.0\nsamples = 10\nvalue = [0, 10]\nclass = female", fillcolor="#399de5"] ;
88 -> 92 ;
93 [label="gini = 0.0\nsamples = 29\nvalue = [0, 29]\nclass = female", fillcolor="#399de5"] ;
69 -> 93 ;
94 [label="HEB <= 56.5\ngini = 0.326\nsamples = 39\nvalue = [8, 31]\nclass = female", fillcolor="#6cb6ec"] ;
66 -> 94 ;
95 [label="HHD <= 38.48\ngini = 0.251\nsamples = 34\nvalue = [5, 29]\nclass = female", fillcolor="#5baee9"] ;
94 -> 95 ;
96 [label="HMLD <= 19.08\ngini = 0.1\nsamples = 19\nvalue = [1, 18]\nclass = female", fillcolor="#44a2e6"] ;
95 -> 96 ;
97 [label="HEB <= 53.75\ngini = 0.5\nsamples = 2\nvalue = [1, 1]\nclass = male", fillcolor="#ffffff"] ;
96 -> 97 ;
98 [label="gini = 0.0\nsamples = 1\nvalue = [1, 0]\nclass = male", fillcolor="#e58139"] ;
97 -> 98 ;
99 [label="gini = 0.0\nsamples = 1\nvalue = [0, 1]\nclass = female", fillcolor="#399de5"] ;
97 -> 99 ;
100 [label="gini = 0.0\nsamples = 17\nvalue = [0, 17]\nclass = female", fillcolor="#399de5"] ;
96 -> 100 ;
101 [label="HMLD <= 19.93\ngini = 0.391\nsamples = 15\nvalue = [4, 11]\nclass = female", fillcolor="#81c1ee"] ;
95 -> 101 ;
102 [label="HHD <= 38.63\ngini = 0.26\nsamples = 13\nvalue = [2, 11]\nclass = female", fillcolor="#5dafea"] ;
101 -> 102 ;
103 [label="gini = 0.0\nsamples = 1\nvalue = [1, 0]\nclass = male", fillcolor="#e58139"] ;
102 -> 103 ;
104 [label="HEB <= 55.5\ngini = 0.153\nsamples = 12\nvalue = [1, 11]\nclass = female", fillcolor="#4ba6e7"] ;
102 -> 104 ;
105 [label="gini = 0.0\nsamples = 10\nvalue = [0, 10]\nclass = female", fillcolor="#399de5"] ;
104 -> 105 ;
106 [label="HHD <= 39.045\ngini = 0.5\nsamples = 2\nvalue = [1, 1]\nclass = male", fillcolor="#ffffff"] ;
104 -> 106 ;
107 [label="gini = 0.0\nsamples = 1\nvalue = [1, 0]\nclass = male", fillcolor="#e58139"] ;
106 -> 107 ;
108 [label="gini = 0.0\nsamples = 1\nvalue = [0, 1]\nclass = female", fillcolor="#399de5"] ;
106 -> 108 ;
109 [label="gini = 0.0\nsamples = 2\nvalue = [2, 0]\nclass = male", fillcolor="#e58139"] ;
101 -> 109 ;
110 [label="HHD <= 39.375\ngini = 0.48\nsamples = 5\nvalue = [3, 2]\nclass = male", fillcolor="#f6d5bd"] ;
94 -> 110 ;
111 [label="HML <= 292.0\ngini = 0.375\nsamples = 4\nvalue = [3, 1]\nclass = male", fillcolor="#eeab7b"] ;
110 -> 111 ;
112 [label="gini = 0.0\nsamples = 1\nvalue = [0, 1]\nclass = female", fillcolor="#399de5"] ;
111 -> 112 ;
113 [label="gini = 0.0\nsamples = 3\nvalue = [3, 0]\nclass = male", fillcolor="#e58139"] ;
111 -> 113 ;
114 [label="gini = 0.0\nsamples = 1\nvalue = [0, 1]\nclass = female", fillcolor="#399de5"] ;
110 -> 114 ;
115 [label="HML <= 279.75\ngini = 0.059\nsamples = 33\nvalue = [1, 32]\nclass = female", fillcolor="#3fa0e6"] ;
65 -> 115 ;
116 [label="HML <= 278.75\ngini = 0.18\nsamples = 10\nvalue = [1, 9]\nclass = female", fillcolor="#4fa8e8"] ;
115 -> 116 ;
117 [label="gini = 0.0\nsamples = 9\nvalue = [0, 9]\nclass = female", fillcolor="#399de5"] ;
116 -> 117 ;
118 [label="gini = 0.0\nsamples = 1\nvalue = [1, 0]\nclass = male", fillcolor="#e58139"] ;
116 -> 118 ;
119 [label="gini = 0.0\nsamples = 23\nvalue = [0, 23]\nclass = female", fillcolor="#399de5"] ;
115 -> 119 ;
120 [label="HHD <= 39.6\ngini = 0.339\nsamples = 37\nvalue = [8, 29]\nclass = female", fillcolor="#70b8ec"] ;
60 -> 120 ;
121 [label="gini = 0.0\nsamples = 3\nvalue = [3, 0]\nclass = male", fillcolor="#e58139"] ;
120 -> 121 ;
122 [label="HML <= 280.0\ngini = 0.251\nsamples = 34\nvalue = [5, 29]\nclass = female", fillcolor="#5baee9"] ;
120 -> 122 ;
123 [label="HHD <= 39.735\ngini = 0.5\nsamples = 6\nvalue = [3, 3]\nclass = male", fillcolor="#ffffff"] ;
122 -> 123 ;
124 [label="gini = 0.0\nsamples = 2\nvalue = [2, 0]\nclass = male", fillcolor="#e58139"] ;
123 -> 124 ;
125 [label="HHD <= 39.815\ngini = 0.375\nsamples = 4\nvalue = [1, 3]\nclass = female", fillcolor="#7bbeee"] ;
123 -> 125 ;
126 [label="gini = 0.0\nsamples = 3\nvalue = [0, 3]\nclass = female", fillcolor="#399de5"] ;
125 -> 126 ;
127 [label="gini = 0.0\nsamples = 1\nvalue = [1, 0]\nclass = male", fillcolor="#e58139"] ;
125 -> 127 ;
128 [label="HMLD <= 20.375\ngini = 0.133\nsamples = 28\nvalue = [2, 26]\nclass = female", fillcolor="#48a5e7"] ;
122 -> 128 ;
129 [label="HHD <= 39.89\ngini = 0.074\nsamples = 26\nvalue = [1, 25]\nclass = female", fillcolor="#41a1e6"] ;
128 -> 129 ;
130 [label="gini = 0.0\nsamples = 21\nvalue = [0, 21]\nclass = female", fillcolor="#399de5"] ;
129 -> 130 ;
131 [label="HML <= 289.0\ngini = 0.32\nsamples = 5\nvalue = [1, 4]\nclass = female", fillcolor="#6ab6ec"] ;
129 -> 131 ;
132 [label="gini = 0.0\nsamples = 1\nvalue = [1, 0]\nclass = male", fillcolor="#e58139"] ;
131 -> 132 ;
133 [label="gini = 0.0\nsamples = 4\nvalue = [0, 4]\nclass = female", fillcolor="#399de5"] ;
131 -> 133 ;
134 [label="HEB <= 54.5\ngini = 0.5\nsamples = 2\nvalue = [1, 1]\nclass = male", fillcolor="#ffffff"] ;
128 -> 134 ;
135 [label="gini = 0.0\nsamples = 1\nvalue = [1, 0]\nclass = male", fillcolor="#e58139"] ;
134 -> 135 ;
136 [label="gini = 0.0\nsamples = 1\nvalue = [0, 1]\nclass = female", fillcolor="#399de5"] ;
134 -> 136 ;
137 [label="gini = 0.0\nsamples = 25\nvalue = [0, 25]\nclass = female", fillcolor="#399de5"] ;
59 -> 137 ;
138 [label="HHD <= 39.765\ngini = 0.401\nsamples = 18\nvalue = [5, 13]\nclass = female", fillcolor="#85c3ef"] ;
58 -> 138 ;
139 [label="HMLD <= 21.555\ngini = 0.305\nsamples = 16\nvalue = [3, 13]\nclass = female", fillcolor="#67b4eb"] ;
138 -> 139 ;
140 [label="gini = 0.0\nsamples = 1\nvalue = [1, 0]\nclass = male", fillcolor="#e58139"] ;
139 -> 140 ;
141 [label="HEB <= 53.5\ngini = 0.231\nsamples = 15\nvalue = [2, 13]\nclass = female", fillcolor="#57ace9"] ;
139 -> 141 ;
142 [label="HHD <= 38.145\ngini = 0.48\nsamples = 5\nvalue = [2, 3]\nclass = female", fillcolor="#bddef6"] ;
141 -> 142 ;
143 [label="gini = 0.0\nsamples = 2\nvalue = [0, 2]\nclass = female", fillcolor="#399de5"] ;
142 -> 143 ;
144 [label="HHD <= 39.04\ngini = 0.444\nsamples = 3\nvalue = [2, 1]\nclass = male", fillcolor="#f2c09c"] ;
142 -> 144 ;
145 [label="gini = 0.0\nsamples = 2\nvalue = [2, 0]\nclass = male", fillcolor="#e58139"] ;
144 -> 145 ;
146 [label="gini = 0.0\nsamples = 1\nvalue = [0, 1]\nclass = female", fillcolor="#399de5"] ;
144 -> 146 ;
147 [label="gini = 0.0\nsamples = 10\nvalue = [0, 10]\nclass = female", fillcolor="#399de5"] ;
141 -> 147 ;
148 [label="gini = 0.0\nsamples = 2\nvalue = [2, 0]\nclass = male", fillcolor="#e58139"] ;
138 -> 148 ;
149 [label="HML <= 301.25\ngini = 0.5\nsamples = 6\nvalue = [3, 3]\nclass = male", fillcolor="#ffffff"] ;
3 -> 149 ;
150 [label="gini = 0.0\nsamples = 3\nvalue = [0, 3]\nclass = female", fillcolor="#399de5"] ;
149 -> 150 ;
151 [label="gini = 0.0\nsamples = 3\nvalue = [3, 0]\nclass = male", fillcolor="#e58139"] ;
149 -> 151 ;
152 [label="HEB <= 55.25\ngini = 0.366\nsamples = 232\nvalue = [56, 176]\nclass = female", fillcolor="#78bced"] ;
2 -> 152 ;
153 [label="HMLD <= 18.295\ngini = 0.284\nsamples = 140\nvalue = [24, 116]\nclass = female", fillcolor="#62b1ea"] ;
152 -> 153 ;
154 [label="HML <= 276.5\ngini = 0.078\nsamples = 49\nvalue = [2, 47]\nclass = female", fillcolor="#41a1e6"] ;
153 -> 154 ;
155 [label="HML <= 274.0\ngini = 0.5\nsamples = 2\nvalue = [1, 1]\nclass = male", fillcolor="#ffffff"] ;
154 -> 155 ;
156 [label="gini = 0.0\nsamples = 1\nvalue = [0, 1]\nclass = female", fillcolor="#399de5"] ;
155 -> 156 ;
157 [label="gini = 0.0\nsamples = 1\nvalue = [1, 0]\nclass = male", fillcolor="#e58139"] ;
155 -> 157 ;
158 [label="HML <= 288.25\ngini = 0.042\nsamples = 47\nvalue = [1, 46]\nclass = female", fillcolor="#3d9fe6"] ;
154 -> 158 ;
159 [label="HML <= 287.25\ngini = 0.117\nsamples = 16\nvalue = [1, 15]\nclass = female", fillcolor="#46a4e7"] ;
158 -> 159 ;
160 [label="gini = 0.0\nsamples = 15\nvalue = [0, 15]\nclass = female", fillcolor="#399de5"] ;
159 -> 160 ;
161 [label="gini = 0.0\nsamples = 1\nvalue = [1, 0]\nclass = male", fillcolor="#e58139"] ;
159 -> 161 ;
162 [label="gini = 0.0\nsamples = 31\nvalue = [0, 31]\nclass = female", fillcolor="#399de5"] ;
158 -> 162 ;
163 [label="HMLD <= 18.395\ngini = 0.367\nsamples = 91\nvalue = [22, 69]\nclass = female", fillcolor="#78bced"] ;
153 -> 163 ;
164 [label="gini = 0.0\nsamples = 2\nvalue = [2, 0]\nclass = male", fillcolor="#e58139"] ;
163 -> 164 ;
165 [label="HHD <= 40.145\ngini = 0.348\nsamples = 89\nvalue = [20, 69]\nclass = female", fillcolor="#72b9ed"] ;
163 -> 165 ;
166 [label="HEB <= 51.5\ngini = 0.48\nsamples = 5\nvalue = [3, 2]\nclass = male", fillcolor="#f6d5bd"] ;
165 -> 166 ;
167 [label="gini = 0.0\nsamples = 2\nvalue = [0, 2]\nclass = female", fillcolor="#399de5"] ;
166 -> 167 ;
168 [label="gini = 0.0\nsamples = 3\nvalue = [3, 0]\nclass = male", fillcolor="#e58139"] ;
166 -> 168 ;
169 [label="HEB <= 51.5\ngini = 0.323\nsamples = 84\nvalue = [17, 67]\nclass = female", fillcolor="#6bb6ec"] ;
165 -> 169 ;
170 [label="HMLD <= 21.015\ngini = 0.49\nsamples = 7\nvalue = [4, 3]\nclass = male", fillcolor="#f8e0ce"] ;
169 -> 170 ;
171 [label="HEB <= 50.25\ngini = 0.32\nsamples = 5\nvalue = [4, 1]\nclass = male", fillcolor="#eca06a"] ;
170 -> 171 ;
172 [label="gini = 0.0\nsamples = 1\nvalue = [0, 1]\nclass = female", fillcolor="#399de5"] ;
171 -> 172 ;
173 [label="gini = 0.0\nsamples = 4\nvalue = [4, 0]\nclass = male", fillcolor="#e58139"] ;
171 -> 173 ;
174 [label="gini = 0.0\nsamples = 2\nvalue = [0, 2]\nclass = female", fillcolor="#399de5"] ;
170 -> 174 ;
175 [label="HMLD <= 22.845\ngini = 0.281\nsamples = 77\nvalue = [13, 64]\nclass = female", fillcolor="#61b1ea"] ;
169 -> 175 ;
176 [label="HHD <= 41.185\ngini = 0.253\nsamples = 74\nvalue = [11, 63]\nclass = female", fillcolor="#5caeea"] ;
175 -> 176 ;
177 [label="HHD <= 41.165\ngini = 0.325\nsamples = 49\nvalue = [10, 39]\nclass = female", fillcolor="#6cb6ec"] ;
176 -> 177 ;
178 [label="HML <= 287.25\ngini = 0.305\nsamples = 48\nvalue = [9, 39]\nclass = female", fillcolor="#67b4eb"] ;
177 -> 178 ;
179 [label="HHD <= 40.745\ngini = 0.147\nsamples = 25\nvalue = [2, 23]\nclass = female", fillcolor="#4aa6e7"] ;
178 -> 179 ;
180 [label="gini = 0.0\nsamples = 15\nvalue = [0, 15]\nclass = female", fillcolor="#399de5"] ;
179 -> 180 ;
181 [label="HHD <= 40.765\ngini = 0.32\nsamples = 10\nvalue = [2, 8]\nclass = female", fillcolor="#6ab6ec"] ;
179 -> 181 ;
182 [label="gini = 0.0\nsamples = 1\nvalue = [1, 0]\nclass = male", fillcolor="#e58139"] ;
181 -> 182 ;
183 [label="HHD <= 40.975\ngini = 0.198\nsamples = 9\nvalue = [1, 8]\nclass = female", fillcolor="#52a9e8"] ;
181 -> 183 ;
184 [label="gini = 0.0\nsamples = 5\nvalue = [0, 5]\nclass = female", fillcolor="#399de5"] ;
183 -> 184 ;
185 [label="HHD <= 41.01\ngini = 0.375\nsamples = 4\nvalue = [1, 3]\nclass = female", fillcolor="#7bbeee"] ;
183 -> 185 ;
186 [label="gini = 0.0\nsamples = 1\nvalue = [1, 0]\nclass = male", fillcolor="#e58139"] ;
185 -> 186 ;
187 [label="gini = 0.0\nsamples = 3\nvalue = [0, 3]\nclass = female", fillcolor="#399de5"] ;
185 -> 187 ;
188 [label="HML <= 288.75\ngini = 0.423\nsamples = 23\nvalue = [7, 16]\nclass = female", fillcolor="#90c8f0"] ;
178 -> 188 ;
189 [label="gini = 0.0\nsamples = 2\nvalue = [2, 0]\nclass = male", fillcolor="#e58139"] ;
188 -> 189 ;
190 [label="HMLD <= 18.64\ngini = 0.363\nsamples = 21\nvalue = [5, 16]\nclass = female", fillcolor="#77bced"] ;
188 -> 190 ;
191 [label="gini = 0.0\nsamples = 2\nvalue = [2, 0]\nclass = male", fillcolor="#e58139"] ;
190 -> 191 ;
192 [label="HHD <= 41.0\ngini = 0.266\nsamples = 19\nvalue = [3, 16]\nclass = female", fillcolor="#5eafea"] ;
190 -> 192 ;
193 [label="HMLD <= 18.935\ngini = 0.117\nsamples = 16\nvalue = [1, 15]\nclass = female", fillcolor="#46a4e7"] ;
192 -> 193 ;
194 [label="HMLD <= 18.9\ngini = 0.32\nsamples = 5\nvalue = [1, 4]\nclass = female", fillcolor="#6ab6ec"] ;
193 -> 194 ;
195 [label="gini = 0.0\nsamples = 4\nvalue = [0, 4]\nclass = female", fillcolor="#399de5"] ;
194 -> 195 ;
196 [label="gini = 0.0\nsamples = 1\nvalue = [1, 0]\nclass = male", fillcolor="#e58139"] ;
194 -> 196 ;
197 [label="gini = 0.0\nsamples = 11\nvalue = [0, 11]\nclass = female", fillcolor="#399de5"] ;
193 -> 197 ;
198 [label="HHD <= 41.08\ngini = 0.444\nsamples = 3\nvalue = [2, 1]\nclass = male", fillcolor="#f2c09c"] ;
192 -> 198 ;
199 [label="gini = 0.0\nsamples = 2\nvalue = [2, 0]\nclass = male", fillcolor="#e58139"] ;
198 -> 199 ;
200 [label="gini = 0.0\nsamples = 1\nvalue = [0, 1]\nclass = female", fillcolor="#399de5"] ;
198 -> 200 ;
201 [label="gini = 0.0\nsamples = 1\nvalue = [1, 0]\nclass = male", fillcolor="#e58139"] ;
177 -> 201 ;
202 [label="HML <= 311.5\ngini = 0.077\nsamples = 25\nvalue = [1, 24]\nclass = female", fillcolor="#41a1e6"] ;
176 -> 202 ;
203 [label="gini = 0.0\nsamples = 22\nvalue = [0, 22]\nclass = female", fillcolor="#399de5"] ;
202 -> 203 ;
204 [label="HHD <= 41.555\ngini = 0.444\nsamples = 3\nvalue = [1, 2]\nclass = female", fillcolor="#9ccef2"] ;
202 -> 204 ;
205 [label="gini = 0.0\nsamples = 1\nvalue = [1, 0]\nclass = male", fillcolor="#e58139"] ;
204 -> 205 ;
206 [label="gini = 0.0\nsamples = 2\nvalue = [0, 2]\nclass = female", fillcolor="#399de5"] ;
204 -> 206 ;
207 [label="HML <= 286.25\ngini = 0.444\nsamples = 3\nvalue = [2, 1]\nclass = male", fillcolor="#f2c09c"] ;
175 -> 207 ;
208 [label="gini = 0.0\nsamples = 2\nvalue = [2, 0]\nclass = male", fillcolor="#e58139"] ;
207 -> 208 ;
209 [label="gini = 0.0\nsamples = 1\nvalue = [0, 1]\nclass = female", fillcolor="#399de5"] ;
207 -> 209 ;
210 [label="HML <= 316.5\ngini = 0.454\nsamples = 92\nvalue = [32, 60]\nclass = female", fillcolor="#a3d1f3"] ;
152 -> 210 ;
211 [label="HML <= 295.25\ngini = 0.43\nsamples = 83\nvalue = [26, 57]\nclass = female", fillcolor="#93caf1"] ;
210 -> 211 ;
212 [label="HML <= 293.75\ngini = 0.482\nsamples = 37\nvalue = [15, 22]\nclass = female", fillcolor="#c0e0f7"] ;
211 -> 212 ;
213 [label="HMLD <= 18.135\ngini = 0.43\nsamples = 32\nvalue = [10, 22]\nclass = female", fillcolor="#93caf1"] ;
212 -> 213 ;
214 [label="HMLD <= 16.575\ngini = 0.444\nsamples = 6\nvalue = [4, 2]\nclass = male", fillcolor="#f2c09c"] ;
213 -> 214 ;
215 [label="gini = 0.0\nsamples = 1\nvalue = [0, 1]\nclass = female", fillcolor="#399de5"] ;
214 -> 215 ;
216 [label="HMLD <= 17.98\ngini = 0.32\nsamples = 5\nvalue = [4, 1]\nclass = male", fillcolor="#eca06a"] ;
214 -> 216 ;
217 [label="gini = 0.0\nsamples = 3\nvalue = [3, 0]\nclass = male", fillcolor="#e58139"] ;
216 -> 217 ;
218 [label="HML <= 286.75\ngini = 0.5\nsamples = 2\nvalue = [1, 1]\nclass = male", fillcolor="#ffffff"] ;
216 -> 218 ;
219 [label="gini = 0.0\nsamples = 1\nvalue = [0, 1]\nclass = female", fillcolor="#399de5"] ;
218 -> 219 ;
220 [label="gini = 0.0\nsamples = 1\nvalue = [1, 0]\nclass = male", fillcolor="#e58139"] ;
218 -> 220 ;
221 [label="HHD <= 40.7\ngini = 0.355\nsamples = 26\nvalue = [6, 20]\nclass = female", fillcolor="#74baed"] ;
213 -> 221 ;
222 [label="gini = 0.0\nsamples = 11\nvalue = [0, 11]\nclass = female", fillcolor="#399de5"] ;
221 -> 222 ;
223 [label="HHD <= 40.81\ngini = 0.48\nsamples = 15\nvalue = [6, 9]\nclass = female", fillcolor="#bddef6"] ;
221 -> 223 ;
224 [label="gini = 0.0\nsamples = 2\nvalue = [2, 0]\nclass = male", fillcolor="#e58139"] ;
223 -> 224 ;
225 [label="HMLD <= 21.945\ngini = 0.426\nsamples = 13\nvalue = [4, 9]\nclass = female", fillcolor="#91c9f1"] ;
223 -> 225 ;
226 [label="HML <= 289.5\ngini = 0.198\nsamples = 9\nvalue = [1, 8]\nclass = female", fillcolor="#52a9e8"] ;
225 -> 226 ;
227 [label="gini = 0.0\nsamples = 6\nvalue = [0, 6]\nclass = female", fillcolor="#399de5"] ;
226 -> 227 ;
228 [label="HML <= 292.0\ngini = 0.444\nsamples = 3\nvalue = [1, 2]\nclass = female", fillcolor="#9ccef2"] ;
226 -> 228 ;
229 [label="gini = 0.0\nsamples = 1\nvalue = [1, 0]\nclass = male", fillcolor="#e58139"] ;
228 -> 229 ;
230 [label="gini = 0.0\nsamples = 2\nvalue = [0, 2]\nclass = female", fillcolor="#399de5"] ;
228 -> 230 ;
231 [label="HEB <= 59.5\ngini = 0.375\nsamples = 4\nvalue = [3, 1]\nclass = male", fillcolor="#eeab7b"] ;
225 -> 231 ;
232 [label="gini = 0.0\nsamples = 3\nvalue = [3, 0]\nclass = male", fillcolor="#e58139"] ;
231 -> 232 ;
233 [label="gini = 0.0\nsamples = 1\nvalue = [0, 1]\nclass = female", fillcolor="#399de5"] ;
231 -> 233 ;
234 [label="gini = 0.0\nsamples = 5\nvalue = [5, 0]\nclass = male", fillcolor="#e58139"] ;
212 -> 234 ;
235 [label="HHD <= 41.28\ngini = 0.364\nsamples = 46\nvalue = [11, 35]\nclass = female", fillcolor="#77bced"] ;
211 -> 235 ;
236 [label="HHD <= 40.945\ngini = 0.471\nsamples = 29\nvalue = [11, 18]\nclass = female", fillcolor="#b2d9f5"] ;
235 -> 236 ;
237 [label="HMLD <= 20.07\ngini = 0.36\nsamples = 17\nvalue = [4, 13]\nclass = female", fillcolor="#76bbed"] ;
236 -> 237 ;
238 [label="HMLD <= 18.52\ngini = 0.463\nsamples = 11\nvalue = [4, 7]\nclass = female", fillcolor="#aad5f4"] ;
237 -> 238 ;
239 [label="gini = 0.0\nsamples = 5\nvalue = [0, 5]\nclass = female", fillcolor="#399de5"] ;
238 -> 239 ;
240 [label="HML <= 306.0\ngini = 0.444\nsamples = 6\nvalue = [4, 2]\nclass = male", fillcolor="#f2c09c"] ;
238 -> 240 ;
241 [label="gini = 0.0\nsamples = 3\nvalue = [3, 0]\nclass = male", fillcolor="#e58139"] ;
240 -> 241 ;
242 [label="HMLD <= 19.095\ngini = 0.444\nsamples = 3\nvalue = [1, 2]\nclass = female", fillcolor="#9ccef2"] ;
240 -> 242 ;
243 [label="gini = 0.0\nsamples = 1\nvalue = [0, 1]\nclass = female", fillcolor="#399de5"] ;
242 -> 243 ;
244 [label="HMLD <= 19.35\ngini = 0.5\nsamples = 2\nvalue = [1, 1]\nclass = male", fillcolor="#ffffff"] ;
242 -> 244 ;
245 [label="gini = 0.0\nsamples = 1\nvalue = [1, 0]\nclass = male", fillcolor="#e58139"] ;
244 -> 245 ;
246 [label="gini = 0.0\nsamples = 1\nvalue = [0, 1]\nclass = female", fillcolor="#399de5"] ;
244 -> 246 ;
247 [label="gini = 0.0\nsamples = 6\nvalue = [0, 6]\nclass = female", fillcolor="#399de5"] ;
237 -> 247 ;
248 [label="HML <= 299.5\ngini = 0.486\nsamples = 12\nvalue = [7, 5]\nclass = male", fillcolor="#f8dbc6"] ;
236 -> 248 ;
249 [label="gini = 0.0\nsamples = 3\nvalue = [0, 3]\nclass = female", fillcolor="#399de5"] ;
248 -> 249 ;
250 [label="HEB <= 58.75\ngini = 0.346\nsamples = 9\nvalue = [7, 2]\nclass = male", fillcolor="#eca572"] ;
248 -> 250 ;
251 [label="HHD <= 41.16\ngini = 0.219\nsamples = 8\nvalue = [7, 1]\nclass = male", fillcolor="#e99355"] ;
250 -> 251 ;
252 [label="gini = 0.0\nsamples = 5\nvalue = [5, 0]\nclass = male", fillcolor="#e58139"] ;
251 -> 252 ;
253 [label="HEB <= 56.25\ngini = 0.444\nsamples = 3\nvalue = [2, 1]\nclass = male", fillcolor="#f2c09c"] ;
251 -> 253 ;
254 [label="gini = 0.0\nsamples = 2\nvalue = [2, 0]\nclass = male", fillcolor="#e58139"] ;
253 -> 254 ;
255 [label="gini = 0.0\nsamples = 1\nvalue = [0, 1]\nclass = female", fillcolor="#399de5"] ;
253 -> 255 ;
256 [label="gini = 0.0\nsamples = 1\nvalue = [0, 1]\nclass = female", fillcolor="#399de5"] ;
250 -> 256 ;
257 [label="gini = 0.0\nsamples = 17\nvalue = [0, 17]\nclass = female", fillcolor="#399de5"] ;
235 -> 257 ;
258 [label="HEB <= 58.75\ngini = 0.444\nsamples = 9\nvalue = [6, 3]\nclass = male", fillcolor="#f2c09c"] ;
210 -> 258 ;
259 [label="HEB <= 57.25\ngini = 0.245\nsamples = 7\nvalue = [6, 1]\nclass = male", fillcolor="#e9965a"] ;
258 -> 259 ;
260 [label="gini = 0.0\nsamples = 4\nvalue = [4, 0]\nclass = male", fillcolor="#e58139"] ;
259 -> 260 ;
261 [label="HEB <= 57.75\ngini = 0.444\nsamples = 3\nvalue = [2, 1]\nclass = male", fillcolor="#f2c09c"] ;
259 -> 261 ;
262 [label="gini = 0.0\nsamples = 1\nvalue = [0, 1]\nclass = female", fillcolor="#399de5"] ;
261 -> 262 ;
263 [label="gini = 0.0\nsamples = 2\nvalue = [2, 0]\nclass = male", fillcolor="#e58139"] ;
261 -> 263 ;
264 [label="gini = 0.0\nsamples = 2\nvalue = [0, 2]\nclass = female", fillcolor="#399de5"] ;
258 -> 264 ;
265 [label="HML <= 293.0\ngini = 0.36\nsamples = 17\nvalue = [13, 4]\nclass = male", fillcolor="#eda876"] ;
1 -> 265 ;
266 [label="HEB <= 62.25\ngini = 0.5\nsamples = 6\nvalue = [3, 3]\nclass = male", fillcolor="#ffffff"] ;
265 -> 266 ;
267 [label="gini = 0.0\nsamples = 3\nvalue = [3, 0]\nclass = male", fillcolor="#e58139"] ;
266 -> 267 ;
268 [label="gini = 0.0\nsamples = 3\nvalue = [0, 3]\nclass = female", fillcolor="#399de5"] ;
266 -> 268 ;
269 [label="HEB <= 61.25\ngini = 0.165\nsamples = 11\nvalue = [10, 1]\nclass = male", fillcolor="#e88e4d"] ;
265 -> 269 ;
270 [label="HMLD <= 21.605\ngini = 0.375\nsamples = 4\nvalue = [3, 1]\nclass = male", fillcolor="#eeab7b"] ;
269 -> 270 ;
271 [label="gini = 0.0\nsamples = 3\nvalue = [3, 0]\nclass = male", fillcolor="#e58139"] ;
270 -> 271 ;
272 [label="gini = 0.0\nsamples = 1\nvalue = [0, 1]\nclass = female", fillcolor="#399de5"] ;
270 -> 272 ;
273 [label="gini = 0.0\nsamples = 7\nvalue = [7, 0]\nclass = male", fillcolor="#e58139"] ;
269 -> 273 ;
274 [label="HEB <= 55.75\ngini = 0.224\nsamples = 777\nvalue = [677, 100]\nclass = male", fillcolor="#e99456"] ;
0 -> 274 [labeldistance=2.5, labelangle=-45, headlabel="False"] ;
275 [label="HML <= 317.0\ngini = 0.5\nsamples = 81\nvalue = [40, 41]\nclass = female", fillcolor="#fafdfe"] ;
274 -> 275 ;
276 [label="HMLD <= 21.46\ngini = 0.49\nsamples = 72\nvalue = [31, 41]\nclass = female", fillcolor="#cfe7f9"] ;
275 -> 276 ;
277 [label="HHD <= 44.095\ngini = 0.471\nsamples = 66\nvalue = [25, 41]\nclass = female", fillcolor="#b2d9f5"] ;
276 -> 277 ;
278 [label="HHD <= 43.31\ngini = 0.431\nsamples = 54\nvalue = [17, 37]\nclass = female", fillcolor="#94caf1"] ;
277 -> 278 ;
279 [label="HHD <= 42.66\ngini = 0.466\nsamples = 46\nvalue = [17, 29]\nclass = female", fillcolor="#add6f4"] ;
278 -> 279 ;
280 [label="HHD <= 42.265\ngini = 0.355\nsamples = 26\nvalue = [6, 20]\nclass = female", fillcolor="#74baed"] ;
279 -> 280 ;
281 [label="HML <= 290.5\ngini = 0.49\nsamples = 14\nvalue = [6, 8]\nclass = female", fillcolor="#cee6f8"] ;
280 -> 281 ;
282 [label="gini = 0.0\nsamples = 2\nvalue = [2, 0]\nclass = male", fillcolor="#e58139"] ;
281 -> 282 ;
283 [label="HMLD <= 17.875\ngini = 0.444\nsamples = 12\nvalue = [4, 8]\nclass = female", fillcolor="#9ccef2"] ;
281 -> 283 ;
284 [label="HML <= 308.0\ngini = 0.375\nsamples = 4\nvalue = [3, 1]\nclass = male", fillcolor="#eeab7b"] ;
283 -> 284 ;
285 [label="gini = 0.0\nsamples = 3\nvalue = [3, 0]\nclass = male", fillcolor="#e58139"] ;
284 -> 285 ;
286 [label="gini = 0.0\nsamples = 1\nvalue = [0, 1]\nclass = female", fillcolor="#399de5"] ;
284 -> 286 ;
287 [label="HHD <= 41.905\ngini = 0.219\nsamples = 8\nvalue = [1, 7]\nclass = female", fillcolor="#55abe9"] ;
283 -> 287 ;
288 [label="gini = 0.0\nsamples = 1\nvalue = [1, 0]\nclass = male", fillcolor="#e58139"] ;
287 -> 288 ;
289 [label="gini = 0.0\nsamples = 7\nvalue = [0, 7]\nclass = female", fillcolor="#399de5"] ;
287 -> 289 ;
290 [label="gini = 0.0\nsamples = 12\nvalue = [0, 12]\nclass = female", fillcolor="#399de5"] ;
280 -> 290 ;
291 [label="HML <= 304.75\ngini = 0.495\nsamples = 20\nvalue = [11, 9]\nclass = male", fillcolor="#fae8db"] ;
279 -> 291 ;
292 [label="HMLD <= 19.08\ngini = 0.49\nsamples = 14\nvalue = [6, 8]\nclass = female", fillcolor="#cee6f8"] ;
291 -> 292 ;
293 [label="HHD <= 42.76\ngini = 0.278\nsamples = 6\nvalue = [1, 5]\nclass = female", fillcolor="#61b1ea"] ;
292 -> 293 ;
294 [label="gini = 0.0\nsamples = 1\nvalue = [1, 0]\nclass = male", fillcolor="#e58139"] ;
293 -> 294 ;
295 [label="gini = 0.0\nsamples = 5\nvalue = [0, 5]\nclass = female", fillcolor="#399de5"] ;
293 -> 295 ;
296 [label="HMLD <= 20.56\ngini = 0.469\nsamples = 8\nvalue = [5, 3]\nclass = male", fillcolor="#f5cdb0"] ;
292 -> 296 ;
297 [label="HEB <= 54.75\ngini = 0.278\nsamples = 6\nvalue = [5, 1]\nclass = male", fillcolor="#ea9a61"] ;
296 -> 297 ;
298 [label="gini = 0.0\nsamples = 4\nvalue = [4, 0]\nclass = male", fillcolor="#e58139"] ;
297 -> 298 ;
299 [label="HMLD <= 19.3\ngini = 0.5\nsamples = 2\nvalue = [1, 1]\nclass = male", fillcolor="#ffffff"] ;
297 -> 299 ;
300 [label="gini = 0.0\nsamples = 1\nvalue = [1, 0]\nclass = male", fillcolor="#e58139"] ;
299 -> 300 ;
301 [label="gini = 0.0\nsamples = 1\nvalue = [0, 1]\nclass = female", fillcolor="#399de5"] ;
299 -> 301 ;
302 [label="gini = 0.0\nsamples = 2\nvalue = [0, 2]\nclass = female", fillcolor="#399de5"] ;
296 -> 302 ;
303 [label="HHD <= 43.0\ngini = 0.278\nsamples = 6\nvalue = [5, 1]\nclass = male", fillcolor="#ea9a61"] ;
291 -> 303 ;
304 [label="gini = 0.0\nsamples = 5\nvalue = [5, 0]\nclass = male", fillcolor="#e58139"] ;
303 -> 304 ;
305 [label="gini = 0.0\nsamples = 1\nvalue = [0, 1]\nclass = female", fillcolor="#399de5"] ;
303 -> 305 ;
306 [label="gini = 0.0\nsamples = 8\nvalue = [0, 8]\nclass = female", fillcolor="#399de5"] ;
278 -> 306 ;
307 [label="HML <= 309.75\ngini = 0.444\nsamples = 12\nvalue = [8, 4]\nclass = male", fillcolor="#f2c09c"] ;
277 -> 307 ;
308 [label="HHD <= 45.585\ngini = 0.32\nsamples = 10\nvalue = [8, 2]\nclass = male", fillcolor="#eca06a"] ;
307 -> 308 ;
309 [label="gini = 0.0\nsamples = 8\nvalue = [8, 0]\nclass = male", fillcolor="#e58139"] ;
308 -> 309 ;
310 [label="gini = 0.0\nsamples = 2\nvalue = [0, 2]\nclass = female", fillcolor="#399de5"] ;
308 -> 310 ;
311 [label="gini = 0.0\nsamples = 2\nvalue = [0, 2]\nclass = female", fillcolor="#399de5"] ;
307 -> 311 ;
312 [label="gini = 0.0\nsamples = 6\nvalue = [6, 0]\nclass = male", fillcolor="#e58139"] ;
276 -> 312 ;
313 [label="gini = 0.0\nsamples = 9\nvalue = [9, 0]\nclass = male", fillcolor="#e58139"] ;
275 -> 313 ;
314 [label="HHD <= 44.64\ngini = 0.155\nsamples = 696\nvalue = [637, 59]\nclass = male", fillcolor="#e78d4b"] ;
274 -> 314 ;
315 [label="HMLD <= 21.32\ngini = 0.295\nsamples = 278\nvalue = [228, 50]\nclass = male", fillcolor="#eb9d64"] ;
314 -> 315 ;
316 [label="HEB <= 60.75\ngini = 0.369\nsamples = 180\nvalue = [136, 44]\nclass = male", fillcolor="#edaa79"] ;
315 -> 316 ;
317 [label="HMLD <= 21.285\ngini = 0.422\nsamples = 129\nvalue = [90, 39]\nclass = male", fillcolor="#f0b88f"] ;
316 -> 317 ;
318 [label="HML <= 298.75\ngini = 0.413\nsamples = 127\nvalue = [90, 37]\nclass = male", fillcolor="#f0b58a"] ;
317 -> 318 ;
319 [label="HEB <= 57.75\ngini = 0.313\nsamples = 36\nvalue = [29, 7]\nclass = male", fillcolor="#eb9f69"] ;
318 -> 319 ;
320 [label="HMLD <= 18.655\ngini = 0.469\nsamples = 16\nvalue = [10, 6]\nclass = male", fillcolor="#f5cdb0"] ;
319 -> 320 ;
321 [label="HHD <= 43.4\ngini = 0.245\nsamples = 7\nvalue = [6, 1]\nclass = male", fillcolor="#e9965a"] ;
320 -> 321 ;
322 [label="gini = 0.0\nsamples = 5\nvalue = [5, 0]\nclass = male", fillcolor="#e58139"] ;
321 -> 322 ;
323 [label="HEB <= 56.5\ngini = 0.5\nsamples = 2\nvalue = [1, 1]\nclass = male", fillcolor="#ffffff"] ;
321 -> 323 ;
324 [label="gini = 0.0\nsamples = 1\nvalue = [1, 0]\nclass = male", fillcolor="#e58139"] ;
323 -> 324 ;
325 [label="gini = 0.0\nsamples = 1\nvalue = [0, 1]\nclass = female", fillcolor="#399de5"] ;
323 -> 325 ;
326 [label="HMLD <= 19.4\ngini = 0.494\nsamples = 9\nvalue = [4, 5]\nclass = female", fillcolor="#d7ebfa"] ;
320 -> 326 ;
327 [label="gini = 0.0\nsamples = 3\nvalue = [0, 3]\nclass = female", fillcolor="#399de5"] ;
326 -> 327 ;
328 [label="HHD <= 42.55\ngini = 0.444\nsamples = 6\nvalue = [4, 2]\nclass = male", fillcolor="#f2c09c"] ;
326 -> 328 ;
329 [label="HHD <= 42.27\ngini = 0.444\nsamples = 3\nvalue = [1, 2]\nclass = female", fillcolor="#9ccef2"] ;
328 -> 329 ;
330 [label="gini = 0.0\nsamples = 1\nvalue = [1, 0]\nclass = male", fillcolor="#e58139"] ;
329 -> 330 ;
331 [label="gini = 0.0\nsamples = 2\nvalue = [0, 2]\nclass = female", fillcolor="#399de5"] ;
329 -> 331 ;
332 [label="gini = 0.0\nsamples = 3\nvalue = [3, 0]\nclass = male", fillcolor="#e58139"] ;
328 -> 332 ;
333 [label="HEB <= 60.25\ngini = 0.095\nsamples = 20\nvalue = [19, 1]\nclass = male", fillcolor="#e68843"] ;
319 -> 333 ;
334 [label="gini = 0.0\nsamples = 19\nvalue = [19, 0]\nclass = male", fillcolor="#e58139"] ;
333 -> 334 ;
335 [label="gini = 0.0\nsamples = 1\nvalue = [0, 1]\nclass = female", fillcolor="#399de5"] ;
333 -> 335 ;
336 [label="HML <= 300.25\ngini = 0.442\nsamples = 91\nvalue = [61, 30]\nclass = male", fillcolor="#f2bf9a"] ;
318 -> 336 ;
337 [label="HHD <= 42.455\ngini = 0.469\nsamples = 8\nvalue = [3, 5]\nclass = female", fillcolor="#b0d8f5"] ;
336 -> 337 ;
338 [label="gini = 0.0\nsamples = 2\nvalue = [2, 0]\nclass = male", fillcolor="#e58139"] ;
337 -> 338 ;
339 [label="HMLD <= 20.585\ngini = 0.278\nsamples = 6\nvalue = [1, 5]\nclass = female", fillcolor="#61b1ea"] ;
337 -> 339 ;
340 [label="gini = 0.0\nsamples = 4\nvalue = [0, 4]\nclass = female", fillcolor="#399de5"] ;
339 -> 340 ;
341 [label="HHD <= 43.635\ngini = 0.5\nsamples = 2\nvalue = [1, 1]\nclass = male", fillcolor="#ffffff"] ;
339 -> 341 ;
342 [label="gini = 0.0\nsamples = 1\nvalue = [0, 1]\nclass = female", fillcolor="#399de5"] ;
341 -> 342 ;
343 [label="gini = 0.0\nsamples = 1\nvalue = [1, 0]\nclass = male", fillcolor="#e58139"] ;
341 -> 343 ;
344 [label="HMLD <= 17.14\ngini = 0.421\nsamples = 83\nvalue = [58, 25]\nclass = male", fillcolor="#f0b78e"] ;
336 -> 344 ;
345 [label="gini = 0.0\nsamples = 1\nvalue = [0, 1]\nclass = female", fillcolor="#399de5"] ;
344 -> 345 ;
346 [label="HML <= 334.5\ngini = 0.414\nsamples = 82\nvalue = [58, 24]\nclass = male", fillcolor="#f0b58b"] ;
344 -> 346 ;
347 [label="HML <= 330.0\ngini = 0.429\nsamples = 77\nvalue = [53, 24]\nclass = male", fillcolor="#f1ba93"] ;
346 -> 347 ;
348 [label="HHD <= 42.395\ngini = 0.407\nsamples = 74\nvalue = [53, 21]\nclass = male", fillcolor="#efb387"] ;
347 -> 348 ;
349 [label="HML <= 325.25\ngini = 0.165\nsamples = 11\nvalue = [10, 1]\nclass = male", fillcolor="#e88e4d"] ;
348 -> 349 ;
350 [label="gini = 0.0\nsamples = 10\nvalue = [10, 0]\nclass = male", fillcolor="#e58139"] ;
349 -> 350 ;
351 [label="gini = 0.0\nsamples = 1\nvalue = [0, 1]\nclass = female", fillcolor="#399de5"] ;
349 -> 351 ;
352 [label="HHD <= 42.675\ngini = 0.433\nsamples = 63\nvalue = [43, 20]\nclass = male", fillcolor="#f1bc95"] ;
348 -> 352 ;
353 [label="HMLD <= 18.52\ngini = 0.444\nsamples = 9\nvalue = [3, 6]\nclass = female", fillcolor="#9ccef2"] ;
352 -> 353 ;
354 [label="gini = 0.0\nsamples = 1\nvalue = [1, 0]\nclass = male", fillcolor="#e58139"] ;
353 -> 354 ;
355 [label="HHD <= 42.54\ngini = 0.375\nsamples = 8\nvalue = [2, 6]\nclass = female", fillcolor="#7bbeee"] ;
353 -> 355 ;
356 [label="HML <= 319.25\ngini = 0.5\nsamples = 4\nvalue = [2, 2]\nclass = male", fillcolor="#ffffff"] ;
355 -> 356 ;
357 [label="gini = 0.0\nsamples = 2\nvalue = [2, 0]\nclass = male", fillcolor="#e58139"] ;
356 -> 357 ;
358 [label="gini = 0.0\nsamples = 2\nvalue = [0, 2]\nclass = female", fillcolor="#399de5"] ;
356 -> 358 ;
359 [label="gini = 0.0\nsamples = 4\nvalue = [0, 4]\nclass = female", fillcolor="#399de5"] ;
355 -> 359 ;
360 [label="HHD <= 42.805\ngini = 0.384\nsamples = 54\nvalue = [40, 14]\nclass = male", fillcolor="#eead7e"] ;
352 -> 360 ;
361 [label="gini = 0.0\nsamples = 6\nvalue = [6, 0]\nclass = male", fillcolor="#e58139"] ;
360 -> 361 ;
362 [label="HML <= 303.5\ngini = 0.413\nsamples = 48\nvalue = [34, 14]\nclass = male", fillcolor="#f0b58b"] ;
360 -> 362 ;
363 [label="HEB <= 56.25\ngini = 0.18\nsamples = 10\nvalue = [9, 1]\nclass = male", fillcolor="#e88f4f"] ;
362 -> 363 ;
364 [label="HHD <= 43.79\ngini = 0.5\nsamples = 2\nvalue = [1, 1]\nclass = male", fillcolor="#ffffff"] ;
363 -> 364 ;
365 [label="gini = 0.0\nsamples = 1\nvalue = [0, 1]\nclass = female", fillcolor="#399de5"] ;
364 -> 365 ;
366 [label="gini = 0.0\nsamples = 1\nvalue = [1, 0]\nclass = male", fillcolor="#e58139"] ;
364 -> 366 ;
367 [label="gini = 0.0\nsamples = 8\nvalue = [8, 0]\nclass = male", fillcolor="#e58139"] ;
363 -> 367 ;
368 [label="HML <= 308.5\ngini = 0.45\nsamples = 38\nvalue = [25, 13]\nclass = male", fillcolor="#f3c3a0"] ;
362 -> 368 ;
369 [label="HHD <= 43.455\ngini = 0.496\nsamples = 11\nvalue = [5, 6]\nclass = female", fillcolor="#deeffb"] ;
368 -> 369 ;
370 [label="gini = 0.0\nsamples = 4\nvalue = [0, 4]\nclass = female", fillcolor="#399de5"] ;
369 -> 370 ;
371 [label="HHD <= 44.265\ngini = 0.408\nsamples = 7\nvalue = [5, 2]\nclass = male", fillcolor="#efb388"] ;
369 -> 371 ;
372 [label="gini = 0.0\nsamples = 4\nvalue = [4, 0]\nclass = male", fillcolor="#e58139"] ;
371 -> 372 ;
373 [label="HML <= 307.25\ngini = 0.444\nsamples = 3\nvalue = [1, 2]\nclass = female", fillcolor="#9ccef2"] ;
371 -> 373 ;
374 [label="gini = 0.0\nsamples = 2\nvalue = [0, 2]\nclass = female", fillcolor="#399de5"] ;
373 -> 374 ;
375 [label="gini = 0.0\nsamples = 1\nvalue = [1, 0]\nclass = male", fillcolor="#e58139"] ;
373 -> 375 ;
376 [label="HHD <= 43.385\ngini = 0.384\nsamples = 27\nvalue = [20, 7]\nclass = male", fillcolor="#eead7e"] ;
368 -> 376 ;
377 [label="HML <= 323.5\ngini = 0.231\nsamples = 15\nvalue = [13, 2]\nclass = male", fillcolor="#e99457"] ;
376 -> 377 ;
378 [label="HMLD <= 17.96\ngini = 0.142\nsamples = 13\nvalue = [12, 1]\nclass = male", fillcolor="#e78c49"] ;
377 -> 378 ;
379 [label="HMLD <= 17.685\ngini = 0.444\nsamples = 3\nvalue = [2, 1]\nclass = male", fillcolor="#f2c09c"] ;
378 -> 379 ;
380 [label="gini = 0.0\nsamples = 2\nvalue = [2, 0]\nclass = male", fillcolor="#e58139"] ;
379 -> 380 ;
381 [label="gini = 0.0\nsamples = 1\nvalue = [0, 1]\nclass = female", fillcolor="#399de5"] ;
379 -> 381 ;
382 [label="gini = 0.0\nsamples = 10\nvalue = [10, 0]\nclass = male", fillcolor="#e58139"] ;
378 -> 382 ;
383 [label="HMLD <= 19.705\ngini = 0.5\nsamples = 2\nvalue = [1, 1]\nclass = male", fillcolor="#ffffff"] ;
377 -> 383 ;
384 [label="gini = 0.0\nsamples = 1\nvalue = [1, 0]\nclass = male", fillcolor="#e58139"] ;
383 -> 384 ;
385 [label="gini = 0.0\nsamples = 1\nvalue = [0, 1]\nclass = female", fillcolor="#399de5"] ;
383 -> 385 ;
386 [label="HHD <= 43.635\ngini = 0.486\nsamples = 12\nvalue = [7, 5]\nclass = male", fillcolor="#f8dbc6"] ;
376 -> 386 ;
387 [label="gini = 0.0\nsamples = 2\nvalue = [0, 2]\nclass = female", fillcolor="#399de5"] ;
386 -> 387 ;
388 [label="HML <= 315.25\ngini = 0.42\nsamples = 10\nvalue = [7, 3]\nclass = male", fillcolor="#f0b78e"] ;
386 -> 388 ;
389 [label="gini = 0.0\nsamples = 1\nvalue = [0, 1]\nclass = female", fillcolor="#399de5"] ;
388 -> 389 ;
390 [label="HHD <= 43.9\ngini = 0.346\nsamples = 9\nvalue = [7, 2]\nclass = male", fillcolor="#eca572"] ;
388 -> 390 ;
391 [label="HMLD <= 19.355\ngini = 0.5\nsamples = 4\nvalue = [2, 2]\nclass = male", fillcolor="#ffffff"] ;
390 -> 391 ;
392 [label="gini = 0.0\nsamples = 2\nvalue = [2, 0]\nclass = male", fillcolor="#e58139"] ;
391 -> 392 ;
393 [label="gini = 0.0\nsamples = 2\nvalue = [0, 2]\nclass = female", fillcolor="#399de5"] ;
391 -> 393 ;
394 [label="gini = 0.0\nsamples = 5\nvalue = [5, 0]\nclass = male", fillcolor="#e58139"] ;
390 -> 394 ;
395 [label="gini = 0.0\nsamples = 3\nvalue = [0, 3]\nclass = female", fillcolor="#399de5"] ;
347 -> 395 ;
396 [label="gini = 0.0\nsamples = 5\nvalue = [5, 0]\nclass = male", fillcolor="#e58139"] ;
346 -> 396 ;
397 [label="gini = 0.0\nsamples = 2\nvalue = [0, 2]\nclass = female", fillcolor="#399de5"] ;
317 -> 397 ;
398 [label="HHD <= 44.625\ngini = 0.177\nsamples = 51\nvalue = [46, 5]\nclass = male", fillcolor="#e88f4f"] ;
316 -> 398 ;
399 [label="HML <= 288.5\ngini = 0.147\nsamples = 50\nvalue = [46, 4]\nclass = male", fillcolor="#e78c4a"] ;
398 -> 399 ;
400 [label="gini = 0.0\nsamples = 1\nvalue = [0, 1]\nclass = female", fillcolor="#399de5"] ;
399 -> 400 ;
401 [label="HHD <= 42.12\ngini = 0.115\nsamples = 49\nvalue = [46, 3]\nclass = male", fillcolor="#e78946"] ;
399 -> 401 ;
402 [label="HML <= 318.25\ngini = 0.444\nsamples = 3\nvalue = [2, 1]\nclass = male", fillcolor="#f2c09c"] ;
401 -> 402 ;
403 [label="gini = 0.0\nsamples = 2\nvalue = [2, 0]\nclass = male", fillcolor="#e58139"] ;
402 -> 403 ;
404 [label="gini = 0.0\nsamples = 1\nvalue = [0, 1]\nclass = female", fillcolor="#399de5"] ;
402 -> 404 ;
405 [label="HMLD <= 17.215\ngini = 0.083\nsamples = 46\nvalue = [44, 2]\nclass = male", fillcolor="#e68742"] ;
401 -> 405 ;
406 [label="HML <= 315.0\ngini = 0.375\nsamples = 4\nvalue = [3, 1]\nclass = male", fillcolor="#eeab7b"] ;
405 -> 406 ;
407 [label="gini = 0.0\nsamples = 1\nvalue = [0, 1]\nclass = female", fillcolor="#399de5"] ;
406 -> 407 ;
408 [label="gini = 0.0\nsamples = 3\nvalue = [3, 0]\nclass = male", fillcolor="#e58139"] ;
406 -> 408 ;
409 [label="HHD <= 44.235\ngini = 0.046\nsamples = 42\nvalue = [41, 1]\nclass = male", fillcolor="#e6843e"] ;
405 -> 409 ;
410 [label="gini = 0.0\nsamples = 33\nvalue = [33, 0]\nclass = male", fillcolor="#e58139"] ;
409 -> 410 ;
411 [label="HHD <= 44.3\ngini = 0.198\nsamples = 9\nvalue = [8, 1]\nclass = male", fillcolor="#e89152"] ;
409 -> 411 ;
412 [label="gini = 0.0\nsamples = 1\nvalue = [0, 1]\nclass = female", fillcolor="#399de5"] ;
411 -> 412 ;
413 [label="gini = 0.0\nsamples = 8\nvalue = [8, 0]\nclass = male", fillcolor="#e58139"] ;
411 -> 413 ;
414 [label="gini = 0.0\nsamples = 1\nvalue = [0, 1]\nclass = female", fillcolor="#399de5"] ;
398 -> 414 ;
415 [label="HML <= 330.25\ngini = 0.115\nsamples = 98\nvalue = [92, 6]\nclass = male", fillcolor="#e78946"] ;
315 -> 415 ;
416 [label="HMLD <= 25.355\ngini = 0.084\nsamples = 91\nvalue = [87, 4]\nclass = male", fillcolor="#e68742"] ;
415 -> 416 ;
417 [label="HHD <= 44.015\ngini = 0.067\nsamples = 87\nvalue = [84, 3]\nclass = male", fillcolor="#e68640"] ;
416 -> 417 ;
418 [label="gini = 0.0\nsamples = 60\nvalue = [60, 0]\nclass = male", fillcolor="#e58139"] ;
417 -> 418 ;
419 [label="HHD <= 44.06\ngini = 0.198\nsamples = 27\nvalue = [24, 3]\nclass = male", fillcolor="#e89152"] ;
417 -> 419 ;
420 [label="gini = 0.0\nsamples = 1\nvalue = [0, 1]\nclass = female", fillcolor="#399de5"] ;
419 -> 420 ;
421 [label="HMLD <= 21.83\ngini = 0.142\nsamples = 26\nvalue = [24, 2]\nclass = male", fillcolor="#e78c49"] ;
419 -> 421 ;
422 [label="HML <= 306.0\ngini = 0.48\nsamples = 5\nvalue = [3, 2]\nclass = male", fillcolor="#f6d5bd"] ;
421 -> 422 ;
423 [label="gini = 0.0\nsamples = 3\nvalue = [3, 0]\nclass = male", fillcolor="#e58139"] ;
422 -> 423 ;
424 [label="gini = 0.0\nsamples = 2\nvalue = [0, 2]\nclass = female", fillcolor="#399de5"] ;
422 -> 424 ;
425 [label="gini = 0.0\nsamples = 21\nvalue = [21, 0]\nclass = male", fillcolor="#e58139"] ;
421 -> 425 ;
426 [label="HMLD <= 25.45\ngini = 0.375\nsamples = 4\nvalue = [3, 1]\nclass = male", fillcolor="#eeab7b"] ;
416 -> 426 ;
427 [label="gini = 0.0\nsamples = 1\nvalue = [0, 1]\nclass = female", fillcolor="#399de5"] ;
426 -> 427 ;
428 [label="gini = 0.0\nsamples = 3\nvalue = [3, 0]\nclass = male", fillcolor="#e58139"] ;
426 -> 428 ;
429 [label="HMLD <= 22.995\ngini = 0.408\nsamples = 7\nvalue = [5, 2]\nclass = male", fillcolor="#efb388"] ;
415 -> 429 ;
430 [label="HML <= 335.5\ngini = 0.444\nsamples = 3\nvalue = [1, 2]\nclass = female", fillcolor="#9ccef2"] ;
429 -> 430 ;
431 [label="gini = 0.0\nsamples = 2\nvalue = [0, 2]\nclass = female", fillcolor="#399de5"] ;
430 -> 431 ;
432 [label="gini = 0.0\nsamples = 1\nvalue = [1, 0]\nclass = male", fillcolor="#e58139"] ;
430 -> 432 ;
433 [label="gini = 0.0\nsamples = 4\nvalue = [4, 0]\nclass = male", fillcolor="#e58139"] ;
429 -> 433 ;
434 [label="HML <= 231.75\ngini = 0.042\nsamples = 418\nvalue = [409, 9]\nclass = male", fillcolor="#e6843d"] ;
314 -> 434 ;
435 [label="gini = 0.0\nsamples = 1\nvalue = [0, 1]\nclass = female", fillcolor="#399de5"] ;
434 -> 435 ;
436 [label="HMLD <= 18.975\ngini = 0.038\nsamples = 417\nvalue = [409, 8]\nclass = male", fillcolor="#e6833d"] ;
434 -> 436 ;
437 [label="HEB <= 65.5\ngini = 0.208\nsamples = 34\nvalue = [30, 4]\nclass = male", fillcolor="#e89253"] ;
436 -> 437 ;
438 [label="HMLD <= 18.96\ngini = 0.165\nsamples = 33\nvalue = [30, 3]\nclass = male", fillcolor="#e88e4d"] ;
437 -> 438 ;
439 [label="HMLD <= 17.515\ngini = 0.121\nsamples = 31\nvalue = [29, 2]\nclass = male", fillcolor="#e78a47"] ;
438 -> 439 ;
440 [label="HHD <= 45.685\ngini = 0.375\nsamples = 4\nvalue = [3, 1]\nclass = male", fillcolor="#eeab7b"] ;
439 -> 440 ;
441 [label="gini = 0.0\nsamples = 3\nvalue = [3, 0]\nclass = male", fillcolor="#e58139"] ;
440 -> 441 ;
442 [label="gini = 0.0\nsamples = 1\nvalue = [0, 1]\nclass = female", fillcolor="#399de5"] ;
440 -> 442 ;
443 [label="HHD <= 45.065\ngini = 0.071\nsamples = 27\nvalue = [26, 1]\nclass = male", fillcolor="#e68641"] ;
439 -> 443 ;
444 [label="HHD <= 45.02\ngini = 0.278\nsamples = 6\nvalue = [5, 1]\nclass = male", fillcolor="#ea9a61"] ;
443 -> 444 ;
445 [label="gini = 0.0\nsamples = 5\nvalue = [5, 0]\nclass = male", fillcolor="#e58139"] ;
444 -> 445 ;
446 [label="gini = 0.0\nsamples = 1\nvalue = [0, 1]\nclass = female", fillcolor="#399de5"] ;
444 -> 446 ;
447 [label="gini = 0.0\nsamples = 21\nvalue = [21, 0]\nclass = male", fillcolor="#e58139"] ;
443 -> 447 ;
448 [label="HHD <= 45.575\ngini = 0.5\nsamples = 2\nvalue = [1, 1]\nclass = male", fillcolor="#ffffff"] ;
438 -> 448 ;
449 [label="gini = 0.0\nsamples = 1\nvalue = [0, 1]\nclass = female", fillcolor="#399de5"] ;
448 -> 449 ;
450 [label="gini = 0.0\nsamples = 1\nvalue = [1, 0]\nclass = male", fillcolor="#e58139"] ;
448 -> 450 ;
451 [label="gini = 0.0\nsamples = 1\nvalue = [0, 1]\nclass = female", fillcolor="#399de5"] ;
437 -> 451 ;
452 [label="HEB <= 58.75\ngini = 0.021\nsamples = 383\nvalue = [379, 4]\nclass = male", fillcolor="#e5823b"] ;
436 -> 452 ;
453 [label="HHD <= 45.305\ngini = 0.124\nsamples = 30\nvalue = [28, 2]\nclass = male", fillcolor="#e78a47"] ;
452 -> 453 ;
454 [label="HHD <= 45.27\ngini = 0.26\nsamples = 13\nvalue = [11, 2]\nclass = male", fillcolor="#ea985d"] ;
453 -> 454 ;
455 [label="HEB <= 58.25\ngini = 0.165\nsamples = 11\nvalue = [10, 1]\nclass = male", fillcolor="#e88e4d"] ;
454 -> 455 ;
456 [label="gini = 0.0\nsamples = 9\nvalue = [9, 0]\nclass = male", fillcolor="#e58139"] ;
455 -> 456 ;
457 [label="HHD <= 45.065\ngini = 0.5\nsamples = 2\nvalue = [1, 1]\nclass = male", fillcolor="#ffffff"] ;
455 -> 457 ;
458 [label="gini = 0.0\nsamples = 1\nvalue = [0, 1]\nclass = female", fillcolor="#399de5"] ;
457 -> 458 ;
459 [label="gini = 0.0\nsamples = 1\nvalue = [1, 0]\nclass = male", fillcolor="#e58139"] ;
457 -> 459 ;
460 [label="HEB <= 58.0\ngini = 0.5\nsamples = 2\nvalue = [1, 1]\nclass = male", fillcolor="#ffffff"] ;
454 -> 460 ;
461 [label="gini = 0.0\nsamples = 1\nvalue = [0, 1]\nclass = female", fillcolor="#399de5"] ;
460 -> 461 ;
462 [label="gini = 0.0\nsamples = 1\nvalue = [1, 0]\nclass = male", fillcolor="#e58139"] ;
460 -> 462 ;
463 [label="gini = 0.0\nsamples = 17\nvalue = [17, 0]\nclass = male", fillcolor="#e58139"] ;
453 -> 463 ;
464 [label="HMLD <= 19.78\ngini = 0.011\nsamples = 353\nvalue = [351, 2]\nclass = male", fillcolor="#e5823a"] ;
452 -> 464 ;
465 [label="HMLD <= 19.76\ngini = 0.067\nsamples = 29\nvalue = [28, 1]\nclass = male", fillcolor="#e68640"] ;
464 -> 465 ;
466 [label="gini = 0.0\nsamples = 28\nvalue = [28, 0]\nclass = male", fillcolor="#e58139"] ;
465 -> 466 ;
467 [label="gini = 0.0\nsamples = 1\nvalue = [0, 1]\nclass = female", fillcolor="#399de5"] ;
465 -> 467 ;
468 [label="HHD <= 45.42\ngini = 0.006\nsamples = 324\nvalue = [323, 1]\nclass = male", fillcolor="#e5813a"] ;
464 -> 468 ;
469 [label="HHD <= 45.405\ngini = 0.033\nsamples = 60\nvalue = [59, 1]\nclass = male", fillcolor="#e5833c"] ;
468 -> 469 ;
470 [label="gini = 0.0\nsamples = 59\nvalue = [59, 0]\nclass = male", fillcolor="#e58139"] ;
469 -> 470 ;
471 [label="gini = 0.0\nsamples = 1\nvalue = [0, 1]\nclass = female", fillcolor="#399de5"] ;
469 -> 471 ;
472 [label="gini = 0.0\nsamples = 264\nvalue = [264, 0]\nclass = male", fillcolor="#e58139"] ;
468 -> 472 ;
}