digraph Tree {
node [shape=box, style="filled", color="black", fontname="helvetica"] ;
edge [fontname="helvetica"] ;
0 [label="HHD <= 42.62\ngini = 0.48\nsamples = 80\nvalue = [48, 32]\nclass = male", fillcolor="#f6d5bd"] ;
1 [label="HML <= 296.25\ngini = 0.363\nsamples = 42\nvalue = [10, 32]\nclass = female", fillcolor="#77bced"] ;
0 -> 1 [labeldistance=2.5, labelangle=45, headlabel="True"] ;
2 [label="HMLD <= 20.815\ngini = 0.278\nsamples = 36\nvalue = [6, 30]\nclass = female", fillcolor="#61b1ea"] ;
1 -> 2 ;
3 [label="HMLD <= 18.2\ngini = 0.219\nsamples = 32\nvalue = [4, 28]\nclass = female", fillcolor="#55abe9"] ;
2 -> 3 ;
4 [label="HMLD <= 18.05\ngini = 0.36\nsamples = 17\nvalue = [4, 13]\nclass = female", fillcolor="#76bbed"] ;
3 -> 4 ;
5 [label="HHD <= 40.59\ngini = 0.231\nsamples = 15\nvalue = [2, 13]\nclass = female", fillcolor="#57ace9"] ;
4 -> 5 ;
6 [label="HML <= 291.5\ngini = 0.142\nsamples = 13\nvalue = [1, 12]\nclass = female", fillcolor="#49a5e7"] ;
5 -> 6 ;
7 [label="gini = 0.0\nsamples = 11\nvalue = [0, 11]\nclass = female", fillcolor="#399de5"] ;
6 -> 7 ;
8 [label="HHD <= 38.335\ngini = 0.5\nsamples = 2\nvalue = [1, 1]\nclass = male", fillcolor="#ffffff"] ;
6 -> 8 ;
9 [label="gini = 0.0\nsamples = 1\nvalue = [1, 0]\nclass = male", fillcolor="#e58139"] ;
8 -> 9 ;
10 [label="gini = 0.0\nsamples = 1\nvalue = [0, 1]\nclass = female", fillcolor="#399de5"] ;
8 -> 10 ;
11 [label="HMLD <= 17.595\ngini = 0.5\nsamples = 2\nvalue = [1, 1]\nclass = male", fillcolor="#ffffff"] ;
5 -> 11 ;
12 [label="gini = 0.0\nsamples = 1\nvalue = [1, 0]\nclass = male", fillcolor="#e58139"] ;
11 -> 12 ;
13 [label="gini = 0.0\nsamples = 1\nvalue = [0, 1]\nclass = female", fillcolor="#399de5"] ;
11 -> 13 ;
14 [label="gini = 0.0\nsamples = 2\nvalue = [2, 0]\nclass = male", fillcolor="#e58139"] ;
4 -> 14 ;
15 [label="gini = 0.0\nsamples = 15\nvalue = [0, 15]\nclass = female", fillcolor="#399de5"] ;
3 -> 15 ;
16 [label="HEB <= 54.75\ngini = 0.5\nsamples = 4\nvalue = [2, 2]\nclass = male", fillcolor="#ffffff"] ;
2 -> 16 ;
17 [label="gini = 0.0\nsamples = 2\nvalue = [0, 2]\nclass = female", fillcolor="#399de5"] ;
16 -> 17 ;
18 [label="gini = 0.0\nsamples = 2\nvalue = [2, 0]\nclass = male", fillcolor="#e58139"] ;
16 -> 18 ;
19 [label="HEB <= 55.25\ngini = 0.444\nsamples = 6\nvalue = [4, 2]\nclass = male", fillcolor="#f2c09c"] ;
1 -> 19 ;
20 [label="HMLD <= 19.55\ngini = 0.444\nsamples = 3\nvalue = [1, 2]\nclass = female", fillcolor="#9ccef2"] ;
19 -> 20 ;
21 [label="gini = 0.0\nsamples = 1\nvalue = [1, 0]\nclass = male", fillcolor="#e58139"] ;
20 -> 21 ;
22 [label="gini = 0.0\nsamples = 2\nvalue = [0, 2]\nclass = female", fillcolor="#399de5"] ;
20 -> 22 ;
23 [label="gini = 0.0\nsamples = 3\nvalue = [3, 0]\nclass = male", fillcolor="#e58139"] ;
19 -> 23 ;
24 [label="gini = 0.0\nsamples = 38\nvalue = [38, 0]\nclass = male", fillcolor="#e58139"] ;
0 -> 24 [labeldistance=2.5, labelangle=-45, headlabel="False"] ;
}