digraph Tree {
node [shape=box, style="filled", color="black", fontname="helvetica"] ;
edge [fontname="helvetica"] ;
0 [label="HMLD <= 18.695\ngini = 0.692\nsamples = 1535\nvalue = [530, 588, 55, 59, 303]\nclass = 30-40", fillcolor="#f7fdf4"] ;
1 [label="HHD <= 35.115\ngini = 0.726\nsamples = 504\nvalue = [144, 173, 19, 37, 131]\nclass = 30-40", fillcolor="#f4fdef"] ;
0 -> 1 [labeldistance=2.5, labelangle=45, headlabel="True"] ;
2 [label="HMLD <= 16.14\ngini = 0.657\nsamples = 45\nvalue = [17, 6, 0, 3, 19]\nclass = 20-30", fillcolor="#fdf1fb"] ;
1 -> 2 ;
3 [label="HMLD <= 15.265\ngini = 0.604\nsamples = 34\nvalue = [11, 3, 0, 2, 18]\nclass = 20-30", fillcolor="#f7c3ec"] ;
2 -> 3 ;
4 [label="HMLD <= 14.93\ngini = 0.575\nsamples = 23\nvalue = [11, 0, 0, 2, 10]\nclass = 40-50", fillcolor="#fdf5f0"] ;
3 -> 4 ;
5 [label="HMLD <= 14.235\ngini = 0.537\nsamples = 18\nvalue = [7, 0, 0, 1, 10]\nclass = 20-30", fillcolor="#f8c9ee"] ;
4 -> 5 ;
6 [label="HML <= 251.75\ngini = 0.48\nsamples = 10\nvalue = [6, 0, 0, 0, 4]\nclass = 40-50", fillcolor="#f6d5bd"] ;
5 -> 6 ;
7 [label="gini = 0.0\nsamples = 2\nvalue = [0, 0, 0, 0, 2]\nclass = 20-30", fillcolor="#e539c0"] ;
6 -> 7 ;
8 [label="HML <= 270.5\ngini = 0.375\nsamples = 8\nvalue = [6, 0, 0, 0, 2]\nclass = 40-50", fillcolor="#eeab7b"] ;
6 -> 8 ;
9 [label="gini = 0.0\nsamples = 6\nvalue = [6, 0, 0, 0, 0]\nclass = 40-50", fillcolor="#e58139"] ;
8 -> 9 ;
10 [label="gini = 0.0\nsamples = 2\nvalue = [0, 0, 0, 0, 2]\nclass = 20-30", fillcolor="#e539c0"] ;
8 -> 10 ;
11 [label="HEB <= 46.5\ngini = 0.406\nsamples = 8\nvalue = [1, 0, 0, 1, 6]\nclass = 20-30", fillcolor="#ec72d2"] ;
5 -> 11 ;
12 [label="gini = 0.0\nsamples = 4\nvalue = [0, 0, 0, 0, 4]\nclass = 20-30", fillcolor="#e539c0"] ;
11 -> 12 ;
13 [label="HEB <= 47.5\ngini = 0.625\nsamples = 4\nvalue = [1, 0, 0, 1, 2]\nclass = 20-30", fillcolor="#f6bdea"] ;
11 -> 13 ;
14 [label="gini = 0.0\nsamples = 1\nvalue = [0, 0, 0, 1, 0]\nclass = <20", fillcolor="#3c39e5"] ;
13 -> 14 ;
15 [label="HMLD <= 14.71\ngini = 0.444\nsamples = 3\nvalue = [1, 0, 0, 0, 2]\nclass = 20-30", fillcolor="#f29ce0"] ;
13 -> 15 ;
16 [label="gini = 0.0\nsamples = 1\nvalue = [0, 0, 0, 0, 1]\nclass = 20-30", fillcolor="#e539c0"] ;
15 -> 16 ;
17 [label="HMLD <= 14.835\ngini = 0.5\nsamples = 2\nvalue = [1, 0, 0, 0, 1]\nclass = 40-50", fillcolor="#ffffff"] ;
15 -> 17 ;
18 [label="gini = 0.0\nsamples = 1\nvalue = [1, 0, 0, 0, 0]\nclass = 40-50", fillcolor="#e58139"] ;
17 -> 18 ;
19 [label="gini = 0.0\nsamples = 1\nvalue = [0, 0, 0, 0, 1]\nclass = 20-30", fillcolor="#e539c0"] ;
17 -> 19 ;
20 [label="HEB <= 47.75\ngini = 0.32\nsamples = 5\nvalue = [4, 0, 0, 1, 0]\nclass = 40-50", fillcolor="#eca06a"] ;
4 -> 20 ;
21 [label="gini = 0.0\nsamples = 4\nvalue = [4, 0, 0, 0, 0]\nclass = 40-50", fillcolor="#e58139"] ;
20 -> 21 ;
22 [label="gini = 0.0\nsamples = 1\nvalue = [0, 0, 0, 1, 0]\nclass = <20", fillcolor="#3c39e5"] ;
20 -> 22 ;
23 [label="HML <= 268.0\ngini = 0.397\nsamples = 11\nvalue = [0, 3, 0, 0, 8]\nclass = 20-30", fillcolor="#ef83d8"] ;
3 -> 23 ;
24 [label="gini = 0.0\nsamples = 6\nvalue = [0, 0, 0, 0, 6]\nclass = 20-30", fillcolor="#e539c0"] ;
23 -> 24 ;
25 [label="HMLD <= 16.045\ngini = 0.48\nsamples = 5\nvalue = [0, 3, 0, 0, 2]\nclass = 30-40", fillcolor="#d3f6bd"] ;
23 -> 25 ;
26 [label="HML <= 279.0\ngini = 0.375\nsamples = 4\nvalue = [0, 3, 0, 0, 1]\nclass = 30-40", fillcolor="#a7ee7b"] ;
25 -> 26 ;
27 [label="gini = 0.0\nsamples = 2\nvalue = [0, 2, 0, 0, 0]\nclass = 30-40", fillcolor="#7be539"] ;
26 -> 27 ;
28 [label="HMLD <= 15.76\ngini = 0.5\nsamples = 2\nvalue = [0, 1, 0, 0, 1]\nclass = 30-40", fillcolor="#ffffff"] ;
26 -> 28 ;
29 [label="gini = 0.0\nsamples = 1\nvalue = [0, 0, 0, 0, 1]\nclass = 20-30", fillcolor="#e539c0"] ;
28 -> 29 ;
30 [label="gini = 0.0\nsamples = 1\nvalue = [0, 1, 0, 0, 0]\nclass = 30-40", fillcolor="#7be539"] ;
28 -> 30 ;
31 [label="gini = 0.0\nsamples = 1\nvalue = [0, 0, 0, 0, 1]\nclass = 20-30", fillcolor="#e539c0"] ;
25 -> 31 ;
32 [label="HML <= 257.75\ngini = 0.612\nsamples = 11\nvalue = [6, 3, 0, 1, 1]\nclass = 40-50", fillcolor="#f5d0b5"] ;
2 -> 32 ;
33 [label="gini = 0.0\nsamples = 3\nvalue = [0, 3, 0, 0, 0]\nclass = 30-40", fillcolor="#7be539"] ;
32 -> 33 ;
34 [label="HMLD <= 18.525\ngini = 0.406\nsamples = 8\nvalue = [6, 0, 0, 1, 1]\nclass = 40-50", fillcolor="#eca572"] ;
32 -> 34 ;
35 [label="HMLD <= 17.055\ngini = 0.245\nsamples = 7\nvalue = [6, 0, 0, 1, 0]\nclass = 40-50", fillcolor="#e9965a"] ;
34 -> 35 ;
36 [label="HEB <= 47.5\ngini = 0.5\nsamples = 2\nvalue = [1, 0, 0, 1, 0]\nclass = 40-50", fillcolor="#ffffff"] ;
35 -> 36 ;
37 [label="gini = 0.0\nsamples = 1\nvalue = [0, 0, 0, 1, 0]\nclass = <20", fillcolor="#3c39e5"] ;
36 -> 37 ;
38 [label="gini = 0.0\nsamples = 1\nvalue = [1, 0, 0, 0, 0]\nclass = 40-50", fillcolor="#e58139"] ;
36 -> 38 ;
39 [label="gini = 0.0\nsamples = 5\nvalue = [5, 0, 0, 0, 0]\nclass = 40-50", fillcolor="#e58139"] ;
35 -> 39 ;
40 [label="gini = 0.0\nsamples = 1\nvalue = [0, 0, 0, 0, 1]\nclass = 20-30", fillcolor="#e539c0"] ;
34 -> 40 ;
41 [label="HML <= 277.5\ngini = 0.724\nsamples = 459\nvalue = [127, 167, 19, 34, 112]\nclass = 30-40", fillcolor="#effce7"] ;
1 -> 41 ;
42 [label="HEB <= 52.75\ngini = 0.705\nsamples = 105\nvalue = [13, 45, 2, 18, 27]\nclass = 30-40", fillcolor="#e1f9d1"] ;
41 -> 42 ;
43 [label="HHD <= 37.255\ngini = 0.644\nsamples = 75\nvalue = [6, 39, 1, 11, 18]\nclass = 30-40", fillcolor="#cef5b6"] ;
42 -> 43 ;
44 [label="HEB <= 51.75\ngini = 0.665\nsamples = 38\nvalue = [3, 15, 0, 5, 15]\nclass = 30-40", fillcolor="#ffffff"] ;
43 -> 44 ;
45 [label="HML <= 263.75\ngini = 0.671\nsamples = 35\nvalue = [3, 15, 0, 5, 12]\nclass = 30-40", fillcolor="#eefce5"] ;
44 -> 45 ;
46 [label="HHD <= 35.655\ngini = 0.58\nsamples = 10\nvalue = [1, 2, 0, 1, 6]\nclass = 20-30", fillcolor="#f29ce0"] ;
45 -> 46 ;
47 [label="gini = 0.0\nsamples = 2\nvalue = [0, 2, 0, 0, 0]\nclass = 30-40", fillcolor="#7be539"] ;
46 -> 47 ;
48 [label="HEB <= 46.5\ngini = 0.406\nsamples = 8\nvalue = [1, 0, 0, 1, 6]\nclass = 20-30", fillcolor="#ec72d2"] ;
46 -> 48 ;
49 [label="gini = 0.0\nsamples = 1\nvalue = [0, 0, 0, 1, 0]\nclass = <20", fillcolor="#3c39e5"] ;
48 -> 49 ;
50 [label="HML <= 262.5\ngini = 0.245\nsamples = 7\nvalue = [1, 0, 0, 0, 6]\nclass = 20-30", fillcolor="#e95acb"] ;
48 -> 50 ;
51 [label="gini = 0.0\nsamples = 5\nvalue = [0, 0, 0, 0, 5]\nclass = 20-30", fillcolor="#e539c0"] ;
50 -> 51 ;
52 [label="HML <= 263.25\ngini = 0.5\nsamples = 2\nvalue = [1, 0, 0, 0, 1]\nclass = 40-50", fillcolor="#ffffff"] ;
50 -> 52 ;
53 [label="gini = 0.0\nsamples = 1\nvalue = [1, 0, 0, 0, 0]\nclass = 40-50", fillcolor="#e58139"] ;
52 -> 53 ;
54 [label="gini = 0.0\nsamples = 1\nvalue = [0, 0, 0, 0, 1]\nclass = 20-30", fillcolor="#e539c0"] ;
52 -> 54 ;
55 [label="HMLD <= 17.11\ngini = 0.64\nsamples = 25\nvalue = [2, 13, 0, 4, 6]\nclass = 30-40", fillcolor="#cef5b6"] ;
45 -> 55 ;
56 [label="HHD <= 37.16\ngini = 0.459\nsamples = 14\nvalue = [1, 10, 0, 2, 1]\nclass = 30-40", fillcolor="#a7ee7b"] ;
55 -> 56 ;
57 [label="HHD <= 35.995\ngini = 0.379\nsamples = 13\nvalue = [0, 10, 0, 2, 1]\nclass = 30-40", fillcolor="#9fec6f"] ;
56 -> 57 ;
58 [label="gini = 0.0\nsamples = 5\nvalue = [0, 5, 0, 0, 0]\nclass = 30-40", fillcolor="#7be539"] ;
57 -> 58 ;
59 [label="HML <= 276.0\ngini = 0.531\nsamples = 8\nvalue = [0, 5, 0, 2, 1]\nclass = 30-40", fillcolor="#bdf29c"] ;
57 -> 59 ;
60 [label="HHD <= 36.97\ngini = 0.408\nsamples = 7\nvalue = [0, 5, 0, 2, 0]\nclass = 30-40", fillcolor="#b0ef88"] ;
59 -> 60 ;
61 [label="HMLD <= 15.14\ngini = 0.444\nsamples = 3\nvalue = [0, 1, 0, 2, 0]\nclass = <20", fillcolor="#9e9cf2"] ;
60 -> 61 ;
62 [label="gini = 0.0\nsamples = 1\nvalue = [0, 1, 0, 0, 0]\nclass = 30-40", fillcolor="#7be539"] ;
61 -> 62 ;
63 [label="gini = 0.0\nsamples = 2\nvalue = [0, 0, 0, 2, 0]\nclass = <20", fillcolor="#3c39e5"] ;
61 -> 63 ;
64 [label="gini = 0.0\nsamples = 4\nvalue = [0, 4, 0, 0, 0]\nclass = 30-40", fillcolor="#7be539"] ;
60 -> 64 ;
65 [label="gini = 0.0\nsamples = 1\nvalue = [0, 0, 0, 0, 1]\nclass = 20-30", fillcolor="#e539c0"] ;
59 -> 65 ;
66 [label="gini = 0.0\nsamples = 1\nvalue = [1, 0, 0, 0, 0]\nclass = 40-50", fillcolor="#e58139"] ;
56 -> 66 ;
67 [label="HML <= 270.5\ngini = 0.678\nsamples = 11\nvalue = [1, 3, 0, 2, 5]\nclass = 20-30", fillcolor="#f8ceef"] ;
55 -> 67 ;
68 [label="gini = 0.0\nsamples = 1\nvalue = [1, 0, 0, 0, 0]\nclass = 40-50", fillcolor="#e58139"] ;
67 -> 68 ;
69 [label="HHD <= 35.95\ngini = 0.62\nsamples = 10\nvalue = [0, 3, 0, 2, 5]\nclass = 20-30", fillcolor="#f8c6ed"] ;
67 -> 69 ;
70 [label="gini = 0.0\nsamples = 2\nvalue = [0, 0, 0, 0, 2]\nclass = 20-30", fillcolor="#e539c0"] ;
69 -> 70 ;
71 [label="HMLD <= 17.63\ngini = 0.656\nsamples = 8\nvalue = [0, 3, 0, 2, 3]\nclass = 30-40", fillcolor="#ffffff"] ;
69 -> 71 ;
72 [label="HEB <= 48.0\ngini = 0.444\nsamples = 3\nvalue = [0, 2, 0, 0, 1]\nclass = 30-40", fillcolor="#bdf29c"] ;
71 -> 72 ;
73 [label="gini = 0.0\nsamples = 1\nvalue = [0, 1, 0, 0, 0]\nclass = 30-40", fillcolor="#7be539"] ;
72 -> 73 ;
74 [label="HMLD <= 17.375\ngini = 0.5\nsamples = 2\nvalue = [0, 1, 0, 0, 1]\nclass = 30-40", fillcolor="#ffffff"] ;
72 -> 74 ;
75 [label="gini = 0.0\nsamples = 1\nvalue = [0, 0, 0, 0, 1]\nclass = 20-30", fillcolor="#e539c0"] ;
74 -> 75 ;
76 [label="gini = 0.0\nsamples = 1\nvalue = [0, 1, 0, 0, 0]\nclass = 30-40", fillcolor="#7be539"] ;
74 -> 76 ;
77 [label="HML <= 273.5\ngini = 0.64\nsamples = 5\nvalue = [0, 1, 0, 2, 2]\nclass = <20", fillcolor="#ffffff"] ;
71 -> 77 ;
78 [label="gini = 0.0\nsamples = 1\nvalue = [0, 1, 0, 0, 0]\nclass = 30-40", fillcolor="#7be539"] ;
77 -> 78 ;
79 [label="HHD <= 36.725\ngini = 0.5\nsamples = 4\nvalue = [0, 0, 0, 2, 2]\nclass = <20", fillcolor="#ffffff"] ;
77 -> 79 ;
80 [label="gini = 0.0\nsamples = 1\nvalue = [0, 0, 0, 1, 0]\nclass = <20", fillcolor="#3c39e5"] ;
79 -> 80 ;
81 [label="HMLD <= 17.87\ngini = 0.444\nsamples = 3\nvalue = [0, 0, 0, 1, 2]\nclass = 20-30", fillcolor="#f29ce0"] ;
79 -> 81 ;
82 [label="gini = 0.0\nsamples = 1\nvalue = [0, 0, 0, 1, 0]\nclass = <20", fillcolor="#3c39e5"] ;
81 -> 82 ;
83 [label="gini = 0.0\nsamples = 2\nvalue = [0, 0, 0, 0, 2]\nclass = 20-30", fillcolor="#e539c0"] ;
81 -> 83 ;
84 [label="gini = 0.0\nsamples = 3\nvalue = [0, 0, 0, 0, 3]\nclass = 20-30", fillcolor="#e539c0"] ;
44 -> 84 ;
85 [label="HMLD <= 18.165\ngini = 0.539\nsamples = 37\nvalue = [3, 24, 1, 6, 3]\nclass = 30-40", fillcolor="#b2f08c"] ;
43 -> 85 ;
86 [label="HHD <= 40.515\ngini = 0.438\nsamples = 30\nvalue = [2, 22, 1, 4, 1]\nclass = 30-40", fillcolor="#a4ed76"] ;
85 -> 86 ;
87 [label="HML <= 276.5\ngini = 0.337\nsamples = 26\nvalue = [1, 21, 1, 2, 1]\nclass = 30-40", fillcolor="#96ea62"] ;
86 -> 87 ;
88 [label="HML <= 251.75\ngini = 0.285\nsamples = 25\nvalue = [1, 21, 1, 2, 0]\nclass = 30-40", fillcolor="#92ea5b"] ;
87 -> 88 ;
89 [label="HHD <= 39.845\ngini = 0.5\nsamples = 2\nvalue = [1, 1, 0, 0, 0]\nclass = 40-50", fillcolor="#ffffff"] ;
88 -> 89 ;
90 [label="gini = 0.0\nsamples = 1\nvalue = [1, 0, 0, 0, 0]\nclass = 40-50", fillcolor="#e58139"] ;
89 -> 90 ;
91 [label="gini = 0.0\nsamples = 1\nvalue = [0, 1, 0, 0, 0]\nclass = 30-40", fillcolor="#7be539"] ;
89 -> 91 ;
92 [label="HHD <= 39.34\ngini = 0.234\nsamples = 23\nvalue = [0, 20, 1, 2, 0]\nclass = 30-40", fillcolor="#8ee955"] ;
88 -> 92 ;
93 [label="HMLD <= 17.03\ngini = 0.124\nsamples = 15\nvalue = [0, 14, 1, 0, 0]\nclass = 30-40", fillcolor="#84e747"] ;
92 -> 93 ;
94 [label="gini = 0.0\nsamples = 8\nvalue = [0, 8, 0, 0, 0]\nclass = 30-40", fillcolor="#7be539"] ;
93 -> 94 ;
95 [label="HMLD <= 17.145\ngini = 0.245\nsamples = 7\nvalue = [0, 6, 1, 0, 0]\nclass = 30-40", fillcolor="#91e95a"] ;
93 -> 95 ;
96 [label="gini = 0.0\nsamples = 1\nvalue = [0, 0, 1, 0, 0]\nclass = 50+", fillcolor="#39e5c5"] ;
95 -> 96 ;
97 [label="gini = 0.0\nsamples = 6\nvalue = [0, 6, 0, 0, 0]\nclass = 30-40", fillcolor="#7be539"] ;
95 -> 97 ;
98 [label="HHD <= 39.385\ngini = 0.375\nsamples = 8\nvalue = [0, 6, 0, 2, 0]\nclass = 30-40", fillcolor="#a7ee7b"] ;
92 -> 98 ;
99 [label="gini = 0.0\nsamples = 1\nvalue = [0, 0, 0, 1, 0]\nclass = <20", fillcolor="#3c39e5"] ;
98 -> 99 ;
100 [label="HMLD <= 17.99\ngini = 0.245\nsamples = 7\nvalue = [0, 6, 0, 1, 0]\nclass = 30-40", fillcolor="#91e95a"] ;
98 -> 100 ;
101 [label="gini = 0.0\nsamples = 5\nvalue = [0, 5, 0, 0, 0]\nclass = 30-40", fillcolor="#7be539"] ;
100 -> 101 ;
102 [label="HMLD <= 18.09\ngini = 0.5\nsamples = 2\nvalue = [0, 1, 0, 1, 0]\nclass = 30-40", fillcolor="#ffffff"] ;
100 -> 102 ;
103 [label="gini = 0.0\nsamples = 1\nvalue = [0, 0, 0, 1, 0]\nclass = <20", fillcolor="#3c39e5"] ;
102 -> 103 ;
104 [label="gini = 0.0\nsamples = 1\nvalue = [0, 1, 0, 0, 0]\nclass = 30-40", fillcolor="#7be539"] ;
102 -> 104 ;
105 [label="gini = 0.0\nsamples = 1\nvalue = [0, 0, 0, 0, 1]\nclass = 20-30", fillcolor="#e539c0"] ;
87 -> 105 ;
106 [label="HMLD <= 16.17\ngini = 0.625\nsamples = 4\nvalue = [1, 1, 0, 2, 0]\nclass = <20", fillcolor="#bebdf6"] ;
86 -> 106 ;
107 [label="HMLD <= 15.19\ngini = 0.5\nsamples = 2\nvalue = [1, 1, 0, 0, 0]\nclass = 40-50", fillcolor="#ffffff"] ;
106 -> 107 ;
108 [label="gini = 0.0\nsamples = 1\nvalue = [1, 0, 0, 0, 0]\nclass = 40-50", fillcolor="#e58139"] ;
107 -> 108 ;
109 [label="gini = 0.0\nsamples = 1\nvalue = [0, 1, 0, 0, 0]\nclass = 30-40", fillcolor="#7be539"] ;
107 -> 109 ;
110 [label="gini = 0.0\nsamples = 2\nvalue = [0, 0, 0, 2, 0]\nclass = <20", fillcolor="#3c39e5"] ;
106 -> 110 ;
111 [label="HML <= 266.5\ngini = 0.735\nsamples = 7\nvalue = [1, 2, 0, 2, 2]\nclass = 30-40", fillcolor="#ffffff"] ;
85 -> 111 ;
112 [label="gini = 0.0\nsamples = 2\nvalue = [0, 0, 0, 2, 0]\nclass = <20", fillcolor="#3c39e5"] ;
111 -> 112 ;
113 [label="HEB <= 50.5\ngini = 0.64\nsamples = 5\nvalue = [1, 2, 0, 0, 2]\nclass = 30-40", fillcolor="#ffffff"] ;
111 -> 113 ;
114 [label="gini = 0.0\nsamples = 2\nvalue = [0, 0, 0, 0, 2]\nclass = 20-30", fillcolor="#e539c0"] ;
113 -> 114 ;
115 [label="HML <= 274.25\ngini = 0.444\nsamples = 3\nvalue = [1, 2, 0, 0, 0]\nclass = 30-40", fillcolor="#bdf29c"] ;
113 -> 115 ;
116 [label="gini = 0.0\nsamples = 1\nvalue = [1, 0, 0, 0, 0]\nclass = 40-50", fillcolor="#e58139"] ;
115 -> 116 ;
117 [label="gini = 0.0\nsamples = 2\nvalue = [0, 2, 0, 0, 0]\nclass = 30-40", fillcolor="#7be539"] ;
115 -> 117 ;
118 [label="HML <= 272.5\ngini = 0.76\nsamples = 30\nvalue = [7, 6, 1, 7, 9]\nclass = 20-30", fillcolor="#fdeefa"] ;
42 -> 118 ;
119 [label="HML <= 263.5\ngini = 0.699\nsamples = 17\nvalue = [2, 3, 0, 7, 5]\nclass = <20", fillcolor="#dedefb"] ;
118 -> 119 ;
120 [label="HML <= 251.25\ngini = 0.375\nsamples = 4\nvalue = [1, 0, 0, 0, 3]\nclass = 20-30", fillcolor="#ee7bd5"] ;
119 -> 120 ;
121 [label="gini = 0.0\nsamples = 1\nvalue = [1, 0, 0, 0, 0]\nclass = 40-50", fillcolor="#e58139"] ;
120 -> 121 ;
122 [label="gini = 0.0\nsamples = 3\nvalue = [0, 0, 0, 0, 3]\nclass = 20-30", fillcolor="#e539c0"] ;
120 -> 122 ;
123 [label="HMLD <= 16.145\ngini = 0.627\nsamples = 13\nvalue = [1, 3, 0, 7, 2]\nclass = <20", fillcolor="#b1b0f5"] ;
119 -> 123 ;
124 [label="HML <= 265.5\ngini = 0.444\nsamples = 3\nvalue = [0, 0, 0, 1, 2]\nclass = 20-30", fillcolor="#f29ce0"] ;
123 -> 124 ;
125 [label="gini = 0.0\nsamples = 1\nvalue = [0, 0, 0, 1, 0]\nclass = <20", fillcolor="#3c39e5"] ;
124 -> 125 ;
126 [label="gini = 0.0\nsamples = 2\nvalue = [0, 0, 0, 0, 2]\nclass = 20-30", fillcolor="#e539c0"] ;
124 -> 126 ;
127 [label="HHD <= 37.765\ngini = 0.54\nsamples = 10\nvalue = [1, 3, 0, 6, 0]\nclass = <20", fillcolor="#abaaf4"] ;
123 -> 127 ;
128 [label="gini = 0.0\nsamples = 2\nvalue = [0, 2, 0, 0, 0]\nclass = 30-40", fillcolor="#7be539"] ;
127 -> 128 ;
129 [label="HMLD <= 18.235\ngini = 0.406\nsamples = 8\nvalue = [1, 1, 0, 6, 0]\nclass = <20", fillcolor="#7472ec"] ;
127 -> 129 ;
130 [label="gini = 0.0\nsamples = 5\nvalue = [0, 0, 0, 5, 0]\nclass = <20", fillcolor="#3c39e5"] ;
129 -> 130 ;
131 [label="HML <= 266.5\ngini = 0.667\nsamples = 3\nvalue = [1, 1, 0, 1, 0]\nclass = 40-50", fillcolor="#ffffff"] ;
129 -> 131 ;
132 [label="gini = 0.0\nsamples = 1\nvalue = [0, 0, 0, 1, 0]\nclass = <20", fillcolor="#3c39e5"] ;
131 -> 132 ;
133 [label="HEB <= 55.0\ngini = 0.5\nsamples = 2\nvalue = [1, 1, 0, 0, 0]\nclass = 40-50", fillcolor="#ffffff"] ;
131 -> 133 ;
134 [label="gini = 0.0\nsamples = 1\nvalue = [0, 1, 0, 0, 0]\nclass = 30-40", fillcolor="#7be539"] ;
133 -> 134 ;
135 [label="gini = 0.0\nsamples = 1\nvalue = [1, 0, 0, 0, 0]\nclass = 40-50", fillcolor="#e58139"] ;
133 -> 135 ;
136 [label="HHD <= 39.05\ngini = 0.698\nsamples = 13\nvalue = [5, 3, 1, 0, 4]\nclass = 40-50", fillcolor="#fcf1e9"] ;
118 -> 136 ;
137 [label="HMLD <= 16.575\ngini = 0.444\nsamples = 6\nvalue = [0, 2, 0, 0, 4]\nclass = 20-30", fillcolor="#f29ce0"] ;
136 -> 137 ;
138 [label="gini = 0.0\nsamples = 2\nvalue = [0, 2, 0, 0, 0]\nclass = 30-40", fillcolor="#7be539"] ;
137 -> 138 ;
139 [label="gini = 0.0\nsamples = 4\nvalue = [0, 0, 0, 0, 4]\nclass = 20-30", fillcolor="#e539c0"] ;
137 -> 139 ;
140 [label="HEB <= 58.5\ngini = 0.449\nsamples = 7\nvalue = [5, 1, 1, 0, 0]\nclass = 40-50", fillcolor="#eeab7b"] ;
136 -> 140 ;
141 [label="HML <= 275.5\ngini = 0.278\nsamples = 6\nvalue = [5, 0, 1, 0, 0]\nclass = 40-50", fillcolor="#ea9a61"] ;
140 -> 141 ;
142 [label="gini = 0.0\nsamples = 4\nvalue = [4, 0, 0, 0, 0]\nclass = 40-50", fillcolor="#e58139"] ;
141 -> 142 ;
143 [label="HMLD <= 15.7\ngini = 0.5\nsamples = 2\nvalue = [1, 0, 1, 0, 0]\nclass = 40-50", fillcolor="#ffffff"] ;
141 -> 143 ;
144 [label="gini = 0.0\nsamples = 1\nvalue = [1, 0, 0, 0, 0]\nclass = 40-50", fillcolor="#e58139"] ;
143 -> 144 ;
145 [label="gini = 0.0\nsamples = 1\nvalue = [0, 0, 1, 0, 0]\nclass = 50+", fillcolor="#39e5c5"] ;
143 -> 145 ;
146 [label="gini = 0.0\nsamples = 1\nvalue = [0, 1, 0, 0, 0]\nclass = 30-40", fillcolor="#7be539"] ;
140 -> 146 ;
147 [label="HEB <= 63.25\ngini = 0.716\nsamples = 354\nvalue = [114, 122, 17, 16, 85]\nclass = 30-40", fillcolor="#fbfef8"] ;
41 -> 147 ;
148 [label="HML <= 292.75\ngini = 0.713\nsamples = 349\nvalue = [114, 122, 17, 15, 81]\nclass = 30-40", fillcolor="#fbfef8"] ;
147 -> 148 ;
149 [label="HML <= 290.75\ngini = 0.719\nsamples = 145\nvalue = [55, 40, 7, 9, 34]\nclass = 40-50", fillcolor="#fbede3"] ;
148 -> 149 ;
150 [label="HMLD <= 18.395\ngini = 0.731\nsamples = 128\nvalue = [42, 38, 7, 8, 33]\nclass = 40-50", fillcolor="#fef9f6"] ;
149 -> 150 ;
151 [label="HHD <= 37.115\ngini = 0.712\nsamples = 113\nvalue = [40, 36, 7, 3, 27]\nclass = 40-50", fillcolor="#fef8f5"] ;
150 -> 151 ;
152 [label="HEB <= 45.75\ngini = 0.632\nsamples = 24\nvalue = [4, 13, 1, 1, 5]\nclass = 30-40", fillcolor="#c7f4ac"] ;
151 -> 152 ;
153 [label="HEB <= 43.5\ngini = 0.444\nsamples = 3\nvalue = [0, 0, 1, 0, 2]\nclass = 20-30", fillcolor="#f29ce0"] ;
152 -> 153 ;
154 [label="gini = 0.0\nsamples = 1\nvalue = [0, 0, 1, 0, 0]\nclass = 50+", fillcolor="#39e5c5"] ;
153 -> 154 ;
155 [label="gini = 0.0\nsamples = 2\nvalue = [0, 0, 0, 0, 2]\nclass = 20-30", fillcolor="#e539c0"] ;
153 -> 155 ;
156 [label="HMLD <= 17.98\ngini = 0.558\nsamples = 21\nvalue = [4, 13, 0, 1, 3]\nclass = 30-40", fillcolor="#b9f196"] ;
152 -> 156 ;
157 [label="HMLD <= 13.99\ngini = 0.482\nsamples = 19\nvalue = [3, 13, 0, 0, 3]\nclass = 30-40", fillcolor="#acef83"] ;
156 -> 157 ;
158 [label="gini = 0.0\nsamples = 1\nvalue = [1, 0, 0, 0, 0]\nclass = 40-50", fillcolor="#e58139"] ;
157 -> 158 ;
159 [label="HMLD <= 16.715\ngini = 0.438\nsamples = 18\nvalue = [2, 13, 0, 0, 3]\nclass = 30-40", fillcolor="#a7ee7b"] ;
157 -> 159 ;
160 [label="HHD <= 36.465\ngini = 0.469\nsamples = 8\nvalue = [0, 5, 0, 0, 3]\nclass = 30-40", fillcolor="#caf5b0"] ;
159 -> 160 ;
161 [label="HEB <= 49.5\ngini = 0.278\nsamples = 6\nvalue = [0, 5, 0, 0, 1]\nclass = 30-40", fillcolor="#95ea61"] ;
160 -> 161 ;
162 [label="HMLD <= 14.965\ngini = 0.5\nsamples = 2\nvalue = [0, 1, 0, 0, 1]\nclass = 30-40", fillcolor="#ffffff"] ;
161 -> 162 ;
163 [label="gini = 0.0\nsamples = 1\nvalue = [0, 1, 0, 0, 0]\nclass = 30-40", fillcolor="#7be539"] ;
162 -> 163 ;
164 [label="gini = 0.0\nsamples = 1\nvalue = [0, 0, 0, 0, 1]\nclass = 20-30", fillcolor="#e539c0"] ;
162 -> 164 ;
165 [label="gini = 0.0\nsamples = 4\nvalue = [0, 4, 0, 0, 0]\nclass = 30-40", fillcolor="#7be539"] ;
161 -> 165 ;
166 [label="gini = 0.0\nsamples = 2\nvalue = [0, 0, 0, 0, 2]\nclass = 20-30", fillcolor="#e539c0"] ;
160 -> 166 ;
167 [label="HML <= 278.5\ngini = 0.32\nsamples = 10\nvalue = [2, 8, 0, 0, 0]\nclass = 30-40", fillcolor="#9cec6a"] ;
159 -> 167 ;
168 [label="gini = 0.0\nsamples = 1\nvalue = [1, 0, 0, 0, 0]\nclass = 40-50", fillcolor="#e58139"] ;
167 -> 168 ;
169 [label="HHD <= 35.45\ngini = 0.198\nsamples = 9\nvalue = [1, 8, 0, 0, 0]\nclass = 30-40", fillcolor="#8ce852"] ;
167 -> 169 ;
170 [label="HHD <= 35.15\ngini = 0.5\nsamples = 2\nvalue = [1, 1, 0, 0, 0]\nclass = 40-50", fillcolor="#ffffff"] ;
169 -> 170 ;
171 [label="gini = 0.0\nsamples = 1\nvalue = [0, 1, 0, 0, 0]\nclass = 30-40", fillcolor="#7be539"] ;
170 -> 171 ;
172 [label="gini = 0.0\nsamples = 1\nvalue = [1, 0, 0, 0, 0]\nclass = 40-50", fillcolor="#e58139"] ;
170 -> 172 ;
173 [label="gini = 0.0\nsamples = 7\nvalue = [0, 7, 0, 0, 0]\nclass = 30-40", fillcolor="#7be539"] ;
169 -> 173 ;
174 [label="HML <= 288.0\ngini = 0.5\nsamples = 2\nvalue = [1, 0, 0, 1, 0]\nclass = 40-50", fillcolor="#ffffff"] ;
156 -> 174 ;
175 [label="gini = 0.0\nsamples = 1\nvalue = [1, 0, 0, 0, 0]\nclass = 40-50", fillcolor="#e58139"] ;
174 -> 175 ;
176 [label="gini = 0.0\nsamples = 1\nvalue = [0, 0, 0, 1, 0]\nclass = <20", fillcolor="#3c39e5"] ;
174 -> 176 ;
177 [label="HEB <= 50.75\ngini = 0.703\nsamples = 89\nvalue = [36, 23, 6, 2, 22]\nclass = 40-50", fillcolor="#fae6d8"] ;
151 -> 177 ;
178 [label="HMLD <= 15.675\ngini = 0.56\nsamples = 15\nvalue = [9, 0, 1, 1, 4]\nclass = 40-50", fillcolor="#f3c6a5"] ;
177 -> 178 ;
179 [label="gini = 0.0\nsamples = 3\nvalue = [0, 0, 0, 0, 3]\nclass = 20-30", fillcolor="#e539c0"] ;
178 -> 179 ;
180 [label="HHD <= 40.16\ngini = 0.417\nsamples = 12\nvalue = [9, 0, 1, 1, 1]\nclass = 40-50", fillcolor="#eca36f"] ;
178 -> 180 ;
181 [label="HMLD <= 16.445\ngini = 0.198\nsamples = 9\nvalue = [8, 0, 0, 0, 1]\nclass = 40-50", fillcolor="#e89152"] ;
180 -> 181 ;
182 [label="HMLD <= 15.995\ngini = 0.5\nsamples = 2\nvalue = [1, 0, 0, 0, 1]\nclass = 40-50", fillcolor="#ffffff"] ;
181 -> 182 ;
183 [label="gini = 0.0\nsamples = 1\nvalue = [1, 0, 0, 0, 0]\nclass = 40-50", fillcolor="#e58139"] ;
182 -> 183 ;
184 [label="gini = 0.0\nsamples = 1\nvalue = [0, 0, 0, 0, 1]\nclass = 20-30", fillcolor="#e539c0"] ;
182 -> 184 ;
185 [label="gini = 0.0\nsamples = 7\nvalue = [7, 0, 0, 0, 0]\nclass = 40-50", fillcolor="#e58139"] ;
181 -> 185 ;
186 [label="HEB <= 48.5\ngini = 0.667\nsamples = 3\nvalue = [1, 0, 1, 1, 0]\nclass = 40-50", fillcolor="#ffffff"] ;
180 -> 186 ;
187 [label="gini = 0.0\nsamples = 1\nvalue = [0, 0, 0, 1, 0]\nclass = <20", fillcolor="#3c39e5"] ;
186 -> 187 ;
188 [label="HHD <= 40.9\ngini = 0.5\nsamples = 2\nvalue = [1, 0, 1, 0, 0]\nclass = 40-50", fillcolor="#ffffff"] ;
186 -> 188 ;
189 [label="gini = 0.0\nsamples = 1\nvalue = [0, 0, 1, 0, 0]\nclass = 50+", fillcolor="#39e5c5"] ;
188 -> 189 ;
190 [label="gini = 0.0\nsamples = 1\nvalue = [1, 0, 0, 0, 0]\nclass = 40-50", fillcolor="#e58139"] ;
188 -> 190 ;
191 [label="HEB <= 54.25\ngini = 0.706\nsamples = 74\nvalue = [27, 23, 5, 1, 18]\nclass = 40-50", fillcolor="#fdf5ef"] ;
177 -> 191 ;
192 [label="HHD <= 37.64\ngini = 0.691\nsamples = 51\nvalue = [15, 21, 4, 0, 11]\nclass = 30-40", fillcolor="#e9fbde"] ;
191 -> 192 ;
193 [label="HML <= 282.0\ngini = 0.48\nsamples = 5\nvalue = [3, 0, 0, 0, 2]\nclass = 40-50", fillcolor="#f6d5bd"] ;
192 -> 193 ;
194 [label="gini = 0.0\nsamples = 2\nvalue = [2, 0, 0, 0, 0]\nclass = 40-50", fillcolor="#e58139"] ;
193 -> 194 ;
195 [label="HEB <= 52.5\ngini = 0.444\nsamples = 3\nvalue = [1, 0, 0, 0, 2]\nclass = 20-30", fillcolor="#f29ce0"] ;
193 -> 195 ;
196 [label="gini = 0.0\nsamples = 2\nvalue = [0, 0, 0, 0, 2]\nclass = 20-30", fillcolor="#e539c0"] ;
195 -> 196 ;
197 [label="gini = 0.0\nsamples = 1\nvalue = [1, 0, 0, 0, 0]\nclass = 40-50", fillcolor="#e58139"] ;
195 -> 197 ;
198 [label="HML <= 278.5\ngini = 0.678\nsamples = 46\nvalue = [12, 21, 4, 0, 9]\nclass = 30-40", fillcolor="#dcf8cb"] ;
192 -> 198 ;
199 [label="gini = 0.0\nsamples = 4\nvalue = [0, 4, 0, 0, 0]\nclass = 30-40", fillcolor="#7be539"] ;
198 -> 199 ;
200 [label="HHD <= 38.435\ngini = 0.7\nsamples = 42\nvalue = [12, 17, 4, 0, 9]\nclass = 30-40", fillcolor="#e9fbde"] ;
198 -> 200 ;
201 [label="HHD <= 37.7\ngini = 0.5\nsamples = 10\nvalue = [5, 5, 0, 0, 0]\nclass = 40-50", fillcolor="#ffffff"] ;
200 -> 201 ;
202 [label="gini = 0.0\nsamples = 2\nvalue = [0, 2, 0, 0, 0]\nclass = 30-40", fillcolor="#7be539"] ;
201 -> 202 ;
203 [label="HML <= 280.75\ngini = 0.469\nsamples = 8\nvalue = [5, 3, 0, 0, 0]\nclass = 40-50", fillcolor="#f5cdb0"] ;
201 -> 203 ;
204 [label="gini = 0.0\nsamples = 3\nvalue = [3, 0, 0, 0, 0]\nclass = 40-50", fillcolor="#e58139"] ;
203 -> 204 ;
205 [label="HHD <= 38.19\ngini = 0.48\nsamples = 5\nvalue = [2, 3, 0, 0, 0]\nclass = 30-40", fillcolor="#d3f6bd"] ;
203 -> 205 ;
206 [label="HML <= 281.5\ngini = 0.444\nsamples = 3\nvalue = [2, 1, 0, 0, 0]\nclass = 40-50", fillcolor="#f2c09c"] ;
205 -> 206 ;
207 [label="gini = 0.0\nsamples = 1\nvalue = [0, 1, 0, 0, 0]\nclass = 30-40", fillcolor="#7be539"] ;
206 -> 207 ;
208 [label="gini = 0.0\nsamples = 2\nvalue = [2, 0, 0, 0, 0]\nclass = 40-50", fillcolor="#e58139"] ;
206 -> 208 ;
209 [label="gini = 0.0\nsamples = 2\nvalue = [0, 2, 0, 0, 0]\nclass = 30-40", fillcolor="#7be539"] ;
205 -> 209 ;
210 [label="HML <= 282.5\ngini = 0.717\nsamples = 32\nvalue = [7, 12, 4, 0, 9]\nclass = 30-40", fillcolor="#eefce5"] ;
200 -> 210 ;
211 [label="HEB <= 53.5\ngini = 0.595\nsamples = 11\nvalue = [0, 3, 2, 0, 6]\nclass = 20-30", fillcolor="#f5b5e7"] ;
210 -> 211 ;
212 [label="HMLD <= 16.035\ngini = 0.656\nsamples = 8\nvalue = [0, 3, 2, 0, 3]\nclass = 30-40", fillcolor="#ffffff"] ;
211 -> 212 ;
213 [label="HML <= 279.5\ngini = 0.444\nsamples = 3\nvalue = [0, 0, 1, 0, 2]\nclass = 20-30", fillcolor="#f29ce0"] ;
212 -> 213 ;
214 [label="gini = 0.0\nsamples = 1\nvalue = [0, 0, 1, 0, 0]\nclass = 50+", fillcolor="#39e5c5"] ;
213 -> 214 ;
215 [label="gini = 0.0\nsamples = 2\nvalue = [0, 0, 0, 0, 2]\nclass = 20-30", fillcolor="#e539c0"] ;
213 -> 215 ;
216 [label="HMLD <= 17.025\ngini = 0.56\nsamples = 5\nvalue = [0, 3, 1, 0, 1]\nclass = 30-40", fillcolor="#bdf29c"] ;
212 -> 216 ;
217 [label="HHD <= 38.975\ngini = 0.375\nsamples = 4\nvalue = [0, 3, 0, 0, 1]\nclass = 30-40", fillcolor="#a7ee7b"] ;
216 -> 217 ;
218 [label="gini = 0.0\nsamples = 1\nvalue = [0, 0, 0, 0, 1]\nclass = 20-30", fillcolor="#e539c0"] ;
217 -> 218 ;
219 [label="gini = 0.0\nsamples = 3\nvalue = [0, 3, 0, 0, 0]\nclass = 30-40", fillcolor="#7be539"] ;
217 -> 219 ;
220 [label="gini = 0.0\nsamples = 1\nvalue = [0, 0, 1, 0, 0]\nclass = 50+", fillcolor="#39e5c5"] ;
216 -> 220 ;
221 [label="gini = 0.0\nsamples = 3\nvalue = [0, 0, 0, 0, 3]\nclass = 20-30", fillcolor="#e539c0"] ;
211 -> 221 ;
222 [label="HML <= 286.5\ngini = 0.676\nsamples = 21\nvalue = [7, 9, 2, 0, 3]\nclass = 30-40", fillcolor="#ecfbe3"] ;
210 -> 222 ;
223 [label="HMLD <= 15.58\ngini = 0.62\nsamples = 10\nvalue = [5, 3, 2, 0, 0]\nclass = 40-50", fillcolor="#f8dbc6"] ;
222 -> 223 ;
224 [label="gini = 0.0\nsamples = 1\nvalue = [0, 0, 1, 0, 0]\nclass = 50+", fillcolor="#39e5c5"] ;
223 -> 224 ;
225 [label="HEB <= 52.5\ngini = 0.568\nsamples = 9\nvalue = [5, 3, 1, 0, 0]\nclass = 40-50", fillcolor="#f6d5bd"] ;
223 -> 225 ;
226 [label="HHD <= 40.93\ngini = 0.625\nsamples = 4\nvalue = [1, 2, 1, 0, 0]\nclass = 30-40", fillcolor="#d3f6bd"] ;
225 -> 226 ;
227 [label="HML <= 283.5\ngini = 0.444\nsamples = 3\nvalue = [1, 2, 0, 0, 0]\nclass = 30-40", fillcolor="#bdf29c"] ;
226 -> 227 ;
228 [label="gini = 0.0\nsamples = 1\nvalue = [0, 1, 0, 0, 0]\nclass = 30-40", fillcolor="#7be539"] ;
227 -> 228 ;
229 [label="HML <= 284.75\ngini = 0.5\nsamples = 2\nvalue = [1, 1, 0, 0, 0]\nclass = 40-50", fillcolor="#ffffff"] ;
227 -> 229 ;
230 [label="gini = 0.0\nsamples = 1\nvalue = [1, 0, 0, 0, 0]\nclass = 40-50", fillcolor="#e58139"] ;
229 -> 230 ;
231 [label="gini = 0.0\nsamples = 1\nvalue = [0, 1, 0, 0, 0]\nclass = 30-40", fillcolor="#7be539"] ;
229 -> 231 ;
232 [label="gini = 0.0\nsamples = 1\nvalue = [0, 0, 1, 0, 0]\nclass = 50+", fillcolor="#39e5c5"] ;
226 -> 232 ;
233 [label="HEB <= 53.5\ngini = 0.32\nsamples = 5\nvalue = [4, 1, 0, 0, 0]\nclass = 40-50", fillcolor="#eca06a"] ;
225 -> 233 ;
234 [label="gini = 0.0\nsamples = 3\nvalue = [3, 0, 0, 0, 0]\nclass = 40-50", fillcolor="#e58139"] ;
233 -> 234 ;
235 [label="HML <= 284.5\ngini = 0.5\nsamples = 2\nvalue = [1, 1, 0, 0, 0]\nclass = 40-50", fillcolor="#ffffff"] ;
233 -> 235 ;
236 [label="gini = 0.0\nsamples = 1\nvalue = [0, 1, 0, 0, 0]\nclass = 30-40", fillcolor="#7be539"] ;
235 -> 236 ;
237 [label="gini = 0.0\nsamples = 1\nvalue = [1, 0, 0, 0, 0]\nclass = 40-50", fillcolor="#e58139"] ;
235 -> 237 ;
238 [label="HEB <= 52.5\ngini = 0.595\nsamples = 11\nvalue = [2, 6, 0, 0, 3]\nclass = 30-40", fillcolor="#cef5b5"] ;
222 -> 238 ;
239 [label="HMLD <= 17.865\ngini = 0.667\nsamples = 6\nvalue = [2, 2, 0, 0, 2]\nclass = 40-50", fillcolor="#ffffff"] ;
238 -> 239 ;
240 [label="HML <= 287.25\ngini = 0.5\nsamples = 4\nvalue = [2, 0, 0, 0, 2]\nclass = 40-50", fillcolor="#ffffff"] ;
239 -> 240 ;
241 [label="gini = 0.0\nsamples = 1\nvalue = [0, 0, 0, 0, 1]\nclass = 20-30", fillcolor="#e539c0"] ;
240 -> 241 ;
242 [label="HHD <= 39.505\ngini = 0.444\nsamples = 3\nvalue = [2, 0, 0, 0, 1]\nclass = 40-50", fillcolor="#f2c09c"] ;
240 -> 242 ;
243 [label="gini = 0.0\nsamples = 1\nvalue = [0, 0, 0, 0, 1]\nclass = 20-30", fillcolor="#e539c0"] ;
242 -> 243 ;
244 [label="gini = 0.0\nsamples = 2\nvalue = [2, 0, 0, 0, 0]\nclass = 40-50", fillcolor="#e58139"] ;
242 -> 244 ;
245 [label="gini = 0.0\nsamples = 2\nvalue = [0, 2, 0, 0, 0]\nclass = 30-40", fillcolor="#7be539"] ;
239 -> 245 ;
246 [label="HMLD <= 17.695\ngini = 0.32\nsamples = 5\nvalue = [0, 4, 0, 0, 1]\nclass = 30-40", fillcolor="#9cec6a"] ;
238 -> 246 ;
247 [label="gini = 0.0\nsamples = 4\nvalue = [0, 4, 0, 0, 0]\nclass = 30-40", fillcolor="#7be539"] ;
246 -> 247 ;
248 [label="gini = 0.0\nsamples = 1\nvalue = [0, 0, 0, 0, 1]\nclass = 20-30", fillcolor="#e539c0"] ;
246 -> 248 ;
249 [label="HMLD <= 16.915\ngini = 0.624\nsamples = 23\nvalue = [12, 2, 1, 1, 7]\nclass = 40-50", fillcolor="#f7d8c1"] ;
191 -> 249 ;
250 [label="gini = 0.0\nsamples = 5\nvalue = [5, 0, 0, 0, 0]\nclass = 40-50", fillcolor="#e58139"] ;
249 -> 250 ;
251 [label="HHD <= 41.555\ngini = 0.679\nsamples = 18\nvalue = [7, 2, 1, 1, 7]\nclass = 40-50", fillcolor="#ffffff"] ;
249 -> 251 ;
252 [label="HEB <= 58.5\ngini = 0.643\nsamples = 14\nvalue = [4, 2, 1, 0, 7]\nclass = 20-30", fillcolor="#f7c4ec"] ;
251 -> 252 ;
253 [label="HML <= 279.5\ngini = 0.542\nsamples = 12\nvalue = [4, 1, 0, 0, 7]\nclass = 20-30", fillcolor="#f5b5e7"] ;
252 -> 253 ;
254 [label="gini = 0.0\nsamples = 1\nvalue = [0, 1, 0, 0, 0]\nclass = 30-40", fillcolor="#7be539"] ;
253 -> 254 ;
255 [label="HEB <= 57.5\ngini = 0.463\nsamples = 11\nvalue = [4, 0, 0, 0, 7]\nclass = 20-30", fillcolor="#f4aae4"] ;
253 -> 255 ;
256 [label="HHD <= 40.16\ngini = 0.42\nsamples = 10\nvalue = [3, 0, 0, 0, 7]\nclass = 20-30", fillcolor="#f08edb"] ;
255 -> 256 ;
257 [label="HHD <= 39.96\ngini = 0.5\nsamples = 6\nvalue = [3, 0, 0, 0, 3]\nclass = 40-50", fillcolor="#ffffff"] ;
256 -> 257 ;
258 [label="HHD <= 39.49\ngini = 0.375\nsamples = 4\nvalue = [1, 0, 0, 0, 3]\nclass = 20-30", fillcolor="#ee7bd5"] ;
257 -> 258 ;
259 [label="gini = 0.0\nsamples = 1\nvalue = [1, 0, 0, 0, 0]\nclass = 40-50", fillcolor="#e58139"] ;
258 -> 259 ;
260 [label="gini = 0.0\nsamples = 3\nvalue = [0, 0, 0, 0, 3]\nclass = 20-30", fillcolor="#e539c0"] ;
258 -> 260 ;
261 [label="gini = 0.0\nsamples = 2\nvalue = [2, 0, 0, 0, 0]\nclass = 40-50", fillcolor="#e58139"] ;
257 -> 261 ;
262 [label="gini = 0.0\nsamples = 4\nvalue = [0, 0, 0, 0, 4]\nclass = 20-30", fillcolor="#e539c0"] ;
256 -> 262 ;
263 [label="gini = 0.0\nsamples = 1\nvalue = [1, 0, 0, 0, 0]\nclass = 40-50", fillcolor="#e58139"] ;
255 -> 263 ;
264 [label="HML <= 284.0\ngini = 0.5\nsamples = 2\nvalue = [0, 1, 1, 0, 0]\nclass = 30-40", fillcolor="#ffffff"] ;
252 -> 264 ;
265 [label="gini = 0.0\nsamples = 1\nvalue = [0, 0, 1, 0, 0]\nclass = 50+", fillcolor="#39e5c5"] ;
264 -> 265 ;
266 [label="gini = 0.0\nsamples = 1\nvalue = [0, 1, 0, 0, 0]\nclass = 30-40", fillcolor="#7be539"] ;
264 -> 266 ;
267 [label="HML <= 283.0\ngini = 0.375\nsamples = 4\nvalue = [3, 0, 0, 1, 0]\nclass = 40-50", fillcolor="#eeab7b"] ;
251 -> 267 ;
268 [label="gini = 0.0\nsamples = 1\nvalue = [0, 0, 0, 1, 0]\nclass = <20", fillcolor="#3c39e5"] ;
267 -> 268 ;
269 [label="gini = 0.0\nsamples = 3\nvalue = [3, 0, 0, 0, 0]\nclass = 40-50", fillcolor="#e58139"] ;
267 -> 269 ;
270 [label="HML <= 285.75\ngini = 0.693\nsamples = 15\nvalue = [2, 2, 0, 5, 6]\nclass = 20-30", fillcolor="#fcebf9"] ;
150 -> 270 ;
271 [label="HML <= 283.75\ngini = 0.531\nsamples = 8\nvalue = [0, 2, 0, 1, 5]\nclass = 20-30", fillcolor="#f29ce0"] ;
270 -> 271 ;
272 [label="HHD <= 42.63\ngini = 0.449\nsamples = 7\nvalue = [0, 1, 0, 1, 5]\nclass = 20-30", fillcolor="#ee7bd5"] ;
271 -> 272 ;
273 [label="HMLD <= 18.605\ngini = 0.32\nsamples = 5\nvalue = [0, 0, 0, 1, 4]\nclass = 20-30", fillcolor="#ec6ad0"] ;
272 -> 273 ;
274 [label="HEB <= 55.5\ngini = 0.5\nsamples = 2\nvalue = [0, 0, 0, 1, 1]\nclass = <20", fillcolor="#ffffff"] ;
273 -> 274 ;
275 [label="gini = 0.0\nsamples = 1\nvalue = [0, 0, 0, 1, 0]\nclass = <20", fillcolor="#3c39e5"] ;
274 -> 275 ;
276 [label="gini = 0.0\nsamples = 1\nvalue = [0, 0, 0, 0, 1]\nclass = 20-30", fillcolor="#e539c0"] ;
274 -> 276 ;
277 [label="gini = 0.0\nsamples = 3\nvalue = [0, 0, 0, 0, 3]\nclass = 20-30", fillcolor="#e539c0"] ;
273 -> 277 ;
278 [label="HML <= 282.5\ngini = 0.5\nsamples = 2\nvalue = [0, 1, 0, 0, 1]\nclass = 30-40", fillcolor="#ffffff"] ;
272 -> 278 ;
279 [label="gini = 0.0\nsamples = 1\nvalue = [0, 1, 0, 0, 0]\nclass = 30-40", fillcolor="#7be539"] ;
278 -> 279 ;
280 [label="gini = 0.0\nsamples = 1\nvalue = [0, 0, 0, 0, 1]\nclass = 20-30", fillcolor="#e539c0"] ;
278 -> 280 ;
281 [label="gini = 0.0\nsamples = 1\nvalue = [0, 1, 0, 0, 0]\nclass = 30-40", fillcolor="#7be539"] ;
271 -> 281 ;
282 [label="HHD <= 38.91\ngini = 0.571\nsamples = 7\nvalue = [2, 0, 0, 4, 1]\nclass = <20", fillcolor="#b1b0f5"] ;
270 -> 282 ;
283 [label="gini = 0.0\nsamples = 2\nvalue = [2, 0, 0, 0, 0]\nclass = 40-50", fillcolor="#e58139"] ;
282 -> 283 ;
284 [label="HHD <= 41.64\ngini = 0.32\nsamples = 5\nvalue = [0, 0, 0, 4, 1]\nclass = <20", fillcolor="#6d6aec"] ;
282 -> 284 ;
285 [label="gini = 0.0\nsamples = 4\nvalue = [0, 0, 0, 4, 0]\nclass = <20", fillcolor="#3c39e5"] ;
284 -> 285 ;
286 [label="gini = 0.0\nsamples = 1\nvalue = [0, 0, 0, 0, 1]\nclass = 20-30", fillcolor="#e539c0"] ;
284 -> 286 ;
287 [label="HMLD <= 17.06\ngini = 0.394\nsamples = 17\nvalue = [13, 2, 0, 1, 1]\nclass = 40-50", fillcolor="#eca36e"] ;
149 -> 287 ;
288 [label="HHD <= 38.37\ngini = 0.722\nsamples = 6\nvalue = [2, 2, 0, 1, 1]\nclass = 40-50", fillcolor="#ffffff"] ;
287 -> 288 ;
289 [label="HEB <= 50.0\ngini = 0.5\nsamples = 2\nvalue = [0, 0, 0, 1, 1]\nclass = <20", fillcolor="#ffffff"] ;
288 -> 289 ;
290 [label="gini = 0.0\nsamples = 1\nvalue = [0, 0, 0, 1, 0]\nclass = <20", fillcolor="#3c39e5"] ;
289 -> 290 ;
291 [label="gini = 0.0\nsamples = 1\nvalue = [0, 0, 0, 0, 1]\nclass = 20-30", fillcolor="#e539c0"] ;
289 -> 291 ;
292 [label="HMLD <= 15.255\ngini = 0.5\nsamples = 4\nvalue = [2, 2, 0, 0, 0]\nclass = 40-50", fillcolor="#ffffff"] ;
288 -> 292 ;
293 [label="gini = 0.0\nsamples = 1\nvalue = [1, 0, 0, 0, 0]\nclass = 40-50", fillcolor="#e58139"] ;
292 -> 293 ;
294 [label="HHD <= 39.22\ngini = 0.444\nsamples = 3\nvalue = [1, 2, 0, 0, 0]\nclass = 30-40", fillcolor="#bdf29c"] ;
292 -> 294 ;
295 [label="gini = 0.0\nsamples = 1\nvalue = [1, 0, 0, 0, 0]\nclass = 40-50", fillcolor="#e58139"] ;
294 -> 295 ;
296 [label="gini = 0.0\nsamples = 2\nvalue = [0, 2, 0, 0, 0]\nclass = 30-40", fillcolor="#7be539"] ;
294 -> 296 ;
297 [label="gini = 0.0\nsamples = 11\nvalue = [11, 0, 0, 0, 0]\nclass = 40-50", fillcolor="#e58139"] ;
287 -> 297 ;
298 [label="HEB <= 48.5\ngini = 0.698\nsamples = 204\nvalue = [59, 82, 10, 6, 47]\nclass = 30-40", fillcolor="#eafbe0"] ;
148 -> 298 ;
299 [label="HHD <= 36.53\ngini = 0.245\nsamples = 7\nvalue = [0, 6, 1, 0, 0]\nclass = 30-40", fillcolor="#91e95a"] ;
298 -> 299 ;
300 [label="gini = 0.0\nsamples = 1\nvalue = [0, 0, 1, 0, 0]\nclass = 50+", fillcolor="#39e5c5"] ;
299 -> 300 ;
301 [label="gini = 0.0\nsamples = 6\nvalue = [0, 6, 0, 0, 0]\nclass = 30-40", fillcolor="#7be539"] ;
299 -> 301 ;
302 [label="HML <= 334.5\ngini = 0.702\nsamples = 197\nvalue = [59, 76, 9, 6, 47]\nclass = 30-40", fillcolor="#effce7"] ;
298 -> 302 ;
303 [label="HHD <= 42.29\ngini = 0.706\nsamples = 191\nvalue = [58, 71, 9, 6, 47]\nclass = 30-40", fillcolor="#f2fcec"] ;
302 -> 303 ;
304 [label="HHD <= 40.32\ngini = 0.693\nsamples = 127\nvalue = [40, 52, 7, 4, 24]\nclass = 30-40", fillcolor="#edfbe4"] ;
303 -> 304 ;
305 [label="HEB <= 53.25\ngini = 0.691\nsamples = 79\nvalue = [30, 27, 3, 2, 17]\nclass = 40-50", fillcolor="#fef8f4"] ;
304 -> 305 ;
306 [label="HHD <= 36.78\ngini = 0.701\nsamples = 40\nvalue = [9, 14, 1, 2, 14]\nclass = 30-40", fillcolor="#ffffff"] ;
305 -> 306 ;
307 [label="HMLD <= 17.82\ngini = 0.545\nsamples = 11\nvalue = [2, 1, 0, 1, 7]\nclass = 20-30", fillcolor="#f191dc"] ;
306 -> 307 ;
308 [label="HMLD <= 15.865\ngini = 0.46\nsamples = 10\nvalue = [2, 0, 0, 1, 7]\nclass = 20-30", fillcolor="#ef83d8"] ;
307 -> 308 ;
309 [label="HHD <= 35.865\ngini = 0.64\nsamples = 5\nvalue = [2, 0, 0, 1, 2]\nclass = 40-50", fillcolor="#ffffff"] ;
308 -> 309 ;
310 [label="HMLD <= 14.74\ngini = 0.444\nsamples = 3\nvalue = [0, 0, 0, 1, 2]\nclass = 20-30", fillcolor="#f29ce0"] ;
309 -> 310 ;
311 [label="gini = 0.0\nsamples = 2\nvalue = [0, 0, 0, 0, 2]\nclass = 20-30", fillcolor="#e539c0"] ;
310 -> 311 ;
312 [label="gini = 0.0\nsamples = 1\nvalue = [0, 0, 0, 1, 0]\nclass = <20", fillcolor="#3c39e5"] ;
310 -> 312 ;
313 [label="gini = 0.0\nsamples = 2\nvalue = [2, 0, 0, 0, 0]\nclass = 40-50", fillcolor="#e58139"] ;
309 -> 313 ;
314 [label="gini = 0.0\nsamples = 5\nvalue = [0, 0, 0, 0, 5]\nclass = 20-30", fillcolor="#e539c0"] ;
308 -> 314 ;
315 [label="gini = 0.0\nsamples = 1\nvalue = [0, 1, 0, 0, 0]\nclass = 30-40", fillcolor="#7be539"] ;
307 -> 315 ;
316 [label="HHD <= 39.51\ngini = 0.68\nsamples = 29\nvalue = [7, 13, 1, 1, 7]\nclass = 30-40", fillcolor="#dbf8c9"] ;
306 -> 316 ;
317 [label="HHD <= 38.465\ngini = 0.651\nsamples = 26\nvalue = [7, 13, 1, 1, 4]\nclass = 30-40", fillcolor="#d5f7c0"] ;
316 -> 317 ;
318 [label="HML <= 294.75\ngini = 0.48\nsamples = 10\nvalue = [1, 7, 1, 0, 1]\nclass = 30-40", fillcolor="#a7ee7b"] ;
317 -> 318 ;
319 [label="gini = 0.0\nsamples = 1\nvalue = [1, 0, 0, 0, 0]\nclass = 40-50", fillcolor="#e58139"] ;
318 -> 319 ;
320 [label="HHD <= 37.94\ngini = 0.37\nsamples = 9\nvalue = [0, 7, 1, 0, 1]\nclass = 30-40", fillcolor="#9cec6a"] ;
318 -> 320 ;
321 [label="HMLD <= 17.545\ngini = 0.625\nsamples = 4\nvalue = [0, 2, 1, 0, 1]\nclass = 30-40", fillcolor="#d3f6bd"] ;
320 -> 321 ;
322 [label="HMLD <= 16.995\ngini = 0.5\nsamples = 2\nvalue = [0, 0, 1, 0, 1]\nclass = 50+", fillcolor="#ffffff"] ;
321 -> 322 ;
323 [label="gini = 0.0\nsamples = 1\nvalue = [0, 0, 0, 0, 1]\nclass = 20-30", fillcolor="#e539c0"] ;
322 -> 323 ;
324 [label="gini = 0.0\nsamples = 1\nvalue = [0, 0, 1, 0, 0]\nclass = 50+", fillcolor="#39e5c5"] ;
322 -> 324 ;
325 [label="gini = 0.0\nsamples = 2\nvalue = [0, 2, 0, 0, 0]\nclass = 30-40", fillcolor="#7be539"] ;
321 -> 325 ;
326 [label="gini = 0.0\nsamples = 5\nvalue = [0, 5, 0, 0, 0]\nclass = 30-40", fillcolor="#7be539"] ;
320 -> 326 ;
327 [label="HHD <= 38.575\ngini = 0.68\nsamples = 16\nvalue = [6, 6, 0, 1, 3]\nclass = 40-50", fillcolor="#ffffff"] ;
317 -> 327 ;
328 [label="gini = 0.0\nsamples = 2\nvalue = [0, 0, 0, 0, 2]\nclass = 20-30", fillcolor="#e539c0"] ;
327 -> 328 ;
329 [label="HMLD <= 17.51\ngini = 0.622\nsamples = 14\nvalue = [6, 6, 0, 1, 1]\nclass = 40-50", fillcolor="#ffffff"] ;
327 -> 329 ;
330 [label="HMLD <= 16.53\ngini = 0.54\nsamples = 10\nvalue = [6, 3, 0, 1, 0]\nclass = 40-50", fillcolor="#f4c9aa"] ;
329 -> 330 ;
331 [label="HML <= 304.25\ngini = 0.56\nsamples = 5\nvalue = [1, 3, 0, 1, 0]\nclass = 30-40", fillcolor="#bdf29c"] ;
330 -> 331 ;
332 [label="HHD <= 38.845\ngini = 0.375\nsamples = 4\nvalue = [1, 3, 0, 0, 0]\nclass = 30-40", fillcolor="#a7ee7b"] ;
331 -> 332 ;
333 [label="HMLD <= 16.0\ngini = 0.5\nsamples = 2\nvalue = [1, 1, 0, 0, 0]\nclass = 40-50", fillcolor="#ffffff"] ;
332 -> 333 ;
334 [label="gini = 0.0\nsamples = 1\nvalue = [1, 0, 0, 0, 0]\nclass = 40-50", fillcolor="#e58139"] ;
333 -> 334 ;
335 [label="gini = 0.0\nsamples = 1\nvalue = [0, 1, 0, 0, 0]\nclass = 30-40", fillcolor="#7be539"] ;
333 -> 335 ;
336 [label="gini = 0.0\nsamples = 2\nvalue = [0, 2, 0, 0, 0]\nclass = 30-40", fillcolor="#7be539"] ;
332 -> 336 ;
337 [label="gini = 0.0\nsamples = 1\nvalue = [0, 0, 0, 1, 0]\nclass = <20", fillcolor="#3c39e5"] ;
331 -> 337 ;
338 [label="gini = 0.0\nsamples = 5\nvalue = [5, 0, 0, 0, 0]\nclass = 40-50", fillcolor="#e58139"] ;
330 -> 338 ;
339 [label="HEB <= 49.5\ngini = 0.375\nsamples = 4\nvalue = [0, 3, 0, 0, 1]\nclass = 30-40", fillcolor="#a7ee7b"] ;
329 -> 339 ;
340 [label="gini = 0.0\nsamples = 1\nvalue = [0, 0, 0, 0, 1]\nclass = 20-30", fillcolor="#e539c0"] ;
339 -> 340 ;
341 [label="gini = 0.0\nsamples = 3\nvalue = [0, 3, 0, 0, 0]\nclass = 30-40", fillcolor="#7be539"] ;
339 -> 341 ;
342 [label="gini = 0.0\nsamples = 3\nvalue = [0, 0, 0, 0, 3]\nclass = 20-30", fillcolor="#e539c0"] ;
316 -> 342 ;
343 [label="HHD <= 39.195\ngini = 0.59\nsamples = 39\nvalue = [21, 13, 2, 0, 3]\nclass = 40-50", fillcolor="#f7d8c2"] ;
305 -> 343 ;
344 [label="HMLD <= 18.09\ngini = 0.609\nsamples = 23\nvalue = [9, 11, 2, 0, 1]\nclass = 30-40", fillcolor="#ecfbe3"] ;
343 -> 344 ;
345 [label="HHD <= 38.545\ngini = 0.52\nsamples = 14\nvalue = [3, 9, 2, 0, 0]\nclass = 30-40", fillcolor="#b7f193"] ;
344 -> 345 ;
346 [label="HHD <= 37.73\ngini = 0.397\nsamples = 11\nvalue = [3, 8, 0, 0, 0]\nclass = 30-40", fillcolor="#acef83"] ;
345 -> 346 ;
347 [label="HML <= 303.0\ngini = 0.5\nsamples = 6\nvalue = [3, 3, 0, 0, 0]\nclass = 40-50", fillcolor="#ffffff"] ;
346 -> 347 ;
348 [label="gini = 0.0\nsamples = 3\nvalue = [3, 0, 0, 0, 0]\nclass = 40-50", fillcolor="#e58139"] ;
347 -> 348 ;
349 [label="gini = 0.0\nsamples = 3\nvalue = [0, 3, 0, 0, 0]\nclass = 30-40", fillcolor="#7be539"] ;
347 -> 349 ;
350 [label="gini = 0.0\nsamples = 5\nvalue = [0, 5, 0, 0, 0]\nclass = 30-40", fillcolor="#7be539"] ;
346 -> 350 ;
351 [label="HHD <= 38.98\ngini = 0.444\nsamples = 3\nvalue = [0, 1, 2, 0, 0]\nclass = 50+", fillcolor="#9cf2e2"] ;
345 -> 351 ;
352 [label="gini = 0.0\nsamples = 2\nvalue = [0, 0, 2, 0, 0]\nclass = 50+", fillcolor="#39e5c5"] ;
351 -> 352 ;
353 [label="gini = 0.0\nsamples = 1\nvalue = [0, 1, 0, 0, 0]\nclass = 30-40", fillcolor="#7be539"] ;
351 -> 353 ;
354 [label="HHD <= 38.53\ngini = 0.494\nsamples = 9\nvalue = [6, 2, 0, 0, 1]\nclass = 40-50", fillcolor="#f0b78e"] ;
344 -> 354 ;
355 [label="HHD <= 37.705\ngini = 0.278\nsamples = 6\nvalue = [5, 0, 0, 0, 1]\nclass = 40-50", fillcolor="#ea9a61"] ;
354 -> 355 ;
356 [label="HHD <= 37.27\ngini = 0.5\nsamples = 2\nvalue = [1, 0, 0, 0, 1]\nclass = 40-50", fillcolor="#ffffff"] ;
355 -> 356 ;
357 [label="gini = 0.0\nsamples = 1\nvalue = [1, 0, 0, 0, 0]\nclass = 40-50", fillcolor="#e58139"] ;
356 -> 357 ;
358 [label="gini = 0.0\nsamples = 1\nvalue = [0, 0, 0, 0, 1]\nclass = 20-30", fillcolor="#e539c0"] ;
356 -> 358 ;
359 [label="gini = 0.0\nsamples = 4\nvalue = [4, 0, 0, 0, 0]\nclass = 40-50", fillcolor="#e58139"] ;
355 -> 359 ;
360 [label="HMLD <= 18.23\ngini = 0.444\nsamples = 3\nvalue = [1, 2, 0, 0, 0]\nclass = 30-40", fillcolor="#bdf29c"] ;
354 -> 360 ;
361 [label="gini = 0.0\nsamples = 1\nvalue = [1, 0, 0, 0, 0]\nclass = 40-50", fillcolor="#e58139"] ;
360 -> 361 ;
362 [label="gini = 0.0\nsamples = 2\nvalue = [0, 2, 0, 0, 0]\nclass = 30-40", fillcolor="#7be539"] ;
360 -> 362 ;
363 [label="HEB <= 55.5\ngini = 0.406\nsamples = 16\nvalue = [12, 2, 0, 0, 2]\nclass = 40-50", fillcolor="#eca572"] ;
343 -> 363 ;
364 [label="gini = 0.0\nsamples = 10\nvalue = [10, 0, 0, 0, 0]\nclass = 40-50", fillcolor="#e58139"] ;
363 -> 364 ;
365 [label="HML <= 298.5\ngini = 0.667\nsamples = 6\nvalue = [2, 2, 0, 0, 2]\nclass = 40-50", fillcolor="#ffffff"] ;
363 -> 365 ;
366 [label="HMLD <= 18.295\ngini = 0.444\nsamples = 3\nvalue = [2, 1, 0, 0, 0]\nclass = 40-50", fillcolor="#f2c09c"] ;
365 -> 366 ;
367 [label="gini = 0.0\nsamples = 2\nvalue = [2, 0, 0, 0, 0]\nclass = 40-50", fillcolor="#e58139"] ;
366 -> 367 ;
368 [label="gini = 0.0\nsamples = 1\nvalue = [0, 1, 0, 0, 0]\nclass = 30-40", fillcolor="#7be539"] ;
366 -> 368 ;
369 [label="HMLD <= 17.43\ngini = 0.444\nsamples = 3\nvalue = [0, 1, 0, 0, 2]\nclass = 20-30", fillcolor="#f29ce0"] ;
365 -> 369 ;
370 [label="gini = 0.0\nsamples = 1\nvalue = [0, 1, 0, 0, 0]\nclass = 30-40", fillcolor="#7be539"] ;
369 -> 370 ;
371 [label="gini = 0.0\nsamples = 2\nvalue = [0, 0, 0, 0, 2]\nclass = 20-30", fillcolor="#e539c0"] ;
369 -> 371 ;
372 [label="HHD <= 41.975\ngini = 0.655\nsamples = 48\nvalue = [10, 25, 4, 2, 7]\nclass = 30-40", fillcolor="#cbf5b1"] ;
304 -> 372 ;
373 [label="HMLD <= 18.635\ngini = 0.628\nsamples = 43\nvalue = [7, 24, 3, 2, 7]\nclass = 30-40", fillcolor="#c1f3a2"] ;
372 -> 373 ;
374 [label="HMLD <= 14.91\ngini = 0.59\nsamples = 40\nvalue = [6, 24, 2, 2, 6]\nclass = 30-40", fillcolor="#b9f196"] ;
373 -> 374 ;
375 [label="gini = 0.0\nsamples = 1\nvalue = [1, 0, 0, 0, 0]\nclass = 40-50", fillcolor="#e58139"] ;
374 -> 375 ;
376 [label="HML <= 297.75\ngini = 0.576\nsamples = 39\nvalue = [5, 24, 2, 2, 6]\nclass = 30-40", fillcolor="#b7f193"] ;
374 -> 376 ;
377 [label="HEB <= 54.5\ngini = 0.198\nsamples = 9\nvalue = [0, 8, 0, 0, 1]\nclass = 30-40", fillcolor="#8ce852"] ;
376 -> 377 ;
378 [label="gini = 0.0\nsamples = 8\nvalue = [0, 8, 0, 0, 0]\nclass = 30-40", fillcolor="#7be539"] ;
377 -> 378 ;
379 [label="gini = 0.0\nsamples = 1\nvalue = [0, 0, 0, 0, 1]\nclass = 20-30", fillcolor="#e539c0"] ;
377 -> 379 ;
380 [label="HML <= 303.5\ngini = 0.651\nsamples = 30\nvalue = [5, 16, 2, 2, 5]\nclass = 30-40", fillcolor="#c5f4a8"] ;
376 -> 380 ;
381 [label="HEB <= 52.25\ngini = 0.691\nsamples = 9\nvalue = [4, 2, 0, 1, 2]\nclass = 40-50", fillcolor="#f8dbc6"] ;
380 -> 381 ;
382 [label="gini = 0.0\nsamples = 2\nvalue = [2, 0, 0, 0, 0]\nclass = 40-50", fillcolor="#e58139"] ;
381 -> 382 ;
383 [label="HML <= 301.0\ngini = 0.735\nsamples = 7\nvalue = [2, 2, 0, 1, 2]\nclass = 40-50", fillcolor="#ffffff"] ;
381 -> 383 ;
384 [label="HEB <= 53.5\ngini = 0.444\nsamples = 3\nvalue = [0, 2, 0, 0, 1]\nclass = 30-40", fillcolor="#bdf29c"] ;
383 -> 384 ;
385 [label="gini = 0.0\nsamples = 1\nvalue = [0, 0, 0, 0, 1]\nclass = 20-30", fillcolor="#e539c0"] ;
384 -> 385 ;
386 [label="gini = 0.0\nsamples = 2\nvalue = [0, 2, 0, 0, 0]\nclass = 30-40", fillcolor="#7be539"] ;
384 -> 386 ;
387 [label="HHD <= 41.26\ngini = 0.625\nsamples = 4\nvalue = [2, 0, 0, 1, 1]\nclass = 40-50", fillcolor="#f6d5bd"] ;
383 -> 387 ;
388 [label="HML <= 302.5\ngini = 0.5\nsamples = 2\nvalue = [0, 0, 0, 1, 1]\nclass = <20", fillcolor="#ffffff"] ;
387 -> 388 ;
389 [label="gini = 0.0\nsamples = 1\nvalue = [0, 0, 0, 1, 0]\nclass = <20", fillcolor="#3c39e5"] ;
388 -> 389 ;
390 [label="gini = 0.0\nsamples = 1\nvalue = [0, 0, 0, 0, 1]\nclass = 20-30", fillcolor="#e539c0"] ;
388 -> 390 ;
391 [label="gini = 0.0\nsamples = 2\nvalue = [2, 0, 0, 0, 0]\nclass = 40-50", fillcolor="#e58139"] ;
387 -> 391 ;
392 [label="HHD <= 41.715\ngini = 0.522\nsamples = 21\nvalue = [1, 14, 2, 1, 3]\nclass = 30-40", fillcolor="#aeef86"] ;
380 -> 392 ;
393 [label="HML <= 309.75\ngini = 0.625\nsamples = 16\nvalue = [1, 9, 2, 1, 3]\nclass = 30-40", fillcolor="#c2f3a4"] ;
392 -> 393 ;
394 [label="HML <= 307.5\ngini = 0.625\nsamples = 4\nvalue = [0, 1, 0, 1, 2]\nclass = 20-30", fillcolor="#f6bdea"] ;
393 -> 394 ;
395 [label="HMLD <= 17.84\ngini = 0.5\nsamples = 2\nvalue = [0, 1, 0, 1, 0]\nclass = 30-40", fillcolor="#ffffff"] ;
394 -> 395 ;
396 [label="gini = 0.0\nsamples = 1\nvalue = [0, 0, 0, 1, 0]\nclass = <20", fillcolor="#3c39e5"] ;
395 -> 396 ;
397 [label="gini = 0.0\nsamples = 1\nvalue = [0, 1, 0, 0, 0]\nclass = 30-40", fillcolor="#7be539"] ;
395 -> 397 ;
398 [label="gini = 0.0\nsamples = 2\nvalue = [0, 0, 0, 0, 2]\nclass = 20-30", fillcolor="#e539c0"] ;
394 -> 398 ;
399 [label="HHD <= 41.45\ngini = 0.514\nsamples = 12\nvalue = [1, 8, 2, 0, 1]\nclass = 30-40", fillcolor="#b0ef88"] ;
393 -> 399 ;
400 [label="HML <= 313.5\ngini = 0.34\nsamples = 10\nvalue = [1, 8, 1, 0, 0]\nclass = 30-40", fillcolor="#98eb65"] ;
399 -> 400 ;
401 [label="gini = 0.0\nsamples = 4\nvalue = [0, 4, 0, 0, 0]\nclass = 30-40", fillcolor="#7be539"] ;
400 -> 401 ;
402 [label="HMLD <= 17.49\ngini = 0.5\nsamples = 6\nvalue = [1, 4, 1, 0, 0]\nclass = 30-40", fillcolor="#b0ef88"] ;
400 -> 402 ;
403 [label="gini = 0.0\nsamples = 1\nvalue = [0, 0, 1, 0, 0]\nclass = 50+", fillcolor="#39e5c5"] ;
402 -> 403 ;
404 [label="HML <= 316.5\ngini = 0.32\nsamples = 5\nvalue = [1, 4, 0, 0, 0]\nclass = 30-40", fillcolor="#9cec6a"] ;
402 -> 404 ;
405 [label="HEB <= 57.5\ngini = 0.5\nsamples = 2\nvalue = [1, 1, 0, 0, 0]\nclass = 40-50", fillcolor="#ffffff"] ;
404 -> 405 ;
406 [label="gini = 0.0\nsamples = 1\nvalue = [1, 0, 0, 0, 0]\nclass = 40-50", fillcolor="#e58139"] ;
405 -> 406 ;
407 [label="gini = 0.0\nsamples = 1\nvalue = [0, 1, 0, 0, 0]\nclass = 30-40", fillcolor="#7be539"] ;
405 -> 407 ;
408 [label="gini = 0.0\nsamples = 3\nvalue = [0, 3, 0, 0, 0]\nclass = 30-40", fillcolor="#7be539"] ;
404 -> 408 ;
409 [label="HML <= 320.5\ngini = 0.5\nsamples = 2\nvalue = [0, 0, 1, 0, 1]\nclass = 50+", fillcolor="#ffffff"] ;
399 -> 409 ;
410 [label="gini = 0.0\nsamples = 1\nvalue = [0, 0, 0, 0, 1]\nclass = 20-30", fillcolor="#e539c0"] ;
409 -> 410 ;
411 [label="gini = 0.0\nsamples = 1\nvalue = [0, 0, 1, 0, 0]\nclass = 50+", fillcolor="#39e5c5"] ;
409 -> 411 ;
412 [label="gini = 0.0\nsamples = 5\nvalue = [0, 5, 0, 0, 0]\nclass = 30-40", fillcolor="#7be539"] ;
392 -> 412 ;
413 [label="HML <= 296.75\ngini = 0.667\nsamples = 3\nvalue = [1, 0, 1, 0, 1]\nclass = 40-50", fillcolor="#ffffff"] ;
373 -> 413 ;
414 [label="gini = 0.0\nsamples = 1\nvalue = [1, 0, 0, 0, 0]\nclass = 40-50", fillcolor="#e58139"] ;
413 -> 414 ;
415 [label="HHD <= 41.285\ngini = 0.5\nsamples = 2\nvalue = [0, 0, 1, 0, 1]\nclass = 50+", fillcolor="#ffffff"] ;
413 -> 415 ;
416 [label="gini = 0.0\nsamples = 1\nvalue = [0, 0, 1, 0, 0]\nclass = 50+", fillcolor="#39e5c5"] ;
415 -> 416 ;
417 [label="gini = 0.0\nsamples = 1\nvalue = [0, 0, 0, 0, 1]\nclass = 20-30", fillcolor="#e539c0"] ;
415 -> 417 ;
418 [label="HML <= 304.0\ngini = 0.56\nsamples = 5\nvalue = [3, 1, 1, 0, 0]\nclass = 40-50", fillcolor="#f2c09c"] ;
372 -> 418 ;
419 [label="HMLD <= 17.875\ngini = 0.5\nsamples = 2\nvalue = [0, 1, 1, 0, 0]\nclass = 30-40", fillcolor="#ffffff"] ;
418 -> 419 ;
420 [label="gini = 0.0\nsamples = 1\nvalue = [0, 1, 0, 0, 0]\nclass = 30-40", fillcolor="#7be539"] ;
419 -> 420 ;
421 [label="gini = 0.0\nsamples = 1\nvalue = [0, 0, 1, 0, 0]\nclass = 50+", fillcolor="#39e5c5"] ;
419 -> 421 ;
422 [label="gini = 0.0\nsamples = 3\nvalue = [3, 0, 0, 0, 0]\nclass = 40-50", fillcolor="#e58139"] ;
418 -> 422 ;
423 [label="HML <= 329.5\ngini = 0.702\nsamples = 64\nvalue = [18, 19, 2, 2, 23]\nclass = 20-30", fillcolor="#fdedf9"] ;
303 -> 423 ;
424 [label="HEB <= 58.75\ngini = 0.7\nsamples = 62\nvalue = [16, 19, 2, 2, 23]\nclass = 20-30", fillcolor="#fdedf9"] ;
423 -> 424 ;
425 [label="HML <= 313.5\ngini = 0.72\nsamples = 43\nvalue = [13, 14, 2, 2, 12]\nclass = 30-40", fillcolor="#fbfef8"] ;
424 -> 425 ;
426 [label="HEB <= 55.25\ngini = 0.721\nsamples = 36\nvalue = [8, 13, 2, 2, 11]\nclass = 30-40", fillcolor="#f4fdef"] ;
425 -> 426 ;
427 [label="HML <= 304.75\ngini = 0.684\nsamples = 15\nvalue = [5, 3, 1, 0, 6]\nclass = 20-30", fillcolor="#fcebf9"] ;
426 -> 427 ;
428 [label="HEB <= 54.5\ngini = 0.642\nsamples = 9\nvalue = [4, 3, 0, 0, 2]\nclass = 40-50", fillcolor="#fbeade"] ;
427 -> 428 ;
429 [label="HML <= 297.75\ngini = 0.611\nsamples = 6\nvalue = [1, 3, 0, 0, 2]\nclass = 30-40", fillcolor="#def8ce"] ;
428 -> 429 ;
430 [label="HHD <= 43.02\ngini = 0.625\nsamples = 4\nvalue = [1, 1, 0, 0, 2]\nclass = 20-30", fillcolor="#f6bdea"] ;
429 -> 430 ;
431 [label="gini = 0.0\nsamples = 2\nvalue = [0, 0, 0, 0, 2]\nclass = 20-30", fillcolor="#e539c0"] ;
430 -> 431 ;
432 [label="HMLD <= 17.845\ngini = 0.5\nsamples = 2\nvalue = [1, 1, 0, 0, 0]\nclass = 40-50", fillcolor="#ffffff"] ;
430 -> 432 ;
433 [label="gini = 0.0\nsamples = 1\nvalue = [1, 0, 0, 0, 0]\nclass = 40-50", fillcolor="#e58139"] ;
432 -> 433 ;
434 [label="gini = 0.0\nsamples = 1\nvalue = [0, 1, 0, 0, 0]\nclass = 30-40", fillcolor="#7be539"] ;
432 -> 434 ;
435 [label="gini = 0.0\nsamples = 2\nvalue = [0, 2, 0, 0, 0]\nclass = 30-40", fillcolor="#7be539"] ;
429 -> 435 ;
436 [label="gini = 0.0\nsamples = 3\nvalue = [3, 0, 0, 0, 0]\nclass = 40-50", fillcolor="#e58139"] ;
428 -> 436 ;
437 [label="HHD <= 42.535\ngini = 0.5\nsamples = 6\nvalue = [1, 0, 1, 0, 4]\nclass = 20-30", fillcolor="#ef88d9"] ;
427 -> 437 ;
438 [label="gini = 0.0\nsamples = 1\nvalue = [0, 0, 1, 0, 0]\nclass = 50+", fillcolor="#39e5c5"] ;
437 -> 438 ;
439 [label="HEB <= 52.25\ngini = 0.32\nsamples = 5\nvalue = [1, 0, 0, 0, 4]\nclass = 20-30", fillcolor="#ec6ad0"] ;
437 -> 439 ;
440 [label="gini = 0.0\nsamples = 1\nvalue = [1, 0, 0, 0, 0]\nclass = 40-50", fillcolor="#e58139"] ;
439 -> 440 ;
441 [label="gini = 0.0\nsamples = 4\nvalue = [0, 0, 0, 0, 4]\nclass = 20-30", fillcolor="#e539c0"] ;
439 -> 441 ;
442 [label="HML <= 305.0\ngini = 0.685\nsamples = 21\nvalue = [3, 10, 1, 2, 5]\nclass = 30-40", fillcolor="#d6f7c1"] ;
426 -> 442 ;
443 [label="HHD <= 42.735\ngini = 0.727\nsamples = 11\nvalue = [2, 3, 0, 2, 4]\nclass = 20-30", fillcolor="#fce6f7"] ;
442 -> 443 ;
444 [label="gini = 0.0\nsamples = 2\nvalue = [2, 0, 0, 0, 0]\nclass = 40-50", fillcolor="#e58139"] ;
443 -> 444 ;
445 [label="HHD <= 43.64\ngini = 0.642\nsamples = 9\nvalue = [0, 3, 0, 2, 4]\nclass = 20-30", fillcolor="#fbdef4"] ;
443 -> 445 ;
446 [label="HMLD <= 17.845\ngini = 0.48\nsamples = 5\nvalue = [0, 0, 0, 2, 3]\nclass = 20-30", fillcolor="#f6bdea"] ;
445 -> 446 ;
447 [label="gini = 0.0\nsamples = 2\nvalue = [0, 0, 0, 0, 2]\nclass = 20-30", fillcolor="#e539c0"] ;
446 -> 447 ;
448 [label="HMLD <= 18.355\ngini = 0.444\nsamples = 3\nvalue = [0, 0, 0, 2, 1]\nclass = <20", fillcolor="#9e9cf2"] ;
446 -> 448 ;
449 [label="gini = 0.0\nsamples = 2\nvalue = [0, 0, 0, 2, 0]\nclass = <20", fillcolor="#3c39e5"] ;
448 -> 449 ;
450 [label="gini = 0.0\nsamples = 1\nvalue = [0, 0, 0, 0, 1]\nclass = 20-30", fillcolor="#e539c0"] ;
448 -> 450 ;
451 [label="HMLD <= 18.225\ngini = 0.375\nsamples = 4\nvalue = [0, 3, 0, 0, 1]\nclass = 30-40", fillcolor="#a7ee7b"] ;
445 -> 451 ;
452 [label="gini = 0.0\nsamples = 3\nvalue = [0, 3, 0, 0, 0]\nclass = 30-40", fillcolor="#7be539"] ;
451 -> 452 ;
453 [label="gini = 0.0\nsamples = 1\nvalue = [0, 0, 0, 0, 1]\nclass = 20-30", fillcolor="#e539c0"] ;
451 -> 453 ;
454 [label="HML <= 310.5\ngini = 0.48\nsamples = 10\nvalue = [1, 7, 1, 0, 1]\nclass = 30-40", fillcolor="#a7ee7b"] ;
442 -> 454 ;
455 [label="gini = 0.0\nsamples = 6\nvalue = [0, 6, 0, 0, 0]\nclass = 30-40", fillcolor="#7be539"] ;
454 -> 455 ;
456 [label="HEB <= 56.5\ngini = 0.75\nsamples = 4\nvalue = [1, 1, 1, 0, 1]\nclass = 40-50", fillcolor="#ffffff"] ;
454 -> 456 ;
457 [label="gini = 0.0\nsamples = 1\nvalue = [1, 0, 0, 0, 0]\nclass = 40-50", fillcolor="#e58139"] ;
456 -> 457 ;
458 [label="HHD <= 42.94\ngini = 0.667\nsamples = 3\nvalue = [0, 1, 1, 0, 1]\nclass = 30-40", fillcolor="#ffffff"] ;
456 -> 458 ;
459 [label="gini = 0.0\nsamples = 1\nvalue = [0, 1, 0, 0, 0]\nclass = 30-40", fillcolor="#7be539"] ;
458 -> 459 ;
460 [label="HMLD <= 16.86\ngini = 0.5\nsamples = 2\nvalue = [0, 0, 1, 0, 1]\nclass = 50+", fillcolor="#ffffff"] ;
458 -> 460 ;
461 [label="gini = 0.0\nsamples = 1\nvalue = [0, 0, 0, 0, 1]\nclass = 20-30", fillcolor="#e539c0"] ;
460 -> 461 ;
462 [label="gini = 0.0\nsamples = 1\nvalue = [0, 0, 1, 0, 0]\nclass = 50+", fillcolor="#39e5c5"] ;
460 -> 462 ;
463 [label="HMLD <= 18.58\ngini = 0.449\nsamples = 7\nvalue = [5, 1, 0, 0, 1]\nclass = 40-50", fillcolor="#eeab7b"] ;
425 -> 463 ;
464 [label="HHD <= 44.225\ngini = 0.278\nsamples = 6\nvalue = [5, 0, 0, 0, 1]\nclass = 40-50", fillcolor="#ea9a61"] ;
463 -> 464 ;
465 [label="gini = 0.0\nsamples = 4\nvalue = [4, 0, 0, 0, 0]\nclass = 40-50", fillcolor="#e58139"] ;
464 -> 465 ;
466 [label="HHD <= 45.15\ngini = 0.5\nsamples = 2\nvalue = [1, 0, 0, 0, 1]\nclass = 40-50", fillcolor="#ffffff"] ;
464 -> 466 ;
467 [label="gini = 0.0\nsamples = 1\nvalue = [0, 0, 0, 0, 1]\nclass = 20-30", fillcolor="#e539c0"] ;
466 -> 467 ;
468 [label="gini = 0.0\nsamples = 1\nvalue = [1, 0, 0, 0, 0]\nclass = 40-50", fillcolor="#e58139"] ;
466 -> 468 ;
469 [label="gini = 0.0\nsamples = 1\nvalue = [0, 1, 0, 0, 0]\nclass = 30-40", fillcolor="#7be539"] ;
463 -> 469 ;
470 [label="HML <= 326.5\ngini = 0.571\nsamples = 19\nvalue = [3, 5, 0, 0, 11]\nclass = 20-30", fillcolor="#f4aae4"] ;
424 -> 470 ;
471 [label="HMLD <= 17.035\ngini = 0.519\nsamples = 17\nvalue = [3, 3, 0, 0, 11]\nclass = 20-30", fillcolor="#f08edb"] ;
470 -> 471 ;
472 [label="HEB <= 59.25\ngini = 0.444\nsamples = 3\nvalue = [2, 0, 0, 0, 1]\nclass = 40-50", fillcolor="#f2c09c"] ;
471 -> 472 ;
473 [label="gini = 0.0\nsamples = 1\nvalue = [0, 0, 0, 0, 1]\nclass = 20-30", fillcolor="#e539c0"] ;
472 -> 473 ;
474 [label="gini = 0.0\nsamples = 2\nvalue = [2, 0, 0, 0, 0]\nclass = 40-50", fillcolor="#e58139"] ;
472 -> 474 ;
475 [label="HHD <= 46.105\ngini = 0.439\nsamples = 14\nvalue = [1, 3, 0, 0, 10]\nclass = 20-30", fillcolor="#ee81d7"] ;
471 -> 475 ;
476 [label="HMLD <= 17.825\ngini = 0.355\nsamples = 13\nvalue = [0, 3, 0, 0, 10]\nclass = 20-30", fillcolor="#ed74d3"] ;
475 -> 476 ;
477 [label="gini = 0.0\nsamples = 5\nvalue = [0, 0, 0, 0, 5]\nclass = 20-30", fillcolor="#e539c0"] ;
476 -> 477 ;
478 [label="HMLD <= 18.23\ngini = 0.469\nsamples = 8\nvalue = [0, 3, 0, 0, 5]\nclass = 20-30", fillcolor="#f5b0e6"] ;
476 -> 478 ;
479 [label="gini = 0.0\nsamples = 2\nvalue = [0, 2, 0, 0, 0]\nclass = 30-40", fillcolor="#7be539"] ;
478 -> 479 ;
480 [label="HMLD <= 18.58\ngini = 0.278\nsamples = 6\nvalue = [0, 1, 0, 0, 5]\nclass = 20-30", fillcolor="#ea61cd"] ;
478 -> 480 ;
481 [label="gini = 0.0\nsamples = 4\nvalue = [0, 0, 0, 0, 4]\nclass = 20-30", fillcolor="#e539c0"] ;
480 -> 481 ;
482 [label="HEB <= 59.5\ngini = 0.5\nsamples = 2\nvalue = [0, 1, 0, 0, 1]\nclass = 30-40", fillcolor="#ffffff"] ;
480 -> 482 ;
483 [label="gini = 0.0\nsamples = 1\nvalue = [0, 0, 0, 0, 1]\nclass = 20-30", fillcolor="#e539c0"] ;
482 -> 483 ;
484 [label="gini = 0.0\nsamples = 1\nvalue = [0, 1, 0, 0, 0]\nclass = 30-40", fillcolor="#7be539"] ;
482 -> 484 ;
485 [label="gini = 0.0\nsamples = 1\nvalue = [1, 0, 0, 0, 0]\nclass = 40-50", fillcolor="#e58139"] ;
475 -> 485 ;
486 [label="gini = 0.0\nsamples = 2\nvalue = [0, 2, 0, 0, 0]\nclass = 30-40", fillcolor="#7be539"] ;
470 -> 486 ;
487 [label="gini = 0.0\nsamples = 2\nvalue = [2, 0, 0, 0, 0]\nclass = 40-50", fillcolor="#e58139"] ;
423 -> 487 ;
488 [label="HMLD <= 17.395\ngini = 0.278\nsamples = 6\nvalue = [1, 5, 0, 0, 0]\nclass = 30-40", fillcolor="#95ea61"] ;
302 -> 488 ;
489 [label="HMLD <= 16.885\ngini = 0.5\nsamples = 2\nvalue = [1, 1, 0, 0, 0]\nclass = 40-50", fillcolor="#ffffff"] ;
488 -> 489 ;
490 [label="gini = 0.0\nsamples = 1\nvalue = [0, 1, 0, 0, 0]\nclass = 30-40", fillcolor="#7be539"] ;
489 -> 490 ;
491 [label="gini = 0.0\nsamples = 1\nvalue = [1, 0, 0, 0, 0]\nclass = 40-50", fillcolor="#e58139"] ;
489 -> 491 ;
492 [label="gini = 0.0\nsamples = 4\nvalue = [0, 4, 0, 0, 0]\nclass = 30-40", fillcolor="#7be539"] ;
488 -> 492 ;
493 [label="HMLD <= 18.315\ngini = 0.32\nsamples = 5\nvalue = [0, 0, 0, 1, 4]\nclass = 20-30", fillcolor="#ec6ad0"] ;
147 -> 493 ;
494 [label="gini = 0.0\nsamples = 4\nvalue = [0, 0, 0, 0, 4]\nclass = 20-30", fillcolor="#e539c0"] ;
493 -> 494 ;
495 [label="gini = 0.0\nsamples = 1\nvalue = [0, 0, 0, 1, 0]\nclass = <20", fillcolor="#3c39e5"] ;
493 -> 495 ;
496 [label="HHD <= 42.555\ngini = 0.668\nsamples = 1031\nvalue = [386, 415, 36, 22, 172]\nclass = 30-40", fillcolor="#f9fef6"] ;
0 -> 496 [labeldistance=2.5, labelangle=-45, headlabel="False"] ;
497 [label="HHD <= 37.18\ngini = 0.633\nsamples = 405\nvalue = [191, 141, 2, 10, 61]\nclass = 40-50", fillcolor="#fae7da"] ;
496 -> 497 ;
498 [label="HEB <= 47.5\ngini = 0.525\nsamples = 49\nvalue = [12, 31, 0, 0, 6]\nclass = 30-40", fillcolor="#bbf299"] ;
497 -> 498 ;
499 [label="HMLD <= 20.055\ngini = 0.531\nsamples = 8\nvalue = [5, 1, 0, 0, 2]\nclass = 40-50", fillcolor="#f2c09c"] ;
498 -> 499 ;
500 [label="HEB <= 44.5\ngini = 0.408\nsamples = 7\nvalue = [5, 0, 0, 0, 2]\nclass = 40-50", fillcolor="#efb388"] ;
499 -> 500 ;
501 [label="gini = 0.0\nsamples = 1\nvalue = [0, 0, 0, 0, 1]\nclass = 20-30", fillcolor="#e539c0"] ;
500 -> 501 ;
502 [label="HMLD <= 19.725\ngini = 0.278\nsamples = 6\nvalue = [5, 0, 0, 0, 1]\nclass = 40-50", fillcolor="#ea9a61"] ;
500 -> 502 ;
503 [label="gini = 0.0\nsamples = 4\nvalue = [4, 0, 0, 0, 0]\nclass = 40-50", fillcolor="#e58139"] ;
502 -> 503 ;
504 [label="HHD <= 34.81\ngini = 0.5\nsamples = 2\nvalue = [1, 0, 0, 0, 1]\nclass = 40-50", fillcolor="#ffffff"] ;
502 -> 504 ;
505 [label="gini = 0.0\nsamples = 1\nvalue = [1, 0, 0, 0, 0]\nclass = 40-50", fillcolor="#e58139"] ;
504 -> 505 ;
506 [label="gini = 0.0\nsamples = 1\nvalue = [0, 0, 0, 0, 1]\nclass = 20-30", fillcolor="#e539c0"] ;
504 -> 506 ;
507 [label="gini = 0.0\nsamples = 1\nvalue = [0, 1, 0, 0, 0]\nclass = 30-40", fillcolor="#7be539"] ;
499 -> 507 ;
508 [label="HMLD <= 18.81\ngini = 0.426\nsamples = 41\nvalue = [7, 30, 0, 0, 4]\nclass = 30-40", fillcolor="#a6ed79"] ;
498 -> 508 ;
509 [label="HEB <= 53.5\ngini = 0.5\nsamples = 2\nvalue = [1, 0, 0, 0, 1]\nclass = 40-50", fillcolor="#ffffff"] ;
508 -> 509 ;
510 [label="gini = 0.0\nsamples = 1\nvalue = [1, 0, 0, 0, 0]\nclass = 40-50", fillcolor="#e58139"] ;
509 -> 510 ;
511 [label="gini = 0.0\nsamples = 1\nvalue = [0, 0, 0, 0, 1]\nclass = 20-30", fillcolor="#e539c0"] ;
509 -> 511 ;
512 [label="HMLD <= 20.17\ngini = 0.379\nsamples = 39\nvalue = [6, 30, 0, 0, 3]\nclass = 30-40", fillcolor="#9fec6f"] ;
508 -> 512 ;
513 [label="HMLD <= 19.195\ngini = 0.497\nsamples = 24\nvalue = [5, 16, 0, 0, 3]\nclass = 30-40", fillcolor="#b3f08c"] ;
512 -> 513 ;
514 [label="gini = 0.0\nsamples = 9\nvalue = [0, 9, 0, 0, 0]\nclass = 30-40", fillcolor="#7be539"] ;
513 -> 514 ;
515 [label="HML <= 287.5\ngini = 0.631\nsamples = 15\nvalue = [5, 7, 0, 0, 3]\nclass = 30-40", fillcolor="#e5fad7"] ;
513 -> 515 ;
516 [label="HMLD <= 19.38\ngini = 0.569\nsamples = 12\nvalue = [2, 7, 0, 0, 3]\nclass = 30-40", fillcolor="#c4f3a7"] ;
515 -> 516 ;
517 [label="HMLD <= 19.315\ngini = 0.5\nsamples = 2\nvalue = [1, 0, 0, 0, 1]\nclass = 40-50", fillcolor="#ffffff"] ;
516 -> 517 ;
518 [label="gini = 0.0\nsamples = 1\nvalue = [1, 0, 0, 0, 0]\nclass = 40-50", fillcolor="#e58139"] ;
517 -> 518 ;
519 [label="gini = 0.0\nsamples = 1\nvalue = [0, 0, 0, 0, 1]\nclass = 20-30", fillcolor="#e539c0"] ;
517 -> 519 ;
520 [label="HML <= 285.25\ngini = 0.46\nsamples = 10\nvalue = [1, 7, 0, 0, 2]\nclass = 30-40", fillcolor="#acef83"] ;
516 -> 520 ;
521 [label="HML <= 260.5\ngini = 0.37\nsamples = 9\nvalue = [1, 7, 0, 0, 1]\nclass = 30-40", fillcolor="#9cec6a"] ;
520 -> 521 ;
522 [label="HML <= 251.5\ngini = 0.5\nsamples = 2\nvalue = [1, 1, 0, 0, 0]\nclass = 40-50", fillcolor="#ffffff"] ;
521 -> 522 ;
523 [label="gini = 0.0\nsamples = 1\nvalue = [0, 1, 0, 0, 0]\nclass = 30-40", fillcolor="#7be539"] ;
522 -> 523 ;
524 [label="gini = 0.0\nsamples = 1\nvalue = [1, 0, 0, 0, 0]\nclass = 40-50", fillcolor="#e58139"] ;
522 -> 524 ;
525 [label="HMLD <= 19.495\ngini = 0.245\nsamples = 7\nvalue = [0, 6, 0, 0, 1]\nclass = 30-40", fillcolor="#91e95a"] ;
521 -> 525 ;
526 [label="HMLD <= 19.43\ngini = 0.5\nsamples = 2\nvalue = [0, 1, 0, 0, 1]\nclass = 30-40", fillcolor="#ffffff"] ;
525 -> 526 ;
527 [label="gini = 0.0\nsamples = 1\nvalue = [0, 1, 0, 0, 0]\nclass = 30-40", fillcolor="#7be539"] ;
526 -> 527 ;
528 [label="gini = 0.0\nsamples = 1\nvalue = [0, 0, 0, 0, 1]\nclass = 20-30", fillcolor="#e539c0"] ;
526 -> 528 ;
529 [label="gini = 0.0\nsamples = 5\nvalue = [0, 5, 0, 0, 0]\nclass = 30-40", fillcolor="#7be539"] ;
525 -> 529 ;
530 [label="gini = 0.0\nsamples = 1\nvalue = [0, 0, 0, 0, 1]\nclass = 20-30", fillcolor="#e539c0"] ;
520 -> 530 ;
531 [label="gini = 0.0\nsamples = 3\nvalue = [3, 0, 0, 0, 0]\nclass = 40-50", fillcolor="#e58139"] ;
515 -> 531 ;
532 [label="HML <= 276.5\ngini = 0.124\nsamples = 15\nvalue = [1, 14, 0, 0, 0]\nclass = 30-40", fillcolor="#84e747"] ;
512 -> 532 ;
533 [label="HMLD <= 20.89\ngini = 0.444\nsamples = 3\nvalue = [1, 2, 0, 0, 0]\nclass = 30-40", fillcolor="#bdf29c"] ;
532 -> 533 ;
534 [label="gini = 0.0\nsamples = 2\nvalue = [0, 2, 0, 0, 0]\nclass = 30-40", fillcolor="#7be539"] ;
533 -> 534 ;
535 [label="gini = 0.0\nsamples = 1\nvalue = [1, 0, 0, 0, 0]\nclass = 40-50", fillcolor="#e58139"] ;
533 -> 535 ;
536 [label="gini = 0.0\nsamples = 12\nvalue = [0, 12, 0, 0, 0]\nclass = 30-40", fillcolor="#7be539"] ;
532 -> 536 ;
537 [label="HMLD <= 20.185\ngini = 0.627\nsamples = 356\nvalue = [179, 110, 2, 10, 55]\nclass = 40-50", fillcolor="#f8dcc7"] ;
497 -> 537 ;
538 [label="HHD <= 37.99\ngini = 0.642\nsamples = 182\nvalue = [79, 69, 0, 5, 29]\nclass = 40-50", fillcolor="#fdf4ed"] ;
537 -> 538 ;
539 [label="HHD <= 37.485\ngini = 0.165\nsamples = 11\nvalue = [10, 1, 0, 0, 0]\nclass = 40-50", fillcolor="#e88e4d"] ;
538 -> 539 ;
540 [label="HMLD <= 19.33\ngini = 0.5\nsamples = 2\nvalue = [1, 1, 0, 0, 0]\nclass = 40-50", fillcolor="#ffffff"] ;
539 -> 540 ;
541 [label="gini = 0.0\nsamples = 1\nvalue = [1, 0, 0, 0, 0]\nclass = 40-50", fillcolor="#e58139"] ;
540 -> 541 ;
542 [label="gini = 0.0\nsamples = 1\nvalue = [0, 1, 0, 0, 0]\nclass = 30-40", fillcolor="#7be539"] ;
540 -> 542 ;
543 [label="gini = 0.0\nsamples = 9\nvalue = [9, 0, 0, 0, 0]\nclass = 40-50", fillcolor="#e58139"] ;
539 -> 543 ;
544 [label="HML <= 281.5\ngini = 0.649\nsamples = 171\nvalue = [69, 68, 0, 5, 29]\nclass = 40-50", fillcolor="#fffefd"] ;
538 -> 544 ;
545 [label="HEB <= 51.5\ngini = 0.518\nsamples = 32\nvalue = [13, 18, 0, 0, 1]\nclass = 30-40", fillcolor="#dcf8cb"] ;
544 -> 545 ;
546 [label="HHD <= 38.015\ngini = 0.32\nsamples = 5\nvalue = [4, 1, 0, 0, 0]\nclass = 40-50", fillcolor="#eca06a"] ;
545 -> 546 ;
547 [label="gini = 0.0\nsamples = 1\nvalue = [0, 1, 0, 0, 0]\nclass = 30-40", fillcolor="#7be539"] ;
546 -> 547 ;
548 [label="gini = 0.0\nsamples = 4\nvalue = [4, 0, 0, 0, 0]\nclass = 40-50", fillcolor="#e58139"] ;
546 -> 548 ;
549 [label="HHD <= 39.235\ngini = 0.491\nsamples = 27\nvalue = [9, 17, 0, 0, 1]\nclass = 30-40", fillcolor="#c4f3a7"] ;
545 -> 549 ;
550 [label="gini = 0.0\nsamples = 7\nvalue = [0, 7, 0, 0, 0]\nclass = 30-40", fillcolor="#7be539"] ;
549 -> 550 ;
551 [label="HMLD <= 20.02\ngini = 0.545\nsamples = 20\nvalue = [9, 10, 0, 0, 1]\nclass = 30-40", fillcolor="#f3fded"] ;
549 -> 551 ;
552 [label="HMLD <= 19.705\ngini = 0.547\nsamples = 17\nvalue = [9, 7, 0, 0, 1]\nclass = 40-50", fillcolor="#fae6d7"] ;
551 -> 552 ;
553 [label="HMLD <= 19.195\ngini = 0.561\nsamples = 14\nvalue = [6, 7, 0, 0, 1]\nclass = 30-40", fillcolor="#eefce6"] ;
552 -> 553 ;
554 [label="HEB <= 56.0\ngini = 0.408\nsamples = 7\nvalue = [5, 2, 0, 0, 0]\nclass = 40-50", fillcolor="#efb388"] ;
553 -> 554 ;
555 [label="gini = 0.0\nsamples = 4\nvalue = [4, 0, 0, 0, 0]\nclass = 40-50", fillcolor="#e58139"] ;
554 -> 555 ;
556 [label="HMLD <= 18.765\ngini = 0.444\nsamples = 3\nvalue = [1, 2, 0, 0, 0]\nclass = 30-40", fillcolor="#bdf29c"] ;
554 -> 556 ;
557 [label="gini = 0.0\nsamples = 1\nvalue = [1, 0, 0, 0, 0]\nclass = 40-50", fillcolor="#e58139"] ;
556 -> 557 ;
558 [label="gini = 0.0\nsamples = 2\nvalue = [0, 2, 0, 0, 0]\nclass = 30-40", fillcolor="#7be539"] ;
556 -> 558 ;
559 [label="HEB <= 56.5\ngini = 0.449\nsamples = 7\nvalue = [1, 5, 0, 0, 1]\nclass = 30-40", fillcolor="#a7ee7b"] ;
553 -> 559 ;
560 [label="HMLD <= 19.35\ngini = 0.278\nsamples = 6\nvalue = [0, 5, 0, 0, 1]\nclass = 30-40", fillcolor="#95ea61"] ;
559 -> 560 ;
561 [label="HMLD <= 19.23\ngini = 0.5\nsamples = 2\nvalue = [0, 1, 0, 0, 1]\nclass = 30-40", fillcolor="#ffffff"] ;
560 -> 561 ;
562 [label="gini = 0.0\nsamples = 1\nvalue = [0, 1, 0, 0, 0]\nclass = 30-40", fillcolor="#7be539"] ;
561 -> 562 ;
563 [label="gini = 0.0\nsamples = 1\nvalue = [0, 0, 0, 0, 1]\nclass = 20-30", fillcolor="#e539c0"] ;
561 -> 563 ;
564 [label="gini = 0.0\nsamples = 4\nvalue = [0, 4, 0, 0, 0]\nclass = 30-40", fillcolor="#7be539"] ;
560 -> 564 ;
565 [label="gini = 0.0\nsamples = 1\nvalue = [1, 0, 0, 0, 0]\nclass = 40-50", fillcolor="#e58139"] ;
559 -> 565 ;
566 [label="gini = 0.0\nsamples = 3\nvalue = [3, 0, 0, 0, 0]\nclass = 40-50", fillcolor="#e58139"] ;
552 -> 566 ;
567 [label="gini = 0.0\nsamples = 3\nvalue = [0, 3, 0, 0, 0]\nclass = 30-40", fillcolor="#7be539"] ;
551 -> 567 ;
568 [label="HMLD <= 19.385\ngini = 0.666\nsamples = 139\nvalue = [56, 50, 0, 5, 28]\nclass = 40-50", fillcolor="#fdf7f2"] ;
544 -> 568 ;
569 [label="HHD <= 38.815\ngini = 0.622\nsamples = 74\nvalue = [31, 32, 0, 2, 9]\nclass = 30-40", fillcolor="#fcfefa"] ;
568 -> 569 ;
570 [label="HML <= 285.5\ngini = 0.656\nsamples = 8\nvalue = [2, 1, 0, 1, 4]\nclass = 20-30", fillcolor="#f6bdea"] ;
569 -> 570 ;
571 [label="HML <= 283.0\ngini = 0.625\nsamples = 4\nvalue = [2, 1, 0, 1, 0]\nclass = 40-50", fillcolor="#f6d5bd"] ;
570 -> 571 ;
572 [label="HMLD <= 19.01\ngini = 0.5\nsamples = 2\nvalue = [0, 1, 0, 1, 0]\nclass = 30-40", fillcolor="#ffffff"] ;
571 -> 572 ;
573 [label="gini = 0.0\nsamples = 1\nvalue = [0, 0, 0, 1, 0]\nclass = <20", fillcolor="#3c39e5"] ;
572 -> 573 ;
574 [label="gini = 0.0\nsamples = 1\nvalue = [0, 1, 0, 0, 0]\nclass = 30-40", fillcolor="#7be539"] ;
572 -> 574 ;
575 [label="gini = 0.0\nsamples = 2\nvalue = [2, 0, 0, 0, 0]\nclass = 40-50", fillcolor="#e58139"] ;
571 -> 575 ;
576 [label="gini = 0.0\nsamples = 4\nvalue = [0, 0, 0, 0, 4]\nclass = 20-30", fillcolor="#e539c0"] ;
570 -> 576 ;
577 [label="HEB <= 57.25\ngini = 0.58\nsamples = 66\nvalue = [29, 31, 0, 1, 5]\nclass = 30-40", fillcolor="#f8fef4"] ;
569 -> 577 ;
578 [label="HHD <= 39.085\ngini = 0.583\nsamples = 56\nvalue = [21, 29, 0, 1, 5]\nclass = 30-40", fillcolor="#e1f9d2"] ;
577 -> 578 ;
579 [label="HMLD <= 18.74\ngini = 0.32\nsamples = 5\nvalue = [4, 1, 0, 0, 0]\nclass = 40-50", fillcolor="#eca06a"] ;
578 -> 579 ;
580 [label="gini = 0.0\nsamples = 1\nvalue = [0, 1, 0, 0, 0]\nclass = 30-40", fillcolor="#7be539"] ;
579 -> 580 ;
581 [label="gini = 0.0\nsamples = 4\nvalue = [4, 0, 0, 0, 0]\nclass = 40-50", fillcolor="#e58139"] ;
579 -> 581 ;
582 [label="HML <= 283.25\ngini = 0.577\nsamples = 51\nvalue = [17, 28, 0, 1, 5]\nclass = 30-40", fillcolor="#d4f7bf"] ;
578 -> 582 ;
583 [label="gini = 0.0\nsamples = 2\nvalue = [2, 0, 0, 0, 0]\nclass = 40-50", fillcolor="#e58139"] ;
582 -> 583 ;
584 [label="HEB <= 50.25\ngini = 0.569\nsamples = 49\nvalue = [15, 28, 0, 1, 5]\nclass = 30-40", fillcolor="#cdf5b3"] ;
582 -> 584 ;
585 [label="gini = 0.0\nsamples = 1\nvalue = [0, 0, 0, 0, 1]\nclass = 20-30", fillcolor="#e539c0"] ;
584 -> 585 ;
586 [label="HMLD <= 18.955\ngini = 0.555\nsamples = 48\nvalue = [15, 28, 0, 1, 4]\nclass = 30-40", fillcolor="#cbf5b1"] ;
584 -> 586 ;
587 [label="HMLD <= 18.935\ngini = 0.648\nsamples = 18\nvalue = [4, 9, 0, 1, 4]\nclass = 30-40", fillcolor="#d0f6b8"] ;
586 -> 587 ;
588 [label="HHD <= 40.605\ngini = 0.609\nsamples = 17\nvalue = [4, 9, 0, 0, 4]\nclass = 30-40", fillcolor="#ccf5b3"] ;
587 -> 588 ;
589 [label="HEB <= 53.25\ngini = 0.278\nsamples = 6\nvalue = [0, 5, 0, 0, 1]\nclass = 30-40", fillcolor="#95ea61"] ;
588 -> 589 ;
590 [label="gini = 0.0\nsamples = 1\nvalue = [0, 0, 0, 0, 1]\nclass = 20-30", fillcolor="#e539c0"] ;
589 -> 590 ;
591 [label="gini = 0.0\nsamples = 5\nvalue = [0, 5, 0, 0, 0]\nclass = 30-40", fillcolor="#7be539"] ;
589 -> 591 ;
592 [label="HHD <= 42.08\ngini = 0.661\nsamples = 11\nvalue = [4, 4, 0, 0, 3]\nclass = 40-50", fillcolor="#ffffff"] ;
588 -> 592 ;
593 [label="HML <= 291.5\ngini = 0.642\nsamples = 9\nvalue = [4, 2, 0, 0, 3]\nclass = 40-50", fillcolor="#fbeade"] ;
592 -> 593 ;
594 [label="gini = 0.0\nsamples = 2\nvalue = [2, 0, 0, 0, 0]\nclass = 40-50", fillcolor="#e58139"] ;
593 -> 594 ;
595 [label="HHD <= 41.51\ngini = 0.653\nsamples = 7\nvalue = [2, 2, 0, 0, 3]\nclass = 20-30", fillcolor="#fad7f2"] ;
593 -> 595 ;
596 [label="HML <= 306.5\ngini = 0.64\nsamples = 5\nvalue = [2, 2, 0, 0, 1]\nclass = 40-50", fillcolor="#ffffff"] ;
595 -> 596 ;
597 [label="HMLD <= 18.785\ngini = 0.444\nsamples = 3\nvalue = [0, 2, 0, 0, 1]\nclass = 30-40", fillcolor="#bdf29c"] ;
596 -> 597 ;
598 [label="gini = 0.0\nsamples = 1\nvalue = [0, 1, 0, 0, 0]\nclass = 30-40", fillcolor="#7be539"] ;
597 -> 598 ;
599 [label="HEB <= 55.5\ngini = 0.5\nsamples = 2\nvalue = [0, 1, 0, 0, 1]\nclass = 30-40", fillcolor="#ffffff"] ;
597 -> 599 ;
600 [label="gini = 0.0\nsamples = 1\nvalue = [0, 0, 0, 0, 1]\nclass = 20-30", fillcolor="#e539c0"] ;
599 -> 600 ;
601 [label="gini = 0.0\nsamples = 1\nvalue = [0, 1, 0, 0, 0]\nclass = 30-40", fillcolor="#7be539"] ;
599 -> 601 ;
602 [label="gini = 0.0\nsamples = 2\nvalue = [2, 0, 0, 0, 0]\nclass = 40-50", fillcolor="#e58139"] ;
596 -> 602 ;
603 [label="gini = 0.0\nsamples = 2\nvalue = [0, 0, 0, 0, 2]\nclass = 20-30", fillcolor="#e539c0"] ;
595 -> 603 ;
604 [label="gini = 0.0\nsamples = 2\nvalue = [0, 2, 0, 0, 0]\nclass = 30-40", fillcolor="#7be539"] ;
592 -> 604 ;
605 [label="gini = 0.0\nsamples = 1\nvalue = [0, 0, 0, 1, 0]\nclass = <20", fillcolor="#3c39e5"] ;
587 -> 605 ;
606 [label="HML <= 311.75\ngini = 0.464\nsamples = 30\nvalue = [11, 19, 0, 0, 0]\nclass = 30-40", fillcolor="#c7f4ac"] ;
586 -> 606 ;
607 [label="HML <= 295.5\ngini = 0.417\nsamples = 27\nvalue = [8, 19, 0, 0, 0]\nclass = 30-40", fillcolor="#b3f08c"] ;
606 -> 607 ;
608 [label="HMLD <= 19.06\ngini = 0.165\nsamples = 11\nvalue = [1, 10, 0, 0, 0]\nclass = 30-40", fillcolor="#88e84d"] ;
607 -> 608 ;
609 [label="HEB <= 54.5\ngini = 0.444\nsamples = 3\nvalue = [1, 2, 0, 0, 0]\nclass = 30-40", fillcolor="#bdf29c"] ;
608 -> 609 ;
610 [label="gini = 0.0\nsamples = 1\nvalue = [1, 0, 0, 0, 0]\nclass = 40-50", fillcolor="#e58139"] ;
609 -> 610 ;
611 [label="gini = 0.0\nsamples = 2\nvalue = [0, 2, 0, 0, 0]\nclass = 30-40", fillcolor="#7be539"] ;
609 -> 611 ;
612 [label="gini = 0.0\nsamples = 8\nvalue = [0, 8, 0, 0, 0]\nclass = 30-40", fillcolor="#7be539"] ;
608 -> 612 ;
613 [label="HEB <= 56.25\ngini = 0.492\nsamples = 16\nvalue = [7, 9, 0, 0, 0]\nclass = 30-40", fillcolor="#e2f9d3"] ;
607 -> 613 ;
614 [label="HEB <= 54.25\ngini = 0.497\nsamples = 13\nvalue = [7, 6, 0, 0, 0]\nclass = 40-50", fillcolor="#fbede3"] ;
613 -> 614 ;
615 [label="HMLD <= 19.245\ngini = 0.32\nsamples = 5\nvalue = [1, 4, 0, 0, 0]\nclass = 30-40", fillcolor="#9cec6a"] ;
614 -> 615 ;
616 [label="gini = 0.0\nsamples = 4\nvalue = [0, 4, 0, 0, 0]\nclass = 30-40", fillcolor="#7be539"] ;
615 -> 616 ;
617 [label="gini = 0.0\nsamples = 1\nvalue = [1, 0, 0, 0, 0]\nclass = 40-50", fillcolor="#e58139"] ;
615 -> 617 ;
618 [label="HMLD <= 18.975\ngini = 0.375\nsamples = 8\nvalue = [6, 2, 0, 0, 0]\nclass = 40-50", fillcolor="#eeab7b"] ;
614 -> 618 ;
619 [label="gini = 0.0\nsamples = 1\nvalue = [0, 1, 0, 0, 0]\nclass = 30-40", fillcolor="#7be539"] ;
618 -> 619 ;
620 [label="HMLD <= 19.255\ngini = 0.245\nsamples = 7\nvalue = [6, 1, 0, 0, 0]\nclass = 40-50", fillcolor="#e9965a"] ;
618 -> 620 ;
621 [label="gini = 0.0\nsamples = 5\nvalue = [5, 0, 0, 0, 0]\nclass = 40-50", fillcolor="#e58139"] ;
620 -> 621 ;
622 [label="HMLD <= 19.34\ngini = 0.5\nsamples = 2\nvalue = [1, 1, 0, 0, 0]\nclass = 40-50", fillcolor="#ffffff"] ;
620 -> 622 ;
623 [label="gini = 0.0\nsamples = 1\nvalue = [0, 1, 0, 0, 0]\nclass = 30-40", fillcolor="#7be539"] ;
622 -> 623 ;
624 [label="gini = 0.0\nsamples = 1\nvalue = [1, 0, 0, 0, 0]\nclass = 40-50", fillcolor="#e58139"] ;
622 -> 624 ;
625 [label="gini = 0.0\nsamples = 3\nvalue = [0, 3, 0, 0, 0]\nclass = 30-40", fillcolor="#7be539"] ;
613 -> 625 ;
626 [label="gini = 0.0\nsamples = 3\nvalue = [3, 0, 0, 0, 0]\nclass = 40-50", fillcolor="#e58139"] ;
606 -> 626 ;
627 [label="HHD <= 39.555\ngini = 0.32\nsamples = 10\nvalue = [8, 2, 0, 0, 0]\nclass = 40-50", fillcolor="#eca06a"] ;
577 -> 627 ;
628 [label="gini = 0.0\nsamples = 1\nvalue = [0, 1, 0, 0, 0]\nclass = 30-40", fillcolor="#7be539"] ;
627 -> 628 ;
629 [label="HMLD <= 19.175\ngini = 0.198\nsamples = 9\nvalue = [8, 1, 0, 0, 0]\nclass = 40-50", fillcolor="#e89152"] ;
627 -> 629 ;
630 [label="gini = 0.0\nsamples = 7\nvalue = [7, 0, 0, 0, 0]\nclass = 40-50", fillcolor="#e58139"] ;
629 -> 630 ;
631 [label="HEB <= 58.5\ngini = 0.5\nsamples = 2\nvalue = [1, 1, 0, 0, 0]\nclass = 40-50", fillcolor="#ffffff"] ;
629 -> 631 ;
632 [label="gini = 0.0\nsamples = 1\nvalue = [1, 0, 0, 0, 0]\nclass = 40-50", fillcolor="#e58139"] ;
631 -> 632 ;
633 [label="gini = 0.0\nsamples = 1\nvalue = [0, 1, 0, 0, 0]\nclass = 30-40", fillcolor="#7be539"] ;
631 -> 633 ;
634 [label="HEB <= 61.75\ngini = 0.688\nsamples = 65\nvalue = [25, 18, 0, 3, 19]\nclass = 40-50", fillcolor="#fcefe5"] ;
568 -> 634 ;
635 [label="HEB <= 55.25\ngini = 0.683\nsamples = 62\nvalue = [25, 15, 0, 3, 19]\nclass = 40-50", fillcolor="#fbede3"] ;
634 -> 635 ;
636 [label="HHD <= 41.045\ngini = 0.664\nsamples = 30\nvalue = [14, 9, 0, 3, 4]\nclass = 40-50", fillcolor="#f9e1d0"] ;
635 -> 636 ;
637 [label="HHD <= 39.1\ngini = 0.575\nsamples = 20\nvalue = [12, 4, 0, 3, 1]\nclass = 40-50", fillcolor="#f2c09c"] ;
636 -> 637 ;
638 [label="HML <= 290.5\ngini = 0.5\nsamples = 2\nvalue = [0, 1, 0, 1, 0]\nclass = 30-40", fillcolor="#ffffff"] ;
637 -> 638 ;
639 [label="gini = 0.0\nsamples = 1\nvalue = [0, 1, 0, 0, 0]\nclass = 30-40", fillcolor="#7be539"] ;
638 -> 639 ;
640 [label="gini = 0.0\nsamples = 1\nvalue = [0, 0, 0, 1, 0]\nclass = <20", fillcolor="#3c39e5"] ;
638 -> 640 ;
641 [label="HMLD <= 20.12\ngini = 0.512\nsamples = 18\nvalue = [12, 3, 0, 2, 1]\nclass = 40-50", fillcolor="#efb388"] ;
637 -> 641 ;
642 [label="HHD <= 39.815\ngini = 0.464\nsamples = 17\nvalue = [12, 3, 0, 1, 1]\nclass = 40-50", fillcolor="#eeae80"] ;
641 -> 642 ;
643 [label="HEB <= 52.25\ngini = 0.245\nsamples = 7\nvalue = [6, 0, 0, 0, 1]\nclass = 40-50", fillcolor="#e9965a"] ;
642 -> 643 ;
644 [label="HHD <= 39.685\ngini = 0.5\nsamples = 2\nvalue = [1, 0, 0, 0, 1]\nclass = 40-50", fillcolor="#ffffff"] ;
643 -> 644 ;
645 [label="gini = 0.0\nsamples = 1\nvalue = [0, 0, 0, 0, 1]\nclass = 20-30", fillcolor="#e539c0"] ;
644 -> 645 ;
646 [label="gini = 0.0\nsamples = 1\nvalue = [1, 0, 0, 0, 0]\nclass = 40-50", fillcolor="#e58139"] ;
644 -> 646 ;
647 [label="gini = 0.0\nsamples = 5\nvalue = [5, 0, 0, 0, 0]\nclass = 40-50", fillcolor="#e58139"] ;
643 -> 647 ;
648 [label="HMLD <= 19.445\ngini = 0.54\nsamples = 10\nvalue = [6, 3, 0, 1, 0]\nclass = 40-50", fillcolor="#f4c9aa"] ;
642 -> 648 ;
649 [label="gini = 0.0\nsamples = 3\nvalue = [3, 0, 0, 0, 0]\nclass = 40-50", fillcolor="#e58139"] ;
648 -> 649 ;
650 [label="HMLD <= 19.615\ngini = 0.612\nsamples = 7\nvalue = [3, 3, 0, 1, 0]\nclass = 40-50", fillcolor="#ffffff"] ;
648 -> 650 ;
651 [label="HML <= 289.0\ngini = 0.444\nsamples = 3\nvalue = [0, 2, 0, 1, 0]\nclass = 30-40", fillcolor="#bdf29c"] ;
650 -> 651 ;
652 [label="gini = 0.0\nsamples = 2\nvalue = [0, 2, 0, 0, 0]\nclass = 30-40", fillcolor="#7be539"] ;
651 -> 652 ;
653 [label="gini = 0.0\nsamples = 1\nvalue = [0, 0, 0, 1, 0]\nclass = <20", fillcolor="#3c39e5"] ;
651 -> 653 ;
654 [label="HML <= 307.25\ngini = 0.375\nsamples = 4\nvalue = [3, 1, 0, 0, 0]\nclass = 40-50", fillcolor="#eeab7b"] ;
650 -> 654 ;
655 [label="gini = 0.0\nsamples = 3\nvalue = [3, 0, 0, 0, 0]\nclass = 40-50", fillcolor="#e58139"] ;
654 -> 655 ;
656 [label="gini = 0.0\nsamples = 1\nvalue = [0, 1, 0, 0, 0]\nclass = 30-40", fillcolor="#7be539"] ;
654 -> 656 ;
657 [label="gini = 0.0\nsamples = 1\nvalue = [0, 0, 0, 1, 0]\nclass = <20", fillcolor="#3c39e5"] ;
641 -> 657 ;
658 [label="HMLD <= 19.48\ngini = 0.62\nsamples = 10\nvalue = [2, 5, 0, 0, 3]\nclass = 30-40", fillcolor="#d9f8c6"] ;
636 -> 658 ;
659 [label="gini = 0.0\nsamples = 1\nvalue = [1, 0, 0, 0, 0]\nclass = 40-50", fillcolor="#e58139"] ;
658 -> 659 ;
660 [label="HML <= 285.5\ngini = 0.568\nsamples = 9\nvalue = [1, 5, 0, 0, 3]\nclass = 30-40", fillcolor="#d3f6bd"] ;
658 -> 660 ;
661 [label="gini = 0.0\nsamples = 1\nvalue = [1, 0, 0, 0, 0]\nclass = 40-50", fillcolor="#e58139"] ;
660 -> 661 ;
662 [label="HML <= 289.5\ngini = 0.469\nsamples = 8\nvalue = [0, 5, 0, 0, 3]\nclass = 30-40", fillcolor="#caf5b0"] ;
660 -> 662 ;
663 [label="gini = 0.0\nsamples = 1\nvalue = [0, 0, 0, 0, 1]\nclass = 20-30", fillcolor="#e539c0"] ;
662 -> 663 ;
664 [label="HHD <= 41.43\ngini = 0.408\nsamples = 7\nvalue = [0, 5, 0, 0, 2]\nclass = 30-40", fillcolor="#b0ef88"] ;
662 -> 664 ;
665 [label="gini = 0.0\nsamples = 3\nvalue = [0, 3, 0, 0, 0]\nclass = 30-40", fillcolor="#7be539"] ;
664 -> 665 ;
666 [label="HHD <= 41.62\ngini = 0.5\nsamples = 4\nvalue = [0, 2, 0, 0, 2]\nclass = 30-40", fillcolor="#ffffff"] ;
664 -> 666 ;
667 [label="gini = 0.0\nsamples = 1\nvalue = [0, 0, 0, 0, 1]\nclass = 20-30", fillcolor="#e539c0"] ;
666 -> 667 ;
668 [label="HEB <= 54.25\ngini = 0.444\nsamples = 3\nvalue = [0, 2, 0, 0, 1]\nclass = 30-40", fillcolor="#bdf29c"] ;
666 -> 668 ;
669 [label="gini = 0.0\nsamples = 2\nvalue = [0, 2, 0, 0, 0]\nclass = 30-40", fillcolor="#7be539"] ;
668 -> 669 ;
670 [label="gini = 0.0\nsamples = 1\nvalue = [0, 0, 0, 0, 1]\nclass = 20-30", fillcolor="#e539c0"] ;
668 -> 670 ;
671 [label="HML <= 320.5\ngini = 0.627\nsamples = 32\nvalue = [11, 6, 0, 0, 15]\nclass = 20-30", fillcolor="#fad9f3"] ;
635 -> 671 ;
672 [label="HMLD <= 19.98\ngini = 0.589\nsamples = 28\nvalue = [9, 4, 0, 0, 15]\nclass = 20-30", fillcolor="#f7c0eb"] ;
671 -> 672 ;
673 [label="HMLD <= 19.5\ngini = 0.533\nsamples = 22\nvalue = [9, 1, 0, 0, 12]\nclass = 20-30", fillcolor="#f9d1f0"] ;
672 -> 673 ;
674 [label="HML <= 289.5\ngini = 0.406\nsamples = 8\nvalue = [1, 1, 0, 0, 6]\nclass = 20-30", fillcolor="#ec72d2"] ;
673 -> 674 ;
675 [label="gini = 0.0\nsamples = 1\nvalue = [1, 0, 0, 0, 0]\nclass = 40-50", fillcolor="#e58139"] ;
674 -> 675 ;
676 [label="HHD <= 39.52\ngini = 0.245\nsamples = 7\nvalue = [0, 1, 0, 0, 6]\nclass = 20-30", fillcolor="#e95acb"] ;
674 -> 676 ;
677 [label="HHD <= 39.085\ngini = 0.5\nsamples = 2\nvalue = [0, 1, 0, 0, 1]\nclass = 30-40", fillcolor="#ffffff"] ;
676 -> 677 ;
678 [label="gini = 0.0\nsamples = 1\nvalue = [0, 0, 0, 0, 1]\nclass = 20-30", fillcolor="#e539c0"] ;
677 -> 678 ;
679 [label="gini = 0.0\nsamples = 1\nvalue = [0, 1, 0, 0, 0]\nclass = 30-40", fillcolor="#7be539"] ;
677 -> 679 ;
680 [label="gini = 0.0\nsamples = 5\nvalue = [0, 0, 0, 0, 5]\nclass = 20-30", fillcolor="#e539c0"] ;
676 -> 680 ;
681 [label="HHD <= 41.845\ngini = 0.49\nsamples = 14\nvalue = [8, 0, 0, 0, 6]\nclass = 40-50", fillcolor="#f8e0ce"] ;
673 -> 681 ;
682 [label="HHD <= 41.445\ngini = 0.444\nsamples = 12\nvalue = [8, 0, 0, 0, 4]\nclass = 40-50", fillcolor="#f2c09c"] ;
681 -> 682 ;
683 [label="HML <= 299.25\ngini = 0.5\nsamples = 8\nvalue = [4, 0, 0, 0, 4]\nclass = 40-50", fillcolor="#ffffff"] ;
682 -> 683 ;
684 [label="HMLD <= 19.695\ngini = 0.375\nsamples = 4\nvalue = [3, 0, 0, 0, 1]\nclass = 40-50", fillcolor="#eeab7b"] ;
683 -> 684 ;
685 [label="gini = 0.0\nsamples = 1\nvalue = [0, 0, 0, 0, 1]\nclass = 20-30", fillcolor="#e539c0"] ;
684 -> 685 ;
686 [label="gini = 0.0\nsamples = 3\nvalue = [3, 0, 0, 0, 0]\nclass = 40-50", fillcolor="#e58139"] ;
684 -> 686 ;
687 [label="HMLD <= 19.58\ngini = 0.375\nsamples = 4\nvalue = [1, 0, 0, 0, 3]\nclass = 20-30", fillcolor="#ee7bd5"] ;
683 -> 687 ;
688 [label="gini = 0.0\nsamples = 1\nvalue = [1, 0, 0, 0, 0]\nclass = 40-50", fillcolor="#e58139"] ;
687 -> 688 ;
689 [label="gini = 0.0\nsamples = 3\nvalue = [0, 0, 0, 0, 3]\nclass = 20-30", fillcolor="#e539c0"] ;
687 -> 689 ;
690 [label="gini = 0.0\nsamples = 4\nvalue = [4, 0, 0, 0, 0]\nclass = 40-50", fillcolor="#e58139"] ;
682 -> 690 ;
691 [label="gini = 0.0\nsamples = 2\nvalue = [0, 0, 0, 0, 2]\nclass = 20-30", fillcolor="#e539c0"] ;
681 -> 691 ;
692 [label="HML <= 295.0\ngini = 0.5\nsamples = 6\nvalue = [0, 3, 0, 0, 3]\nclass = 30-40", fillcolor="#ffffff"] ;
672 -> 692 ;
693 [label="gini = 0.0\nsamples = 2\nvalue = [0, 0, 0, 0, 2]\nclass = 20-30", fillcolor="#e539c0"] ;
692 -> 693 ;
694 [label="HMLD <= 20.13\ngini = 0.375\nsamples = 4\nvalue = [0, 3, 0, 0, 1]\nclass = 30-40", fillcolor="#a7ee7b"] ;
692 -> 694 ;
695 [label="gini = 0.0\nsamples = 3\nvalue = [0, 3, 0, 0, 0]\nclass = 30-40", fillcolor="#7be539"] ;
694 -> 695 ;
696 [label="gini = 0.0\nsamples = 1\nvalue = [0, 0, 0, 0, 1]\nclass = 20-30", fillcolor="#e539c0"] ;
694 -> 696 ;
697 [label="HEB <= 60.25\ngini = 0.5\nsamples = 4\nvalue = [2, 2, 0, 0, 0]\nclass = 40-50", fillcolor="#ffffff"] ;
671 -> 697 ;
698 [label="gini = 0.0\nsamples = 2\nvalue = [0, 2, 0, 0, 0]\nclass = 30-40", fillcolor="#7be539"] ;
697 -> 698 ;
699 [label="gini = 0.0\nsamples = 2\nvalue = [2, 0, 0, 0, 0]\nclass = 40-50", fillcolor="#e58139"] ;
697 -> 699 ;
700 [label="gini = 0.0\nsamples = 3\nvalue = [0, 3, 0, 0, 0]\nclass = 30-40", fillcolor="#7be539"] ;
634 -> 700 ;
701 [label="HMLD <= 24.3\ngini = 0.591\nsamples = 174\nvalue = [100, 41, 2, 5, 26]\nclass = 40-50", fillcolor="#f3c7a7"] ;
537 -> 701 ;
702 [label="HEB <= 61.75\ngini = 0.582\nsamples = 172\nvalue = [100, 41, 2, 3, 26]\nclass = 40-50", fillcolor="#f3c6a6"] ;
701 -> 702 ;
703 [label="HHD <= 37.79\ngini = 0.57\nsamples = 162\nvalue = [97, 35, 2, 3, 25]\nclass = 40-50", fillcolor="#f2c19e"] ;
702 -> 703 ;
704 [label="HMLD <= 21.55\ngini = 0.612\nsamples = 7\nvalue = [1, 3, 0, 0, 3]\nclass = 30-40", fillcolor="#ffffff"] ;
703 -> 704 ;
705 [label="HEB <= 51.5\ngini = 0.56\nsamples = 5\nvalue = [1, 3, 0, 0, 1]\nclass = 30-40", fillcolor="#bdf29c"] ;
704 -> 705 ;
706 [label="HML <= 285.5\ngini = 0.5\nsamples = 2\nvalue = [1, 0, 0, 0, 1]\nclass = 40-50", fillcolor="#ffffff"] ;
705 -> 706 ;
707 [label="gini = 0.0\nsamples = 1\nvalue = [0, 0, 0, 0, 1]\nclass = 20-30", fillcolor="#e539c0"] ;
706 -> 707 ;
708 [label="gini = 0.0\nsamples = 1\nvalue = [1, 0, 0, 0, 0]\nclass = 40-50", fillcolor="#e58139"] ;
706 -> 708 ;
709 [label="gini = 0.0\nsamples = 3\nvalue = [0, 3, 0, 0, 0]\nclass = 30-40", fillcolor="#7be539"] ;
705 -> 709 ;
710 [label="gini = 0.0\nsamples = 2\nvalue = [0, 0, 0, 0, 2]\nclass = 20-30", fillcolor="#e539c0"] ;
704 -> 710 ;
711 [label="HMLD <= 21.695\ngini = 0.553\nsamples = 155\nvalue = [96, 32, 2, 3, 22]\nclass = 40-50", fillcolor="#f1bd98"] ;
703 -> 711 ;
712 [label="HEB <= 54.25\ngini = 0.527\nsamples = 117\nvalue = [76, 19, 1, 3, 18]\nclass = 40-50", fillcolor="#f0b68c"] ;
711 -> 712 ;
713 [label="HMLD <= 21.01\ngini = 0.638\nsamples = 41\nvalue = [21, 8, 0, 2, 10]\nclass = 40-50", fillcolor="#f6d2b9"] ;
712 -> 713 ;
714 [label="HMLD <= 20.74\ngini = 0.697\nsamples = 29\nvalue = [11, 7, 0, 2, 9]\nclass = 40-50", fillcolor="#fcf2eb"] ;
713 -> 714 ;
715 [label="HEB <= 51.75\ngini = 0.665\nsamples = 23\nvalue = [10, 3, 0, 2, 8]\nclass = 40-50", fillcolor="#fceee5"] ;
714 -> 715 ;
716 [label="HHD <= 40.625\ngini = 0.278\nsamples = 6\nvalue = [5, 0, 0, 0, 1]\nclass = 40-50", fillcolor="#ea9a61"] ;
715 -> 716 ;
717 [label="gini = 0.0\nsamples = 5\nvalue = [5, 0, 0, 0, 0]\nclass = 40-50", fillcolor="#e58139"] ;
716 -> 717 ;
718 [label="gini = 0.0\nsamples = 1\nvalue = [0, 0, 0, 0, 1]\nclass = 20-30", fillcolor="#e539c0"] ;
716 -> 718 ;
719 [label="HHD <= 39.315\ngini = 0.699\nsamples = 17\nvalue = [5, 3, 0, 2, 7]\nclass = 20-30", fillcolor="#fbdef4"] ;
715 -> 719 ;
720 [label="HMLD <= 20.25\ngini = 0.494\nsamples = 9\nvalue = [2, 0, 0, 1, 6]\nclass = 20-30", fillcolor="#f08edb"] ;
719 -> 720 ;
721 [label="HMLD <= 20.215\ngini = 0.5\nsamples = 2\nvalue = [1, 0, 0, 1, 0]\nclass = 40-50", fillcolor="#ffffff"] ;
720 -> 721 ;
722 [label="gini = 0.0\nsamples = 1\nvalue = [1, 0, 0, 0, 0]\nclass = 40-50", fillcolor="#e58139"] ;
721 -> 722 ;
723 [label="gini = 0.0\nsamples = 1\nvalue = [0, 0, 0, 1, 0]\nclass = <20", fillcolor="#3c39e5"] ;
721 -> 723 ;
724 [label="HMLD <= 20.66\ngini = 0.245\nsamples = 7\nvalue = [1, 0, 0, 0, 6]\nclass = 20-30", fillcolor="#e95acb"] ;
720 -> 724 ;
725 [label="gini = 0.0\nsamples = 6\nvalue = [0, 0, 0, 0, 6]\nclass = 20-30", fillcolor="#e539c0"] ;
724 -> 725 ;
726 [label="gini = 0.0\nsamples = 1\nvalue = [1, 0, 0, 0, 0]\nclass = 40-50", fillcolor="#e58139"] ;
724 -> 726 ;
727 [label="HMLD <= 20.355\ngini = 0.688\nsamples = 8\nvalue = [3, 3, 0, 1, 1]\nclass = 40-50", fillcolor="#ffffff"] ;
719 -> 727 ;
728 [label="gini = 0.0\nsamples = 2\nvalue = [0, 2, 0, 0, 0]\nclass = 30-40", fillcolor="#7be539"] ;
727 -> 728 ;
729 [label="HHD <= 41.315\ngini = 0.667\nsamples = 6\nvalue = [3, 1, 0, 1, 1]\nclass = 40-50", fillcolor="#f5cdb0"] ;
727 -> 729 ;
730 [label="HEB <= 53.5\ngini = 0.56\nsamples = 5\nvalue = [3, 1, 0, 1, 0]\nclass = 40-50", fillcolor="#f2c09c"] ;
729 -> 730 ;
731 [label="HEB <= 52.75\ngini = 0.667\nsamples = 3\nvalue = [1, 1, 0, 1, 0]\nclass = 40-50", fillcolor="#ffffff"] ;
730 -> 731 ;
732 [label="gini = 0.0\nsamples = 1\nvalue = [1, 0, 0, 0, 0]\nclass = 40-50", fillcolor="#e58139"] ;
731 -> 732 ;
733 [label="HHD <= 39.825\ngini = 0.5\nsamples = 2\nvalue = [0, 1, 0, 1, 0]\nclass = 30-40", fillcolor="#ffffff"] ;
731 -> 733 ;
734 [label="gini = 0.0\nsamples = 1\nvalue = [0, 1, 0, 0, 0]\nclass = 30-40", fillcolor="#7be539"] ;
733 -> 734 ;
735 [label="gini = 0.0\nsamples = 1\nvalue = [0, 0, 0, 1, 0]\nclass = <20", fillcolor="#3c39e5"] ;
733 -> 735 ;
736 [label="gini = 0.0\nsamples = 2\nvalue = [2, 0, 0, 0, 0]\nclass = 40-50", fillcolor="#e58139"] ;
730 -> 736 ;
737 [label="gini = 0.0\nsamples = 1\nvalue = [0, 0, 0, 0, 1]\nclass = 20-30", fillcolor="#e539c0"] ;
729 -> 737 ;
738 [label="HHD <= 40.54\ngini = 0.5\nsamples = 6\nvalue = [1, 4, 0, 0, 1]\nclass = 30-40", fillcolor="#b0ef88"] ;
714 -> 738 ;
739 [label="gini = 0.0\nsamples = 4\nvalue = [0, 4, 0, 0, 0]\nclass = 30-40", fillcolor="#7be539"] ;
738 -> 739 ;
740 [label="HMLD <= 20.905\ngini = 0.5\nsamples = 2\nvalue = [1, 0, 0, 0, 1]\nclass = 40-50", fillcolor="#ffffff"] ;
738 -> 740 ;
741 [label="gini = 0.0\nsamples = 1\nvalue = [1, 0, 0, 0, 0]\nclass = 40-50", fillcolor="#e58139"] ;
740 -> 741 ;
742 [label="gini = 0.0\nsamples = 1\nvalue = [0, 0, 0, 0, 1]\nclass = 20-30", fillcolor="#e539c0"] ;
740 -> 742 ;
743 [label="HHD <= 41.605\ngini = 0.292\nsamples = 12\nvalue = [10, 1, 0, 0, 1]\nclass = 40-50", fillcolor="#ea985d"] ;
713 -> 743 ;
744 [label="HMLD <= 21.535\ngini = 0.165\nsamples = 11\nvalue = [10, 0, 0, 0, 1]\nclass = 40-50", fillcolor="#e88e4d"] ;
743 -> 744 ;
745 [label="gini = 0.0\nsamples = 7\nvalue = [7, 0, 0, 0, 0]\nclass = 40-50", fillcolor="#e58139"] ;
744 -> 745 ;
746 [label="HMLD <= 21.59\ngini = 0.375\nsamples = 4\nvalue = [3, 0, 0, 0, 1]\nclass = 40-50", fillcolor="#eeab7b"] ;
744 -> 746 ;
747 [label="gini = 0.0\nsamples = 1\nvalue = [0, 0, 0, 0, 1]\nclass = 20-30", fillcolor="#e539c0"] ;
746 -> 747 ;
748 [label="gini = 0.0\nsamples = 3\nvalue = [3, 0, 0, 0, 0]\nclass = 40-50", fillcolor="#e58139"] ;
746 -> 748 ;
749 [label="gini = 0.0\nsamples = 1\nvalue = [0, 1, 0, 0, 0]\nclass = 30-40", fillcolor="#7be539"] ;
743 -> 749 ;
750 [label="HMLD <= 21.385\ngini = 0.444\nsamples = 76\nvalue = [55, 11, 1, 1, 8]\nclass = 40-50", fillcolor="#edaa79"] ;
712 -> 750 ;
751 [label="HMLD <= 21.305\ngini = 0.405\nsamples = 64\nvalue = [48, 11, 1, 1, 3]\nclass = 40-50", fillcolor="#eda775"] ;
750 -> 751 ;
752 [label="HML <= 261.0\ngini = 0.366\nsamples = 60\nvalue = [47, 8, 1, 1, 3]\nclass = 40-50", fillcolor="#eca06a"] ;
751 -> 752 ;
753 [label="gini = 0.0\nsamples = 1\nvalue = [0, 0, 0, 1, 0]\nclass = <20", fillcolor="#3c39e5"] ;
752 -> 753 ;
754 [label="HMLD <= 20.205\ngini = 0.344\nsamples = 59\nvalue = [47, 8, 1, 0, 3]\nclass = 40-50", fillcolor="#eb9f68"] ;
752 -> 754 ;
755 [label="HHD <= 38.73\ngini = 0.5\nsamples = 4\nvalue = [2, 0, 0, 0, 2]\nclass = 40-50", fillcolor="#ffffff"] ;
754 -> 755 ;
756 [label="gini = 0.0\nsamples = 1\nvalue = [1, 0, 0, 0, 0]\nclass = 40-50", fillcolor="#e58139"] ;
755 -> 756 ;
757 [label="HHD <= 40.99\ngini = 0.444\nsamples = 3\nvalue = [1, 0, 0, 0, 2]\nclass = 20-30", fillcolor="#f29ce0"] ;
755 -> 757 ;
758 [label="gini = 0.0\nsamples = 2\nvalue = [0, 0, 0, 0, 2]\nclass = 20-30", fillcolor="#e539c0"] ;
757 -> 758 ;
759 [label="gini = 0.0\nsamples = 1\nvalue = [1, 0, 0, 0, 0]\nclass = 40-50", fillcolor="#e58139"] ;
757 -> 759 ;
760 [label="HHD <= 39.335\ngini = 0.309\nsamples = 55\nvalue = [45, 8, 1, 0, 1]\nclass = 40-50", fillcolor="#eb9c63"] ;
754 -> 760 ;
761 [label="gini = 0.0\nsamples = 10\nvalue = [10, 0, 0, 0, 0]\nclass = 40-50", fillcolor="#e58139"] ;
760 -> 761 ;
762 [label="HHD <= 39.72\ngini = 0.362\nsamples = 45\nvalue = [35, 8, 1, 0, 1]\nclass = 40-50", fillcolor="#eca36f"] ;
760 -> 762 ;
763 [label="HMLD <= 20.995\ngini = 0.444\nsamples = 3\nvalue = [1, 2, 0, 0, 0]\nclass = 30-40", fillcolor="#bdf29c"] ;
762 -> 763 ;
764 [label="gini = 0.0\nsamples = 2\nvalue = [0, 2, 0, 0, 0]\nclass = 30-40", fillcolor="#7be539"] ;
763 -> 764 ;
765 [label="gini = 0.0\nsamples = 1\nvalue = [1, 0, 0, 0, 0]\nclass = 40-50", fillcolor="#e58139"] ;
763 -> 765 ;
766 [label="HEB <= 55.75\ngini = 0.323\nsamples = 42\nvalue = [34, 6, 1, 0, 1]\nclass = 40-50", fillcolor="#eb9d65"] ;
762 -> 766 ;
767 [label="gini = 0.0\nsamples = 12\nvalue = [12, 0, 0, 0, 0]\nclass = 40-50", fillcolor="#e58139"] ;
766 -> 767 ;
768 [label="HMLD <= 20.825\ngini = 0.42\nsamples = 30\nvalue = [22, 6, 1, 0, 1]\nclass = 40-50", fillcolor="#eeab7b"] ;
766 -> 768 ;
769 [label="HHD <= 40.625\ngini = 0.29\nsamples = 18\nvalue = [15, 2, 1, 0, 0]\nclass = 40-50", fillcolor="#ea995e"] ;
768 -> 769 ;
770 [label="gini = 0.0\nsamples = 1\nvalue = [0, 0, 1, 0, 0]\nclass = 50+", fillcolor="#39e5c5"] ;
769 -> 770 ;
771 [label="HHD <= 42.38\ngini = 0.208\nsamples = 17\nvalue = [15, 2, 0, 0, 0]\nclass = 40-50", fillcolor="#e89253"] ;
769 -> 771 ;
772 [label="HMLD <= 20.575\ngini = 0.133\nsamples = 14\nvalue = [13, 1, 0, 0, 0]\nclass = 40-50", fillcolor="#e78b48"] ;
771 -> 772 ;
773 [label="gini = 0.0\nsamples = 10\nvalue = [10, 0, 0, 0, 0]\nclass = 40-50", fillcolor="#e58139"] ;
772 -> 773 ;
774 [label="HEB <= 58.25\ngini = 0.375\nsamples = 4\nvalue = [3, 1, 0, 0, 0]\nclass = 40-50", fillcolor="#eeab7b"] ;
772 -> 774 ;
775 [label="gini = 0.0\nsamples = 1\nvalue = [0, 1, 0, 0, 0]\nclass = 30-40", fillcolor="#7be539"] ;
774 -> 775 ;
776 [label="gini = 0.0\nsamples = 3\nvalue = [3, 0, 0, 0, 0]\nclass = 40-50", fillcolor="#e58139"] ;
774 -> 776 ;
777 [label="HHD <= 42.47\ngini = 0.444\nsamples = 3\nvalue = [2, 1, 0, 0, 0]\nclass = 40-50", fillcolor="#f2c09c"] ;
771 -> 777 ;
778 [label="gini = 0.0\nsamples = 1\nvalue = [0, 1, 0, 0, 0]\nclass = 30-40", fillcolor="#7be539"] ;
777 -> 778 ;
779 [label="gini = 0.0\nsamples = 2\nvalue = [2, 0, 0, 0, 0]\nclass = 40-50", fillcolor="#e58139"] ;
777 -> 779 ;
780 [label="HMLD <= 20.895\ngini = 0.542\nsamples = 12\nvalue = [7, 4, 0, 0, 1]\nclass = 40-50", fillcolor="#f5d0b5"] ;
768 -> 780 ;
781 [label="gini = 0.0\nsamples = 2\nvalue = [0, 2, 0, 0, 0]\nclass = 30-40", fillcolor="#7be539"] ;
780 -> 781 ;
782 [label="HEB <= 56.25\ngini = 0.46\nsamples = 10\nvalue = [7, 2, 0, 0, 1]\nclass = 40-50", fillcolor="#efb083"] ;
780 -> 782 ;
783 [label="HHD <= 40.085\ngini = 0.625\nsamples = 4\nvalue = [1, 2, 0, 0, 1]\nclass = 30-40", fillcolor="#d3f6bd"] ;
782 -> 783 ;
784 [label="gini = 0.0\nsamples = 1\nvalue = [1, 0, 0, 0, 0]\nclass = 40-50", fillcolor="#e58139"] ;
783 -> 784 ;
785 [label="HHD <= 42.225\ngini = 0.444\nsamples = 3\nvalue = [0, 2, 0, 0, 1]\nclass = 30-40", fillcolor="#bdf29c"] ;
783 -> 785 ;
786 [label="gini = 0.0\nsamples = 2\nvalue = [0, 2, 0, 0, 0]\nclass = 30-40", fillcolor="#7be539"] ;
785 -> 786 ;
787 [label="gini = 0.0\nsamples = 1\nvalue = [0, 0, 0, 0, 1]\nclass = 20-30", fillcolor="#e539c0"] ;
785 -> 787 ;
788 [label="gini = 0.0\nsamples = 6\nvalue = [6, 0, 0, 0, 0]\nclass = 40-50", fillcolor="#e58139"] ;
782 -> 788 ;
789 [label="HML <= 305.0\ngini = 0.375\nsamples = 4\nvalue = [1, 3, 0, 0, 0]\nclass = 30-40", fillcolor="#a7ee7b"] ;
751 -> 789 ;
790 [label="HML <= 290.5\ngini = 0.5\nsamples = 2\nvalue = [1, 1, 0, 0, 0]\nclass = 40-50", fillcolor="#ffffff"] ;
789 -> 790 ;
791 [label="gini = 0.0\nsamples = 1\nvalue = [0, 1, 0, 0, 0]\nclass = 30-40", fillcolor="#7be539"] ;
790 -> 791 ;
792 [label="gini = 0.0\nsamples = 1\nvalue = [1, 0, 0, 0, 0]\nclass = 40-50", fillcolor="#e58139"] ;
790 -> 792 ;
793 [label="gini = 0.0\nsamples = 2\nvalue = [0, 2, 0, 0, 0]\nclass = 30-40", fillcolor="#7be539"] ;
789 -> 793 ;
794 [label="HML <= 307.0\ngini = 0.486\nsamples = 12\nvalue = [7, 0, 0, 0, 5]\nclass = 40-50", fillcolor="#f8dbc6"] ;
750 -> 794 ;
795 [label="HHD <= 40.69\ngini = 0.219\nsamples = 8\nvalue = [7, 0, 0, 0, 1]\nclass = 40-50", fillcolor="#e99355"] ;
794 -> 795 ;
796 [label="HHD <= 40.505\ngini = 0.444\nsamples = 3\nvalue = [2, 0, 0, 0, 1]\nclass = 40-50", fillcolor="#f2c09c"] ;
795 -> 796 ;
797 [label="gini = 0.0\nsamples = 2\nvalue = [2, 0, 0, 0, 0]\nclass = 40-50", fillcolor="#e58139"] ;
796 -> 797 ;
798 [label="gini = 0.0\nsamples = 1\nvalue = [0, 0, 0, 0, 1]\nclass = 20-30", fillcolor="#e539c0"] ;
796 -> 798 ;
799 [label="gini = 0.0\nsamples = 5\nvalue = [5, 0, 0, 0, 0]\nclass = 40-50", fillcolor="#e58139"] ;
795 -> 799 ;
800 [label="gini = 0.0\nsamples = 4\nvalue = [0, 0, 0, 0, 4]\nclass = 20-30", fillcolor="#e539c0"] ;
794 -> 800 ;
801 [label="HMLD <= 21.855\ngini = 0.594\nsamples = 38\nvalue = [20, 13, 1, 0, 4]\nclass = 40-50", fillcolor="#f8dcc8"] ;
711 -> 801 ;
802 [label="gini = 0.0\nsamples = 3\nvalue = [0, 3, 0, 0, 0]\nclass = 30-40", fillcolor="#7be539"] ;
801 -> 802 ;
803 [label="HMLD <= 21.865\ngini = 0.578\nsamples = 35\nvalue = [20, 10, 1, 0, 4]\nclass = 40-50", fillcolor="#f5cdb0"] ;
801 -> 803 ;
804 [label="gini = 0.0\nsamples = 1\nvalue = [0, 0, 0, 0, 1]\nclass = 20-30", fillcolor="#e539c0"] ;
803 -> 804 ;
805 [label="HML <= 265.25\ngini = 0.559\nsamples = 34\nvalue = [20, 10, 1, 0, 3]\nclass = 40-50", fillcolor="#f4caac"] ;
803 -> 805 ;
806 [label="gini = 0.0\nsamples = 1\nvalue = [0, 1, 0, 0, 0]\nclass = 30-40", fillcolor="#7be539"] ;
805 -> 806 ;
807 [label="HEB <= 52.5\ngini = 0.549\nsamples = 33\nvalue = [20, 9, 1, 0, 3]\nclass = 40-50", fillcolor="#f3c5a4"] ;
805 -> 807 ;
808 [label="HHD <= 41.595\ngini = 0.48\nsamples = 5\nvalue = [2, 3, 0, 0, 0]\nclass = 30-40", fillcolor="#d3f6bd"] ;
807 -> 808 ;
809 [label="HML <= 298.5\ngini = 0.444\nsamples = 3\nvalue = [2, 1, 0, 0, 0]\nclass = 40-50", fillcolor="#f2c09c"] ;
808 -> 809 ;
810 [label="gini = 0.0\nsamples = 2\nvalue = [2, 0, 0, 0, 0]\nclass = 40-50", fillcolor="#e58139"] ;
809 -> 810 ;
811 [label="gini = 0.0\nsamples = 1\nvalue = [0, 1, 0, 0, 0]\nclass = 30-40", fillcolor="#7be539"] ;
809 -> 811 ;
812 [label="gini = 0.0\nsamples = 2\nvalue = [0, 2, 0, 0, 0]\nclass = 30-40", fillcolor="#7be539"] ;
808 -> 812 ;
813 [label="HHD <= 39.71\ngini = 0.528\nsamples = 28\nvalue = [18, 6, 1, 0, 3]\nclass = 40-50", fillcolor="#f1ba93"] ;
807 -> 813 ;
814 [label="HHD <= 38.98\ngini = 0.5\nsamples = 4\nvalue = [2, 0, 0, 0, 2]\nclass = 40-50", fillcolor="#ffffff"] ;
813 -> 814 ;
815 [label="gini = 0.0\nsamples = 2\nvalue = [2, 0, 0, 0, 0]\nclass = 40-50", fillcolor="#e58139"] ;
814 -> 815 ;
816 [label="gini = 0.0\nsamples = 2\nvalue = [0, 0, 0, 0, 2]\nclass = 20-30", fillcolor="#e539c0"] ;
814 -> 816 ;
