digraph Tree {
node [shape=box, style="filled", color="black", fontname="helvetica"] ;
edge [fontname="helvetica"] ;
0 [label="FHD <= 74.75\ngini = 0.5\nsamples = 240\nvalue = [118, 122]\nclass = female", fillcolor="#f9fcfe"] ;
1 [label="FML <= 426.75\ngini = 0.24\nsamples = 129\nvalue = [18, 111]\nclass = female", fillcolor="#59ade9"] ;
0 -> 1 [labeldistance=2.5, labelangle=45, headlabel="True"] ;
2 [label="FEB <= 44.96\ngini = 0.154\nsamples = 119\nvalue = [10, 109]\nclass = female", fillcolor="#4ba6e7"] ;
1 -> 2 ;
3 [label="FMLD <= 29.3\ngini = 0.127\nsamples = 117\nvalue = [8, 109]\nclass = female", fillcolor="#48a4e7"] ;
2 -> 3 ;
4 [label="FEB <= 41.645\ngini = 0.113\nsamples = 116\nvalue = [7, 109]\nclass = female", fillcolor="#46a3e7"] ;
3 -> 4 ;
5 [label="FMLD <= 21.67\ngini = 0.048\nsamples = 81\nvalue = [2, 79]\nclass = female", fillcolor="#3e9fe6"] ;
4 -> 5 ;
6 [label="FEB <= 37.735\ngini = 0.26\nsamples = 13\nvalue = [2, 11]\nclass = female", fillcolor="#5dafea"] ;
5 -> 6 ;
7 [label="gini = 0.0\nsamples = 10\nvalue = [0, 10]\nclass = female", fillcolor="#399de5"] ;
6 -> 7 ;
8 [label="FML <= 378.5\ngini = 0.444\nsamples = 3\nvalue = [2, 1]\nclass = male", fillcolor="#f2c09c"] ;
6 -> 8 ;
9 [label="gini = 0.0\nsamples = 1\nvalue = [0, 1]\nclass = female", fillcolor="#399de5"] ;
8 -> 9 ;
10 [label="gini = 0.0\nsamples = 2\nvalue = [2, 0]\nclass = male", fillcolor="#e58139"] ;
8 -> 10 ;
11 [label="gini = 0.0\nsamples = 68\nvalue = [0, 68]\nclass = female", fillcolor="#399de5"] ;
5 -> 11 ;
12 [label="FEB <= 42.02\ngini = 0.245\nsamples = 35\nvalue = [5, 30]\nclass = female", fillcolor="#5aade9"] ;
4 -> 12 ;
13 [label="FHD <= 71.25\ngini = 0.48\nsamples = 5\nvalue = [3, 2]\nclass = male", fillcolor="#f6d5bd"] ;
12 -> 13 ;
14 [label="gini = 0.0\nsamples = 2\nvalue = [0, 2]\nclass = female", fillcolor="#399de5"] ;
13 -> 14 ;
15 [label="gini = 0.0\nsamples = 3\nvalue = [3, 0]\nclass = male", fillcolor="#e58139"] ;
13 -> 15 ;
16 [label="FMLD <= 22.62\ngini = 0.124\nsamples = 30\nvalue = [2, 28]\nclass = female", fillcolor="#47a4e7"] ;
12 -> 16 ;
17 [label="FML <= 393.5\ngini = 0.5\nsamples = 2\nvalue = [1, 1]\nclass = male", fillcolor="#ffffff"] ;
16 -> 17 ;
18 [label="gini = 0.0\nsamples = 1\nvalue = [0, 1]\nclass = female", fillcolor="#399de5"] ;
17 -> 18 ;
19 [label="gini = 0.0\nsamples = 1\nvalue = [1, 0]\nclass = male", fillcolor="#e58139"] ;
17 -> 19 ;
20 [label="FMLD <= 23.4\ngini = 0.069\nsamples = 28\nvalue = [1, 27]\nclass = female", fillcolor="#40a1e6"] ;
16 -> 20 ;
21 [label="FMLD <= 23.17\ngini = 0.278\nsamples = 6\nvalue = [1, 5]\nclass = female", fillcolor="#61b1ea"] ;
20 -> 21 ;
22 [label="gini = 0.0\nsamples = 5\nvalue = [0, 5]\nclass = female", fillcolor="#399de5"] ;
21 -> 22 ;
23 [label="gini = 0.0\nsamples = 1\nvalue = [1, 0]\nclass = male", fillcolor="#e58139"] ;
21 -> 23 ;
24 [label="gini = 0.0\nsamples = 22\nvalue = [0, 22]\nclass = female", fillcolor="#399de5"] ;
20 -> 24 ;
25 [label="gini = 0.0\nsamples = 1\nvalue = [1, 0]\nclass = male", fillcolor="#e58139"] ;
3 -> 25 ;
26 [label="gini = 0.0\nsamples = 2\nvalue = [2, 0]\nclass = male", fillcolor="#e58139"] ;
2 -> 26 ;
27 [label="FHD <= 71.5\ngini = 0.32\nsamples = 10\nvalue = [8, 2]\nclass = male", fillcolor="#eca06a"] ;
1 -> 27 ;
28 [label="FEB <= 40.435\ngini = 0.444\nsamples = 3\nvalue = [1, 2]\nclass = female", fillcolor="#9ccef2"] ;
27 -> 28 ;
29 [label="gini = 0.0\nsamples = 1\nvalue = [1, 0]\nclass = male", fillcolor="#e58139"] ;
28 -> 29 ;
30 [label="gini = 0.0\nsamples = 2\nvalue = [0, 2]\nclass = female", fillcolor="#399de5"] ;
28 -> 30 ;
31 [label="gini = 0.0\nsamples = 7\nvalue = [7, 0]\nclass = male", fillcolor="#e58139"] ;
27 -> 31 ;
32 [label="FHD <= 77.25\ngini = 0.179\nsamples = 111\nvalue = [100, 11]\nclass = male", fillcolor="#e88f4f"] ;
0 -> 32 [labeldistance=2.5, labelangle=-45, headlabel="False"] ;
33 [label="FEB <= 45.16\ngini = 0.471\nsamples = 29\nvalue = [18, 11]\nclass = male", fillcolor="#f5ceb2"] ;
32 -> 33 ;
34 [label="FEB <= 42.42\ngini = 0.499\nsamples = 23\nvalue = [12, 11]\nclass = male", fillcolor="#fdf5ef"] ;
33 -> 34 ;
35 [label="FEB <= 39.845\ngini = 0.219\nsamples = 8\nvalue = [7, 1]\nclass = male", fillcolor="#e99355"] ;
34 -> 35 ;
36 [label="gini = 0.0\nsamples = 1\nvalue = [0, 1]\nclass = female", fillcolor="#399de5"] ;
35 -> 36 ;
37 [label="gini = 0.0\nsamples = 7\nvalue = [7, 0]\nclass = male", fillcolor="#e58139"] ;
35 -> 37 ;
38 [label="FMLD <= 26.865\ngini = 0.444\nsamples = 15\nvalue = [5, 10]\nclass = female", fillcolor="#9ccef2"] ;
34 -> 38 ;
39 [label="FML <= 395.75\ngini = 0.278\nsamples = 12\nvalue = [2, 10]\nclass = female", fillcolor="#61b1ea"] ;
38 -> 39 ;
40 [label="FMLD <= 25.14\ngini = 0.444\nsamples = 3\nvalue = [2, 1]\nclass = male", fillcolor="#f2c09c"] ;
39 -> 40 ;
41 [label="gini = 0.0\nsamples = 2\nvalue = [2, 0]\nclass = male", fillcolor="#e58139"] ;
40 -> 41 ;
42 [label="gini = 0.0\nsamples = 1\nvalue = [0, 1]\nclass = female", fillcolor="#399de5"] ;
40 -> 42 ;
43 [label="gini = 0.0\nsamples = 9\nvalue = [0, 9]\nclass = female", fillcolor="#399de5"] ;
39 -> 43 ;
44 [label="gini = 0.0\nsamples = 3\nvalue = [3, 0]\nclass = male", fillcolor="#e58139"] ;
38 -> 44 ;
45 [label="gini = 0.0\nsamples = 6\nvalue = [6, 0]\nclass = male", fillcolor="#e58139"] ;
33 -> 45 ;
46 [label="gini = 0.0\nsamples = 82\nvalue = [82, 0]\nclass = male", fillcolor="#e58139"] ;
32 -> 46 ;
}