digraph Tree {
node [shape=box, style="filled", color="black", fontname="helvetica"] ;
edge [fontname="helvetica"] ;
0 [label="HML <= 298.5\ngini = 0.799\nsamples = 257\nvalue = [56, 51, 52, 48, 50]\nclass = 30-40", fillcolor="#fefdfb"] ;
1 [label="HMLD <= 18.9\ngini = 0.774\nsamples = 149\nvalue = [31, 40, 23, 13, 42]\nclass = 40-50", fillcolor="#fffbfe"] ;
0 -> 1 [labeldistance=2.5, labelangle=45, headlabel="True"] ;
2 [label="HHD <= 37.465\ngini = 0.76\nsamples = 77\nvalue = [12, 29, 13, 10, 13]\nclass = -20", fillcolor="#def8ce"] ;
1 -> 2 ;
3 [label="HEB <= 48.75\ngini = 0.709\nsamples = 28\nvalue = [4, 9, 11, 1, 3]\nclass = 20-30", fillcolor="#eafcf9"] ;
2 -> 3 ;
4 [label="HEB <= 45.5\ngini = 0.617\nsamples = 9\nvalue = [1, 5, 0, 1, 2]\nclass = -20", fillcolor="#c6f4aa"] ;
3 -> 4 ;
5 [label="gini = 0.0\nsamples = 2\nvalue = [0, 0, 0, 0, 2]\nclass = 40-50", fillcolor="#e539c0"] ;
4 -> 5 ;
6 [label="HHD <= 36.86\ngini = 0.449\nsamples = 7\nvalue = [1, 5, 0, 1, 0]\nclass = -20", fillcolor="#a7ee7b"] ;
4 -> 6 ;
7 [label="HML <= 285.75\ngini = 0.278\nsamples = 6\nvalue = [0, 5, 0, 1, 0]\nclass = -20", fillcolor="#95ea61"] ;
6 -> 7 ;
8 [label="gini = 0.0\nsamples = 5\nvalue = [0, 5, 0, 0, 0]\nclass = -20", fillcolor="#7be539"] ;
7 -> 8 ;
9 [label="gini = 0.0\nsamples = 1\nvalue = [0, 0, 0, 1, 0]\nclass = 50+", fillcolor="#3c39e5"] ;
7 -> 9 ;
10 [label="gini = 0.0\nsamples = 1\nvalue = [1, 0, 0, 0, 0]\nclass = 30-40", fillcolor="#e58139"] ;
6 -> 10 ;
11 [label="HEB <= 53.5\ngini = 0.593\nsamples = 19\nvalue = [3, 4, 11, 0, 1]\nclass = 20-30", fillcolor="#a3f3e4"] ;
3 -> 11 ;
12 [label="HEB <= 50.25\ngini = 0.492\nsamples = 16\nvalue = [2, 2, 11, 0, 1]\nclass = 20-30", fillcolor="#80eeda"] ;
11 -> 12 ;
13 [label="HHD <= 36.91\ngini = 0.628\nsamples = 11\nvalue = [2, 2, 6, 0, 1]\nclass = 20-30", fillcolor="#a7f3e5"] ;
12 -> 13 ;
14 [label="HHD <= 35.55\ngini = 0.531\nsamples = 8\nvalue = [2, 0, 5, 0, 1]\nclass = 20-30", fillcolor="#9cf2e2"] ;
13 -> 14 ;
15 [label="gini = 0.0\nsamples = 1\nvalue = [0, 0, 0, 0, 1]\nclass = 40-50", fillcolor="#e539c0"] ;
14 -> 15 ;
16 [label="HML <= 281.5\ngini = 0.408\nsamples = 7\nvalue = [2, 0, 5, 0, 0]\nclass = 20-30", fillcolor="#88efdc"] ;
14 -> 16 ;
17 [label="HHD <= 35.99\ngini = 0.278\nsamples = 6\nvalue = [1, 0, 5, 0, 0]\nclass = 20-30", fillcolor="#61ead1"] ;
16 -> 17 ;
18 [label="HML <= 257.25\ngini = 0.5\nsamples = 2\nvalue = [1, 0, 1, 0, 0]\nclass = 30-40", fillcolor="#ffffff"] ;
17 -> 18 ;
19 [label="gini = 0.0\nsamples = 1\nvalue = [0, 0, 1, 0, 0]\nclass = 20-30", fillcolor="#39e5c5"] ;
18 -> 19 ;
20 [label="gini = 0.0\nsamples = 1\nvalue = [1, 0, 0, 0, 0]\nclass = 30-40", fillcolor="#e58139"] ;
18 -> 20 ;
21 [label="gini = 0.0\nsamples = 4\nvalue = [0, 0, 4, 0, 0]\nclass = 20-30", fillcolor="#39e5c5"] ;
17 -> 21 ;
22 [label="gini = 0.0\nsamples = 1\nvalue = [1, 0, 0, 0, 0]\nclass = 30-40", fillcolor="#e58139"] ;
16 -> 22 ;
23 [label="HMLD <= 17.87\ngini = 0.444\nsamples = 3\nvalue = [0, 2, 1, 0, 0]\nclass = -20", fillcolor="#bdf29c"] ;
13 -> 23 ;
24 [label="gini = 0.0\nsamples = 2\nvalue = [0, 2, 0, 0, 0]\nclass = -20", fillcolor="#7be539"] ;
23 -> 24 ;
25 [label="gini = 0.0\nsamples = 1\nvalue = [0, 0, 1, 0, 0]\nclass = 20-30", fillcolor="#39e5c5"] ;
23 -> 25 ;
26 [label="gini = 0.0\nsamples = 5\nvalue = [0, 0, 5, 0, 0]\nclass = 20-30", fillcolor="#39e5c5"] ;
12 -> 26 ;
27 [label="HHD <= 36.965\ngini = 0.444\nsamples = 3\nvalue = [1, 2, 0, 0, 0]\nclass = -20", fillcolor="#bdf29c"] ;
11 -> 27 ;
28 [label="gini = 0.0\nsamples = 2\nvalue = [0, 2, 0, 0, 0]\nclass = -20", fillcolor="#7be539"] ;
27 -> 28 ;
29 [label="gini = 0.0\nsamples = 1\nvalue = [1, 0, 0, 0, 0]\nclass = 30-40", fillcolor="#e58139"] ;
27 -> 29 ;
30 [label="HMLD <= 18.565\ngini = 0.73\nsamples = 49\nvalue = [8, 20, 2, 9, 10]\nclass = -20", fillcolor="#ddf8cc"] ;
2 -> 30 ;
31 [label="HML <= 272.5\ngini = 0.763\nsamples = 41\nvalue = [8, 13, 2, 9, 9]\nclass = -20", fillcolor="#eefce6"] ;
30 -> 31 ;
32 [label="HMLD <= 18.4\ngini = 0.375\nsamples = 8\nvalue = [2, 6, 0, 0, 0]\nclass = -20", fillcolor="#a7ee7b"] ;
31 -> 32 ;
33 [label="HML <= 269.5\ngini = 0.245\nsamples = 7\nvalue = [1, 6, 0, 0, 0]\nclass = -20", fillcolor="#91e95a"] ;
32 -> 33 ;
34 [label="HEB <= 51.0\ngini = 0.5\nsamples = 2\nvalue = [1, 1, 0, 0, 0]\nclass = 30-40", fillcolor="#ffffff"] ;
33 -> 34 ;
35 [label="gini = 0.0\nsamples = 1\nvalue = [0, 1, 0, 0, 0]\nclass = -20", fillcolor="#7be539"] ;
34 -> 35 ;
36 [label="gini = 0.0\nsamples = 1\nvalue = [1, 0, 0, 0, 0]\nclass = 30-40", fillcolor="#e58139"] ;
34 -> 36 ;
37 [label="gini = 0.0\nsamples = 5\nvalue = [0, 5, 0, 0, 0]\nclass = -20", fillcolor="#7be539"] ;
33 -> 37 ;
38 [label="gini = 0.0\nsamples = 1\nvalue = [1, 0, 0, 0, 0]\nclass = 30-40", fillcolor="#e58139"] ;
32 -> 38 ;
39 [label="HMLD <= 17.385\ngini = 0.77\nsamples = 33\nvalue = [6, 7, 2, 9, 9]\nclass = 50+", fillcolor="#ffffff"] ;
31 -> 39 ;
40 [label="HHD <= 40.05\ngini = 0.698\nsamples = 19\nvalue = [1, 7, 1, 7, 3]\nclass = -20", fillcolor="#ffffff"] ;
39 -> 40 ;
41 [label="HML <= 280.25\ngini = 0.5\nsamples = 6\nvalue = [0, 0, 0, 3, 3]\nclass = 50+", fillcolor="#ffffff"] ;
40 -> 41 ;
42 [label="gini = 0.0\nsamples = 2\nvalue = [0, 0, 0, 2, 0]\nclass = 50+", fillcolor="#3c39e5"] ;
41 -> 42 ;
43 [label="HMLD <= 15.875\ngini = 0.375\nsamples = 4\nvalue = [0, 0, 0, 1, 3]\nclass = 40-50", fillcolor="#ee7bd5"] ;
41 -> 43 ;
44 [label="gini = 0.0\nsamples = 1\nvalue = [0, 0, 0, 1, 0]\nclass = 50+", fillcolor="#3c39e5"] ;
43 -> 44 ;
45 [label="gini = 0.0\nsamples = 3\nvalue = [0, 0, 0, 0, 3]\nclass = 40-50", fillcolor="#e539c0"] ;
43 -> 45 ;
46 [label="HHD <= 40.58\ngini = 0.604\nsamples = 13\nvalue = [1, 7, 1, 4, 0]\nclass = -20", fillcolor="#d3f6bd"] ;
40 -> 46 ;
47 [label="HEB <= 52.75\ngini = 0.611\nsamples = 6\nvalue = [1, 2, 0, 3, 0]\nclass = 50+", fillcolor="#cecef8"] ;
46 -> 47 ;
48 [label="HMLD <= 16.64\ngini = 0.625\nsamples = 4\nvalue = [1, 2, 0, 1, 0]\nclass = -20", fillcolor="#d3f6bd"] ;
47 -> 48 ;
49 [label="gini = 0.0\nsamples = 2\nvalue = [0, 2, 0, 0, 0]\nclass = -20", fillcolor="#7be539"] ;
48 -> 49 ;
50 [label="HMLD <= 16.81\ngini = 0.5\nsamples = 2\nvalue = [1, 0, 0, 1, 0]\nclass = 30-40", fillcolor="#ffffff"] ;
48 -> 50 ;
51 [label="gini = 0.0\nsamples = 1\nvalue = [1, 0, 0, 0, 0]\nclass = 30-40", fillcolor="#e58139"] ;
50 -> 51 ;
52 [label="gini = 0.0\nsamples = 1\nvalue = [0, 0, 0, 1, 0]\nclass = 50+", fillcolor="#3c39e5"] ;
50 -> 52 ;
53 [label="gini = 0.0\nsamples = 2\nvalue = [0, 0, 0, 2, 0]\nclass = 50+", fillcolor="#3c39e5"] ;
47 -> 53 ;
54 [label="HHD <= 42.17\ngini = 0.449\nsamples = 7\nvalue = [0, 5, 1, 1, 0]\nclass = -20", fillcolor="#a7ee7b"] ;
46 -> 54 ;
55 [label="gini = 0.0\nsamples = 4\nvalue = [0, 4, 0, 0, 0]\nclass = -20", fillcolor="#7be539"] ;
54 -> 55 ;
56 [label="HML <= 280.0\ngini = 0.667\nsamples = 3\nvalue = [0, 1, 1, 1, 0]\nclass = -20", fillcolor="#ffffff"] ;
54 -> 56 ;
57 [label="gini = 0.0\nsamples = 1\nvalue = [0, 1, 0, 0, 0]\nclass = -20", fillcolor="#7be539"] ;
56 -> 57 ;
58 [label="HHD <= 42.7\ngini = 0.5\nsamples = 2\nvalue = [0, 0, 1, 1, 0]\nclass = 20-30", fillcolor="#ffffff"] ;
56 -> 58 ;
59 [label="gini = 0.0\nsamples = 1\nvalue = [0, 0, 0, 1, 0]\nclass = 50+", fillcolor="#3c39e5"] ;
58 -> 59 ;
60 [label="gini = 0.0\nsamples = 1\nvalue = [0, 0, 1, 0, 0]\nclass = 20-30", fillcolor="#39e5c5"] ;
58 -> 60 ;
61 [label="HMLD <= 17.655\ngini = 0.663\nsamples = 14\nvalue = [5, 0, 1, 2, 6]\nclass = 40-50", fillcolor="#fce9f8"] ;
39 -> 61 ;
62 [label="gini = 0.0\nsamples = 3\nvalue = [3, 0, 0, 0, 0]\nclass = 30-40", fillcolor="#e58139"] ;
61 -> 62 ;
63 [label="HML <= 294.5\ngini = 0.628\nsamples = 11\nvalue = [2, 0, 1, 2, 6]\nclass = 40-50", fillcolor="#f3a7e3"] ;
61 -> 63 ;
64 [label="HEB <= 52.25\ngini = 0.519\nsamples = 9\nvalue = [1, 0, 1, 1, 6]\nclass = 40-50", fillcolor="#ef83d8"] ;
63 -> 64 ;
65 [label="gini = 0.0\nsamples = 1\nvalue = [0, 0, 0, 1, 0]\nclass = 50+", fillcolor="#3c39e5"] ;
64 -> 65 ;
66 [label="HML <= 281.25\ngini = 0.406\nsamples = 8\nvalue = [1, 0, 1, 0, 6]\nclass = 40-50", fillcolor="#ec72d2"] ;
64 -> 66 ;
67 [label="HEB <= 53.25\ngini = 0.5\nsamples = 2\nvalue = [1, 0, 0, 0, 1]\nclass = 30-40", fillcolor="#ffffff"] ;
66 -> 67 ;
68 [label="gini = 0.0\nsamples = 1\nvalue = [0, 0, 0, 0, 1]\nclass = 40-50", fillcolor="#e539c0"] ;
67 -> 68 ;
69 [label="gini = 0.0\nsamples = 1\nvalue = [1, 0, 0, 0, 0]\nclass = 30-40", fillcolor="#e58139"] ;
67 -> 69 ;
70 [label="HHD <= 41.125\ngini = 0.278\nsamples = 6\nvalue = [0, 0, 1, 0, 5]\nclass = 40-50", fillcolor="#ea61cd"] ;
66 -> 70 ;
71 [label="HML <= 290.75\ngini = 0.444\nsamples = 3\nvalue = [0, 0, 1, 0, 2]\nclass = 40-50", fillcolor="#f29ce0"] ;
70 -> 71 ;
72 [label="gini = 0.0\nsamples = 1\nvalue = [0, 0, 1, 0, 0]\nclass = 20-30", fillcolor="#39e5c5"] ;
71 -> 72 ;
73 [label="gini = 0.0\nsamples = 2\nvalue = [0, 0, 0, 0, 2]\nclass = 40-50", fillcolor="#e539c0"] ;
71 -> 73 ;
74 [label="gini = 0.0\nsamples = 3\nvalue = [0, 0, 0, 0, 3]\nclass = 40-50", fillcolor="#e539c0"] ;
70 -> 74 ;
75 [label="HMLD <= 18.18\ngini = 0.5\nsamples = 2\nvalue = [1, 0, 0, 1, 0]\nclass = 30-40", fillcolor="#ffffff"] ;
63 -> 75 ;
76 [label="gini = 0.0\nsamples = 1\nvalue = [0, 0, 0, 1, 0]\nclass = 50+", fillcolor="#3c39e5"] ;
75 -> 76 ;
77 [label="gini = 0.0\nsamples = 1\nvalue = [1, 0, 0, 0, 0]\nclass = 30-40", fillcolor="#e58139"] ;
75 -> 77 ;
78 [label="HHD <= 38.025\ngini = 0.219\nsamples = 8\nvalue = [0, 7, 0, 0, 1]\nclass = -20", fillcolor="#8ee955"] ;
30 -> 78 ;
79 [label="gini = 0.0\nsamples = 1\nvalue = [0, 0, 0, 0, 1]\nclass = 40-50", fillcolor="#e539c0"] ;
78 -> 79 ;
80 [label="gini = 0.0\nsamples = 7\nvalue = [0, 7, 0, 0, 0]\nclass = -20", fillcolor="#7be539"] ;
78 -> 80 ;
81 [label="HHD <= 45.43\ngini = 0.724\nsamples = 72\nvalue = [19, 11, 10, 3, 29]\nclass = 40-50", fillcolor="#fadaf3"] ;
1 -> 81 ;
82 [label="HML <= 289.5\ngini = 0.707\nsamples = 68\nvalue = [19, 8, 9, 3, 29]\nclass = 40-50", fillcolor="#fad7f2"] ;
81 -> 82 ;
83 [label="HHD <= 41.475\ngini = 0.638\nsamples = 43\nvalue = [9, 3, 7, 1, 23]\nclass = 40-50", fillcolor="#f4ade5"] ;
82 -> 83 ;
84 [label="HMLD <= 20.18\ngini = 0.718\nsamples = 31\nvalue = [9, 3, 6, 1, 12]\nclass = 40-50", fillcolor="#fbe4f6"] ;
83 -> 84 ;
85 [label="HMLD <= 19.415\ngini = 0.623\nsamples = 18\nvalue = [9, 2, 1, 0, 6]\nclass = 30-40", fillcolor="#f8e0ce"] ;
84 -> 85 ;
86 [label="HEB <= 54.75\ngini = 0.54\nsamples = 10\nvalue = [3, 0, 1, 0, 6]\nclass = 40-50", fillcolor="#f4aae4"] ;
85 -> 86 ;
87 [label="HML <= 284.25\ngini = 0.494\nsamples = 9\nvalue = [2, 0, 1, 0, 6]\nclass = 40-50", fillcolor="#f08edb"] ;
86 -> 87 ;
88 [label="HML <= 279.25\ngini = 0.32\nsamples = 5\nvalue = [0, 0, 1, 0, 4]\nclass = 40-50", fillcolor="#ec6ad0"] ;
87 -> 88 ;
89 [label="HML <= 276.0\ngini = 0.5\nsamples = 2\nvalue = [0, 0, 1, 0, 1]\nclass = 20-30", fillcolor="#ffffff"] ;
88 -> 89 ;
90 [label="gini = 0.0\nsamples = 1\nvalue = [0, 0, 0, 0, 1]\nclass = 40-50", fillcolor="#e539c0"] ;
89 -> 90 ;
91 [label="gini = 0.0\nsamples = 1\nvalue = [0, 0, 1, 0, 0]\nclass = 20-30", fillcolor="#39e5c5"] ;
89 -> 91 ;
92 [label="gini = 0.0\nsamples = 3\nvalue = [0, 0, 0, 0, 3]\nclass = 40-50", fillcolor="#e539c0"] ;
88 -> 92 ;
93 [label="HML <= 285.75\ngini = 0.5\nsamples = 4\nvalue = [2, 0, 0, 0, 2]\nclass = 30-40", fillcolor="#ffffff"] ;
87 -> 93 ;
94 [label="gini = 0.0\nsamples = 2\nvalue = [2, 0, 0, 0, 0]\nclass = 30-40", fillcolor="#e58139"] ;
93 -> 94 ;
95 [label="gini = 0.0\nsamples = 2\nvalue = [0, 0, 0, 0, 2]\nclass = 40-50", fillcolor="#e539c0"] ;
93 -> 95 ;
96 [label="gini = 0.0\nsamples = 1\nvalue = [1, 0, 0, 0, 0]\nclass = 30-40", fillcolor="#e58139"] ;
86 -> 96 ;
97 [label="HML <= 267.5\ngini = 0.375\nsamples = 8\nvalue = [6, 2, 0, 0, 0]\nclass = 30-40", fillcolor="#eeab7b"] ;
85 -> 97 ;
98 [label="gini = 0.0\nsamples = 1\nvalue = [0, 1, 0, 0, 0]\nclass = -20", fillcolor="#7be539"] ;
97 -> 98 ;
99 [label="HMLD <= 19.46\ngini = 0.245\nsamples = 7\nvalue = [6, 1, 0, 0, 0]\nclass = 30-40", fillcolor="#e9965a"] ;
97 -> 99 ;
100 [label="gini = 0.0\nsamples = 1\nvalue = [0, 1, 0, 0, 0]\nclass = -20", fillcolor="#7be539"] ;
99 -> 100 ;
101 [label="gini = 0.0\nsamples = 6\nvalue = [6, 0, 0, 0, 0]\nclass = 30-40", fillcolor="#e58139"] ;
99 -> 101 ;
102 [label="HEB <= 52.25\ngini = 0.627\nsamples = 13\nvalue = [0, 1, 5, 1, 6]\nclass = 40-50", fillcolor="#fce6f7"] ;
84 -> 102 ;
103 [label="gini = 0.0\nsamples = 3\nvalue = [0, 0, 0, 0, 3]\nclass = 40-50", fillcolor="#e539c0"] ;
102 -> 103 ;
104 [label="HML <= 260.0\ngini = 0.64\nsamples = 10\nvalue = [0, 1, 5, 1, 3]\nclass = 20-30", fillcolor="#c6f8ee"] ;
102 -> 104 ;
105 [label="gini = 0.0\nsamples = 1\nvalue = [0, 1, 0, 0, 0]\nclass = -20", fillcolor="#7be539"] ;
104 -> 105 ;
106 [label="HMLD <= 22.41\ngini = 0.568\nsamples = 9\nvalue = [0, 0, 5, 1, 3]\nclass = 20-30", fillcolor="#bdf6ec"] ;
104 -> 106 ;
107 [label="HHD <= 38.79\ngini = 0.531\nsamples = 8\nvalue = [0, 0, 5, 1, 2]\nclass = 20-30", fillcolor="#9cf2e2"] ;
106 -> 107 ;
108 [label="HEB <= 53.25\ngini = 0.444\nsamples = 3\nvalue = [0, 0, 1, 0, 2]\nclass = 40-50", fillcolor="#f29ce0"] ;
107 -> 108 ;
109 [label="gini = 0.0\nsamples = 1\nvalue = [0, 0, 1, 0, 0]\nclass = 20-30", fillcolor="#39e5c5"] ;
108 -> 109 ;
110 [label="gini = 0.0\nsamples = 2\nvalue = [0, 0, 0, 0, 2]\nclass = 40-50", fillcolor="#e539c0"] ;
108 -> 110 ;
111 [label="HML <= 271.25\ngini = 0.32\nsamples = 5\nvalue = [0, 0, 4, 1, 0]\nclass = 20-30", fillcolor="#6aecd4"] ;
107 -> 111 ;
112 [label="gini = 0.0\nsamples = 1\nvalue = [0, 0, 0, 1, 0]\nclass = 50+", fillcolor="#3c39e5"] ;
111 -> 112 ;
113 [label="gini = 0.0\nsamples = 4\nvalue = [0, 0, 4, 0, 0]\nclass = 20-30", fillcolor="#39e5c5"] ;
111 -> 113 ;
114 [label="gini = 0.0\nsamples = 1\nvalue = [0, 0, 0, 0, 1]\nclass = 40-50", fillcolor="#e539c0"] ;
106 -> 114 ;
115 [label="HEB <= 57.5\ngini = 0.153\nsamples = 12\nvalue = [0, 0, 1, 0, 11]\nclass = 40-50", fillcolor="#e74bc6"] ;
83 -> 115 ;
116 [label="gini = 0.0\nsamples = 10\nvalue = [0, 0, 0, 0, 10]\nclass = 40-50", fillcolor="#e539c0"] ;
115 -> 116 ;
117 [label="HHD <= 42.93\ngini = 0.5\nsamples = 2\nvalue = [0, 0, 1, 0, 1]\nclass = 20-30", fillcolor="#ffffff"] ;
115 -> 117 ;
118 [label="gini = 0.0\nsamples = 1\nvalue = [0, 0, 1, 0, 0]\nclass = 20-30", fillcolor="#39e5c5"] ;
117 -> 118 ;
119 [label="gini = 0.0\nsamples = 1\nvalue = [0, 0, 0, 0, 1]\nclass = 40-50", fillcolor="#e539c0"] ;
117 -> 119 ;
120 [label="HHD <= 44.03\ngini = 0.73\nsamples = 25\nvalue = [10, 5, 2, 2, 6]\nclass = 30-40", fillcolor="#fae4d5"] ;
82 -> 120 ;
121 [label="HMLD <= 21.925\ngini = 0.707\nsamples = 22\nvalue = [10, 5, 2, 2, 3]\nclass = 30-40", fillcolor="#f7dac5"] ;
120 -> 121 ;
122 [label="HHD <= 43.22\ngini = 0.768\nsamples = 17\nvalue = [5, 5, 2, 2, 3]\nclass = 30-40", fillcolor="#ffffff"] ;
121 -> 122 ;
123 [label="HEB <= 52.0\ngini = 0.72\nsamples = 15\nvalue = [5, 5, 2, 0, 3]\nclass = 30-40", fillcolor="#ffffff"] ;
122 -> 123 ;
124 [label="gini = 0.0\nsamples = 2\nvalue = [2, 0, 0, 0, 0]\nclass = 30-40", fillcolor="#e58139"] ;
123 -> 124 ;
125 [label="HMLD <= 19.395\ngini = 0.722\nsamples = 13\nvalue = [3, 5, 2, 0, 3]\nclass = -20", fillcolor="#e5fad7"] ;
123 -> 125 ;
126 [label="HEB <= 57.0\ngini = 0.625\nsamples = 4\nvalue = [1, 0, 1, 0, 2]\nclass = 40-50", fillcolor="#f6bdea"] ;
125 -> 126 ;
127 [label="gini = 0.0\nsamples = 2\nvalue = [0, 0, 0, 0, 2]\nclass = 40-50", fillcolor="#e539c0"] ;
126 -> 127 ;
128 [label="HEB <= 58.75\ngini = 0.5\nsamples = 2\nvalue = [1, 0, 1, 0, 0]\nclass = 30-40", fillcolor="#ffffff"] ;
126 -> 128 ;
129 [label="gini = 0.0\nsamples = 1\nvalue = [0, 0, 1, 0, 0]\nclass = 20-30", fillcolor="#39e5c5"] ;
128 -> 129 ;
130 [label="gini = 0.0\nsamples = 1\nvalue = [1, 0, 0, 0, 0]\nclass = 30-40", fillcolor="#e58139"] ;
128 -> 130 ;
131 [label="HML <= 295.5\ngini = 0.617\nsamples = 9\nvalue = [2, 5, 1, 0, 1]\nclass = -20", fillcolor="#c6f4aa"] ;
125 -> 131 ;
132 [label="HMLD <= 19.63\ngini = 0.5\nsamples = 4\nvalue = [2, 2, 0, 0, 0]\nclass = 30-40", fillcolor="#ffffff"] ;
131 -> 132 ;
133 [label="gini = 0.0\nsamples = 2\nvalue = [0, 2, 0, 0, 0]\nclass = -20", fillcolor="#7be539"] ;
132 -> 133 ;
134 [label="gini = 0.0\nsamples = 2\nvalue = [2, 0, 0, 0, 0]\nclass = 30-40", fillcolor="#e58139"] ;
132 -> 134 ;
135 [label="HMLD <= 20.08\ngini = 0.56\nsamples = 5\nvalue = [0, 3, 1, 0, 1]\nclass = -20", fillcolor="#bdf29c"] ;
131 -> 135 ;
136 [label="HML <= 297.0\ngini = 0.5\nsamples = 2\nvalue = [0, 0, 1, 0, 1]\nclass = 20-30", fillcolor="#ffffff"] ;
135 -> 136 ;
137 [label="gini = 0.0\nsamples = 1\nvalue = [0, 0, 1, 0, 0]\nclass = 20-30", fillcolor="#39e5c5"] ;
136 -> 137 ;
138 [label="gini = 0.0\nsamples = 1\nvalue = [0, 0, 0, 0, 1]\nclass = 40-50", fillcolor="#e539c0"] ;
136 -> 138 ;
139 [label="gini = 0.0\nsamples = 3\nvalue = [0, 3, 0, 0, 0]\nclass = -20", fillcolor="#7be539"] ;
135 -> 139 ;
140 [label="gini = 0.0\nsamples = 2\nvalue = [0, 0, 0, 2, 0]\nclass = 50+", fillcolor="#3c39e5"] ;
122 -> 140 ;
141 [label="gini = 0.0\nsamples = 5\nvalue = [5, 0, 0, 0, 0]\nclass = 30-40", fillcolor="#e58139"] ;
121 -> 141 ;
142 [label="gini = 0.0\nsamples = 3\nvalue = [0, 0, 0, 0, 3]\nclass = 40-50", fillcolor="#e539c0"] ;
120 -> 142 ;
143 [label="HEB <= 60.5\ngini = 0.375\nsamples = 4\nvalue = [0, 3, 1, 0, 0]\nclass = -20", fillcolor="#a7ee7b"] ;
81 -> 143 ;
144 [label="gini = 0.0\nsamples = 3\nvalue = [0, 3, 0, 0, 0]\nclass = -20", fillcolor="#7be539"] ;
143 -> 144 ;
145 [label="gini = 0.0\nsamples = 1\nvalue = [0, 0, 1, 0, 0]\nclass = 20-30", fillcolor="#39e5c5"] ;
143 -> 145 ;
146 [label="HML <= 348.0\ngini = 0.753\nsamples = 108\nvalue = [25, 11, 29, 35, 8]\nclass = 50+", fillcolor="#f0f0fd"] ;
0 -> 146 [labeldistance=2.5, labelangle=-45, headlabel="False"] ;
147 [label="HMLD <= 18.725\ngini = 0.754\nsamples = 104\nvalue = [25, 11, 25, 35, 8]\nclass = 50+", fillcolor="#e6e6fc"] ;
146 -> 147 ;
148 [label="HHD <= 40.665\ngini = 0.66\nsamples = 20\nvalue = [0, 6, 6, 8, 0]\nclass = 50+", fillcolor="#e3e3fb"] ;
147 -> 148 ;
149 [label="HML <= 305.5\ngini = 0.278\nsamples = 6\nvalue = [0, 1, 0, 5, 0]\nclass = 50+", fillcolor="#6361ea"] ;
148 -> 149 ;
150 [label="gini = 0.0\nsamples = 5\nvalue = [0, 0, 0, 5, 0]\nclass = 50+", fillcolor="#3c39e5"] ;
149 -> 150 ;
151 [label="gini = 0.0\nsamples = 1\nvalue = [0, 1, 0, 0, 0]\nclass = -20", fillcolor="#7be539"] ;
149 -> 151 ;
152 [label="HML <= 312.75\ngini = 0.643\nsamples = 14\nvalue = [0, 5, 6, 3, 0]\nclass = 20-30", fillcolor="#e9fcf9"] ;
148 -> 152 ;
153 [label="HMLD <= 16.84\ngini = 0.496\nsamples = 11\nvalue = [0, 5, 6, 0, 0]\nclass = 20-30", fillcolor="#defbf5"] ;
152 -> 153 ;
154 [label="gini = 0.0\nsamples = 2\nvalue = [0, 2, 0, 0, 0]\nclass = -20", fillcolor="#7be539"] ;
153 -> 154 ;
155 [label="HML <= 305.0\ngini = 0.444\nsamples = 9\nvalue = [0, 3, 6, 0, 0]\nclass = 20-30", fillcolor="#9cf2e2"] ;
153 -> 155 ;
156 [label="HHD <= 43.15\ngini = 0.278\nsamples = 6\nvalue = [0, 1, 5, 0, 0]\nclass = 20-30", fillcolor="#61ead1"] ;
155 -> 156 ;
157 [label="gini = 0.0\nsamples = 4\nvalue = [0, 0, 4, 0, 0]\nclass = 20-30", fillcolor="#39e5c5"] ;
156 -> 157 ;
158 [label="HEB <= 59.0\ngini = 0.5\nsamples = 2\nvalue = [0, 1, 1, 0, 0]\nclass = -20", fillcolor="#ffffff"] ;
156 -> 158 ;
159 [label="gini = 0.0\nsamples = 1\nvalue = [0, 1, 0, 0, 0]\nclass = -20", fillcolor="#7be539"] ;
158 -> 159 ;
160 [label="gini = 0.0\nsamples = 1\nvalue = [0, 0, 1, 0, 0]\nclass = 20-30", fillcolor="#39e5c5"] ;
158 -> 160 ;
161 [label="HMLD <= 17.645\ngini = 0.444\nsamples = 3\nvalue = [0, 2, 1, 0, 0]\nclass = -20", fillcolor="#bdf29c"] ;
155 -> 161 ;
162 [label="gini = 0.0\nsamples = 1\nvalue = [0, 0, 1, 0, 0]\nclass = 20-30", fillcolor="#39e5c5"] ;
161 -> 162 ;
163 [label="gini = 0.0\nsamples = 2\nvalue = [0, 2, 0, 0, 0]\nclass = -20", fillcolor="#7be539"] ;
161 -> 163 ;
164 [label="gini = 0.0\nsamples = 3\nvalue = [0, 0, 0, 3, 0]\nclass = 50+", fillcolor="#3c39e5"] ;
152 -> 164 ;
165 [label="HEB <= 59.5\ngini = 0.744\nsamples = 84\nvalue = [25, 5, 19, 27, 8]\nclass = 50+", fillcolor="#f8f8fe"] ;
147 -> 165 ;
166 [label="HMLD <= 21.97\ngini = 0.678\nsamples = 31\nvalue = [15, 1, 7, 5, 3]\nclass = 30-40", fillcolor="#f6d5bd"] ;
165 -> 166 ;
167 [label="HHD <= 43.075\ngini = 0.736\nsamples = 25\nvalue = [9, 1, 7, 5, 3]\nclass = 30-40", fillcolor="#fcf1e9"] ;
166 -> 167 ;
168 [label="HHD <= 42.225\ngini = 0.54\nsamples = 10\nvalue = [6, 0, 1, 0, 3]\nclass = 30-40", fillcolor="#f4c9aa"] ;
167 -> 168 ;
169 [label="HMLD <= 19.965\ngini = 0.611\nsamples = 6\nvalue = [2, 0, 1, 0, 3]\nclass = 40-50", fillcolor="#f8ceef"] ;
168 -> 169 ;
170 [label="HEB <= 52.5\ngini = 0.444\nsamples = 3\nvalue = [2, 0, 1, 0, 0]\nclass = 30-40", fillcolor="#f2c09c"] ;
169 -> 170 ;
171 [label="gini = 0.0\nsamples = 1\nvalue = [0, 0, 1, 0, 0]\nclass = 20-30", fillcolor="#39e5c5"] ;
170 -> 171 ;
172 [label="gini = 0.0\nsamples = 2\nvalue = [2, 0, 0, 0, 0]\nclass = 30-40", fillcolor="#e58139"] ;
170 -> 172 ;
173 [label="gini = 0.0\nsamples = 3\nvalue = [0, 0, 0, 0, 3]\nclass = 40-50", fillcolor="#e539c0"] ;
169 -> 173 ;
174 [label="gini = 0.0\nsamples = 4\nvalue = [4, 0, 0, 0, 0]\nclass = 30-40", fillcolor="#e58139"] ;
168 -> 174 ;
175 [label="HHD <= 45.795\ngini = 0.684\nsamples = 15\nvalue = [3, 1, 6, 5, 0]\nclass = 20-30", fillcolor="#ebfcf9"] ;
167 -> 175 ;
176 [label="HHD <= 43.82\ngini = 0.66\nsamples = 10\nvalue = [2, 1, 2, 5, 0]\nclass = 50+", fillcolor="#b6b5f5"] ;
175 -> 176 ;
177 [label="HML <= 305.5\ngini = 0.444\nsamples = 3\nvalue = [0, 0, 2, 1, 0]\nclass = 20-30", fillcolor="#9cf2e2"] ;
176 -> 177 ;
178 [label="gini = 0.0\nsamples = 1\nvalue = [0, 0, 0, 1, 0]\nclass = 50+", fillcolor="#3c39e5"] ;
177 -> 178 ;
179 [label="gini = 0.0\nsamples = 2\nvalue = [0, 0, 2, 0, 0]\nclass = 20-30", fillcolor="#39e5c5"] ;
177 -> 179 ;
180 [label="HHD <= 44.675\ngini = 0.571\nsamples = 7\nvalue = [2, 1, 0, 4, 0]\nclass = 50+", fillcolor="#b1b0f5"] ;
176 -> 180 ;
181 [label="HML <= 331.0\ngini = 0.444\nsamples = 3\nvalue = [2, 0, 0, 1, 0]\nclass = 30-40", fillcolor="#f2c09c"] ;
180 -> 181 ;
182 [label="gini = 0.0\nsamples = 2\nvalue = [2, 0, 0, 0, 0]\nclass = 30-40", fillcolor="#e58139"] ;
181 -> 182 ;
183 [label="gini = 0.0\nsamples = 1\nvalue = [0, 0, 0, 1, 0]\nclass = 50+", fillcolor="#3c39e5"] ;
181 -> 183 ;
184 [label="HMLD <= 20.15\ngini = 0.375\nsamples = 4\nvalue = [0, 1, 0, 3, 0]\nclass = 50+", fillcolor="#7d7bee"] ;
180 -> 184 ;
185 [label="gini = 0.0\nsamples = 1\nvalue = [0, 1, 0, 0, 0]\nclass = -20", fillcolor="#7be539"] ;
184 -> 185 ;
186 [label="gini = 0.0\nsamples = 3\nvalue = [0, 0, 0, 3, 0]\nclass = 50+", fillcolor="#3c39e5"] ;
184 -> 186 ;
187 [label="HML <= 331.0\ngini = 0.32\nsamples = 5\nvalue = [1, 0, 4, 0, 0]\nclass = 20-30", fillcolor="#6aecd4"] ;
175 -> 187 ;
188 [label="gini = 0.0\nsamples = 4\nvalue = [0, 0, 4, 0, 0]\nclass = 20-30", fillcolor="#39e5c5"] ;
187 -> 188 ;
189 [label="gini = 0.0\nsamples = 1\nvalue = [1, 0, 0, 0, 0]\nclass = 30-40", fillcolor="#e58139"] ;
187 -> 189 ;
190 [label="gini = 0.0\nsamples = 6\nvalue = [6, 0, 0, 0, 0]\nclass = 30-40", fillcolor="#e58139"] ;
166 -> 190 ;
191 [label="HHD <= 43.675\ngini = 0.726\nsamples = 53\nvalue = [10, 4, 12, 22, 5]\nclass = 50+", fillcolor="#cfcff9"] ;
165 -> 191 ;
192 [label="gini = 0.0\nsamples = 4\nvalue = [0, 0, 0, 4, 0]\nclass = 50+", fillcolor="#3c39e5"] ;
191 -> 192 ;
193 [label="HHD <= 51.175\ngini = 0.746\nsamples = 49\nvalue = [10, 4, 12, 18, 5]\nclass = 50+", fillcolor="#dfdffb"] ;
191 -> 193 ;
194 [label="HEB <= 66.25\ngini = 0.765\nsamples = 43\nvalue = [9, 4, 12, 13, 5]\nclass = 50+", fillcolor="#f9f9fe"] ;
193 -> 194 ;
195 [label="HMLD <= 19.74\ngini = 0.768\nsamples = 40\nvalue = [9, 4, 9, 13, 5]\nclass = 50+", fillcolor="#e6e5fc"] ;
194 -> 195 ;
196 [label="HMLD <= 19.33\ngini = 0.375\nsamples = 4\nvalue = [0, 0, 3, 0, 1]\nclass = 20-30", fillcolor="#7beed8"] ;
195 -> 196 ;
197 [label="gini = 0.0\nsamples = 1\nvalue = [0, 0, 0, 0, 1]\nclass = 40-50", fillcolor="#e539c0"] ;
196 -> 197 ;
198 [label="gini = 0.0\nsamples = 3\nvalue = [0, 0, 3, 0, 0]\nclass = 20-30", fillcolor="#39e5c5"] ;
196 -> 198 ;
199 [label="HMLD <= 20.585\ngini = 0.755\nsamples = 36\nvalue = [9, 4, 6, 13, 4]\nclass = 50+", fillcolor="#e2e2fb"] ;
195 -> 199 ;
200 [label="HEB <= 60.5\ngini = 0.278\nsamples = 6\nvalue = [0, 1, 0, 5, 0]\nclass = 50+", fillcolor="#6361ea"] ;
199 -> 200 ;
201 [label="gini = 0.0\nsamples = 1\nvalue = [0, 1, 0, 0, 0]\nclass = -20", fillcolor="#7be539"] ;
200 -> 201 ;
202 [label="gini = 0.0\nsamples = 5\nvalue = [0, 0, 0, 5, 0]\nclass = 50+", fillcolor="#3c39e5"] ;
200 -> 202 ;
203 [label="HML <= 304.25\ngini = 0.771\nsamples = 30\nvalue = [9, 3, 6, 8, 4]\nclass = 30-40", fillcolor="#fef9f6"] ;
199 -> 203 ;
204 [label="HEB <= 63.5\ngini = 0.611\nsamples = 6\nvalue = [0, 0, 2, 1, 3]\nclass = 40-50", fillcolor="#f8ceef"] ;
203 -> 204 ;
205 [label="HHD <= 47.685\ngini = 0.375\nsamples = 4\nvalue = [0, 0, 1, 0, 3]\nclass = 40-50", fillcolor="#ee7bd5"] ;
204 -> 205 ;
206 [label="gini = 0.0\nsamples = 3\nvalue = [0, 0, 0, 0, 3]\nclass = 40-50", fillcolor="#e539c0"] ;
205 -> 206 ;
207 [label="gini = 0.0\nsamples = 1\nvalue = [0, 0, 1, 0, 0]\nclass = 20-30", fillcolor="#39e5c5"] ;
205 -> 207 ;
208 [label="HHD <= 46.43\ngini = 0.5\nsamples = 2\nvalue = [0, 0, 1, 1, 0]\nclass = 20-30", fillcolor="#ffffff"] ;
204 -> 208 ;
209 [label="gini = 0.0\nsamples = 1\nvalue = [0, 0, 1, 0, 0]\nclass = 20-30", fillcolor="#39e5c5"] ;
208 -> 209 ;
210 [label="gini = 0.0\nsamples = 1\nvalue = [0, 0, 0, 1, 0]\nclass = 50+", fillcolor="#3c39e5"] ;
208 -> 210 ;
211 [label="HHD <= 48.29\ngini = 0.729\nsamples = 24\nvalue = [9, 3, 4, 7, 1]\nclass = 30-40", fillcolor="#fcf0e8"] ;
203 -> 211 ;
212 [label="HMLD <= 21.77\ngini = 0.748\nsamples = 21\nvalue = [6, 3, 4, 7, 1]\nclass = 50+", fillcolor="#f2f2fd"] ;
211 -> 212 ;
213 [label="HHD <= 46.27\ngini = 0.719\nsamples = 8\nvalue = [3, 2, 2, 0, 1]\nclass = 30-40", fillcolor="#fbeade"] ;
212 -> 213 ;
214 [label="HEB <= 62.25\ngini = 0.56\nsamples = 5\nvalue = [3, 1, 0, 0, 1]\nclass = 30-40", fillcolor="#f2c09c"] ;
213 -> 214 ;
215 [label="HMLD <= 20.91\ngini = 0.667\nsamples = 3\nvalue = [1, 1, 0, 0, 1]\nclass = 30-40", fillcolor="#ffffff"] ;
214 -> 215 ;
216 [label="gini = 0.0\nsamples = 1\nvalue = [0, 0, 0, 0, 1]\nclass = 40-50", fillcolor="#e539c0"] ;
215 -> 216 ;
217 [label="HMLD <= 21.13\ngini = 0.5\nsamples = 2\nvalue = [1, 1, 0, 0, 0]\nclass = 30-40", fillcolor="#ffffff"] ;
215 -> 217 ;
218 [label="gini = 0.0\nsamples = 1\nvalue = [1, 0, 0, 0, 0]\nclass = 30-40", fillcolor="#e58139"] ;
217 -> 218 ;
219 [label="gini = 0.0\nsamples = 1\nvalue = [0, 1, 0, 0, 0]\nclass = -20", fillcolor="#7be539"] ;
217 -> 219 ;
220 [label="gini = 0.0\nsamples = 2\nvalue = [2, 0, 0, 0, 0]\nclass = 30-40", fillcolor="#e58139"] ;
214 -> 220 ;
221 [label="HMLD <= 20.925\ngini = 0.444\nsamples = 3\nvalue = [0, 1, 2, 0, 0]\nclass = 20-30", fillcolor="#9cf2e2"] ;
213 -> 221 ;
222 [label="gini = 0.0\nsamples = 1\nvalue = [0, 1, 0, 0, 0]\nclass = -20", fillcolor="#7be539"] ;
221 -> 222 ;
223 [label="gini = 0.0\nsamples = 2\nvalue = [0, 0, 2, 0, 0]\nclass = 20-30", fillcolor="#39e5c5"] ;
221 -> 223 ;
224 [label="HMLD <= 22.87\ngini = 0.627\nsamples = 13\nvalue = [3, 1, 2, 7, 0]\nclass = 50+", fillcolor="#b1b0f5"] ;
212 -> 224 ;
225 [label="gini = 0.0\nsamples = 6\nvalue = [0, 0, 0, 6, 0]\nclass = 50+", fillcolor="#3c39e5"] ;
224 -> 225 ;
226 [label="HML <= 318.0\ngini = 0.694\nsamples = 7\nvalue = [3, 1, 2, 1, 0]\nclass = 30-40", fillcolor="#fae6d7"] ;
224 -> 226 ;
227 [label="HEB <= 61.0\ngini = 0.56\nsamples = 5\nvalue = [3, 1, 0, 1, 0]\nclass = 30-40", fillcolor="#f2c09c"] ;
226 -> 227 ;
228 [label="HMLD <= 25.935\ngini = 0.5\nsamples = 2\nvalue = [0, 1, 0, 1, 0]\nclass = -20", fillcolor="#ffffff"] ;
227 -> 228 ;
229 [label="gini = 0.0\nsamples = 1\nvalue = [0, 0, 0, 1, 0]\nclass = 50+", fillcolor="#3c39e5"] ;
228 -> 229 ;
230 [label="gini = 0.0\nsamples = 1\nvalue = [0, 1, 0, 0, 0]\nclass = -20", fillcolor="#7be539"] ;
228 -> 230 ;
231 [label="gini = 0.0\nsamples = 3\nvalue = [3, 0, 0, 0, 0]\nclass = 30-40", fillcolor="#e58139"] ;
227 -> 231 ;
232 [label="gini = 0.0\nsamples = 2\nvalue = [0, 0, 2, 0, 0]\nclass = 20-30", fillcolor="#39e5c5"] ;
226 -> 232 ;
233 [label="gini = 0.0\nsamples = 3\nvalue = [3, 0, 0, 0, 0]\nclass = 30-40", fillcolor="#e58139"] ;
211 -> 233 ;
234 [label="gini = 0.0\nsamples = 3\nvalue = [0, 0, 3, 0, 0]\nclass = 20-30", fillcolor="#39e5c5"] ;
194 -> 234 ;
235 [label="HML <= 338.0\ngini = 0.278\nsamples = 6\nvalue = [1, 0, 0, 5, 0]\nclass = 50+", fillcolor="#6361ea"] ;
193 -> 235 ;
236 [label="gini = 0.0\nsamples = 5\nvalue = [0, 0, 0, 5, 0]\nclass = 50+", fillcolor="#3c39e5"] ;
235 -> 236 ;
237 [label="gini = 0.0\nsamples = 1\nvalue = [1, 0, 0, 0, 0]\nclass = 30-40", fillcolor="#e58139"] ;
235 -> 237 ;
238 [label="gini = 0.0\nsamples = 4\nvalue = [0, 0, 4, 0, 0]\nclass = 20-30", fillcolor="#39e5c5"] ;
146 -> 238 ;
}