digraph Tree {
node [shape=box, style="filled", color="black", fontname="helvetica"] ;
edge [fontname="helvetica"] ;
0 [label="HML <= 298.5\ngini = 0.8\nsamples = 259\nvalue = [52, 56, 52, 48, 51]\nclass = 30-40", fillcolor="#fcfefb"] ;
1 [label="HMLD <= 18.9\ngini = 0.773\nsamples = 149\nvalue = [42, 32, 24, 39, 12]\nclass = -20", fillcolor="#fefcfa"] ;
0 -> 1 [labeldistance=2.5, labelangle=45, headlabel="True"] ;
2 [label="HHD <= 37.465\ngini = 0.739\nsamples = 82\nvalue = [34, 12, 13, 15, 8]\nclass = -20", fillcolor="#f8dbc7"] ;
1 -> 2 ;
3 [label="HEB <= 48.75\ngini = 0.719\nsamples = 26\nvalue = [8, 4, 10, 3, 1]\nclass = 20-30", fillcolor="#e9fcf9"] ;
2 -> 3 ;
4 [label="HEB <= 45.5\ngini = 0.617\nsamples = 9\nvalue = [5, 1, 0, 2, 1]\nclass = -20", fillcolor="#f4c9aa"] ;
3 -> 4 ;
5 [label="gini = 0.0\nsamples = 2\nvalue = [0, 0, 0, 2, 0]\nclass = 40-50", fillcolor="#3c39e5"] ;
4 -> 5 ;
6 [label="HHD <= 36.86\ngini = 0.449\nsamples = 7\nvalue = [5, 1, 0, 0, 1]\nclass = -20", fillcolor="#eeab7b"] ;
4 -> 6 ;
7 [label="HML <= 285.75\ngini = 0.278\nsamples = 6\nvalue = [5, 0, 0, 0, 1]\nclass = -20", fillcolor="#ea9a61"] ;
6 -> 7 ;
8 [label="gini = 0.0\nsamples = 5\nvalue = [5, 0, 0, 0, 0]\nclass = -20", fillcolor="#e58139"] ;
7 -> 8 ;
9 [label="gini = 0.0\nsamples = 1\nvalue = [0, 0, 0, 0, 1]\nclass = 50+", fillcolor="#e539c0"] ;
7 -> 9 ;
10 [label="gini = 0.0\nsamples = 1\nvalue = [0, 1, 0, 0, 0]\nclass = 30-40", fillcolor="#7be539"] ;
6 -> 10 ;
11 [label="HEB <= 52.75\ngini = 0.588\nsamples = 17\nvalue = [3, 3, 10, 1, 0]\nclass = 20-30", fillcolor="#9cf2e2"] ;
3 -> 11 ;
12 [label="HEB <= 50.25\ngini = 0.459\nsamples = 14\nvalue = [2, 1, 10, 1, 0]\nclass = 20-30", fillcolor="#7beed8"] ;
11 -> 12 ;
13 [label="HHD <= 35.55\ngini = 0.617\nsamples = 9\nvalue = [2, 1, 5, 1, 0]\nclass = 20-30", fillcolor="#aaf4e6"] ;
12 -> 13 ;
14 [label="gini = 0.0\nsamples = 1\nvalue = [0, 0, 0, 1, 0]\nclass = 40-50", fillcolor="#3c39e5"] ;
13 -> 14 ;
15 [label="HMLD <= 15.905\ngini = 0.531\nsamples = 8\nvalue = [2, 1, 5, 0, 0]\nclass = 20-30", fillcolor="#9cf2e2"] ;
13 -> 15 ;
16 [label="gini = 0.0\nsamples = 3\nvalue = [0, 0, 3, 0, 0]\nclass = 20-30", fillcolor="#39e5c5"] ;
15 -> 16 ;
17 [label="HMLD <= 17.87\ngini = 0.64\nsamples = 5\nvalue = [2, 1, 2, 0, 0]\nclass = -20", fillcolor="#ffffff"] ;
15 -> 17 ;
18 [label="HML <= 272.75\ngini = 0.444\nsamples = 3\nvalue = [2, 1, 0, 0, 0]\nclass = -20", fillcolor="#f2c09c"] ;
17 -> 18 ;
19 [label="gini = 0.0\nsamples = 1\nvalue = [0, 1, 0, 0, 0]\nclass = 30-40", fillcolor="#7be539"] ;
18 -> 19 ;
20 [label="gini = 0.0\nsamples = 2\nvalue = [2, 0, 0, 0, 0]\nclass = -20", fillcolor="#e58139"] ;
18 -> 20 ;
21 [label="gini = 0.0\nsamples = 2\nvalue = [0, 0, 2, 0, 0]\nclass = 20-30", fillcolor="#39e5c5"] ;
17 -> 21 ;
22 [label="gini = 0.0\nsamples = 5\nvalue = [0, 0, 5, 0, 0]\nclass = 20-30", fillcolor="#39e5c5"] ;
12 -> 22 ;
23 [label="HML <= 287.75\ngini = 0.444\nsamples = 3\nvalue = [1, 2, 0, 0, 0]\nclass = 30-40", fillcolor="#bdf29c"] ;
11 -> 23 ;
24 [label="gini = 0.0\nsamples = 2\nvalue = [0, 2, 0, 0, 0]\nclass = 30-40", fillcolor="#7be539"] ;
23 -> 24 ;
25 [label="gini = 0.0\nsamples = 1\nvalue = [1, 0, 0, 0, 0]\nclass = -20", fillcolor="#e58139"] ;
23 -> 25 ;
26 [label="HML <= 277.25\ngini = 0.7\nsamples = 56\nvalue = [26, 8, 3, 12, 7]\nclass = -20", fillcolor="#f7d7c0"] ;
2 -> 26 ;
27 [label="HEB <= 57.5\ngini = 0.442\nsamples = 22\nvalue = [16, 3, 0, 1, 2]\nclass = -20", fillcolor="#eda978"] ;
26 -> 27 ;
28 [label="HHD <= 37.7\ngini = 0.395\nsamples = 21\nvalue = [16, 3, 0, 1, 1]\nclass = -20", fillcolor="#eca470"] ;
27 -> 28 ;
29 [label="gini = 0.0\nsamples = 1\nvalue = [0, 1, 0, 0, 0]\nclass = 30-40", fillcolor="#7be539"] ;
28 -> 29 ;
30 [label="HHD <= 38.345\ngini = 0.345\nsamples = 20\nvalue = [16, 2, 0, 1, 1]\nclass = -20", fillcolor="#eb9d65"] ;
28 -> 30 ;
31 [label="HMLD <= 18.185\ngini = 0.625\nsamples = 4\nvalue = [2, 0, 0, 1, 1]\nclass = -20", fillcolor="#f6d5bd"] ;
30 -> 31 ;
32 [label="HML <= 273.5\ngini = 0.5\nsamples = 2\nvalue = [0, 0, 0, 1, 1]\nclass = 40-50", fillcolor="#ffffff"] ;
31 -> 32 ;
33 [label="gini = 0.0\nsamples = 1\nvalue = [0, 0, 0, 0, 1]\nclass = 50+", fillcolor="#e539c0"] ;
32 -> 33 ;
34 [label="gini = 0.0\nsamples = 1\nvalue = [0, 0, 0, 1, 0]\nclass = 40-50", fillcolor="#3c39e5"] ;
32 -> 34 ;
35 [label="gini = 0.0\nsamples = 2\nvalue = [2, 0, 0, 0, 0]\nclass = -20", fillcolor="#e58139"] ;
31 -> 35 ;
36 [label="HML <= 275.5\ngini = 0.219\nsamples = 16\nvalue = [14, 2, 0, 0, 0]\nclass = -20", fillcolor="#e99355"] ;
30 -> 36 ;
37 [label="HML <= 270.0\ngini = 0.142\nsamples = 13\nvalue = [12, 1, 0, 0, 0]\nclass = -20", fillcolor="#e78c49"] ;
36 -> 37 ;
38 [label="HML <= 268.0\ngini = 0.32\nsamples = 5\nvalue = [4, 1, 0, 0, 0]\nclass = -20", fillcolor="#eca06a"] ;
37 -> 38 ;
39 [label="gini = 0.0\nsamples = 4\nvalue = [4, 0, 0, 0, 0]\nclass = -20", fillcolor="#e58139"] ;
38 -> 39 ;
40 [label="gini = 0.0\nsamples = 1\nvalue = [0, 1, 0, 0, 0]\nclass = 30-40", fillcolor="#7be539"] ;
38 -> 40 ;
41 [label="gini = 0.0\nsamples = 8\nvalue = [8, 0, 0, 0, 0]\nclass = -20", fillcolor="#e58139"] ;
37 -> 41 ;
42 [label="HHD <= 40.5\ngini = 0.444\nsamples = 3\nvalue = [2, 1, 0, 0, 0]\nclass = -20", fillcolor="#f2c09c"] ;
36 -> 42 ;
43 [label="gini = 0.0\nsamples = 1\nvalue = [0, 1, 0, 0, 0]\nclass = 30-40", fillcolor="#7be539"] ;
42 -> 43 ;
44 [label="gini = 0.0\nsamples = 2\nvalue = [2, 0, 0, 0, 0]\nclass = -20", fillcolor="#e58139"] ;
42 -> 44 ;
45 [label="gini = 0.0\nsamples = 1\nvalue = [0, 0, 0, 0, 1]\nclass = 50+", fillcolor="#e539c0"] ;
27 -> 45 ;
46 [label="HHD <= 38.215\ngini = 0.758\nsamples = 34\nvalue = [10, 5, 3, 11, 5]\nclass = 40-50", fillcolor="#f7f7fe"] ;
26 -> 46 ;
47 [label="gini = 0.0\nsamples = 4\nvalue = [0, 0, 0, 4, 0]\nclass = 40-50", fillcolor="#3c39e5"] ;
46 -> 47 ;
48 [label="HMLD <= 18.485\ngini = 0.769\nsamples = 30\nvalue = [10, 5, 3, 7, 5]\nclass = -20", fillcolor="#fcefe5"] ;
46 -> 48 ;
49 [label="HML <= 296.75\ngini = 0.787\nsamples = 26\nvalue = [6, 5, 3, 7, 5]\nclass = 40-50", fillcolor="#f5f5fe"] ;
48 -> 49 ;
50 [label="HEB <= 52.5\ngini = 0.779\nsamples = 23\nvalue = [3, 5, 3, 7, 5]\nclass = 40-50", fillcolor="#e9e9fc"] ;
49 -> 50 ;
51 [label="HMLD <= 17.075\ngini = 0.571\nsamples = 7\nvalue = [2, 0, 0, 1, 4]\nclass = 50+", fillcolor="#f5b0e6"] ;
50 -> 51 ;
52 [label="HML <= 286.5\ngini = 0.625\nsamples = 4\nvalue = [2, 0, 0, 1, 1]\nclass = -20", fillcolor="#f6d5bd"] ;
51 -> 52 ;
53 [label="gini = 0.0\nsamples = 2\nvalue = [2, 0, 0, 0, 0]\nclass = -20", fillcolor="#e58139"] ;
52 -> 53 ;
54 [label="HML <= 291.25\ngini = 0.5\nsamples = 2\nvalue = [0, 0, 0, 1, 1]\nclass = 40-50", fillcolor="#ffffff"] ;
52 -> 54 ;
55 [label="gini = 0.0\nsamples = 1\nvalue = [0, 0, 0, 0, 1]\nclass = 50+", fillcolor="#e539c0"] ;
54 -> 55 ;
56 [label="gini = 0.0\nsamples = 1\nvalue = [0, 0, 0, 1, 0]\nclass = 40-50", fillcolor="#3c39e5"] ;
54 -> 56 ;
57 [label="gini = 0.0\nsamples = 3\nvalue = [0, 0, 0, 0, 3]\nclass = 50+", fillcolor="#e539c0"] ;
51 -> 57 ;
58 [label="HMLD <= 17.67\ngini = 0.719\nsamples = 16\nvalue = [1, 5, 3, 6, 1]\nclass = 40-50", fillcolor="#ededfd"] ;
50 -> 58 ;
59 [label="HMLD <= 17.205\ngini = 0.611\nsamples = 6\nvalue = [1, 3, 2, 0, 0]\nclass = 30-40", fillcolor="#def8ce"] ;
58 -> 59 ;
60 [label="HHD <= 43.145\ngini = 0.444\nsamples = 3\nvalue = [1, 0, 2, 0, 0]\nclass = 20-30", fillcolor="#9cf2e2"] ;
59 -> 60 ;
61 [label="gini = 0.0\nsamples = 2\nvalue = [0, 0, 2, 0, 0]\nclass = 20-30", fillcolor="#39e5c5"] ;
60 -> 61 ;
62 [label="gini = 0.0\nsamples = 1\nvalue = [1, 0, 0, 0, 0]\nclass = -20", fillcolor="#e58139"] ;
60 -> 62 ;
63 [label="gini = 0.0\nsamples = 3\nvalue = [0, 3, 0, 0, 0]\nclass = 30-40", fillcolor="#7be539"] ;
59 -> 63 ;
64 [label="HML <= 294.5\ngini = 0.58\nsamples = 10\nvalue = [0, 2, 1, 6, 1]\nclass = 40-50", fillcolor="#9e9cf2"] ;
58 -> 64 ;
65 [label="HHD <= 39.99\ngini = 0.406\nsamples = 8\nvalue = [0, 1, 1, 6, 0]\nclass = 40-50", fillcolor="#7472ec"] ;
64 -> 65 ;
66 [label="gini = 0.0\nsamples = 1\nvalue = [0, 1, 0, 0, 0]\nclass = 30-40", fillcolor="#7be539"] ;
65 -> 66 ;
67 [label="HML <= 288.5\ngini = 0.245\nsamples = 7\nvalue = [0, 0, 1, 6, 0]\nclass = 40-50", fillcolor="#5d5ae9"] ;
65 -> 67 ;
68 [label="gini = 0.0\nsamples = 5\nvalue = [0, 0, 0, 5, 0]\nclass = 40-50", fillcolor="#3c39e5"] ;
67 -> 68 ;
69 [label="HMLD <= 18.24\ngini = 0.5\nsamples = 2\nvalue = [0, 0, 1, 1, 0]\nclass = 20-30", fillcolor="#ffffff"] ;
67 -> 69 ;
70 [label="gini = 0.0\nsamples = 1\nvalue = [0, 0, 1, 0, 0]\nclass = 20-30", fillcolor="#39e5c5"] ;
69 -> 70 ;
71 [label="gini = 0.0\nsamples = 1\nvalue = [0, 0, 0, 1, 0]\nclass = 40-50", fillcolor="#3c39e5"] ;
69 -> 71 ;
72 [label="HEB <= 57.5\ngini = 0.5\nsamples = 2\nvalue = [0, 1, 0, 0, 1]\nclass = 30-40", fillcolor="#ffffff"] ;
64 -> 72 ;
73 [label="gini = 0.0\nsamples = 1\nvalue = [0, 0, 0, 0, 1]\nclass = 50+", fillcolor="#e539c0"] ;
72 -> 73 ;
74 [label="gini = 0.0\nsamples = 1\nvalue = [0, 1, 0, 0, 0]\nclass = 30-40", fillcolor="#7be539"] ;
72 -> 74 ;
75 [label="gini = 0.0\nsamples = 3\nvalue = [3, 0, 0, 0, 0]\nclass = -20", fillcolor="#e58139"] ;
49 -> 75 ;
76 [label="gini = 0.0\nsamples = 4\nvalue = [4, 0, 0, 0, 0]\nclass = -20", fillcolor="#e58139"] ;
48 -> 76 ;
77 [label="HML <= 266.25\ngini = 0.738\nsamples = 67\nvalue = [8, 20, 11, 24, 4]\nclass = 40-50", fillcolor="#eeeefd"] ;
1 -> 77 ;
78 [label="HHD <= 38.85\ngini = 0.64\nsamples = 5\nvalue = [2, 0, 2, 0, 1]\nclass = -20", fillcolor="#ffffff"] ;
77 -> 78 ;
79 [label="gini = 0.0\nsamples = 2\nvalue = [0, 0, 2, 0, 0]\nclass = 20-30", fillcolor="#39e5c5"] ;
78 -> 79 ;
80 [label="HEB <= 57.0\ngini = 0.444\nsamples = 3\nvalue = [2, 0, 0, 0, 1]\nclass = -20", fillcolor="#f2c09c"] ;
78 -> 80 ;
81 [label="gini = 0.0\nsamples = 2\nvalue = [2, 0, 0, 0, 0]\nclass = -20", fillcolor="#e58139"] ;
80 -> 81 ;
82 [label="gini = 0.0\nsamples = 1\nvalue = [0, 0, 0, 0, 1]\nclass = 50+", fillcolor="#e539c0"] ;
80 -> 82 ;
83 [label="HML <= 289.5\ngini = 0.713\nsamples = 62\nvalue = [6, 20, 9, 24, 3]\nclass = 40-50", fillcolor="#ececfd"] ;
77 -> 83 ;
84 [label="HHD <= 41.475\ngini = 0.636\nsamples = 37\nvalue = [1, 10, 6, 19, 1]\nclass = 40-50", fillcolor="#bebdf6"] ;
83 -> 84 ;
85 [label="HMLD <= 20.18\ngini = 0.692\nsamples = 26\nvalue = [1, 10, 5, 9, 1]\nclass = 30-40", fillcolor="#f7fdf3"] ;
84 -> 85 ;
86 [label="HMLD <= 19.445\ngini = 0.48\nsamples = 15\nvalue = [0, 10, 1, 4, 0]\nclass = 30-40", fillcolor="#b7f193"] ;
85 -> 86 ;
87 [label="HEB <= 53.0\ngini = 0.594\nsamples = 8\nvalue = [0, 3, 1, 4, 0]\nclass = 40-50", fillcolor="#d8d7fa"] ;
86 -> 87 ;
88 [label="HEB <= 49.75\ngini = 0.444\nsamples = 3\nvalue = [0, 0, 1, 2, 0]\nclass = 40-50", fillcolor="#9e9cf2"] ;
87 -> 88 ;
89 [label="gini = 0.0\nsamples = 1\nvalue = [0, 0, 0, 1, 0]\nclass = 40-50", fillcolor="#3c39e5"] ;
88 -> 89 ;
90 [label="HMLD <= 19.19\ngini = 0.5\nsamples = 2\nvalue = [0, 0, 1, 1, 0]\nclass = 20-30", fillcolor="#ffffff"] ;
88 -> 90 ;
91 [label="gini = 0.0\nsamples = 1\nvalue = [0, 0, 0, 1, 0]\nclass = 40-50", fillcolor="#3c39e5"] ;
90 -> 91 ;
92 [label="gini = 0.0\nsamples = 1\nvalue = [0, 0, 1, 0, 0]\nclass = 20-30", fillcolor="#39e5c5"] ;
90 -> 92 ;
93 [label="HMLD <= 19.06\ngini = 0.48\nsamples = 5\nvalue = [0, 3, 0, 2, 0]\nclass = 30-40", fillcolor="#d3f6bd"] ;
87 -> 93 ;
94 [label="gini = 0.0\nsamples = 1\nvalue = [0, 0, 0, 1, 0]\nclass = 40-50", fillcolor="#3c39e5"] ;
93 -> 94 ;
95 [label="HMLD <= 19.37\ngini = 0.375\nsamples = 4\nvalue = [0, 3, 0, 1, 0]\nclass = 30-40", fillcolor="#a7ee7b"] ;
93 -> 95 ;
96 [label="gini = 0.0\nsamples = 3\nvalue = [0, 3, 0, 0, 0]\nclass = 30-40", fillcolor="#7be539"] ;
95 -> 96 ;
97 [label="gini = 0.0\nsamples = 1\nvalue = [0, 0, 0, 1, 0]\nclass = 40-50", fillcolor="#3c39e5"] ;
95 -> 97 ;
98 [label="gini = 0.0\nsamples = 7\nvalue = [0, 7, 0, 0, 0]\nclass = 30-40", fillcolor="#7be539"] ;
86 -> 98 ;
99 [label="HEB <= 53.5\ngini = 0.645\nsamples = 11\nvalue = [1, 0, 4, 5, 1]\nclass = 40-50", fillcolor="#e3e3fb"] ;
85 -> 99 ;
100 [label="HMLD <= 20.315\ngini = 0.32\nsamples = 5\nvalue = [1, 0, 0, 4, 0]\nclass = 40-50", fillcolor="#6d6aec"] ;
99 -> 100 ;
101 [label="gini = 0.0\nsamples = 1\nvalue = [1, 0, 0, 0, 0]\nclass = -20", fillcolor="#e58139"] ;
100 -> 101 ;
102 [label="gini = 0.0\nsamples = 4\nvalue = [0, 0, 0, 4, 0]\nclass = 40-50", fillcolor="#3c39e5"] ;
100 -> 102 ;
103 [label="HHD <= 38.79\ngini = 0.5\nsamples = 6\nvalue = [0, 0, 4, 1, 1]\nclass = 20-30", fillcolor="#88efdc"] ;
99 -> 103 ;
104 [label="gini = 0.0\nsamples = 1\nvalue = [0, 0, 0, 1, 0]\nclass = 40-50", fillcolor="#3c39e5"] ;
103 -> 104 ;
105 [label="HML <= 271.25\ngini = 0.32\nsamples = 5\nvalue = [0, 0, 4, 0, 1]\nclass = 20-30", fillcolor="#6aecd4"] ;
103 -> 105 ;
106 [label="gini = 0.0\nsamples = 1\nvalue = [0, 0, 0, 0, 1]\nclass = 50+", fillcolor="#e539c0"] ;
105 -> 106 ;
107 [label="gini = 0.0\nsamples = 4\nvalue = [0, 0, 4, 0, 0]\nclass = 20-30", fillcolor="#39e5c5"] ;
105 -> 107 ;
108 [label="HMLD <= 21.63\ngini = 0.165\nsamples = 11\nvalue = [0, 0, 1, 10, 0]\nclass = 40-50", fillcolor="#504de8"] ;
84 -> 108 ;
109 [label="gini = 0.0\nsamples = 9\nvalue = [0, 0, 0, 9, 0]\nclass = 40-50", fillcolor="#3c39e5"] ;
108 -> 109 ;
110 [label="HHD <= 42.01\ngini = 0.5\nsamples = 2\nvalue = [0, 0, 1, 1, 0]\nclass = 20-30", fillcolor="#ffffff"] ;
108 -> 110 ;
111 [label="gini = 0.0\nsamples = 1\nvalue = [0, 0, 0, 1, 0]\nclass = 40-50", fillcolor="#3c39e5"] ;
110 -> 111 ;
112 [label="gini = 0.0\nsamples = 1\nvalue = [0, 0, 1, 0, 0]\nclass = 20-30", fillcolor="#39e5c5"] ;
110 -> 112 ;
113 [label="HMLD <= 20.31\ngini = 0.739\nsamples = 25\nvalue = [5, 10, 3, 5, 2]\nclass = 30-40", fillcolor="#def8ce"] ;
83 -> 113 ;
114 [label="HEB <= 53.5\ngini = 0.758\nsamples = 16\nvalue = [4, 4, 2, 5, 1]\nclass = 40-50", fillcolor="#efeefd"] ;
113 -> 114 ;
115 [label="HMLD <= 19.53\ngini = 0.48\nsamples = 5\nvalue = [2, 3, 0, 0, 0]\nclass = 30-40", fillcolor="#d3f6bd"] ;
114 -> 115 ;
116 [label="gini = 0.0\nsamples = 2\nvalue = [2, 0, 0, 0, 0]\nclass = -20", fillcolor="#e58139"] ;
115 -> 116 ;
117 [label="gini = 0.0\nsamples = 3\nvalue = [0, 3, 0, 0, 0]\nclass = 30-40", fillcolor="#7be539"] ;
115 -> 117 ;
118 [label="HEB <= 57.75\ngini = 0.711\nsamples = 11\nvalue = [2, 1, 2, 5, 1]\nclass = 40-50", fillcolor="#bebdf6"] ;
114 -> 118 ;
119 [label="HMLD <= 20.235\ngini = 0.449\nsamples = 7\nvalue = [1, 0, 1, 5, 0]\nclass = 40-50", fillcolor="#7d7bee"] ;
118 -> 119 ;
120 [label="HML <= 296.5\ngini = 0.278\nsamples = 6\nvalue = [0, 0, 1, 5, 0]\nclass = 40-50", fillcolor="#6361ea"] ;
119 -> 120 ;
121 [label="HHD <= 42.01\ngini = 0.444\nsamples = 3\nvalue = [0, 0, 1, 2, 0]\nclass = 40-50", fillcolor="#9e9cf2"] ;
120 -> 121 ;
122 [label="gini = 0.0\nsamples = 1\nvalue = [0, 0, 1, 0, 0]\nclass = 20-30", fillcolor="#39e5c5"] ;
121 -> 122 ;
123 [label="gini = 0.0\nsamples = 2\nvalue = [0, 0, 0, 2, 0]\nclass = 40-50", fillcolor="#3c39e5"] ;
121 -> 123 ;
124 [label="gini = 0.0\nsamples = 3\nvalue = [0, 0, 0, 3, 0]\nclass = 40-50", fillcolor="#3c39e5"] ;
120 -> 124 ;
125 [label="gini = 0.0\nsamples = 1\nvalue = [1, 0, 0, 0, 0]\nclass = -20", fillcolor="#e58139"] ;
119 -> 125 ;
126 [label="HML <= 294.25\ngini = 0.75\nsamples = 4\nvalue = [1, 1, 1, 0, 1]\nclass = -20", fillcolor="#ffffff"] ;
118 -> 126 ;
127 [label="gini = 0.0\nsamples = 1\nvalue = [0, 1, 0, 0, 0]\nclass = 30-40", fillcolor="#7be539"] ;
126 -> 127 ;
128 [label="HMLD <= 19.69\ngini = 0.667\nsamples = 3\nvalue = [1, 0, 1, 0, 1]\nclass = -20", fillcolor="#ffffff"] ;
126 -> 128 ;
129 [label="gini = 0.0\nsamples = 1\nvalue = [0, 0, 1, 0, 0]\nclass = 20-30", fillcolor="#39e5c5"] ;
128 -> 129 ;
130 [label="HEB <= 59.5\ngini = 0.5\nsamples = 2\nvalue = [1, 0, 0, 0, 1]\nclass = -20", fillcolor="#ffffff"] ;
128 -> 130 ;
131 [label="gini = 0.0\nsamples = 1\nvalue = [1, 0, 0, 0, 0]\nclass = -20", fillcolor="#e58139"] ;
130 -> 131 ;
132 [label="gini = 0.0\nsamples = 1\nvalue = [0, 0, 0, 0, 1]\nclass = 50+", fillcolor="#e539c0"] ;
130 -> 132 ;
133 [label="HHD <= 44.74\ngini = 0.519\nsamples = 9\nvalue = [1, 6, 1, 0, 1]\nclass = 30-40", fillcolor="#acef83"] ;
113 -> 133 ;
134 [label="HEB <= 53.5\ngini = 0.245\nsamples = 7\nvalue = [0, 6, 0, 0, 1]\nclass = 30-40", fillcolor="#91e95a"] ;
133 -> 134 ;
135 [label="gini = 0.0\nsamples = 1\nvalue = [0, 0, 0, 0, 1]\nclass = 50+", fillcolor="#e539c0"] ;
134 -> 135 ;
136 [label="gini = 0.0\nsamples = 6\nvalue = [0, 6, 0, 0, 0]\nclass = 30-40", fillcolor="#7be539"] ;
134 -> 136 ;
137 [label="HML <= 290.75\ngini = 0.5\nsamples = 2\nvalue = [1, 0, 1, 0, 0]\nclass = -20", fillcolor="#ffffff"] ;
133 -> 137 ;
138 [label="gini = 0.0\nsamples = 1\nvalue = [1, 0, 0, 0, 0]\nclass = -20", fillcolor="#e58139"] ;
137 -> 138 ;
139 [label="gini = 0.0\nsamples = 1\nvalue = [0, 0, 1, 0, 0]\nclass = 20-30", fillcolor="#39e5c5"] ;
137 -> 139 ;
140 [label="HML <= 348.0\ngini = 0.747\nsamples = 110\nvalue = [10, 24, 28, 9, 39]\nclass = 50+", fillcolor="#fce4f7"] ;
0 -> 140 [labeldistance=2.5, labelangle=-45, headlabel="False"] ;
141 [label="HML <= 321.0\ngini = 0.745\nsamples = 105\nvalue = [10, 24, 23, 9, 39]\nclass = 50+", fillcolor="#fadaf3"] ;
140 -> 141 ;
142 [label="HMLD <= 19.805\ngini = 0.778\nsamples = 70\nvalue = [9, 16, 19, 8, 18]\nclass = 20-30", fillcolor="#fbfefe"] ;
141 -> 142 ;
143 [label="HMLD <= 16.9\ngini = 0.709\nsamples = 32\nvalue = [8, 3, 9, 0, 12]\nclass = 50+", fillcolor="#fce5f7"] ;
142 -> 143 ;
144 [label="HML <= 301.75\ngini = 0.32\nsamples = 5\nvalue = [4, 0, 0, 0, 1]\nclass = -20", fillcolor="#eca06a"] ;
143 -> 144 ;
145 [label="gini = 0.0\nsamples = 1\nvalue = [0, 0, 0, 0, 1]\nclass = 50+", fillcolor="#e539c0"] ;
144 -> 145 ;
146 [label="gini = 0.0\nsamples = 4\nvalue = [4, 0, 0, 0, 0]\nclass = -20", fillcolor="#e58139"] ;
144 -> 146 ;
147 [label="HEB <= 64.25\ngini = 0.689\nsamples = 27\nvalue = [4, 3, 9, 0, 11]\nclass = 50+", fillcolor="#fce9f8"] ;
143 -> 147 ;
148 [label="HML <= 311.0\ngini = 0.656\nsamples = 25\nvalue = [2, 3, 9, 0, 11]\nclass = 50+", fillcolor="#fce6f7"] ;
147 -> 148 ;
149 [label="HEB <= 58.75\ngini = 0.676\nsamples = 21\nvalue = [2, 3, 9, 0, 7]\nclass = 20-30", fillcolor="#e3fbf7"] ;
148 -> 149 ;
150 [label="HML <= 305.25\ngini = 0.711\nsamples = 15\nvalue = [2, 3, 4, 0, 6]\nclass = 50+", fillcolor="#fadbf4"] ;
149 -> 150 ;
151 [label="HHD <= 40.665\ngini = 0.612\nsamples = 11\nvalue = [1, 1, 3, 0, 6]\nclass = 50+", fillcolor="#f5b5e7"] ;
150 -> 151 ;
152 [label="HMLD <= 18.725\ngini = 0.32\nsamples = 5\nvalue = [0, 1, 0, 0, 4]\nclass = 50+", fillcolor="#ec6ad0"] ;
151 -> 152 ;
153 [label="gini = 0.0\nsamples = 4\nvalue = [0, 0, 0, 0, 4]\nclass = 50+", fillcolor="#e539c0"] ;
152 -> 153 ;
154 [label="gini = 0.0\nsamples = 1\nvalue = [0, 1, 0, 0, 0]\nclass = 30-40", fillcolor="#7be539"] ;
152 -> 154 ;
155 [label="HEB <= 57.25\ngini = 0.611\nsamples = 6\nvalue = [1, 0, 3, 0, 2]\nclass = 20-30", fillcolor="#cef8f0"] ;
151 -> 155 ;
156 [label="gini = 0.0\nsamples = 3\nvalue = [0, 0, 3, 0, 0]\nclass = 20-30", fillcolor="#39e5c5"] ;
155 -> 156 ;
157 [label="HMLD <= 18.39\ngini = 0.444\nsamples = 3\nvalue = [1, 0, 0, 0, 2]\nclass = 50+", fillcolor="#f29ce0"] ;
155 -> 157 ;
158 [label="gini = 0.0\nsamples = 1\nvalue = [1, 0, 0, 0, 0]\nclass = -20", fillcolor="#e58139"] ;
157 -> 158 ;
159 [label="gini = 0.0\nsamples = 2\nvalue = [0, 0, 0, 0, 2]\nclass = 50+", fillcolor="#e539c0"] ;
157 -> 159 ;
160 [label="HMLD <= 17.855\ngini = 0.625\nsamples = 4\nvalue = [1, 2, 1, 0, 0]\nclass = 30-40", fillcolor="#d3f6bd"] ;
150 -> 160 ;
161 [label="gini = 0.0\nsamples = 1\nvalue = [1, 0, 0, 0, 0]\nclass = -20", fillcolor="#e58139"] ;
160 -> 161 ;
162 [label="HML <= 308.5\ngini = 0.444\nsamples = 3\nvalue = [0, 2, 1, 0, 0]\nclass = 30-40", fillcolor="#bdf29c"] ;
160 -> 162 ;
163 [label="gini = 0.0\nsamples = 2\nvalue = [0, 2, 0, 0, 0]\nclass = 30-40", fillcolor="#7be539"] ;
162 -> 163 ;
164 [label="gini = 0.0\nsamples = 1\nvalue = [0, 0, 1, 0, 0]\nclass = 20-30", fillcolor="#39e5c5"] ;
162 -> 164 ;
165 [label="HHD <= 46.02\ngini = 0.278\nsamples = 6\nvalue = [0, 0, 5, 0, 1]\nclass = 20-30", fillcolor="#61ead1"] ;
149 -> 165 ;
166 [label="gini = 0.0\nsamples = 5\nvalue = [0, 0, 5, 0, 0]\nclass = 20-30", fillcolor="#39e5c5"] ;
165 -> 166 ;
167 [label="gini = 0.0\nsamples = 1\nvalue = [0, 0, 0, 0, 1]\nclass = 50+", fillcolor="#e539c0"] ;
165 -> 167 ;
168 [label="gini = 0.0\nsamples = 4\nvalue = [0, 0, 0, 0, 4]\nclass = 50+", fillcolor="#e539c0"] ;
148 -> 168 ;
169 [label="gini = 0.0\nsamples = 2\nvalue = [2, 0, 0, 0, 0]\nclass = -20", fillcolor="#e58139"] ;
147 -> 169 ;
170 [label="HML <= 304.25\ngini = 0.744\nsamples = 38\nvalue = [1, 13, 10, 8, 6]\nclass = 30-40", fillcolor="#f1fcea"] ;
142 -> 170 ;
171 [label="HML <= 300.0\ngini = 0.676\nsamples = 15\nvalue = [0, 2, 4, 7, 2]\nclass = 40-50", fillcolor="#cac9f8"] ;
170 -> 171 ;
172 [label="gini = 0.0\nsamples = 2\nvalue = [0, 2, 0, 0, 0]\nclass = 30-40", fillcolor="#7be539"] ;
171 -> 172 ;
173 [label="HHD <= 45.92\ngini = 0.592\nsamples = 13\nvalue = [0, 0, 4, 7, 2]\nclass = 40-50", fillcolor="#bebdf6"] ;
171 -> 173 ;
174 [label="HHD <= 39.375\ngini = 0.46\nsamples = 10\nvalue = [0, 0, 2, 7, 1]\nclass = 40-50", fillcolor="#8583ef"] ;
173 -> 174 ;
175 [label="gini = 0.0\nsamples = 1\nvalue = [0, 0, 1, 0, 0]\nclass = 20-30", fillcolor="#39e5c5"] ;
174 -> 175 ;
176 [label="HEB <= 63.5\ngini = 0.37\nsamples = 9\nvalue = [0, 0, 1, 7, 1]\nclass = 40-50", fillcolor="#6d6aec"] ;
174 -> 176 ;
177 [label="HHD <= 45.225\ngini = 0.219\nsamples = 8\nvalue = [0, 0, 0, 7, 1]\nclass = 40-50", fillcolor="#5855e9"] ;
176 -> 177 ;
178 [label="gini = 0.0\nsamples = 6\nvalue = [0, 0, 0, 6, 0]\nclass = 40-50", fillcolor="#3c39e5"] ;
177 -> 178 ;
179 [label="HML <= 301.75\ngini = 0.5\nsamples = 2\nvalue = [0, 0, 0, 1, 1]\nclass = 40-50", fillcolor="#ffffff"] ;
177 -> 179 ;
180 [label="gini = 0.0\nsamples = 1\nvalue = [0, 0, 0, 1, 0]\nclass = 40-50", fillcolor="#3c39e5"] ;
179 -> 180 ;
181 [label="gini = 0.0\nsamples = 1\nvalue = [0, 0, 0, 0, 1]\nclass = 50+", fillcolor="#e539c0"] ;
179 -> 181 ;
182 [label="gini = 0.0\nsamples = 1\nvalue = [0, 0, 1, 0, 0]\nclass = 20-30", fillcolor="#39e5c5"] ;
176 -> 182 ;
183 [label="HML <= 301.25\ngini = 0.444\nsamples = 3\nvalue = [0, 0, 2, 0, 1]\nclass = 20-30", fillcolor="#9cf2e2"] ;
173 -> 183 ;
184 [label="gini = 0.0\nsamples = 1\nvalue = [0, 0, 0, 0, 1]\nclass = 50+", fillcolor="#e539c0"] ;
183 -> 184 ;
185 [label="gini = 0.0\nsamples = 2\nvalue = [0, 0, 2, 0, 0]\nclass = 20-30", fillcolor="#39e5c5"] ;
183 -> 185 ;
186 [label="HEB <= 59.5\ngini = 0.669\nsamples = 23\nvalue = [1, 11, 6, 1, 4]\nclass = 30-40", fillcolor="#d8f7c5"] ;
170 -> 186 ;
187 [label="HML <= 319.25\ngini = 0.346\nsamples = 9\nvalue = [0, 7, 2, 0, 0]\nclass = 30-40", fillcolor="#a1ec72"] ;
186 -> 187 ;
188 [label="HMLD <= 20.705\ngini = 0.219\nsamples = 8\nvalue = [0, 7, 1, 0, 0]\nclass = 30-40", fillcolor="#8ee955"] ;
187 -> 188 ;
189 [label="HMLD <= 20.505\ngini = 0.444\nsamples = 3\nvalue = [0, 2, 1, 0, 0]\nclass = 30-40", fillcolor="#bdf29c"] ;
188 -> 189 ;
190 [label="gini = 0.0\nsamples = 2\nvalue = [0, 2, 0, 0, 0]\nclass = 30-40", fillcolor="#7be539"] ;
189 -> 190 ;
191 [label="gini = 0.0\nsamples = 1\nvalue = [0, 0, 1, 0, 0]\nclass = 20-30", fillcolor="#39e5c5"] ;
189 -> 191 ;
192 [label="gini = 0.0\nsamples = 5\nvalue = [0, 5, 0, 0, 0]\nclass = 30-40", fillcolor="#7be539"] ;
188 -> 192 ;
193 [label="gini = 0.0\nsamples = 1\nvalue = [0, 0, 1, 0, 0]\nclass = 20-30", fillcolor="#39e5c5"] ;
187 -> 193 ;
194 [label="HEB <= 62.5\ngini = 0.745\nsamples = 14\nvalue = [1, 4, 4, 1, 4]\nclass = 30-40", fillcolor="#ffffff"] ;
186 -> 194 ;
195 [label="HMLD <= 25.76\ngini = 0.612\nsamples = 7\nvalue = [1, 1, 0, 1, 4]\nclass = 50+", fillcolor="#f29ce0"] ;
194 -> 195 ;
196 [label="HML <= 314.0\ngini = 0.32\nsamples = 5\nvalue = [0, 0, 0, 1, 4]\nclass = 50+", fillcolor="#ec6ad0"] ;
195 -> 196 ;
197 [label="gini = 0.0\nsamples = 3\nvalue = [0, 0, 0, 0, 3]\nclass = 50+", fillcolor="#e539c0"] ;
196 -> 197 ;
198 [label="HMLD <= 20.585\ngini = 0.5\nsamples = 2\nvalue = [0, 0, 0, 1, 1]\nclass = 40-50", fillcolor="#ffffff"] ;
196 -> 198 ;
199 [label="gini = 0.0\nsamples = 1\nvalue = [0, 0, 0, 0, 1]\nclass = 50+", fillcolor="#e539c0"] ;
198 -> 199 ;
200 [label="gini = 0.0\nsamples = 1\nvalue = [0, 0, 0, 1, 0]\nclass = 40-50", fillcolor="#3c39e5"] ;
198 -> 200 ;
201 [label="HML <= 306.5\ngini = 0.5\nsamples = 2\nvalue = [1, 1, 0, 0, 0]\nclass = -20", fillcolor="#ffffff"] ;
195 -> 201 ;
202 [label="gini = 0.0\nsamples = 1\nvalue = [1, 0, 0, 0, 0]\nclass = -20", fillcolor="#e58139"] ;
201 -> 202 ;
203 [label="gini = 0.0\nsamples = 1\nvalue = [0, 1, 0, 0, 0]\nclass = 30-40", fillcolor="#7be539"] ;
201 -> 203 ;
204 [label="HEB <= 66.0\ngini = 0.49\nsamples = 7\nvalue = [0, 3, 4, 0, 0]\nclass = 20-30", fillcolor="#cef8f0"] ;
194 -> 204 ;
205 [label="HML <= 317.0\ngini = 0.48\nsamples = 5\nvalue = [0, 3, 2, 0, 0]\nclass = 30-40", fillcolor="#d3f6bd"] ;
204 -> 205 ;
206 [label="gini = 0.0\nsamples = 3\nvalue = [0, 3, 0, 0, 0]\nclass = 30-40", fillcolor="#7be539"] ;
205 -> 206 ;
207 [label="gini = 0.0\nsamples = 2\nvalue = [0, 0, 2, 0, 0]\nclass = 20-30", fillcolor="#39e5c5"] ;
205 -> 207 ;
208 [label="gini = 0.0\nsamples = 2\nvalue = [0, 0, 2, 0, 0]\nclass = 20-30", fillcolor="#39e5c5"] ;
204 -> 208 ;
209 [label="HML <= 324.5\ngini = 0.573\nsamples = 35\nvalue = [1, 8, 4, 1, 21]\nclass = 50+", fillcolor="#f2a0e1"] ;
141 -> 209 ;
210 [label="HHD <= 46.195\ngini = 0.198\nsamples = 9\nvalue = [0, 0, 1, 0, 8]\nclass = 50+", fillcolor="#e852c8"] ;
209 -> 210 ;
211 [label="gini = 0.0\nsamples = 7\nvalue = [0, 0, 0, 0, 7]\nclass = 50+", fillcolor="#e539c0"] ;
210 -> 211 ;
212 [label="HMLD <= 21.49\ngini = 0.5\nsamples = 2\nvalue = [0, 0, 1, 0, 1]\nclass = 20-30", fillcolor="#ffffff"] ;
210 -> 212 ;
213 [label="gini = 0.0\nsamples = 1\nvalue = [0, 0, 1, 0, 0]\nclass = 20-30", fillcolor="#39e5c5"] ;
212 -> 213 ;
214 [label="gini = 0.0\nsamples = 1\nvalue = [0, 0, 0, 0, 1]\nclass = 50+", fillcolor="#e539c0"] ;
212 -> 214 ;
215 [label="HML <= 331.25\ngini = 0.639\nsamples = 26\nvalue = [1, 8, 3, 1, 13]\nclass = 50+", fillcolor="#f8c8ee"] ;
209 -> 215 ;
216 [label="HHD <= 43.775\ngini = 0.617\nsamples = 9\nvalue = [0, 5, 1, 1, 2]\nclass = 30-40", fillcolor="#c6f4aa"] ;
215 -> 216 ;
217 [label="HMLD <= 20.25\ngini = 0.444\nsamples = 3\nvalue = [0, 0, 0, 1, 2]\nclass = 50+", fillcolor="#f29ce0"] ;
216 -> 217 ;
218 [label="gini = 0.0\nsamples = 1\nvalue = [0, 0, 0, 1, 0]\nclass = 40-50", fillcolor="#3c39e5"] ;
217 -> 218 ;
219 [label="gini = 0.0\nsamples = 2\nvalue = [0, 0, 0, 0, 2]\nclass = 50+", fillcolor="#e539c0"] ;
217 -> 219 ;
220 [label="HEB <= 58.25\ngini = 0.278\nsamples = 6\nvalue = [0, 5, 1, 0, 0]\nclass = 30-40", fillcolor="#95ea61"] ;
216 -> 220 ;
221 [label="gini = 0.0\nsamples = 1\nvalue = [0, 0, 1, 0, 0]\nclass = 20-30", fillcolor="#39e5c5"] ;
220 -> 221 ;
222 [label="gini = 0.0\nsamples = 5\nvalue = [0, 5, 0, 0, 0]\nclass = 30-40", fillcolor="#7be539"] ;
220 -> 222 ;
223 [label="HHD <= 46.41\ngini = 0.533\nsamples = 17\nvalue = [1, 3, 2, 0, 11]\nclass = 50+", fillcolor="#f08edb"] ;
215 -> 223 ;
224 [label="HEB <= 63.5\ngini = 0.72\nsamples = 5\nvalue = [1, 1, 2, 0, 1]\nclass = 20-30", fillcolor="#cef8f0"] ;
223 -> 224 ;
225 [label="HML <= 334.5\ngini = 0.667\nsamples = 3\nvalue = [1, 1, 0, 0, 1]\nclass = -20", fillcolor="#ffffff"] ;
224 -> 225 ;
226 [label="gini = 0.0\nsamples = 1\nvalue = [0, 0, 0, 0, 1]\nclass = 50+", fillcolor="#e539c0"] ;
225 -> 226 ;
227 [label="HEB <= 60.75\ngini = 0.5\nsamples = 2\nvalue = [1, 1, 0, 0, 0]\nclass = -20", fillcolor="#ffffff"] ;
225 -> 227 ;
228 [label="gini = 0.0\nsamples = 1\nvalue = [0, 1, 0, 0, 0]\nclass = 30-40", fillcolor="#7be539"] ;
227 -> 228 ;
229 [label="gini = 0.0\nsamples = 1\nvalue = [1, 0, 0, 0, 0]\nclass = -20", fillcolor="#e58139"] ;
227 -> 229 ;
230 [label="gini = 0.0\nsamples = 2\nvalue = [0, 0, 2, 0, 0]\nclass = 20-30", fillcolor="#39e5c5"] ;
224 -> 230 ;
231 [label="HMLD <= 20.31\ngini = 0.278\nsamples = 12\nvalue = [0, 2, 0, 0, 10]\nclass = 50+", fillcolor="#ea61cd"] ;
223 -> 231 ;
232 [label="gini = 0.0\nsamples = 1\nvalue = [0, 1, 0, 0, 0]\nclass = 30-40", fillcolor="#7be539"] ;
231 -> 232 ;
233 [label="HMLD <= 24.45\ngini = 0.165\nsamples = 11\nvalue = [0, 1, 0, 0, 10]\nclass = 50+", fillcolor="#e84dc6"] ;
231 -> 233 ;
234 [label="gini = 0.0\nsamples = 10\nvalue = [0, 0, 0, 0, 10]\nclass = 50+", fillcolor="#e539c0"] ;
233 -> 234 ;
235 [label="gini = 0.0\nsamples = 1\nvalue = [0, 1, 0, 0, 0]\nclass = 30-40", fillcolor="#7be539"] ;
233 -> 235 ;
236 [label="gini = 0.0\nsamples = 5\nvalue = [0, 0, 5, 0, 0]\nclass = 20-30", fillcolor="#39e5c5"] ;
140 -> 236 ;
}