digraph Tree {
node [shape=box, style="filled", color="black", fontname="helvetica"] ;
edge [fontname="helvetica"] ;
0 [label="FMLD <= 24.785\ngini = 0.799\nsamples = 240\nvalue = [49, 50, 49, 42, 50]\nclass = 30-40", fillcolor="#ffffff"] ;
1 [label="FEB <= 45.21\ngini = 0.757\nsamples = 129\nvalue = [46, 19, 29, 10, 25]\nclass = -20", fillcolor="#fbeadd"] ;
0 -> 1 [labeldistance=2.5, labelangle=45, headlabel="True"] ;
2 [label="FHD <= 64.5\ngini = 0.767\nsamples = 123\nvalue = [40, 19, 29, 10, 25]\nclass = -20", fillcolor="#fcf0e8"] ;
1 -> 2 ;
3 [label="gini = 0.0\nsamples = 5\nvalue = [5, 0, 0, 0, 0]\nclass = -20", fillcolor="#e58139"] ;
2 -> 3 ;
4 [label="FEB <= 37.425\ngini = 0.774\nsamples = 118\nvalue = [35, 19, 29, 10, 25]\nclass = -20", fillcolor="#fdf7f2"] ;
2 -> 4 ;
5 [label="FEB <= 35.865\ngini = 0.54\nsamples = 10\nvalue = [0, 1, 0, 3, 6]\nclass = 20-30", fillcolor="#f4aae4"] ;
4 -> 5 ;
6 [label="gini = 0.0\nsamples = 2\nvalue = [0, 0, 0, 2, 0]\nclass = 50+", fillcolor="#3c39e5"] ;
5 -> 6 ;
7 [label="FHD <= 68.5\ngini = 0.406\nsamples = 8\nvalue = [0, 1, 0, 1, 6]\nclass = 20-30", fillcolor="#ec72d2"] ;
5 -> 7 ;
8 [label="FML <= 406.0\ngini = 0.245\nsamples = 7\nvalue = [0, 1, 0, 0, 6]\nclass = 20-30", fillcolor="#e95acb"] ;
7 -> 8 ;
9 [label="gini = 0.0\nsamples = 6\nvalue = [0, 0, 0, 0, 6]\nclass = 20-30", fillcolor="#e539c0"] ;
8 -> 9 ;
10 [label="gini = 0.0\nsamples = 1\nvalue = [0, 1, 0, 0, 0]\nclass = 30-40", fillcolor="#7be539"] ;
8 -> 10 ;
11 [label="gini = 0.0\nsamples = 1\nvalue = [0, 0, 0, 1, 0]\nclass = 50+", fillcolor="#3c39e5"] ;
7 -> 11 ;
12 [label="FHD <= 81.75\ngini = 0.76\nsamples = 108\nvalue = [35, 18, 29, 7, 19]\nclass = -20", fillcolor="#fdf5f0"] ;
4 -> 12 ;
13 [label="FMLD <= 24.055\ngini = 0.757\nsamples = 106\nvalue = [35, 18, 29, 7, 17]\nclass = -20", fillcolor="#fdf5f0"] ;
12 -> 13 ;
14 [label="FEB <= 42.915\ngini = 0.727\nsamples = 77\nvalue = [28, 9, 24, 3, 13]\nclass = -20", fillcolor="#fdf5f0"] ;
13 -> 14 ;
15 [label="FEB <= 42.46\ngini = 0.727\nsamples = 67\nvalue = [20, 9, 24, 1, 13]\nclass = 40-50", fillcolor="#eefdfa"] ;
14 -> 15 ;
16 [label="FEB <= 40.94\ngini = 0.733\nsamples = 61\nvalue = [20, 8, 19, 1, 13]\nclass = -20", fillcolor="#fefcfa"] ;
15 -> 16 ;
17 [label="FML <= 378.5\ngini = 0.73\nsamples = 45\nvalue = [11, 5, 16, 1, 12]\nclass = 40-50", fillcolor="#e7fcf8"] ;
16 -> 17 ;
18 [label="FEB <= 37.52\ngini = 0.602\nsamples = 14\nvalue = [2, 1, 8, 0, 3]\nclass = 40-50", fillcolor="#a5f3e5"] ;
17 -> 18 ;
19 [label="gini = 0.0\nsamples = 1\nvalue = [1, 0, 0, 0, 0]\nclass = -20", fillcolor="#e58139"] ;
18 -> 19 ;
20 [label="FEB <= 38.075\ngini = 0.556\nsamples = 13\nvalue = [1, 1, 8, 0, 3]\nclass = 40-50", fillcolor="#9cf2e2"] ;
18 -> 20 ;
21 [label="gini = 0.0\nsamples = 4\nvalue = [0, 0, 4, 0, 0]\nclass = 40-50", fillcolor="#39e5c5"] ;
20 -> 21 ;
22 [label="FEB <= 39.015\ngini = 0.667\nsamples = 9\nvalue = [1, 1, 4, 0, 3]\nclass = 40-50", fillcolor="#defbf5"] ;
20 -> 22 ;
23 [label="FMLD <= 22.085\ngini = 0.375\nsamples = 4\nvalue = [1, 0, 0, 0, 3]\nclass = 20-30", fillcolor="#ee7bd5"] ;
22 -> 23 ;
24 [label="gini = 0.0\nsamples = 1\nvalue = [1, 0, 0, 0, 0]\nclass = -20", fillcolor="#e58139"] ;
23 -> 24 ;
25 [label="gini = 0.0\nsamples = 3\nvalue = [0, 0, 0, 0, 3]\nclass = 20-30", fillcolor="#e539c0"] ;
23 -> 25 ;
26 [label="FEB <= 40.755\ngini = 0.32\nsamples = 5\nvalue = [0, 1, 4, 0, 0]\nclass = 40-50", fillcolor="#6aecd4"] ;
22 -> 26 ;
27 [label="gini = 0.0\nsamples = 3\nvalue = [0, 0, 3, 0, 0]\nclass = 40-50", fillcolor="#39e5c5"] ;
26 -> 27 ;
28 [label="FEB <= 40.845\ngini = 0.5\nsamples = 2\nvalue = [0, 1, 1, 0, 0]\nclass = 30-40", fillcolor="#ffffff"] ;
26 -> 28 ;
29 [label="gini = 0.0\nsamples = 1\nvalue = [0, 1, 0, 0, 0]\nclass = 30-40", fillcolor="#7be539"] ;
28 -> 29 ;
30 [label="gini = 0.0\nsamples = 1\nvalue = [0, 0, 1, 0, 0]\nclass = 40-50", fillcolor="#39e5c5"] ;
28 -> 30 ;
31 [label="FML <= 386.5\ngini = 0.747\nsamples = 31\nvalue = [9, 4, 8, 1, 9]\nclass = -20", fillcolor="#ffffff"] ;
17 -> 31 ;
32 [label="FMLD <= 22.18\ngini = 0.6\nsamples = 10\nvalue = [6, 1, 1, 1, 1]\nclass = -20", fillcolor="#f1b991"] ;
31 -> 32 ;
33 [label="FML <= 380.25\ngini = 0.8\nsamples = 5\nvalue = [1, 1, 1, 1, 1]\nclass = -20", fillcolor="#ffffff"] ;
32 -> 33 ;
34 [label="gini = 0.0\nsamples = 1\nvalue = [0, 0, 1, 0, 0]\nclass = 40-50", fillcolor="#39e5c5"] ;
33 -> 34 ;
35 [label="FML <= 380.75\ngini = 0.75\nsamples = 4\nvalue = [1, 1, 0, 1, 1]\nclass = -20", fillcolor="#ffffff"] ;
33 -> 35 ;
36 [label="gini = 0.0\nsamples = 1\nvalue = [0, 0, 0, 0, 1]\nclass = 20-30", fillcolor="#e539c0"] ;
35 -> 36 ;
37 [label="FML <= 381.25\ngini = 0.667\nsamples = 3\nvalue = [1, 1, 0, 1, 0]\nclass = -20", fillcolor="#ffffff"] ;
35 -> 37 ;
38 [label="gini = 0.0\nsamples = 1\nvalue = [0, 1, 0, 0, 0]\nclass = 30-40", fillcolor="#7be539"] ;
37 -> 38 ;
39 [label="FHD <= 69.5\ngini = 0.5\nsamples = 2\nvalue = [1, 0, 0, 1, 0]\nclass = -20", fillcolor="#ffffff"] ;
37 -> 39 ;
40 [label="gini = 0.0\nsamples = 1\nvalue = [0, 0, 0, 1, 0]\nclass = 50+", fillcolor="#3c39e5"] ;
39 -> 40 ;
41 [label="gini = 0.0\nsamples = 1\nvalue = [1, 0, 0, 0, 0]\nclass = -20", fillcolor="#e58139"] ;
39 -> 41 ;
42 [label="gini = 0.0\nsamples = 5\nvalue = [5, 0, 0, 0, 0]\nclass = -20", fillcolor="#e58139"] ;
32 -> 42 ;
43 [label="FMLD <= 23.59\ngini = 0.703\nsamples = 21\nvalue = [3, 3, 7, 0, 8]\nclass = 20-30", fillcolor="#fdf1fb"] ;
31 -> 43 ;
44 [label="FEB <= 40.02\ngini = 0.623\nsamples = 17\nvalue = [0, 3, 6, 0, 8]\nclass = 20-30", fillcolor="#fadbf4"] ;
43 -> 44 ;
45 [label="FHD <= 68.25\ngini = 0.645\nsamples = 11\nvalue = [0, 3, 5, 0, 3]\nclass = 40-50", fillcolor="#cef8f0"] ;
44 -> 45 ;
46 [label="gini = 0.0\nsamples = 2\nvalue = [0, 0, 0, 0, 2]\nclass = 20-30", fillcolor="#e539c0"] ;
45 -> 46 ;
47 [label="FMLD <= 22.595\ngini = 0.568\nsamples = 9\nvalue = [0, 3, 5, 0, 1]\nclass = 40-50", fillcolor="#bdf6ec"] ;
45 -> 47 ;
48 [label="gini = 0.0\nsamples = 4\nvalue = [0, 0, 4, 0, 0]\nclass = 40-50", fillcolor="#39e5c5"] ;
47 -> 48 ;
49 [label="FEB <= 39.72\ngini = 0.56\nsamples = 5\nvalue = [0, 3, 1, 0, 1]\nclass = 30-40", fillcolor="#bdf29c"] ;
47 -> 49 ;
50 [label="gini = 0.0\nsamples = 3\nvalue = [0, 3, 0, 0, 0]\nclass = 30-40", fillcolor="#7be539"] ;
49 -> 50 ;
51 [label="FMLD <= 23.175\ngini = 0.5\nsamples = 2\nvalue = [0, 0, 1, 0, 1]\nclass = 40-50", fillcolor="#ffffff"] ;
49 -> 51 ;
52 [label="gini = 0.0\nsamples = 1\nvalue = [0, 0, 0, 0, 1]\nclass = 20-30", fillcolor="#e539c0"] ;
51 -> 52 ;
53 [label="gini = 0.0\nsamples = 1\nvalue = [0, 0, 1, 0, 0]\nclass = 40-50", fillcolor="#39e5c5"] ;
51 -> 53 ;
54 [label="FHD <= 74.75\ngini = 0.278\nsamples = 6\nvalue = [0, 0, 1, 0, 5]\nclass = 20-30", fillcolor="#ea61cd"] ;
44 -> 54 ;
55 [label="gini = 0.0\nsamples = 5\nvalue = [0, 0, 0, 0, 5]\nclass = 20-30", fillcolor="#e539c0"] ;
54 -> 55 ;
56 [label="gini = 0.0\nsamples = 1\nvalue = [0, 0, 1, 0, 0]\nclass = 40-50", fillcolor="#39e5c5"] ;
54 -> 56 ;
57 [label="FML <= 417.75\ngini = 0.375\nsamples = 4\nvalue = [3, 0, 1, 0, 0]\nclass = -20", fillcolor="#eeab7b"] ;
43 -> 57 ;
58 [label="gini = 0.0\nsamples = 3\nvalue = [3, 0, 0, 0, 0]\nclass = -20", fillcolor="#e58139"] ;
57 -> 58 ;
59 [label="gini = 0.0\nsamples = 1\nvalue = [0, 0, 1, 0, 0]\nclass = 40-50", fillcolor="#39e5c5"] ;
57 -> 59 ;
60 [label="FEB <= 42.215\ngini = 0.609\nsamples = 16\nvalue = [9, 3, 3, 0, 1]\nclass = -20", fillcolor="#f3c5a4"] ;
16 -> 60 ;
61 [label="FML <= 416.5\ngini = 0.531\nsamples = 14\nvalue = [9, 1, 3, 0, 1]\nclass = -20", fillcolor="#f1ba93"] ;
60 -> 61 ;
62 [label="FML <= 394.0\ngini = 0.667\nsamples = 9\nvalue = [4, 1, 3, 0, 1]\nclass = -20", fillcolor="#fbeade"] ;
61 -> 62 ;
63 [label="FEB <= 41.195\ngini = 0.444\nsamples = 6\nvalue = [4, 0, 2, 0, 0]\nclass = -20", fillcolor="#f2c09c"] ;
62 -> 63 ;
64 [label="gini = 0.0\nsamples = 2\nvalue = [2, 0, 0, 0, 0]\nclass = -20", fillcolor="#e58139"] ;
63 -> 64 ;
65 [label="FEB <= 41.765\ngini = 0.5\nsamples = 4\nvalue = [2, 0, 2, 0, 0]\nclass = -20", fillcolor="#ffffff"] ;
63 -> 65 ;
66 [label="gini = 0.0\nsamples = 2\nvalue = [0, 0, 2, 0, 0]\nclass = 40-50", fillcolor="#39e5c5"] ;
65 -> 66 ;
67 [label="gini = 0.0\nsamples = 2\nvalue = [2, 0, 0, 0, 0]\nclass = -20", fillcolor="#e58139"] ;
65 -> 67 ;
68 [label="FHD <= 71.75\ngini = 0.667\nsamples = 3\nvalue = [0, 1, 1, 0, 1]\nclass = 30-40", fillcolor="#ffffff"] ;
62 -> 68 ;
69 [label="gini = 0.0\nsamples = 1\nvalue = [0, 0, 1, 0, 0]\nclass = 40-50", fillcolor="#39e5c5"] ;
68 -> 69 ;
70 [label="FMLD <= 22.535\ngini = 0.5\nsamples = 2\nvalue = [0, 1, 0, 0, 1]\nclass = 30-40", fillcolor="#ffffff"] ;
68 -> 70 ;
71 [label="gini = 0.0\nsamples = 1\nvalue = [0, 1, 0, 0, 0]\nclass = 30-40", fillcolor="#7be539"] ;
70 -> 71 ;
72 [label="gini = 0.0\nsamples = 1\nvalue = [0, 0, 0, 0, 1]\nclass = 20-30", fillcolor="#e539c0"] ;
70 -> 72 ;
73 [label="gini = 0.0\nsamples = 5\nvalue = [5, 0, 0, 0, 0]\nclass = -20", fillcolor="#e58139"] ;
61 -> 73 ;
74 [label="gini = 0.0\nsamples = 2\nvalue = [0, 2, 0, 0, 0]\nclass = 30-40", fillcolor="#7be539"] ;
60 -> 74 ;
75 [label="FML <= 385.0\ngini = 0.278\nsamples = 6\nvalue = [0, 1, 5, 0, 0]\nclass = 40-50", fillcolor="#61ead1"] ;
15 -> 75 ;
76 [label="gini = 0.0\nsamples = 1\nvalue = [0, 1, 0, 0, 0]\nclass = 30-40", fillcolor="#7be539"] ;
75 -> 76 ;
77 [label="gini = 0.0\nsamples = 5\nvalue = [0, 0, 5, 0, 0]\nclass = 40-50", fillcolor="#39e5c5"] ;
75 -> 77 ;
78 [label="FML <= 431.25\ngini = 0.32\nsamples = 10\nvalue = [8, 0, 0, 2, 0]\nclass = -20", fillcolor="#eca06a"] ;
14 -> 78 ;
79 [label="FEB <= 43.15\ngini = 0.198\nsamples = 9\nvalue = [8, 0, 0, 1, 0]\nclass = -20", fillcolor="#e89152"] ;
78 -> 79 ;
80 [label="FMLD <= 23.205\ngini = 0.5\nsamples = 2\nvalue = [1, 0, 0, 1, 0]\nclass = -20", fillcolor="#ffffff"] ;
79 -> 80 ;
81 [label="gini = 0.0\nsamples = 1\nvalue = [1, 0, 0, 0, 0]\nclass = -20", fillcolor="#e58139"] ;
80 -> 81 ;
82 [label="gini = 0.0\nsamples = 1\nvalue = [0, 0, 0, 1, 0]\nclass = 50+", fillcolor="#3c39e5"] ;
80 -> 82 ;
83 [label="gini = 0.0\nsamples = 7\nvalue = [7, 0, 0, 0, 0]\nclass = -20", fillcolor="#e58139"] ;
79 -> 83 ;
84 [label="gini = 0.0\nsamples = 1\nvalue = [0, 0, 0, 1, 0]\nclass = 50+", fillcolor="#3c39e5"] ;
78 -> 84 ;
85 [label="FMLD <= 24.555\ngini = 0.778\nsamples = 29\nvalue = [7, 9, 5, 4, 4]\nclass = 30-40", fillcolor="#f3fded"] ;
13 -> 85 ;
86 [label="FML <= 381.5\ngini = 0.731\nsamples = 22\nvalue = [5, 9, 2, 2, 4]\nclass = 30-40", fillcolor="#e0f9d0"] ;
85 -> 86 ;
87 [label="gini = 0.0\nsamples = 3\nvalue = [0, 3, 0, 0, 0]\nclass = 30-40", fillcolor="#7be539"] ;
86 -> 87 ;
88 [label="FML <= 386.5\ngini = 0.765\nsamples = 19\nvalue = [5, 6, 2, 2, 4]\nclass = 30-40", fillcolor="#f6fdf1"] ;
86 -> 88 ;
89 [label="gini = 0.0\nsamples = 2\nvalue = [0, 0, 0, 2, 0]\nclass = 50+", fillcolor="#3c39e5"] ;
88 -> 89 ;
90 [label="FML <= 399.5\ngini = 0.72\nsamples = 17\nvalue = [5, 6, 2, 0, 4]\nclass = 30-40", fillcolor="#f4fdee"] ;
88 -> 90 ;
91 [label="FEB <= 42.64\ngini = 0.48\nsamples = 5\nvalue = [2, 0, 0, 0, 3]\nclass = 20-30", fillcolor="#f6bdea"] ;
90 -> 91 ;
92 [label="FMLD <= 24.18\ngini = 0.444\nsamples = 3\nvalue = [2, 0, 0, 0, 1]\nclass = -20", fillcolor="#f2c09c"] ;
91 -> 92 ;
93 [label="gini = 0.0\nsamples = 1\nvalue = [0, 0, 0, 0, 1]\nclass = 20-30", fillcolor="#e539c0"] ;
92 -> 93 ;
94 [label="gini = 0.0\nsamples = 2\nvalue = [2, 0, 0, 0, 0]\nclass = -20", fillcolor="#e58139"] ;
92 -> 94 ;
95 [label="gini = 0.0\nsamples = 2\nvalue = [0, 0, 0, 0, 2]\nclass = 20-30", fillcolor="#e539c0"] ;
91 -> 95 ;
96 [label="FML <= 421.5\ngini = 0.653\nsamples = 12\nvalue = [3, 6, 2, 0, 1]\nclass = 30-40", fillcolor="#d3f6bd"] ;
90 -> 96 ;
97 [label="FEB <= 41.755\ngini = 0.406\nsamples = 8\nvalue = [1, 6, 1, 0, 0]\nclass = 30-40", fillcolor="#a1ec72"] ;
96 -> 97 ;
98 [label="FMLD <= 24.34\ngini = 0.5\nsamples = 2\nvalue = [1, 0, 1, 0, 0]\nclass = -20", fillcolor="#ffffff"] ;
97 -> 98 ;
99 [label="gini = 0.0\nsamples = 1\nvalue = [1, 0, 0, 0, 0]\nclass = -20", fillcolor="#e58139"] ;
98 -> 99 ;
100 [label="gini = 0.0\nsamples = 1\nvalue = [0, 0, 1, 0, 0]\nclass = 40-50", fillcolor="#39e5c5"] ;
98 -> 100 ;
101 [label="gini = 0.0\nsamples = 6\nvalue = [0, 6, 0, 0, 0]\nclass = 30-40", fillcolor="#7be539"] ;
97 -> 101 ;
102 [label="FEB <= 43.915\ngini = 0.625\nsamples = 4\nvalue = [2, 0, 1, 0, 1]\nclass = -20", fillcolor="#f6d5bd"] ;
96 -> 102 ;
103 [label="FHD <= 75.0\ngini = 0.5\nsamples = 2\nvalue = [0, 0, 1, 0, 1]\nclass = 40-50", fillcolor="#ffffff"] ;
102 -> 103 ;
104 [label="gini = 0.0\nsamples = 1\nvalue = [0, 0, 1, 0, 0]\nclass = 40-50", fillcolor="#39e5c5"] ;
103 -> 104 ;
105 [label="gini = 0.0\nsamples = 1\nvalue = [0, 0, 0, 0, 1]\nclass = 20-30", fillcolor="#e539c0"] ;
103 -> 105 ;
106 [label="gini = 0.0\nsamples = 2\nvalue = [2, 0, 0, 0, 0]\nclass = -20", fillcolor="#e58139"] ;
102 -> 106 ;
107 [label="FEB <= 40.24\ngini = 0.653\nsamples = 7\nvalue = [2, 0, 3, 2, 0]\nclass = 40-50", fillcolor="#d7faf3"] ;
85 -> 107 ;
108 [label="gini = 0.0\nsamples = 2\nvalue = [2, 0, 0, 0, 0]\nclass = -20", fillcolor="#e58139"] ;
107 -> 108 ;
109 [label="FEB <= 43.905\ngini = 0.48\nsamples = 5\nvalue = [0, 0, 3, 2, 0]\nclass = 40-50", fillcolor="#bdf6ec"] ;
107 -> 109 ;
110 [label="FHD <= 69.5\ngini = 0.444\nsamples = 3\nvalue = [0, 0, 1, 2, 0]\nclass = 50+", fillcolor="#9e9cf2"] ;
109 -> 110 ;
111 [label="gini = 0.0\nsamples = 1\nvalue = [0, 0, 0, 1, 0]\nclass = 50+", fillcolor="#3c39e5"] ;
110 -> 111 ;
112 [label="FMLD <= 24.595\ngini = 0.5\nsamples = 2\nvalue = [0, 0, 1, 1, 0]\nclass = 40-50", fillcolor="#ffffff"] ;
110 -> 112 ;
113 [label="gini = 0.0\nsamples = 1\nvalue = [0, 0, 0, 1, 0]\nclass = 50+", fillcolor="#3c39e5"] ;
112 -> 113 ;
114 [label="gini = 0.0\nsamples = 1\nvalue = [0, 0, 1, 0, 0]\nclass = 40-50", fillcolor="#39e5c5"] ;
112 -> 114 ;
115 [label="gini = 0.0\nsamples = 2\nvalue = [0, 0, 2, 0, 0]\nclass = 40-50", fillcolor="#39e5c5"] ;
109 -> 115 ;
116 [label="gini = 0.0\nsamples = 2\nvalue = [0, 0, 0, 0, 2]\nclass = 20-30", fillcolor="#e539c0"] ;
12 -> 116 ;
117 [label="gini = 0.0\nsamples = 6\nvalue = [6, 0, 0, 0, 0]\nclass = -20", fillcolor="#e58139"] ;
1 -> 117 ;
118 [label="FMLD <= 27.14\ngini = 0.755\nsamples = 111\nvalue = [3, 31, 20, 32, 25]\nclass = 50+", fillcolor="#fdfdff"] ;
0 -> 118 [labeldistance=2.5, labelangle=-45, headlabel="False"] ;
119 [label="FHD <= 77.25\ngini = 0.728\nsamples = 57\nvalue = [1, 21, 14, 7, 14]\nclass = 30-40", fillcolor="#eafbdf"] ;
118 -> 119 ;
120 [label="FML <= 397.5\ngini = 0.65\nsamples = 35\nvalue = [0, 17, 10, 6, 2]\nclass = 30-40", fillcolor="#daf8c8"] ;
119 -> 120 ;
121 [label="FHD <= 74.0\ngini = 0.494\nsamples = 18\nvalue = [0, 12, 2, 4, 0]\nclass = 30-40", fillcolor="#b4f08e"] ;
120 -> 121 ;
122 [label="FHD <= 71.75\ngini = 0.611\nsamples = 12\nvalue = [0, 6, 2, 4, 0]\nclass = 30-40", fillcolor="#def8ce"] ;
121 -> 122 ;
123 [label="FMLD <= 24.965\ngini = 0.406\nsamples = 8\nvalue = [0, 6, 1, 1, 0]\nclass = 30-40", fillcolor="#a1ec72"] ;
122 -> 123 ;
124 [label="FMLD <= 24.84\ngini = 0.5\nsamples = 2\nvalue = [0, 0, 1, 1, 0]\nclass = 40-50", fillcolor="#ffffff"] ;
123 -> 124 ;
125 [label="gini = 0.0\nsamples = 1\nvalue = [0, 0, 0, 1, 0]\nclass = 50+", fillcolor="#3c39e5"] ;
124 -> 125 ;
126 [label="gini = 0.0\nsamples = 1\nvalue = [0, 0, 1, 0, 0]\nclass = 40-50", fillcolor="#39e5c5"] ;
124 -> 126 ;
127 [label="gini = 0.0\nsamples = 6\nvalue = [0, 6, 0, 0, 0]\nclass = 30-40", fillcolor="#7be539"] ;
123 -> 127 ;
128 [label="FEB <= 42.38\ngini = 0.375\nsamples = 4\nvalue = [0, 0, 1, 3, 0]\nclass = 50+", fillcolor="#7d7bee"] ;
122 -> 128 ;
129 [label="FMLD <= 26.27\ngini = 0.5\nsamples = 2\nvalue = [0, 0, 1, 1, 0]\nclass = 40-50", fillcolor="#ffffff"] ;
128 -> 129 ;
130 [label="gini = 0.0\nsamples = 1\nvalue = [0, 0, 1, 0, 0]\nclass = 40-50", fillcolor="#39e5c5"] ;
129 -> 130 ;
131 [label="gini = 0.0\nsamples = 1\nvalue = [0, 0, 0, 1, 0]\nclass = 50+", fillcolor="#3c39e5"] ;
129 -> 131 ;
132 [label="gini = 0.0\nsamples = 2\nvalue = [0, 0, 0, 2, 0]\nclass = 50+", fillcolor="#3c39e5"] ;
128 -> 132 ;
133 [label="gini = 0.0\nsamples = 6\nvalue = [0, 6, 0, 0, 0]\nclass = 30-40", fillcolor="#7be539"] ;
121 -> 133 ;
134 [label="FML <= 424.5\ngini = 0.664\nsamples = 17\nvalue = [0, 5, 8, 2, 2]\nclass = 40-50", fillcolor="#cef8f0"] ;
120 -> 134 ;
135 [label="FHD <= 76.5\ngini = 0.43\nsamples = 11\nvalue = [0, 0, 8, 1, 2]\nclass = 40-50", fillcolor="#7beed8"] ;
134 -> 135 ;
136 [label="FML <= 400.0\ngini = 0.32\nsamples = 10\nvalue = [0, 0, 8, 0, 2]\nclass = 40-50", fillcolor="#6aecd4"] ;
135 -> 136 ;
137 [label="gini = 0.0\nsamples = 1\nvalue = [0, 0, 0, 0, 1]\nclass = 20-30", fillcolor="#e539c0"] ;
136 -> 137 ;
138 [label="FMLD <= 25.035\ngini = 0.198\nsamples = 9\nvalue = [0, 0, 8, 0, 1]\nclass = 40-50", fillcolor="#52e8cc"] ;
136 -> 138 ;
139 [label="gini = 0.0\nsamples = 1\nvalue = [0, 0, 0, 0, 1]\nclass = 20-30", fillcolor="#e539c0"] ;
138 -> 139 ;
140 [label="gini = 0.0\nsamples = 8\nvalue = [0, 0, 8, 0, 0]\nclass = 40-50", fillcolor="#39e5c5"] ;
138 -> 140 ;
141 [label="gini = 0.0\nsamples = 1\nvalue = [0, 0, 0, 1, 0]\nclass = 50+", fillcolor="#3c39e5"] ;
135 -> 141 ;
142 [label="FEB <= 43.495\ngini = 0.278\nsamples = 6\nvalue = [0, 5, 0, 1, 0]\nclass = 30-40", fillcolor="#95ea61"] ;
134 -> 142 ;
143 [label="FHD <= 75.0\ngini = 0.5\nsamples = 2\nvalue = [0, 1, 0, 1, 0]\nclass = 30-40", fillcolor="#ffffff"] ;
142 -> 143 ;
144 [label="gini = 0.0\nsamples = 1\nvalue = [0, 1, 0, 0, 0]\nclass = 30-40", fillcolor="#7be539"] ;
143 -> 144 ;
145 [label="gini = 0.0\nsamples = 1\nvalue = [0, 0, 0, 1, 0]\nclass = 50+", fillcolor="#3c39e5"] ;
143 -> 145 ;
146 [label="gini = 0.0\nsamples = 4\nvalue = [0, 4, 0, 0, 0]\nclass = 30-40", fillcolor="#7be539"] ;
142 -> 146 ;
147 [label="FML <= 443.5\ngini = 0.632\nsamples = 22\nvalue = [1, 4, 4, 1, 12]\nclass = 20-30", fillcolor="#f3a7e3"] ;
119 -> 147 ;
148 [label="FHD <= 81.5\ngini = 0.543\nsamples = 19\nvalue = [1, 2, 4, 0, 12]\nclass = 20-30", fillcolor="#f195dd"] ;
147 -> 148 ;
149 [label="FEB <= 46.97\ngini = 0.663\nsamples = 13\nvalue = [1, 2, 4, 0, 6]\nclass = 20-30", fillcolor="#f9d3f1"] ;
148 -> 149 ;
150 [label="FEB <= 43.665\ngini = 0.58\nsamples = 10\nvalue = [1, 2, 1, 0, 6]\nclass = 20-30", fillcolor="#f29ce0"] ;
149 -> 150 ;
151 [label="gini = 0.0\nsamples = 1\nvalue = [0, 1, 0, 0, 0]\nclass = 30-40", fillcolor="#7be539"] ;
150 -> 151 ;
152 [label="FML <= 426.5\ngini = 0.519\nsamples = 9\nvalue = [1, 1, 1, 0, 6]\nclass = 20-30", fillcolor="#ef83d8"] ;
150 -> 152 ;
153 [label="FHD <= 80.25\ngini = 0.278\nsamples = 6\nvalue = [0, 0, 1, 0, 5]\nclass = 20-30", fillcolor="#ea61cd"] ;
152 -> 153 ;
154 [label="gini = 0.0\nsamples = 3\nvalue = [0, 0, 0, 0, 3]\nclass = 20-30", fillcolor="#e539c0"] ;
153 -> 154 ;
155 [label="FEB <= 45.975\ngini = 0.444\nsamples = 3\nvalue = [0, 0, 1, 0, 2]\nclass = 20-30", fillcolor="#f29ce0"] ;
153 -> 155 ;
156 [label="gini = 0.0\nsamples = 1\nvalue = [0, 0, 1, 0, 0]\nclass = 40-50", fillcolor="#39e5c5"] ;
155 -> 156 ;
157 [label="gini = 0.0\nsamples = 2\nvalue = [0, 0, 0, 0, 2]\nclass = 20-30", fillcolor="#e539c0"] ;
155 -> 157 ;
158 [label="FML <= 433.0\ngini = 0.667\nsamples = 3\nvalue = [1, 1, 0, 0, 1]\nclass = -20", fillcolor="#ffffff"] ;
152 -> 158 ;
159 [label="gini = 0.0\nsamples = 1\nvalue = [0, 1, 0, 0, 0]\nclass = 30-40", fillcolor="#7be539"] ;
158 -> 159 ;
160 [label="FEB <= 45.67\ngini = 0.5\nsamples = 2\nvalue = [1, 0, 0, 0, 1]\nclass = -20", fillcolor="#ffffff"] ;
158 -> 160 ;
161 [label="gini = 0.0\nsamples = 1\nvalue = [1, 0, 0, 0, 0]\nclass = -20", fillcolor="#e58139"] ;
160 -> 161 ;
162 [label="gini = 0.0\nsamples = 1\nvalue = [0, 0, 0, 0, 1]\nclass = 20-30", fillcolor="#e539c0"] ;
160 -> 162 ;
163 [label="gini = 0.0\nsamples = 3\nvalue = [0, 0, 3, 0, 0]\nclass = 40-50", fillcolor="#39e5c5"] ;
149 -> 163 ;
164 [label="gini = 0.0\nsamples = 6\nvalue = [0, 0, 0, 0, 6]\nclass = 20-30", fillcolor="#e539c0"] ;
148 -> 164 ;
165 [label="FHD <= 80.0\ngini = 0.444\nsamples = 3\nvalue = [0, 2, 0, 1, 0]\nclass = 30-40", fillcolor="#bdf29c"] ;
147 -> 165 ;
166 [label="gini = 0.0\nsamples = 1\nvalue = [0, 0, 0, 1, 0]\nclass = 50+", fillcolor="#3c39e5"] ;
165 -> 166 ;
167 [label="gini = 0.0\nsamples = 2\nvalue = [0, 2, 0, 0, 0]\nclass = 30-40", fillcolor="#7be539"] ;
165 -> 167 ;
168 [label="FEB <= 55.245\ngini = 0.696\nsamples = 54\nvalue = [2, 10, 6, 25, 11]\nclass = 50+", fillcolor="#c0bff7"] ;
118 -> 168 ;
169 [label="FML <= 502.25\ngini = 0.686\nsamples = 52\nvalue = [2, 8, 6, 25, 11]\nclass = 50+", fillcolor="#bcbbf6"] ;
168 -> 169 ;
170 [label="FHD <= 86.25\ngini = 0.676\nsamples = 50\nvalue = [2, 8, 6, 25, 9]\nclass = 50+", fillcolor="#b3b2f5"] ;
169 -> 170 ;
171 [label="FML <= 486.0\ngini = 0.72\nsamples = 42\nvalue = [2, 7, 6, 18, 9]\nclass = 50+", fillcolor="#cac9f8"] ;
170 -> 171 ;
172 [label="FEB <= 48.28\ngini = 0.694\nsamples = 40\nvalue = [0, 7, 6, 18, 9]\nclass = 50+", fillcolor="#c6c6f7"] ;
171 -> 172 ;
173 [label="FEB <= 45.145\ngini = 0.656\nsamples = 36\nvalue = [0, 5, 4, 18, 9]\nclass = 50+", fillcolor="#bebdf6"] ;
172 -> 173 ;
174 [label="FEB <= 37.12\ngini = 0.417\nsamples = 12\nvalue = [0, 1, 1, 9, 1]\nclass = 50+", fillcolor="#716fec"] ;
173 -> 174 ;
175 [label="gini = 0.0\nsamples = 1\nvalue = [0, 0, 0, 0, 1]\nclass = 20-30", fillcolor="#e539c0"] ;
174 -> 175 ;
176 [label="FML <= 403.25\ngini = 0.314\nsamples = 11\nvalue = [0, 1, 1, 9, 0]\nclass = 50+", fillcolor="#6361ea"] ;
174 -> 176 ;
177 [label="FEB <= 40.765\ngini = 0.625\nsamples = 4\nvalue = [0, 1, 1, 2, 0]\nclass = 50+", fillcolor="#bebdf6"] ;
176 -> 177 ;
178 [label="gini = 0.0\nsamples = 2\nvalue = [0, 0, 0, 2, 0]\nclass = 50+", fillcolor="#3c39e5"] ;
177 -> 178 ;
179 [label="FML <= 398.75\ngini = 0.5\nsamples = 2\nvalue = [0, 1, 1, 0, 0]\nclass = 30-40", fillcolor="#ffffff"] ;
177 -> 179 ;
180 [label="gini = 0.0\nsamples = 1\nvalue = [0, 0, 1, 0, 0]\nclass = 40-50", fillcolor="#39e5c5"] ;
179 -> 180 ;
181 [label="gini = 0.0\nsamples = 1\nvalue = [0, 1, 0, 0, 0]\nclass = 30-40", fillcolor="#7be539"] ;
179 -> 181 ;
182 [label="gini = 0.0\nsamples = 7\nvalue = [0, 0, 0, 7, 0]\nclass = 50+", fillcolor="#3c39e5"] ;
176 -> 182 ;
183 [label="FML <= 439.75\ngini = 0.705\nsamples = 24\nvalue = [0, 4, 3, 9, 8]\nclass = 50+", fillcolor="#f3f3fd"] ;
173 -> 183 ;
184 [label="FEB <= 45.99\ngini = 0.716\nsamples = 9\nvalue = [0, 3, 3, 1, 2]\nclass = 30-40", fillcolor="#ffffff"] ;
183 -> 184 ;
185 [label="FMLD <= 29.42\ngini = 0.375\nsamples = 4\nvalue = [0, 1, 3, 0, 0]\nclass = 40-50", fillcolor="#7beed8"] ;
184 -> 185 ;
186 [label="gini = 0.0\nsamples = 3\nvalue = [0, 0, 3, 0, 0]\nclass = 40-50", fillcolor="#39e5c5"] ;
185 -> 186 ;
187 [label="gini = 0.0\nsamples = 1\nvalue = [0, 1, 0, 0, 0]\nclass = 30-40", fillcolor="#7be539"] ;
185 -> 187 ;
188 [label="FEB <= 47.12\ngini = 0.64\nsamples = 5\nvalue = [0, 2, 0, 1, 2]\nclass = 30-40", fillcolor="#ffffff"] ;
184 -> 188 ;
189 [label="gini = 0.0\nsamples = 2\nvalue = [0, 0, 0, 0, 2]\nclass = 20-30", fillcolor="#e539c0"] ;
188 -> 189 ;
190 [label="FML <= 427.75\ngini = 0.444\nsamples = 3\nvalue = [0, 2, 0, 1, 0]\nclass = 30-40", fillcolor="#bdf29c"] ;
188 -> 190 ;
191 [label="gini = 0.0\nsamples = 1\nvalue = [0, 0, 0, 1, 0]\nclass = 50+", fillcolor="#3c39e5"] ;
190 -> 191 ;
192 [label="gini = 0.0\nsamples = 2\nvalue = [0, 2, 0, 0, 0]\nclass = 30-40", fillcolor="#7be539"] ;
190 -> 192 ;
193 [label="FHD <= 80.75\ngini = 0.551\nsamples = 15\nvalue = [0, 1, 0, 8, 6]\nclass = 50+", fillcolor="#d4d3f9"] ;
183 -> 193 ;
194 [label="gini = 0.0\nsamples = 4\nvalue = [0, 0, 0, 4, 0]\nclass = 50+", fillcolor="#3c39e5"] ;
193 -> 194 ;
195 [label="FEB <= 47.8\ngini = 0.562\nsamples = 11\nvalue = [0, 1, 0, 4, 6]\nclass = 20-30", fillcolor="#f8c6ed"] ;
193 -> 195 ;
196 [label="FMLD <= 27.285\ngini = 0.494\nsamples = 9\nvalue = [0, 1, 0, 2, 6]\nclass = 20-30", fillcolor="#f08edb"] ;
195 -> 196 ;
197 [label="gini = 0.0\nsamples = 1\nvalue = [0, 1, 0, 0, 0]\nclass = 30-40", fillcolor="#7be539"] ;
196 -> 197 ;
198 [label="FML <= 472.0\ngini = 0.375\nsamples = 8\nvalue = [0, 0, 0, 2, 6]\nclass = 20-30", fillcolor="#ee7bd5"] ;
196 -> 198 ;
199 [label="FEB <= 46.995\ngini = 0.245\nsamples = 7\nvalue = [0, 0, 0, 1, 6]\nclass = 20-30", fillcolor="#e95acb"] ;
198 -> 199 ;
200 [label="gini = 0.0\nsamples = 4\nvalue = [0, 0, 0, 0, 4]\nclass = 20-30", fillcolor="#e539c0"] ;
199 -> 200 ;
201 [label="FEB <= 47.15\ngini = 0.444\nsamples = 3\nvalue = [0, 0, 0, 1, 2]\nclass = 20-30", fillcolor="#f29ce0"] ;
199 -> 201 ;
202 [label="gini = 0.0\nsamples = 1\nvalue = [0, 0, 0, 1, 0]\nclass = 50+", fillcolor="#3c39e5"] ;
201 -> 202 ;
203 [label="gini = 0.0\nsamples = 2\nvalue = [0, 0, 0, 0, 2]\nclass = 20-30", fillcolor="#e539c0"] ;
201 -> 203 ;
204 [label="gini = 0.0\nsamples = 1\nvalue = [0, 0, 0, 1, 0]\nclass = 50+", fillcolor="#3c39e5"] ;
198 -> 204 ;
205 [label="gini = 0.0\nsamples = 2\nvalue = [0, 0, 0, 2, 0]\nclass = 50+", fillcolor="#3c39e5"] ;
195 -> 205 ;
206 [label="FHD <= 85.25\ngini = 0.5\nsamples = 4\nvalue = [0, 2, 2, 0, 0]\nclass = 30-40", fillcolor="#ffffff"] ;
172 -> 206 ;
207 [label="gini = 0.0\nsamples = 2\nvalue = [0, 0, 2, 0, 0]\nclass = 40-50", fillcolor="#39e5c5"] ;
206 -> 207 ;
208 [label="gini = 0.0\nsamples = 2\nvalue = [0, 2, 0, 0, 0]\nclass = 30-40", fillcolor="#7be539"] ;
206 -> 208 ;
209 [label="gini = 0.0\nsamples = 2\nvalue = [2, 0, 0, 0, 0]\nclass = -20", fillcolor="#e58139"] ;
171 -> 209 ;
210 [label="FML <= 450.0\ngini = 0.219\nsamples = 8\nvalue = [0, 1, 0, 7, 0]\nclass = 50+", fillcolor="#5855e9"] ;
170 -> 210 ;
211 [label="FML <= 446.5\ngini = 0.444\nsamples = 3\nvalue = [0, 1, 0, 2, 0]\nclass = 50+", fillcolor="#9e9cf2"] ;
210 -> 211 ;
212 [label="gini = 0.0\nsamples = 2\nvalue = [0, 0, 0, 2, 0]\nclass = 50+", fillcolor="#3c39e5"] ;
211 -> 212 ;
213 [label="gini = 0.0\nsamples = 1\nvalue = [0, 1, 0, 0, 0]\nclass = 30-40", fillcolor="#7be539"] ;
211 -> 213 ;
214 [label="gini = 0.0\nsamples = 5\nvalue = [0, 0, 0, 5, 0]\nclass = 50+", fillcolor="#3c39e5"] ;
210 -> 214 ;
215 [label="gini = 0.0\nsamples = 2\nvalue = [0, 0, 0, 0, 2]\nclass = 20-30", fillcolor="#e539c0"] ;
169 -> 215 ;
216 [label="gini = 0.0\nsamples = 2\nvalue = [0, 2, 0, 0, 0]\nclass = 30-40", fillcolor="#7be539"] ;
168 -> 216 ;
}