digraph Tree {
node [shape=box, style="filled", color="black", fontname="helvetica"] ;
edge [fontname="helvetica"] ;
0 [label="HHD <= 42.295\ngini = 0.5\nsamples = 256\nvalue = [130, 126]\nclass = male", fillcolor="#fefbf9"] ;
1 [label="HEB <= 55.25\ngini = 0.257\nsamples = 139\nvalue = [21, 118]\nclass = female", fillcolor="#5caeea"] ;
0 -> 1 [labeldistance=2.5, labelangle=45, headlabel="True"] ;
2 [label="HEB <= 51.75\ngini = 0.159\nsamples = 115\nvalue = [10, 105]\nclass = female", fillcolor="#4ca6e7"] ;
1 -> 2 ;
3 [label="gini = 0.0\nsamples = 36\nvalue = [0, 36]\nclass = female", fillcolor="#399de5"] ;
2 -> 3 ;
4 [label="HML <= 260.0\ngini = 0.221\nsamples = 79\nvalue = [10, 69]\nclass = female", fillcolor="#56abe9"] ;
2 -> 4 ;
5 [label="gini = 0.0\nsamples = 1\nvalue = [1, 0]\nclass = male", fillcolor="#e58139"] ;
4 -> 5 ;
6 [label="HEB <= 52.75\ngini = 0.204\nsamples = 78\nvalue = [9, 69]\nclass = female", fillcolor="#53aae8"] ;
4 -> 6 ;
7 [label="HML <= 276.5\ngini = 0.346\nsamples = 27\nvalue = [6, 21]\nclass = female", fillcolor="#72b9ec"] ;
6 -> 7 ;
8 [label="HML <= 273.75\ngini = 0.48\nsamples = 10\nvalue = [4, 6]\nclass = female", fillcolor="#bddef6"] ;
7 -> 8 ;
9 [label="gini = 0.0\nsamples = 6\nvalue = [0, 6]\nclass = female", fillcolor="#399de5"] ;
8 -> 9 ;
10 [label="gini = 0.0\nsamples = 4\nvalue = [4, 0]\nclass = male", fillcolor="#e58139"] ;
8 -> 10 ;
11 [label="HHD <= 37.59\ngini = 0.208\nsamples = 17\nvalue = [2, 15]\nclass = female", fillcolor="#53aae8"] ;
7 -> 11 ;
12 [label="HMLD <= 17.84\ngini = 0.5\nsamples = 2\nvalue = [1, 1]\nclass = male", fillcolor="#ffffff"] ;
11 -> 12 ;
13 [label="gini = 0.0\nsamples = 1\nvalue = [1, 0]\nclass = male", fillcolor="#e58139"] ;
12 -> 13 ;
14 [label="gini = 0.0\nsamples = 1\nvalue = [0, 1]\nclass = female", fillcolor="#399de5"] ;
12 -> 14 ;
15 [label="HEB <= 52.25\ngini = 0.124\nsamples = 15\nvalue = [1, 14]\nclass = female", fillcolor="#47a4e7"] ;
11 -> 15 ;
16 [label="gini = 0.0\nsamples = 13\nvalue = [0, 13]\nclass = female", fillcolor="#399de5"] ;
15 -> 16 ;
17 [label="HML <= 287.0\ngini = 0.5\nsamples = 2\nvalue = [1, 1]\nclass = male", fillcolor="#ffffff"] ;
15 -> 17 ;
18 [label="gini = 0.0\nsamples = 1\nvalue = [1, 0]\nclass = male", fillcolor="#e58139"] ;
17 -> 18 ;
19 [label="gini = 0.0\nsamples = 1\nvalue = [0, 1]\nclass = female", fillcolor="#399de5"] ;
17 -> 19 ;
20 [label="HML <= 292.25\ngini = 0.111\nsamples = 51\nvalue = [3, 48]\nclass = female", fillcolor="#45a3e7"] ;
6 -> 20 ;
21 [label="gini = 0.0\nsamples = 35\nvalue = [0, 35]\nclass = female", fillcolor="#399de5"] ;
20 -> 21 ;
22 [label="HHD <= 39.965\ngini = 0.305\nsamples = 16\nvalue = [3, 13]\nclass = female", fillcolor="#67b4eb"] ;
20 -> 22 ;
23 [label="HHD <= 37.02\ngini = 0.444\nsamples = 3\nvalue = [2, 1]\nclass = male", fillcolor="#f2c09c"] ;
22 -> 23 ;
24 [label="gini = 0.0\nsamples = 1\nvalue = [0, 1]\nclass = female", fillcolor="#399de5"] ;
23 -> 24 ;
25 [label="gini = 0.0\nsamples = 2\nvalue = [2, 0]\nclass = male", fillcolor="#e58139"] ;
23 -> 25 ;
26 [label="HMLD <= 20.215\ngini = 0.142\nsamples = 13\nvalue = [1, 12]\nclass = female", fillcolor="#49a5e7"] ;
22 -> 26 ;
27 [label="gini = 0.0\nsamples = 11\nvalue = [0, 11]\nclass = female", fillcolor="#399de5"] ;
26 -> 27 ;
28 [label="HML <= 298.5\ngini = 0.5\nsamples = 2\nvalue = [1, 1]\nclass = male", fillcolor="#ffffff"] ;
26 -> 28 ;
29 [label="gini = 0.0\nsamples = 1\nvalue = [0, 1]\nclass = female", fillcolor="#399de5"] ;
28 -> 29 ;
30 [label="gini = 0.0\nsamples = 1\nvalue = [1, 0]\nclass = male", fillcolor="#e58139"] ;
28 -> 30 ;
31 [label="HMLD <= 18.585\ngini = 0.497\nsamples = 24\nvalue = [11, 13]\nclass = female", fillcolor="#e1f0fb"] ;
1 -> 31 ;
32 [label="HHD <= 40.445\ngini = 0.278\nsamples = 12\nvalue = [2, 10]\nclass = female", fillcolor="#61b1ea"] ;
31 -> 32 ;
33 [label="gini = 0.0\nsamples = 9\nvalue = [0, 9]\nclass = female", fillcolor="#399de5"] ;
32 -> 33 ;
34 [label="HHD <= 41.83\ngini = 0.444\nsamples = 3\nvalue = [2, 1]\nclass = male", fillcolor="#f2c09c"] ;
32 -> 34 ;
35 [label="gini = 0.0\nsamples = 2\nvalue = [2, 0]\nclass = male", fillcolor="#e58139"] ;
34 -> 35 ;
36 [label="gini = 0.0\nsamples = 1\nvalue = [0, 1]\nclass = female", fillcolor="#399de5"] ;
34 -> 36 ;
37 [label="HML <= 282.5\ngini = 0.375\nsamples = 12\nvalue = [9, 3]\nclass = male", fillcolor="#eeab7b"] ;
31 -> 37 ;
38 [label="HHD <= 41.26\ngini = 0.444\nsamples = 3\nvalue = [1, 2]\nclass = female", fillcolor="#9ccef2"] ;
37 -> 38 ;
39 [label="gini = 0.0\nsamples = 2\nvalue = [0, 2]\nclass = female", fillcolor="#399de5"] ;
38 -> 39 ;
40 [label="gini = 0.0\nsamples = 1\nvalue = [1, 0]\nclass = male", fillcolor="#e58139"] ;
38 -> 40 ;
41 [label="HHD <= 41.36\ngini = 0.198\nsamples = 9\nvalue = [8, 1]\nclass = male", fillcolor="#e89152"] ;
37 -> 41 ;
42 [label="gini = 0.0\nsamples = 6\nvalue = [6, 0]\nclass = male", fillcolor="#e58139"] ;
41 -> 42 ;
43 [label="HHD <= 41.68\ngini = 0.444\nsamples = 3\nvalue = [2, 1]\nclass = male", fillcolor="#f2c09c"] ;
41 -> 43 ;
44 [label="gini = 0.0\nsamples = 1\nvalue = [0, 1]\nclass = female", fillcolor="#399de5"] ;
43 -> 44 ;
45 [label="gini = 0.0\nsamples = 2\nvalue = [2, 0]\nclass = male", fillcolor="#e58139"] ;
43 -> 45 ;
46 [label="HMLD <= 17.925\ngini = 0.127\nsamples = 117\nvalue = [109, 8]\nclass = male", fillcolor="#e78a48"] ;
0 -> 46 [labeldistance=2.5, labelangle=-45, headlabel="False"] ;
47 [label="HHD <= 42.96\ngini = 0.444\nsamples = 6\nvalue = [2, 4]\nclass = female", fillcolor="#9ccef2"] ;
46 -> 47 ;
48 [label="gini = 0.0\nsamples = 3\nvalue = [0, 3]\nclass = female", fillcolor="#399de5"] ;
47 -> 48 ;
49 [label="HMLD <= 17.695\ngini = 0.444\nsamples = 3\nvalue = [2, 1]\nclass = male", fillcolor="#f2c09c"] ;
47 -> 49 ;
50 [label="gini = 0.0\nsamples = 2\nvalue = [2, 0]\nclass = male", fillcolor="#e58139"] ;
49 -> 50 ;
51 [label="gini = 0.0\nsamples = 1\nvalue = [0, 1]\nclass = female", fillcolor="#399de5"] ;
49 -> 51 ;
52 [label="HMLD <= 19.97\ngini = 0.069\nsamples = 111\nvalue = [107, 4]\nclass = male", fillcolor="#e68640"] ;
46 -> 52 ;
53 [label="HML <= 288.0\ngini = 0.278\nsamples = 24\nvalue = [20, 4]\nclass = male", fillcolor="#ea9a61"] ;
52 -> 53 ;
54 [label="gini = 0.0\nsamples = 1\nvalue = [0, 1]\nclass = female", fillcolor="#399de5"] ;
53 -> 54 ;
55 [label="HMLD <= 19.875\ngini = 0.227\nsamples = 23\nvalue = [20, 3]\nclass = male", fillcolor="#e99457"] ;
53 -> 55 ;
56 [label="HHD <= 43.4\ngini = 0.172\nsamples = 21\nvalue = [19, 2]\nclass = male", fillcolor="#e88e4e"] ;
55 -> 56 ;
57 [label="HHD <= 43.265\ngini = 0.375\nsamples = 8\nvalue = [6, 2]\nclass = male", fillcolor="#eeab7b"] ;
56 -> 57 ;
58 [label="HHD <= 42.595\ngini = 0.245\nsamples = 7\nvalue = [6, 1]\nclass = male", fillcolor="#e9965a"] ;
57 -> 58 ;
59 [label="HHD <= 42.45\ngini = 0.444\nsamples = 3\nvalue = [2, 1]\nclass = male", fillcolor="#f2c09c"] ;
58 -> 59 ;
60 [label="gini = 0.0\nsamples = 2\nvalue = [2, 0]\nclass = male", fillcolor="#e58139"] ;
59 -> 60 ;
61 [label="gini = 0.0\nsamples = 1\nvalue = [0, 1]\nclass = female", fillcolor="#399de5"] ;
59 -> 61 ;
62 [label="gini = 0.0\nsamples = 4\nvalue = [4, 0]\nclass = male", fillcolor="#e58139"] ;
58 -> 62 ;
63 [label="gini = 0.0\nsamples = 1\nvalue = [0, 1]\nclass = female", fillcolor="#399de5"] ;
57 -> 63 ;
64 [label="gini = 0.0\nsamples = 13\nvalue = [13, 0]\nclass = male", fillcolor="#e58139"] ;
56 -> 64 ;
65 [label="HML <= 335.5\ngini = 0.5\nsamples = 2\nvalue = [1, 1]\nclass = male", fillcolor="#ffffff"] ;
55 -> 65 ;
66 [label="gini = 0.0\nsamples = 1\nvalue = [0, 1]\nclass = female", fillcolor="#399de5"] ;
65 -> 66 ;
67 [label="gini = 0.0\nsamples = 1\nvalue = [1, 0]\nclass = male", fillcolor="#e58139"] ;
65 -> 67 ;
68 [label="gini = 0.0\nsamples = 87\nvalue = [87, 0]\nclass = male", fillcolor="#e58139"] ;
52 -> 68 ;
}