digraph Tree {
node [shape=box, style="filled", color="black", fontname="helvetica"] ;
edge [fontname="helvetica"] ;
0 [label="HML <= 298.5\ngini = 0.8\nsamples = 256\nvalue = [51, 52, 54, 48, 51]\nclass = 20-30", fillcolor="#fdfffe"] ;
1 [label="HMLD <= 18.9\ngini = 0.776\nsamples = 153\nvalue = [44, 29, 26, 14, 40]\nclass = 40-50", fillcolor="#fefbf8"] ;
0 -> 1 [labeldistance=2.5, labelangle=45, headlabel="True"] ;
2 [label="HHD <= 37.465\ngini = 0.752\nsamples = 85\nvalue = [15, 10, 16, 11, 33]\nclass = -20", fillcolor="#f9ceef"] ;
1 -> 2 ;
3 [label="HEB <= 48.75\ngini = 0.681\nsamples = 28\nvalue = [3, 2, 13, 2, 8]\nclass = 20-30", fillcolor="#cef8f0"] ;
2 -> 3 ;
4 [label="HML <= 280.25\ngini = 0.66\nsamples = 10\nvalue = [2, 1, 0, 2, 5]\nclass = -20", fillcolor="#f5b5e7"] ;
3 -> 4 ;
5 [label="HEB <= 45.5\ngini = 0.531\nsamples = 8\nvalue = [2, 1, 0, 0, 5]\nclass = -20", fillcolor="#f29ce0"] ;
4 -> 5 ;
6 [label="gini = 0.0\nsamples = 2\nvalue = [2, 0, 0, 0, 0]\nclass = 40-50", fillcolor="#e58139"] ;
5 -> 6 ;
7 [label="HHD <= 36.86\ngini = 0.278\nsamples = 6\nvalue = [0, 1, 0, 0, 5]\nclass = -20", fillcolor="#ea61cd"] ;
5 -> 7 ;
8 [label="gini = 0.0\nsamples = 5\nvalue = [0, 0, 0, 0, 5]\nclass = -20", fillcolor="#e539c0"] ;
7 -> 8 ;
9 [label="gini = 0.0\nsamples = 1\nvalue = [0, 1, 0, 0, 0]\nclass = 30-40", fillcolor="#7be539"] ;
7 -> 9 ;
10 [label="gini = 0.0\nsamples = 2\nvalue = [0, 0, 0, 2, 0]\nclass = 50+", fillcolor="#3c39e5"] ;
4 -> 10 ;
11 [label="HEB <= 53.5\ngini = 0.444\nsamples = 18\nvalue = [1, 1, 13, 0, 3]\nclass = 20-30", fillcolor="#7beed8"] ;
3 -> 11 ;
12 [label="HML <= 289.25\ngini = 0.381\nsamples = 17\nvalue = [1, 0, 13, 0, 3]\nclass = 20-30", fillcolor="#72ecd6"] ;
11 -> 12 ;
13 [label="HML <= 276.25\ngini = 0.32\nsamples = 16\nvalue = [1, 0, 13, 0, 2]\nclass = 20-30", fillcolor="#63ebd1"] ;
12 -> 13 ;
14 [label="HHD <= 36.91\ngini = 0.494\nsamples = 9\nvalue = [1, 0, 6, 0, 2]\nclass = 20-30", fillcolor="#8ef0de"] ;
13 -> 14 ;
15 [label="HML <= 257.5\ngini = 0.32\nsamples = 5\nvalue = [1, 0, 4, 0, 0]\nclass = 20-30", fillcolor="#6aecd4"] ;
14 -> 15 ;
16 [label="gini = 0.0\nsamples = 2\nvalue = [0, 0, 2, 0, 0]\nclass = 20-30", fillcolor="#39e5c5"] ;
15 -> 16 ;
17 [label="HML <= 268.25\ngini = 0.444\nsamples = 3\nvalue = [1, 0, 2, 0, 0]\nclass = 20-30", fillcolor="#9cf2e2"] ;
15 -> 17 ;
18 [label="gini = 0.0\nsamples = 1\nvalue = [1, 0, 0, 0, 0]\nclass = 40-50", fillcolor="#e58139"] ;
17 -> 18 ;
19 [label="gini = 0.0\nsamples = 2\nvalue = [0, 0, 2, 0, 0]\nclass = 20-30", fillcolor="#39e5c5"] ;
17 -> 19 ;
20 [label="HMLD <= 15.0\ngini = 0.5\nsamples = 4\nvalue = [0, 0, 2, 0, 2]\nclass = 20-30", fillcolor="#ffffff"] ;
14 -> 20 ;
21 [label="gini = 0.0\nsamples = 1\nvalue = [0, 0, 1, 0, 0]\nclass = 20-30", fillcolor="#39e5c5"] ;
20 -> 21 ;
22 [label="HMLD <= 17.87\ngini = 0.444\nsamples = 3\nvalue = [0, 0, 1, 0, 2]\nclass = -20", fillcolor="#f29ce0"] ;
20 -> 22 ;
23 [label="gini = 0.0\nsamples = 2\nvalue = [0, 0, 0, 0, 2]\nclass = -20", fillcolor="#e539c0"] ;
22 -> 23 ;
24 [label="gini = 0.0\nsamples = 1\nvalue = [0, 0, 1, 0, 0]\nclass = 20-30", fillcolor="#39e5c5"] ;
22 -> 24 ;
25 [label="gini = 0.0\nsamples = 7\nvalue = [0, 0, 7, 0, 0]\nclass = 20-30", fillcolor="#39e5c5"] ;
13 -> 25 ;
26 [label="gini = 0.0\nsamples = 1\nvalue = [0, 0, 0, 0, 1]\nclass = -20", fillcolor="#e539c0"] ;
12 -> 26 ;
27 [label="gini = 0.0\nsamples = 1\nvalue = [0, 1, 0, 0, 0]\nclass = 30-40", fillcolor="#7be539"] ;
11 -> 27 ;
28 [label="HML <= 277.25\ngini = 0.716\nsamples = 57\nvalue = [12, 8, 3, 9, 25]\nclass = -20", fillcolor="#f7c6ed"] ;
2 -> 28 ;
29 [label="HHD <= 38.05\ngini = 0.508\nsamples = 21\nvalue = [1, 4, 0, 2, 14]\nclass = -20", fillcolor="#f08bda"] ;
28 -> 29 ;
30 [label="HML <= 273.25\ngini = 0.5\nsamples = 2\nvalue = [0, 1, 0, 1, 0]\nclass = 30-40", fillcolor="#ffffff"] ;
29 -> 30 ;
31 [label="gini = 0.0\nsamples = 1\nvalue = [0, 0, 0, 1, 0]\nclass = 50+", fillcolor="#3c39e5"] ;
30 -> 31 ;
32 [label="gini = 0.0\nsamples = 1\nvalue = [0, 1, 0, 0, 0]\nclass = 30-40", fillcolor="#7be539"] ;
30 -> 32 ;
33 [label="HEB <= 57.5\ngini = 0.427\nsamples = 19\nvalue = [1, 3, 0, 1, 14]\nclass = -20", fillcolor="#ed77d4"] ;
29 -> 33 ;
34 [label="HHD <= 38.345\ngini = 0.364\nsamples = 18\nvalue = [1, 3, 0, 0, 14]\nclass = -20", fillcolor="#ec6ed1"] ;
33 -> 34 ;
35 [label="HML <= 272.0\ngini = 0.5\nsamples = 2\nvalue = [1, 0, 0, 0, 1]\nclass = 40-50", fillcolor="#ffffff"] ;
34 -> 35 ;
36 [label="gini = 0.0\nsamples = 1\nvalue = [0, 0, 0, 0, 1]\nclass = -20", fillcolor="#e539c0"] ;
35 -> 36 ;
37 [label="gini = 0.0\nsamples = 1\nvalue = [1, 0, 0, 0, 0]\nclass = 40-50", fillcolor="#e58139"] ;
35 -> 37 ;
38 [label="HHD <= 40.46\ngini = 0.305\nsamples = 16\nvalue = [0, 3, 0, 0, 13]\nclass = -20", fillcolor="#eb67cf"] ;
34 -> 38 ;
39 [label="HHD <= 39.885\ngini = 0.397\nsamples = 11\nvalue = [0, 3, 0, 0, 8]\nclass = -20", fillcolor="#ef83d8"] ;
38 -> 39 ;
40 [label="HML <= 270.0\ngini = 0.219\nsamples = 8\nvalue = [0, 1, 0, 0, 7]\nclass = -20", fillcolor="#e955c9"] ;
39 -> 40 ;
41 [label="HHD <= 39.395\ngini = 0.375\nsamples = 4\nvalue = [0, 1, 0, 0, 3]\nclass = -20", fillcolor="#ee7bd5"] ;
40 -> 41 ;
42 [label="gini = 0.0\nsamples = 3\nvalue = [0, 0, 0, 0, 3]\nclass = -20", fillcolor="#e539c0"] ;
41 -> 42 ;
43 [label="gini = 0.0\nsamples = 1\nvalue = [0, 1, 0, 0, 0]\nclass = 30-40", fillcolor="#7be539"] ;
41 -> 43 ;
44 [label="gini = 0.0\nsamples = 4\nvalue = [0, 0, 0, 0, 4]\nclass = -20", fillcolor="#e539c0"] ;
40 -> 44 ;
45 [label="HMLD <= 16.205\ngini = 0.444\nsamples = 3\nvalue = [0, 2, 0, 0, 1]\nclass = 30-40", fillcolor="#bdf29c"] ;
39 -> 45 ;
46 [label="gini = 0.0\nsamples = 1\nvalue = [0, 0, 0, 0, 1]\nclass = -20", fillcolor="#e539c0"] ;
45 -> 46 ;
47 [label="gini = 0.0\nsamples = 2\nvalue = [0, 2, 0, 0, 0]\nclass = 30-40", fillcolor="#7be539"] ;
45 -> 47 ;
48 [label="gini = 0.0\nsamples = 5\nvalue = [0, 0, 0, 0, 5]\nclass = -20", fillcolor="#e539c0"] ;
38 -> 48 ;
49 [label="gini = 0.0\nsamples = 1\nvalue = [0, 0, 0, 1, 0]\nclass = 50+", fillcolor="#3c39e5"] ;
33 -> 49 ;
50 [label="HHD <= 38.215\ngini = 0.756\nsamples = 36\nvalue = [11, 4, 3, 7, 11]\nclass = 40-50", fillcolor="#ffffff"] ;
28 -> 50 ;
51 [label="gini = 0.0\nsamples = 4\nvalue = [4, 0, 0, 0, 0]\nclass = 40-50", fillcolor="#e58139"] ;
50 -> 51 ;
52 [label="HMLD <= 18.485\ngini = 0.762\nsamples = 32\nvalue = [7, 4, 3, 7, 11]\nclass = -20", fillcolor="#fbdff5"] ;
50 -> 52 ;
53 [label="HML <= 296.75\ngini = 0.782\nsamples = 27\nvalue = [7, 4, 3, 7, 6]\nclass = 40-50", fillcolor="#ffffff"] ;
52 -> 53 ;
54 [label="HMLD <= 17.265\ngini = 0.771\nsamples = 24\nvalue = [7, 4, 3, 7, 3]\nclass = 40-50", fillcolor="#ffffff"] ;
53 -> 54 ;
55 [label="HHD <= 40.625\ngini = 0.7\nsamples = 10\nvalue = [1, 0, 2, 4, 3]\nclass = 50+", fillcolor="#e3e3fb"] ;
54 -> 55 ;
56 [label="HML <= 291.25\ngini = 0.612\nsamples = 7\nvalue = [1, 0, 1, 4, 1]\nclass = 50+", fillcolor="#9e9cf2"] ;
55 -> 56 ;
57 [label="HEB <= 48.5\ngini = 0.5\nsamples = 6\nvalue = [0, 0, 1, 4, 1]\nclass = 50+", fillcolor="#8a88ef"] ;
56 -> 57 ;
58 [label="gini = 0.0\nsamples = 1\nvalue = [0, 0, 0, 0, 1]\nclass = -20", fillcolor="#e539c0"] ;
57 -> 58 ;
59 [label="HEB <= 52.5\ngini = 0.32\nsamples = 5\nvalue = [0, 0, 1, 4, 0]\nclass = 50+", fillcolor="#6d6aec"] ;
57 -> 59 ;
60 [label="HEB <= 50.5\ngini = 0.5\nsamples = 2\nvalue = [0, 0, 1, 1, 0]\nclass = 20-30", fillcolor="#ffffff"] ;
59 -> 60 ;
61 [label="gini = 0.0\nsamples = 1\nvalue = [0, 0, 0, 1, 0]\nclass = 50+", fillcolor="#3c39e5"] ;
60 -> 61 ;
62 [label="gini = 0.0\nsamples = 1\nvalue = [0, 0, 1, 0, 0]\nclass = 20-30", fillcolor="#39e5c5"] ;
60 -> 62 ;
63 [label="gini = 0.0\nsamples = 3\nvalue = [0, 0, 0, 3, 0]\nclass = 50+", fillcolor="#3c39e5"] ;
59 -> 63 ;
64 [label="gini = 0.0\nsamples = 1\nvalue = [1, 0, 0, 0, 0]\nclass = 40-50", fillcolor="#e58139"] ;
56 -> 64 ;
65 [label="HMLD <= 17.055\ngini = 0.444\nsamples = 3\nvalue = [0, 0, 1, 0, 2]\nclass = -20", fillcolor="#f29ce0"] ;
55 -> 65 ;
66 [label="gini = 0.0\nsamples = 2\nvalue = [0, 0, 0, 0, 2]\nclass = -20", fillcolor="#e539c0"] ;
65 -> 66 ;
67 [label="gini = 0.0\nsamples = 1\nvalue = [0, 0, 1, 0, 0]\nclass = 20-30", fillcolor="#39e5c5"] ;
65 -> 67 ;
68 [label="HMLD <= 17.595\ngini = 0.684\nsamples = 14\nvalue = [6, 4, 1, 3, 0]\nclass = 40-50", fillcolor="#fae6d7"] ;
54 -> 68 ;
69 [label="gini = 0.0\nsamples = 2\nvalue = [0, 2, 0, 0, 0]\nclass = 30-40", fillcolor="#7be539"] ;
68 -> 69 ;
70 [label="HMLD <= 18.41\ngini = 0.653\nsamples = 12\nvalue = [6, 2, 1, 3, 0]\nclass = 40-50", fillcolor="#f6d5bd"] ;
68 -> 70 ;
71 [label="HML <= 288.5\ngini = 0.612\nsamples = 11\nvalue = [6, 1, 1, 3, 0]\nclass = 40-50", fillcolor="#f5d0b5"] ;
70 -> 71 ;
72 [label="HMLD <= 17.765\ngini = 0.449\nsamples = 7\nvalue = [5, 1, 0, 1, 0]\nclass = 40-50", fillcolor="#eeab7b"] ;
71 -> 72 ;
73 [label="gini = 0.0\nsamples = 1\nvalue = [0, 0, 0, 1, 0]\nclass = 50+", fillcolor="#3c39e5"] ;
72 -> 73 ;
74 [label="HML <= 281.0\ngini = 0.278\nsamples = 6\nvalue = [5, 1, 0, 0, 0]\nclass = 40-50", fillcolor="#ea9a61"] ;
72 -> 74 ;
75 [label="HMLD <= 18.01\ngini = 0.5\nsamples = 2\nvalue = [1, 1, 0, 0, 0]\nclass = 40-50", fillcolor="#ffffff"] ;
74 -> 75 ;
76 [label="gini = 0.0\nsamples = 1\nvalue = [0, 1, 0, 0, 0]\nclass = 30-40", fillcolor="#7be539"] ;
75 -> 76 ;
77 [label="gini = 0.0\nsamples = 1\nvalue = [1, 0, 0, 0, 0]\nclass = 40-50", fillcolor="#e58139"] ;
75 -> 77 ;
78 [label="gini = 0.0\nsamples = 4\nvalue = [4, 0, 0, 0, 0]\nclass = 40-50", fillcolor="#e58139"] ;
74 -> 78 ;
79 [label="HEB <= 55.5\ngini = 0.625\nsamples = 4\nvalue = [1, 0, 1, 2, 0]\nclass = 50+", fillcolor="#bebdf6"] ;
71 -> 79 ;
80 [label="gini = 0.0\nsamples = 2\nvalue = [0, 0, 0, 2, 0]\nclass = 50+", fillcolor="#3c39e5"] ;
79 -> 80 ;
81 [label="HEB <= 57.0\ngini = 0.5\nsamples = 2\nvalue = [1, 0, 1, 0, 0]\nclass = 40-50", fillcolor="#ffffff"] ;
79 -> 81 ;
82 [label="gini = 0.0\nsamples = 1\nvalue = [0, 0, 1, 0, 0]\nclass = 20-30", fillcolor="#39e5c5"] ;
81 -> 82 ;
83 [label="gini = 0.0\nsamples = 1\nvalue = [1, 0, 0, 0, 0]\nclass = 40-50", fillcolor="#e58139"] ;
81 -> 83 ;
84 [label="gini = 0.0\nsamples = 1\nvalue = [0, 1, 0, 0, 0]\nclass = 30-40", fillcolor="#7be539"] ;
70 -> 84 ;
85 [label="gini = 0.0\nsamples = 3\nvalue = [0, 0, 0, 0, 3]\nclass = -20", fillcolor="#e539c0"] ;
53 -> 85 ;
86 [label="gini = 0.0\nsamples = 5\nvalue = [0, 0, 0, 0, 5]\nclass = -20", fillcolor="#e539c0"] ;
52 -> 86 ;
87 [label="HEB <= 57.25\ngini = 0.706\nsamples = 68\nvalue = [29, 19, 10, 3, 7]\nclass = 40-50", fillcolor="#fae5d7"] ;
1 -> 87 ;
88 [label="HHD <= 41.56\ngini = 0.643\nsamples = 54\nvalue = [28, 14, 7, 2, 3]\nclass = 40-50", fillcolor="#f6d3ba"] ;
87 -> 88 ;
89 [label="HMLD <= 20.18\ngini = 0.702\nsamples = 39\nvalue = [15, 13, 7, 1, 3]\nclass = 40-50", fillcolor="#fdf5f0"] ;
88 -> 89 ;
90 [label="HMLD <= 19.48\ngini = 0.587\nsamples = 24\nvalue = [8, 13, 2, 0, 1]\nclass = 30-40", fillcolor="#d6f7c1"] ;
89 -> 90 ;
91 [label="HMLD <= 19.425\ngini = 0.653\nsamples = 12\nvalue = [6, 3, 2, 0, 1]\nclass = 40-50", fillcolor="#f6d5bd"] ;
90 -> 91 ;
92 [label="HML <= 272.25\ngini = 0.54\nsamples = 10\nvalue = [6, 3, 1, 0, 0]\nclass = 40-50", fillcolor="#f4c9aa"] ;
91 -> 92 ;
93 [label="gini = 0.0\nsamples = 1\nvalue = [0, 1, 0, 0, 0]\nclass = 30-40", fillcolor="#7be539"] ;
92 -> 93 ;
94 [label="HHD <= 40.005\ngini = 0.494\nsamples = 9\nvalue = [6, 2, 1, 0, 0]\nclass = 40-50", fillcolor="#f0b78e"] ;
92 -> 94 ;
95 [label="HML <= 280.0\ngini = 0.32\nsamples = 5\nvalue = [4, 0, 1, 0, 0]\nclass = 40-50", fillcolor="#eca06a"] ;
94 -> 95 ;
96 [label="HHD <= 37.21\ngini = 0.5\nsamples = 2\nvalue = [1, 0, 1, 0, 0]\nclass = 40-50", fillcolor="#ffffff"] ;
95 -> 96 ;
97 [label="gini = 0.0\nsamples = 1\nvalue = [1, 0, 0, 0, 0]\nclass = 40-50", fillcolor="#e58139"] ;
96 -> 97 ;
98 [label="gini = 0.0\nsamples = 1\nvalue = [0, 0, 1, 0, 0]\nclass = 20-30", fillcolor="#39e5c5"] ;
96 -> 98 ;
99 [label="gini = 0.0\nsamples = 3\nvalue = [3, 0, 0, 0, 0]\nclass = 40-50", fillcolor="#e58139"] ;
95 -> 99 ;
100 [label="HHD <= 40.425\ngini = 0.5\nsamples = 4\nvalue = [2, 2, 0, 0, 0]\nclass = 40-50", fillcolor="#ffffff"] ;
94 -> 100 ;
101 [label="gini = 0.0\nsamples = 2\nvalue = [0, 2, 0, 0, 0]\nclass = 30-40", fillcolor="#7be539"] ;
100 -> 101 ;
102 [label="gini = 0.0\nsamples = 2\nvalue = [2, 0, 0, 0, 0]\nclass = 40-50", fillcolor="#e58139"] ;
100 -> 102 ;
103 [label="HML <= 293.25\ngini = 0.5\nsamples = 2\nvalue = [0, 0, 1, 0, 1]\nclass = 20-30", fillcolor="#ffffff"] ;
91 -> 103 ;
104 [label="gini = 0.0\nsamples = 1\nvalue = [0, 0, 0, 0, 1]\nclass = -20", fillcolor="#e539c0"] ;
103 -> 104 ;
105 [label="gini = 0.0\nsamples = 1\nvalue = [0, 0, 1, 0, 0]\nclass = 20-30", fillcolor="#39e5c5"] ;
103 -> 105 ;
106 [label="HML <= 292.75\ngini = 0.278\nsamples = 12\nvalue = [2, 10, 0, 0, 0]\nclass = 30-40", fillcolor="#95ea61"] ;
90 -> 106 ;
107 [label="gini = 0.0\nsamples = 9\nvalue = [0, 9, 0, 0, 0]\nclass = 30-40", fillcolor="#7be539"] ;
106 -> 107 ;
108 [label="HEB <= 51.5\ngini = 0.444\nsamples = 3\nvalue = [2, 1, 0, 0, 0]\nclass = 40-50", fillcolor="#f2c09c"] ;
106 -> 108 ;
109 [label="gini = 0.0\nsamples = 1\nvalue = [0, 1, 0, 0, 0]\nclass = 30-40", fillcolor="#7be539"] ;
108 -> 109 ;
110 [label="gini = 0.0\nsamples = 2\nvalue = [2, 0, 0, 0, 0]\nclass = 40-50", fillcolor="#e58139"] ;
108 -> 110 ;
111 [label="HEB <= 52.25\ngini = 0.649\nsamples = 15\nvalue = [7, 0, 5, 1, 2]\nclass = 40-50", fillcolor="#fae6d7"] ;
89 -> 111 ;
112 [label="gini = 0.0\nsamples = 5\nvalue = [5, 0, 0, 0, 0]\nclass = 40-50", fillcolor="#e58139"] ;
111 -> 112 ;
113 [label="HML <= 260.0\ngini = 0.66\nsamples = 10\nvalue = [2, 0, 5, 1, 2]\nclass = 20-30", fillcolor="#b5f5e9"] ;
111 -> 113 ;
114 [label="gini = 0.0\nsamples = 1\nvalue = [0, 0, 0, 0, 1]\nclass = -20", fillcolor="#e539c0"] ;
113 -> 114 ;
115 [label="HML <= 290.0\ngini = 0.617\nsamples = 9\nvalue = [2, 0, 5, 1, 1]\nclass = 20-30", fillcolor="#aaf4e6"] ;
113 -> 115 ;
116 [label="HMLD <= 22.41\ngini = 0.531\nsamples = 8\nvalue = [2, 0, 5, 1, 0]\nclass = 20-30", fillcolor="#9cf2e2"] ;
115 -> 116 ;
117 [label="HMLD <= 20.45\ngini = 0.449\nsamples = 7\nvalue = [1, 0, 5, 1, 0]\nclass = 20-30", fillcolor="#7beed8"] ;
116 -> 117 ;
118 [label="HML <= 275.5\ngini = 0.625\nsamples = 4\nvalue = [1, 0, 2, 1, 0]\nclass = 20-30", fillcolor="#bdf6ec"] ;
117 -> 118 ;
119 [label="gini = 0.0\nsamples = 1\nvalue = [0, 0, 0, 1, 0]\nclass = 50+", fillcolor="#3c39e5"] ;
118 -> 119 ;
120 [label="HHD <= 38.79\ngini = 0.444\nsamples = 3\nvalue = [1, 0, 2, 0, 0]\nclass = 20-30", fillcolor="#9cf2e2"] ;
118 -> 120 ;
121 [label="gini = 0.0\nsamples = 1\nvalue = [1, 0, 0, 0, 0]\nclass = 40-50", fillcolor="#e58139"] ;
120 -> 121 ;
122 [label="gini = 0.0\nsamples = 2\nvalue = [0, 0, 2, 0, 0]\nclass = 20-30", fillcolor="#39e5c5"] ;
120 -> 122 ;
123 [label="gini = 0.0\nsamples = 3\nvalue = [0, 0, 3, 0, 0]\nclass = 20-30", fillcolor="#39e5c5"] ;
117 -> 123 ;
124 [label="gini = 0.0\nsamples = 1\nvalue = [1, 0, 0, 0, 0]\nclass = 40-50", fillcolor="#e58139"] ;
116 -> 124 ;
125 [label="gini = 0.0\nsamples = 1\nvalue = [0, 0, 0, 0, 1]\nclass = -20", fillcolor="#e539c0"] ;
115 -> 125 ;
126 [label="HML <= 297.75\ngini = 0.24\nsamples = 15\nvalue = [13, 1, 0, 1, 0]\nclass = 40-50", fillcolor="#e99355"] ;
88 -> 126 ;
127 [label="HML <= 296.0\ngini = 0.133\nsamples = 14\nvalue = [13, 0, 0, 1, 0]\nclass = 40-50", fillcolor="#e78b48"] ;
126 -> 127 ;
128 [label="gini = 0.0\nsamples = 12\nvalue = [12, 0, 0, 0, 0]\nclass = 40-50", fillcolor="#e58139"] ;
127 -> 128 ;
129 [label="HMLD <= 19.97\ngini = 0.5\nsamples = 2\nvalue = [1, 0, 0, 1, 0]\nclass = 40-50", fillcolor="#ffffff"] ;
127 -> 129 ;
130 [label="gini = 0.0\nsamples = 1\nvalue = [1, 0, 0, 0, 0]\nclass = 40-50", fillcolor="#e58139"] ;
129 -> 130 ;
131 [label="gini = 0.0\nsamples = 1\nvalue = [0, 0, 0, 1, 0]\nclass = 50+", fillcolor="#3c39e5"] ;
129 -> 131 ;
132 [label="gini = 0.0\nsamples = 1\nvalue = [0, 1, 0, 0, 0]\nclass = 30-40", fillcolor="#7be539"] ;
126 -> 132 ;
133 [label="HMLD <= 21.925\ngini = 0.735\nsamples = 14\nvalue = [1, 5, 3, 1, 4]\nclass = 30-40", fillcolor="#f2fceb"] ;
87 -> 133 ;
134 [label="HHD <= 42.6\ngini = 0.75\nsamples = 8\nvalue = [1, 1, 2, 1, 3]\nclass = -20", fillcolor="#fbdef4"] ;
133 -> 134 ;
135 [label="HEB <= 57.75\ngini = 0.444\nsamples = 3\nvalue = [0, 1, 2, 0, 0]\nclass = 20-30", fillcolor="#9cf2e2"] ;
134 -> 135 ;
136 [label="gini = 0.0\nsamples = 1\nvalue = [0, 1, 0, 0, 0]\nclass = 30-40", fillcolor="#7be539"] ;
135 -> 136 ;
137 [label="gini = 0.0\nsamples = 2\nvalue = [0, 0, 2, 0, 0]\nclass = 20-30", fillcolor="#39e5c5"] ;
135 -> 137 ;
138 [label="HML <= 296.5\ngini = 0.56\nsamples = 5\nvalue = [1, 0, 0, 1, 3]\nclass = -20", fillcolor="#f29ce0"] ;
134 -> 138 ;
139 [label="HMLD <= 20.71\ngini = 0.5\nsamples = 2\nvalue = [1, 0, 0, 1, 0]\nclass = 40-50", fillcolor="#ffffff"] ;
138 -> 139 ;
140 [label="gini = 0.0\nsamples = 1\nvalue = [0, 0, 0, 1, 0]\nclass = 50+", fillcolor="#3c39e5"] ;
139 -> 140 ;
141 [label="gini = 0.0\nsamples = 1\nvalue = [1, 0, 0, 0, 0]\nclass = 40-50", fillcolor="#e58139"] ;
139 -> 141 ;
142 [label="gini = 0.0\nsamples = 3\nvalue = [0, 0, 0, 0, 3]\nclass = -20", fillcolor="#e539c0"] ;
138 -> 142 ;
143 [label="HHD <= 44.57\ngini = 0.5\nsamples = 6\nvalue = [0, 4, 1, 0, 1]\nclass = 30-40", fillcolor="#b0ef88"] ;
133 -> 143 ;
144 [label="gini = 0.0\nsamples = 4\nvalue = [0, 4, 0, 0, 0]\nclass = 30-40", fillcolor="#7be539"] ;
143 -> 144 ;
145 [label="HEB <= 60.5\ngini = 0.5\nsamples = 2\nvalue = [0, 0, 1, 0, 1]\nclass = 20-30", fillcolor="#ffffff"] ;
143 -> 145 ;
146 [label="gini = 0.0\nsamples = 1\nvalue = [0, 0, 0, 0, 1]\nclass = -20", fillcolor="#e539c0"] ;
145 -> 146 ;
147 [label="gini = 0.0\nsamples = 1\nvalue = [0, 0, 1, 0, 0]\nclass = 20-30", fillcolor="#39e5c5"] ;
145 -> 147 ;
148 [label="HML <= 348.0\ngini = 0.751\nsamples = 103\nvalue = [7, 23, 28, 34, 11]\nclass = 50+", fillcolor="#efeffd"] ;
0 -> 148 [labeldistance=2.5, labelangle=-45, headlabel="False"] ;
149 [label="HMLD <= 18.105\ngini = 0.752\nsamples = 99\nvalue = [7, 23, 24, 34, 11]\nclass = 50+", fillcolor="#e5e5fc"] ;
148 -> 149 ;
150 [label="HHD <= 38.965\ngini = 0.602\nsamples = 14\nvalue = [0, 0, 2, 7, 5]\nclass = 50+", fillcolor="#d4d3f9"] ;
149 -> 150 ;
151 [label="gini = 0.0\nsamples = 3\nvalue = [0, 0, 0, 3, 0]\nclass = 50+", fillcolor="#3c39e5"] ;
150 -> 151 ;
152 [label="HML <= 308.5\ngini = 0.628\nsamples = 11\nvalue = [0, 0, 2, 4, 5]\nclass = -20", fillcolor="#fbe3f6"] ;
150 -> 152 ;
153 [label="HML <= 301.25\ngini = 0.531\nsamples = 8\nvalue = [0, 0, 2, 1, 5]\nclass = -20", fillcolor="#f29ce0"] ;
152 -> 153 ;
154 [label="gini = 0.0\nsamples = 1\nvalue = [0, 0, 0, 1, 0]\nclass = 50+", fillcolor="#3c39e5"] ;
153 -> 154 ;
155 [label="HHD <= 42.17\ngini = 0.408\nsamples = 7\nvalue = [0, 0, 2, 0, 5]\nclass = -20", fillcolor="#ef88d9"] ;
153 -> 155 ;
156 [label="gini = 0.0\nsamples = 4\nvalue = [0, 0, 0, 0, 4]\nclass = -20", fillcolor="#e539c0"] ;
155 -> 156 ;
157 [label="HMLD <= 17.845\ngini = 0.444\nsamples = 3\nvalue = [0, 0, 2, 0, 1]\nclass = 20-30", fillcolor="#9cf2e2"] ;
155 -> 157 ;
158 [label="gini = 0.0\nsamples = 2\nvalue = [0, 0, 2, 0, 0]\nclass = 20-30", fillcolor="#39e5c5"] ;
157 -> 158 ;
159 [label="gini = 0.0\nsamples = 1\nvalue = [0, 0, 0, 0, 1]\nclass = -20", fillcolor="#e539c0"] ;
157 -> 159 ;
160 [label="gini = 0.0\nsamples = 3\nvalue = [0, 0, 0, 3, 0]\nclass = 50+", fillcolor="#3c39e5"] ;
152 -> 160 ;
161 [label="HMLD <= 26.215\ngini = 0.747\nsamples = 85\nvalue = [7, 23, 22, 27, 6]\nclass = 50+", fillcolor="#f2f2fd"] ;
149 -> 161 ;
162 [label="HMLD <= 21.65\ngini = 0.738\nsamples = 83\nvalue = [7, 23, 22, 27, 4]\nclass = 50+", fillcolor="#f2f2fd"] ;
161 -> 162 ;
163 [label="HML <= 334.5\ngini = 0.748\nsamples = 48\nvalue = [5, 9, 17, 13, 4]\nclass = 20-30", fillcolor="#e8fcf8"] ;
162 -> 163 ;
164 [label="HHD <= 47.2\ngini = 0.723\nsamples = 44\nvalue = [5, 7, 17, 13, 2]\nclass = 20-30", fillcolor="#e5fcf8"] ;
163 -> 164 ;
165 [label="HHD <= 45.055\ngini = 0.722\nsamples = 41\nvalue = [5, 7, 17, 10, 2]\nclass = 20-30", fillcolor="#d2f9f2"] ;
164 -> 165 ;
166 [label="HML <= 310.0\ngini = 0.742\nsamples = 28\nvalue = [4, 6, 7, 10, 1]\nclass = 50+", fillcolor="#e3e3fb"] ;
165 -> 166 ;
167 [label="HEB <= 57.5\ngini = 0.748\nsamples = 21\nvalue = [3, 6, 7, 4, 1]\nclass = 20-30", fillcolor="#f2fdfb"] ;
166 -> 167 ;
168 [label="HHD <= 44.76\ngini = 0.698\nsamples = 13\nvalue = [2, 6, 3, 1, 1]\nclass = 30-40", fillcolor="#d7f7c4"] ;
167 -> 168 ;
169 [label="HEB <= 55.5\ngini = 0.653\nsamples = 12\nvalue = [2, 6, 3, 1, 0]\nclass = 30-40", fillcolor="#d3f6bd"] ;
168 -> 169 ;
170 [label="HEB <= 53.5\ngini = 0.716\nsamples = 9\nvalue = [2, 3, 3, 1, 0]\nclass = 30-40", fillcolor="#ffffff"] ;
169 -> 170 ;
171 [label="HMLD <= 19.525\ngini = 0.48\nsamples = 5\nvalue = [0, 3, 2, 0, 0]\nclass = 30-40", fillcolor="#d3f6bd"] ;
170 -> 171 ;
172 [label="gini = 0.0\nsamples = 2\nvalue = [0, 0, 2, 0, 0]\nclass = 20-30", fillcolor="#39e5c5"] ;
171 -> 172 ;
173 [label="gini = 0.0\nsamples = 3\nvalue = [0, 3, 0, 0, 0]\nclass = 30-40", fillcolor="#7be539"] ;
171 -> 173 ;
174 [label="HHD <= 42.825\ngini = 0.625\nsamples = 4\nvalue = [2, 0, 1, 1, 0]\nclass = 40-50", fillcolor="#f6d5bd"] ;
170 -> 174 ;
175 [label="gini = 0.0\nsamples = 2\nvalue = [2, 0, 0, 0, 0]\nclass = 40-50", fillcolor="#e58139"] ;
174 -> 175 ;
176 [label="HML <= 304.5\ngini = 0.5\nsamples = 2\nvalue = [0, 0, 1, 1, 0]\nclass = 20-30", fillcolor="#ffffff"] ;
174 -> 176 ;
177 [label="gini = 0.0\nsamples = 1\nvalue = [0, 0, 0, 1, 0]\nclass = 50+", fillcolor="#3c39e5"] ;
176 -> 177 ;
178 [label="gini = 0.0\nsamples = 1\nvalue = [0, 0, 1, 0, 0]\nclass = 20-30", fillcolor="#39e5c5"] ;
176 -> 178 ;
179 [label="gini = 0.0\nsamples = 3\nvalue = [0, 3, 0, 0, 0]\nclass = 30-40", fillcolor="#7be539"] ;
169 -> 179 ;
180 [label="gini = 0.0\nsamples = 1\nvalue = [0, 0, 0, 0, 1]\nclass = -20", fillcolor="#e539c0"] ;
168 -> 180 ;
181 [label="HEB <= 59.25\ngini = 0.594\nsamples = 8\nvalue = [1, 0, 4, 3, 0]\nclass = 20-30", fillcolor="#d7faf3"] ;
167 -> 181 ;
182 [label="HML <= 307.0\ngini = 0.375\nsamples = 4\nvalue = [0, 0, 1, 3, 0]\nclass = 50+", fillcolor="#7d7bee"] ;
181 -> 182 ;
183 [label="gini = 0.0\nsamples = 3\nvalue = [0, 0, 0, 3, 0]\nclass = 50+", fillcolor="#3c39e5"] ;
182 -> 183 ;
184 [label="gini = 0.0\nsamples = 1\nvalue = [0, 0, 1, 0, 0]\nclass = 20-30", fillcolor="#39e5c5"] ;
182 -> 184 ;
185 [label="HMLD <= 21.155\ngini = 0.375\nsamples = 4\nvalue = [1, 0, 3, 0, 0]\nclass = 20-30", fillcolor="#7beed8"] ;
181 -> 185 ;
186 [label="gini = 0.0\nsamples = 3\nvalue = [0, 0, 3, 0, 0]\nclass = 20-30", fillcolor="#39e5c5"] ;
185 -> 186 ;
187 [label="gini = 0.0\nsamples = 1\nvalue = [1, 0, 0, 0, 0]\nclass = 40-50", fillcolor="#e58139"] ;
185 -> 187 ;
188 [label="HMLD <= 19.635\ngini = 0.245\nsamples = 7\nvalue = [1, 0, 0, 6, 0]\nclass = 50+", fillcolor="#5d5ae9"] ;
166 -> 188 ;
189 [label="gini = 0.0\nsamples = 1\nvalue = [1, 0, 0, 0, 0]\nclass = 40-50", fillcolor="#e58139"] ;
188 -> 189 ;
190 [label="gini = 0.0\nsamples = 6\nvalue = [0, 0, 0, 6, 0]\nclass = 50+", fillcolor="#3c39e5"] ;
188 -> 190 ;
191 [label="HEB <= 67.25\ngini = 0.391\nsamples = 13\nvalue = [1, 1, 10, 0, 1]\nclass = 20-30", fillcolor="#6becd4"] ;
165 -> 191 ;
192 [label="HMLD <= 20.75\ngini = 0.292\nsamples = 12\nvalue = [1, 1, 10, 0, 0]\nclass = 20-30", fillcolor="#5dead0"] ;
191 -> 192 ;
193 [label="gini = 0.0\nsamples = 9\nvalue = [0, 0, 9, 0, 0]\nclass = 20-30", fillcolor="#39e5c5"] ;
192 -> 193 ;
194 [label="HMLD <= 20.82\ngini = 0.667\nsamples = 3\nvalue = [1, 1, 1, 0, 0]\nclass = 40-50", fillcolor="#ffffff"] ;
192 -> 194 ;
195 [label="gini = 0.0\nsamples = 1\nvalue = [0, 1, 0, 0, 0]\nclass = 30-40", fillcolor="#7be539"] ;
194 -> 195 ;
196 [label="HML <= 317.5\ngini = 0.5\nsamples = 2\nvalue = [1, 0, 1, 0, 0]\nclass = 40-50", fillcolor="#ffffff"] ;
194 -> 196 ;
197 [label="gini = 0.0\nsamples = 1\nvalue = [1, 0, 0, 0, 0]\nclass = 40-50", fillcolor="#e58139"] ;
196 -> 197 ;
198 [label="gini = 0.0\nsamples = 1\nvalue = [0, 0, 1, 0, 0]\nclass = 20-30", fillcolor="#39e5c5"] ;
196 -> 198 ;
199 [label="gini = 0.0\nsamples = 1\nvalue = [0, 0, 0, 0, 1]\nclass = -20", fillcolor="#e539c0"] ;
191 -> 199 ;
200 [label="gini = 0.0\nsamples = 3\nvalue = [0, 0, 0, 3, 0]\nclass = 50+", fillcolor="#3c39e5"] ;
164 -> 200 ;
201 [label="HEB <= 60.75\ngini = 0.5\nsamples = 4\nvalue = [0, 2, 0, 0, 2]\nclass = 30-40", fillcolor="#ffffff"] ;
163 -> 201 ;
202 [label="gini = 0.0\nsamples = 2\nvalue = [0, 2, 0, 0, 0]\nclass = 30-40", fillcolor="#7be539"] ;
201 -> 202 ;
203 [label="gini = 0.0\nsamples = 2\nvalue = [0, 0, 0, 0, 2]\nclass = -20", fillcolor="#e539c0"] ;
201 -> 203 ;
204 [label="HMLD <= 22.43\ngini = 0.656\nsamples = 35\nvalue = [2, 14, 5, 14, 0]\nclass = 30-40", fillcolor="#ffffff"] ;
162 -> 204 ;
205 [label="HML <= 324.5\ngini = 0.551\nsamples = 15\nvalue = [0, 4, 2, 9, 0]\nclass = 50+", fillcolor="#a6a5f3"] ;
204 -> 205 ;
206 [label="HHD <= 46.07\ngini = 0.219\nsamples = 8\nvalue = [0, 1, 0, 7, 0]\nclass = 50+", fillcolor="#5855e9"] ;
205 -> 206 ;
207 [label="gini = 0.0\nsamples = 5\nvalue = [0, 0, 0, 5, 0]\nclass = 50+", fillcolor="#3c39e5"] ;
206 -> 207 ;
208 [label="HEB <= 61.5\ngini = 0.444\nsamples = 3\nvalue = [0, 1, 0, 2, 0]\nclass = 50+", fillcolor="#9e9cf2"] ;
206 -> 208 ;
209 [label="gini = 0.0\nsamples = 1\nvalue = [0, 1, 0, 0, 0]\nclass = 30-40", fillcolor="#7be539"] ;
208 -> 209 ;
210 [label="gini = 0.0\nsamples = 2\nvalue = [0, 0, 0, 2, 0]\nclass = 50+", fillcolor="#3c39e5"] ;
208 -> 210 ;
211 [label="HML <= 340.0\ngini = 0.653\nsamples = 7\nvalue = [0, 3, 2, 2, 0]\nclass = 30-40", fillcolor="#e5fad7"] ;
205 -> 211 ;
212 [label="HEB <= 58.75\ngini = 0.48\nsamples = 5\nvalue = [0, 3, 2, 0, 0]\nclass = 30-40", fillcolor="#d3f6bd"] ;
211 -> 212 ;
213 [label="gini = 0.0\nsamples = 1\nvalue = [0, 0, 1, 0, 0]\nclass = 20-30", fillcolor="#39e5c5"] ;
212 -> 213 ;
214 [label="HEB <= 65.25\ngini = 0.375\nsamples = 4\nvalue = [0, 3, 1, 0, 0]\nclass = 30-40", fillcolor="#a7ee7b"] ;
212 -> 214 ;
215 [label="gini = 0.0\nsamples = 3\nvalue = [0, 3, 0, 0, 0]\nclass = 30-40", fillcolor="#7be539"] ;
214 -> 215 ;
216 [label="gini = 0.0\nsamples = 1\nvalue = [0, 0, 1, 0, 0]\nclass = 20-30", fillcolor="#39e5c5"] ;
214 -> 216 ;
217 [label="gini = 0.0\nsamples = 2\nvalue = [0, 0, 0, 2, 0]\nclass = 50+", fillcolor="#3c39e5"] ;
211 -> 217 ;
218 [label="HEB <= 59.25\ngini = 0.655\nsamples = 20\nvalue = [2, 10, 3, 5, 0]\nclass = 30-40", fillcolor="#d3f6bd"] ;
204 -> 218 ;
219 [label="gini = 0.0\nsamples = 5\nvalue = [0, 5, 0, 0, 0]\nclass = 30-40", fillcolor="#7be539"] ;
218 -> 219 ;
220 [label="HML <= 303.5\ngini = 0.72\nsamples = 15\nvalue = [2, 5, 3, 5, 0]\nclass = 30-40", fillcolor="#ffffff"] ;
218 -> 220 ;
221 [label="gini = 0.0\nsamples = 2\nvalue = [2, 0, 0, 0, 0]\nclass = 40-50", fillcolor="#e58139"] ;
220 -> 221 ;
222 [label="HMLD <= 23.26\ngini = 0.651\nsamples = 13\nvalue = [0, 5, 3, 5, 0]\nclass = 30-40", fillcolor="#ffffff"] ;
220 -> 222 ;
223 [label="gini = 0.0\nsamples = 2\nvalue = [0, 0, 0, 2, 0]\nclass = 50+", fillcolor="#3c39e5"] ;
222 -> 223 ;
224 [label="HMLD <= 25.51\ngini = 0.645\nsamples = 11\nvalue = [0, 5, 3, 3, 0]\nclass = 30-40", fillcolor="#def8ce"] ;
222 -> 224 ;
225 [label="HHD <= 47.17\ngini = 0.667\nsamples = 9\nvalue = [0, 3, 3, 3, 0]\nclass = 30-40", fillcolor="#ffffff"] ;
224 -> 225 ;
226 [label="HEB <= 61.5\ngini = 0.5\nsamples = 4\nvalue = [0, 0, 2, 2, 0]\nclass = 20-30", fillcolor="#ffffff"] ;
225 -> 226 ;
227 [label="gini = 0.0\nsamples = 1\nvalue = [0, 0, 0, 1, 0]\nclass = 50+", fillcolor="#3c39e5"] ;
226 -> 227 ;
228 [label="HMLD <= 23.535\ngini = 0.444\nsamples = 3\nvalue = [0, 0, 2, 1, 0]\nclass = 20-30", fillcolor="#9cf2e2"] ;
226 -> 228 ;
229 [label="gini = 0.0\nsamples = 1\nvalue = [0, 0, 0, 1, 0]\nclass = 50+", fillcolor="#3c39e5"] ;
228 -> 229 ;
230 [label="gini = 0.0\nsamples = 2\nvalue = [0, 0, 2, 0, 0]\nclass = 20-30", fillcolor="#39e5c5"] ;
228 -> 230 ;
231 [label="HMLD <= 24.955\ngini = 0.56\nsamples = 5\nvalue = [0, 3, 1, 1, 0]\nclass = 30-40", fillcolor="#bdf29c"] ;
225 -> 231 ;
232 [label="HEB <= 69.25\ngini = 0.375\nsamples = 4\nvalue = [0, 3, 0, 1, 0]\nclass = 30-40", fillcolor="#a7ee7b"] ;
231 -> 232 ;
233 [label="gini = 0.0\nsamples = 3\nvalue = [0, 3, 0, 0, 0]\nclass = 30-40", fillcolor="#7be539"] ;
232 -> 233 ;
234 [label="gini = 0.0\nsamples = 1\nvalue = [0, 0, 0, 1, 0]\nclass = 50+", fillcolor="#3c39e5"] ;
232 -> 234 ;
235 [label="gini = 0.0\nsamples = 1\nvalue = [0, 0, 1, 0, 0]\nclass = 20-30", fillcolor="#39e5c5"] ;
231 -> 235 ;
236 [label="gini = 0.0\nsamples = 2\nvalue = [0, 2, 0, 0, 0]\nclass = 30-40", fillcolor="#7be539"] ;
224 -> 236 ;
237 [label="gini = 0.0\nsamples = 2\nvalue = [0, 0, 0, 0, 2]\nclass = -20", fillcolor="#e539c0"] ;
161 -> 237 ;
238 [label="gini = 0.0\nsamples = 4\nvalue = [0, 0, 4, 0, 0]\nclass = 20-30", fillcolor="#39e5c5"] ;
148 -> 238 ;
}